tree
version=v3
num_class=1
num_tree_per_iteration=1
label_index=0
max_feature_idx=21
objective=regression
feature_names=Column_0 Column_1 Column_2 Column_3 Column_4 Column_5 Column_6 Column_7 Column_8 Column_9 Column_10 Column_11 Column_12 Column_13 Column_14 Column_15 Column_16 Column_17 Column_18 Column_19 Column_20 Column_21
feature_infos=[-0.58496250072115641:1.5849625007211563] [-25.248912418052441:2.8814043831167151] [-3.4696679248015214:25.275676834914062] [-1.4627090229224107:10.195982237753583] [-3.8808861920341706:8.228870322266177] [-3.3286451817986502:5.8961276565798384] [-3.3030650159285595:5.8365755413379112] [-2.326347865140169:2.5902984580730344] [0:1] [0:1] [0:1] [0:1] [0:1] [0:1] [0:1] [0:1] [0:1] [0:1] none [0:1] [0:1] [0:1]
tree_sizes=8708 8708 8717 8733 8751 8775 8707 8817 8696 8659 8754 8786 8715 8800 8828 8778 8751 8770 8723 8856 8946 8711 8831 8901 8800 8812 8725 8920 8873 8830 8949 8968 8914 8804 8854 8961 8963 8914 9005 8906 9007 8972 8992 8971 9129 9084 9077 9040 9164 9039 9102 9028 9057 9077 9186 9080 9154 9178 9239 9128 9206 9150 9225 9183 9346 9137 9060 9127 9243 9220 9253 9072 9108 9087 9285 9137 9255 9255 9180 9415 9427 9222 9181 9354 9335 9191 9335 9251 9417 9220 9300 9407 9474 9373 9258 9117 9193 9353 9481 9383 9486 9516 9319 9534 9261 9602 9250 9304 9197 9297 9349 9320 9550 9254 9436 9455 9510 9555 9368 9543 9462 9369 9383 9364 9388 9417 9437 9404 9497 9252 9437 9502 9452 9485 9529 9389 9479 9465 9421 9496 9340 9274 9564 9380 9435 9412 9462 9573 9523 9616 9609 9547 9520 9546 9560 9456 9435 9564 9542 9514 9454 9547 9413 9498 9534 9388 9647 9485 9392 9313 9479 9609 9390 9332 9579 9667 9733 9490 9601 9489 9528 9513 9602 9712 9635 9661 9611 9712 9536 9510 9601 9675 9331 9701 9532 9676 9641 9491 9813 9590 9722 9632 9516 9607 9729 9664 9638 9611 9684 9708 9550 9816 9617 9646 9693 9718 9627 9706 9524 9673 9715 9640 9579 9630 9763 9516 9679 9633 9650

Tree=0
num_leaves=95
num_cat=0
split_feature=7 7 7 5 6 4 6 7 7 7 7 6 2 6 5 0 5 7 7 5 2 7 6 7 3 5 0 2 4 6 7 1 1 0 5 2 6 0 6 6 2 1 1 7 1 6 0 6 7 8 19 5 3 0 0 2 7 7 7 3 4 1 4 0 5 0 7 5 1 2 4 5 6 5 8 4 7 3 5 0 1 1 6 4 3 2 2 2 7 19 1 4 0 9
split_gain=3211.74 731.511 361.016 165.016 104.256 86.8116 84.0367 80.5079 62.048 54.7715 52.8437 36.7764 23.8909 22.6852 19.4468 19.1725 19.4933 18.7409 18.7245 18.203 17.8065 17.78 16.7559 14.8145 14.3954 12.8051 12.0885 12.0414 11.8695 11.5591 10.9332 10.3927 9.8872 9.68204 9.51015 9.39578 9.64057 8.59056 8.39301 8.00473 8.71259 7.88784 7.64645 7.13042 6.24147 8.02555 6.18583 5.88664 5.8501 5.71877 5.66827 5.48061 5.42555 5.35952 4.97791 4.78367 4.4556 4.35136 4.3326 4.32653 4.32007 4.44173 4.26303 4.23661 4.23505 4.19807 4.11441 3.85816 3.83568 3.79151 3.75842 3.66535 3.63136 3.60448 3.58862 3.55721 3.53318 4.80018 3.49732 3.42 3.60266 3.35978 3.41067 3.29054 3.23087 4.52401 3.18561 3.18408 3.12946 3.08933 4.61813 3.08062 3.07324 3.91633
threshold=0.24138863973992919 -0.27452386851427152 0.75273368542341679 -1.0980507513708566 0.3966745054887364 0.98892133140689276 0.18717576288121526 -0.026346921046254919 -1.0162991199300253 0.41037609674151881 1.1086205424598681 0.4239845671902992 0.75806545277904458 0.35610280357291085 -0.39679630209784772 -1.0000000180025095e-35 -1.0980507513708566 -0.6311123288367001 -0.54337499138766165 1.1043671090835778 -0.15331638590313093 -0.59516140279211449 0.19882246242413082 -0.090251632744107371 2.2963033953937355 -0.40766408141873328 -1.0000000180025095e-35 0.012035437436504226 -1.3553969551355725 0.099216659364178963 0.83993122022144573 -1.0459450279921689 -1.0581897794921298 -1.0000000180025095e-35 -0.90133071686658717 0.38960847668467469 -1.3539172219125148 1.0000000180025095e-35 -0.89210220608549806 -1.879311714623058 0.74176848693754283 -0.331677309542806 0.76621134466583973 -0.89952640684440288 0.22302834610129321 -1.5612269472897475 1.0000000180025095e-35 -0.57832021838218051 -0.89952640684440288 1.0000000180025095e-35 1.0000000180025095e-35 0.19063022811999894 1.6139793839554371 -1.0000000180025095e-35 1.0000000180025095e-35 -0.87507028655645913 0.97294096742351843 0.90910214000967648 0.65736962985192238 0.75846053632114485 -1.28756884955327 -0.23560753621320349 0.90255729558636022 1.0000000180025095e-35 -1.6997236880682718 -1.0000000180025095e-35 -0.13528130431204144 -1.9085438908368551 0.30276555055359305 -0.24088034630691349 0.14631082229622636 -1.6997236880682718 -0.1303924518303648 -1.4660177010625997 1.0000000180025095e-35 1.2266847476679332 -1.1101121282439015 -0.19768716713492387 0.87494307042376496 1.0000000180025095e-35 -0.025007174774796685 0.29381574015584938 -0.35062367093981878 -0.012975559078130224 0.43183559559363111 0.31455204585280766 0.53569660163839472 -1.0917035420692713 -0.35341416272567416 1.0000000180025095e-35 -0.64083412198315726 -0.017616690866108221 -1.0000000180025095e-35 1.0000000180025095e-35
decision_type=2 2 2 2 2 2 2 2 2 2 2 2 2 2 2 2 2 2 2 2 2 2 2 2 2 2 2 2 2 2 2 2 2 2 2 2 2 2 2 2 2 2 2 2 2 2 2 2 2 2 2 2 2 2 2 2 2 2 2 2 2 2 2 2 2 2 2 2 2 2 2 2 2 2 2 2 2 2 2 2 2 2 2 2 2 2 2 2 2 2 2 2 2 2
left_child=1 5 9 30 7 6 18 15 51 22 13 14 20 38 32 16 66 53 27 23 46 48 25 84 78 41 -27 43 -13 91 71 -22 -11 -25 -20 36 70 -16 83 -29 67 -2 -39 69 -36 -46 92 -14 50 55 -8 -7 59 72 -32 -24 -15 -40 -44 88 61 -35 65 64 -34 81 -3 -41 74 -1 -17 -4 -10 -69 -28 -18 77 -75 -23 -49 -81 82 -33 -5 -6 -86 -66 -50 -19 -67 -91 -12 93 -9
right_child=2 4 3 10 19 8 21 12 17 11 29 28 47 56 37 35 75 52 34 -21 31 24 49 33 -26 26 68 39 -30 -31 54 62 63 60 44 -37 -38 42 57 40 -42 -43 58 -45 45 -47 -48 79 87 -51 -52 -53 -54 -55 -56 -57 -58 -59 -60 -61 -62 -63 -64 -65 86 89 -68 73 -70 -71 -72 -73 -74 76 -76 -77 -78 -79 -80 80 -82 -83 -84 -85 85 -87 -88 -89 -90 90 -92 -93 -94 -95
leaf_value=-0.075921025447794971 0.031221620970205463 -0.00059642750313423378 0.091348271860796512 0.096858161583972618 -0.048018914632746754 -0.094057066420606808 -0.088550168845963451 -0.038613481929152385 -0.066044368492947883 0.011761722944260014 0.073255357363378182 0.026783997215856854 -0.025766410734338076 0.032802090072681422 0.02124921627752565 0.038783885542274917 -0.028208325023036759 -0.047614283291385735 -0.0037122909943541086 -0.088023654046405525 -0.010461056272582444 -0.04901766652209541 -0.040709649272510584 -0.046109619560588573 -0.0072498050815284557 -0.028840571614850735 -0.0050175613834075551 -0.059421337178791396 0.0049937765625523451 0.062363725575945016 0.078479328118726738 0.031023009475730459 0.069354923046877806 0.0018556556121074978 -0.042811976486370612 -0.023418576472399845 -0.0066320127266442253 0.03346493164440164 0.048382289168157212 -0.0073534520506850611 -0.062418870385569841 0.074246288263206353 0.043934535046622529 -0.039978550650220955 0.011860350993524818 -0.025912185222158008 0.013233186496174165 -0.01053363647533012 -0.039504138204206202 0.0088268465850510468 -0.051920366778152933 -0.13279519947643001 -0.080528700970360814 -0.047436114694314885 0.10439018466430897 -0.0038041494556125318 0.046379082170998877 0.065705059071885188 0.064950219764619718 -0.012306163563894584 -0.020418023057158927 -0.021428039186853435 -0.0029594724061742204 0.068087643029249426 0.019620366967966981 0.022751481285749962 0.037576709585948116 -0.035111823002038564 0.023160619511889143 -0.051348976891071957 0.00015342501526159744 0.07681903442871249 -0.088884398316721874 -0.026559416726917379 0.019648529852182493 -0.052626291414970335 -0.027434166213413099 0.012247011638930268 -0.075819497899041674 -0.0014109599154020413 0.033720882661393108 -0.013127175849411437 0.0017510683810346593 0.066351471586940186 -0.029051983311079516 -0.056892634398606243 0.05058216427159061 -0.063235364828278212 -0.02963185088592446 -0.0024716078255994666 0.021826243008743862 0.094423910497056743 0.00033582032707745374 -0.0044729811408637486
leaf_weight=20 59 24 83 10.999999999999998 51 105 43 11.999999999999998 207 10.999999999999998 23 402 45 247 75 17.000000000000004 220 146 52 11.999999999999998 34 191 9.9999999999999982 30 21 14.999999999999998 29 23 74 73 21 16.999999999999996 20 54 51 78 321 174 231 24 18 12.999999999999998 88 208 14.999999999999998 225 90 74 14.999999999999998 120 13.999999999999998 9.9999999999999982 9.9999999999999982 37 158 72 80 43 34 10.999999999999998 191 33 23 85 11.999999999999998 354 9.9999999999999982 109 117 73 9.9999999999999982 91 19 17 30 15.999999999999998 101 14.999999999999998 12.999999999999998 27 9.9999999999999982 15.999999999999998 24.000000000000004 45 103 17 27 245 29 33 48 68 223 28
leaf_count=20 59 24 83 11 51 105 43 12 207 11 23 402 45 247 75 17 220 146 52 12 34 191 10 30 21 15 29 23 74 73 21 17 20 54 51 78 321 174 231 24 18 13 88 208 15 225 90 74 15 120 14 10 10 37 158 72 80 43 34 11 191 33 23 85 12 354 10 109 117 73 10 91 19 17 30 16 101 15 13 27 10 16 24 45 103 17 27 245 29 33 48 68 223 28
internal_value=2.06356e-09 -0.0265949 0.0434219 0.0640867 -0.00683418 -0.0480574 -0.0417038 -0.00113335 -0.0645832 0.0268845 0.0517949 0.033466 0.00755498 0.0454571 0.0425784 -0.0143406 -0.0247644 -0.0563547 -0.0327485 -0.0271992 0.0106796 -0.0574171 0.0127024 -0.0256755 -0.0466679 0.0210206 0.0142468 -0.0380181 0.0233964 0.0771845 0.0926747 0.0163129 0.0574522 -0.0191235 -0.0234075 -0.00773395 -0.00421844 0.0363642 0.0547057 -0.0310507 -0.0287531 0.03899 0.0401941 -0.0451244 -0.026927 -0.0235514 0.00191861 -0.010512 -0.0650466 0.00187241 -0.0795534 -0.0974256 -0.0446513 -0.0650765 0.10135 -0.00830482 0.0361237 0.0511008 0.0497914 -0.0427225 -0.0162114 -0.00697609 0.0180805 0.0609424 0.0506485 0.019064 0.010631 -0.0264749 0.017919 -0.0566333 0.0244763 0.0837496 -0.0679645 -0.0283713 0.00752452 -0.0298638 -0.022847 -0.0083689 -0.0507256 -0.00432771 0.00808413 0.00630495 0.0138882 0.0723439 -0.0374766 -0.0329961 0.0410555 -0.0618663 -0.0446343 0.0207359 0.0119271 0.0890736 -0.0019533 -0.0147151
internal_weight=0 4312 2641 1174 2245 2067 1493 1754 574 1467 821 1002 1058 657 526 696 270 459 951 491 902 542 465 479 225 263 191 608 476 164 353 549 155 308 343 426 348 371 330 307 284 72 296 301 291 240 353 156 317 202 57 115 196 263 179 82 327 274 122 186 278 87 515 144 59 492 34 266 176 93 27 174 226 242 59 236 133 32 204 111 37 57 41 56 171 120 39 260 175 435 81 91 263 40
internal_count=6953 4312 2641 1174 2245 2067 1493 1754 574 1467 821 1002 1058 657 526 696 270 459 951 491 902 542 465 479 225 263 191 608 476 164 353 549 155 308 343 426 348 371 330 307 284 72 296 301 291 240 353 156 317 202 57 115 196 263 179 82 327 274 122 186 278 87 515 144 59 492 34 266 176 93 27 174 226 242 59 236 133 32 204 111 37 57 41 56 171 120 39 260 175 435 81 91 263 40
is_linear=0
shrinkage=1


Tree=1
num_leaves=95
num_cat=0
split_feature=7 7 7 5 6 4 6 7 7 7 7 6 5 6 6 5 7 7 6 7 0 5 5 5 0 3 1 2 2 4 6 7 6 1 0 5 7 0 6 6 2 1 6 7 6 1 5 4 7 5 1 5 3 5 0 0 6 7 7 4 7 3 19 0 5 4 6 7 6 15 0 5 5 19 2 7 4 5 7 3 5 2 5 4 2 0 0 4 1 2 2 4 1 5
split_gain=2899.7 611.655 368.296 149.046 94.4255 78.3474 75.8431 65.7288 64.6946 55.9983 47.7476 33.1907 20.8521 20.2295 18.4735 17.5507 16.9137 16.8988 16.5218 16.0465 15.8156 17.4119 14.6435 13.7547 15.8467 12.9918 11.1959 11.0344 10.8674 10.7123 10.6804 10.1185 8.96255 8.92319 8.82556 8.58291 7.79307 7.75298 7.58484 7.22427 7.86312 6.90092 6.464 6.43521 6.26385 5.6445 6.43508 5.56273 5.27971 5.26784 5.15778 4.94625 4.89656 4.87409 4.83697 4.504 4.41265 4.01698 4.01265 3.94534 3.91017 3.9047 3.892 3.82354 3.82214 3.76384 4.88721 3.71326 3.50842 4.17464 4.07809 3.48199 3.46201 3.42848 3.42184 3.3897 4.0338 3.25304 3.18869 4.33216 3.15633 2.99532 2.96966 2.95496 2.94831 2.93831 2.8918 2.88754 2.87809 2.87501 2.87363 2.8595 3.69911 2.83846
threshold=0.20921111469174231 -0.27452386851427152 0.75273368542341679 -1.0191749651556881 0.43525658172237075 0.98892133140689276 0.18717576288121526 -0.026346921046254919 0.41037609674151881 -1.0162991199300253 1.1086205424598681 0.4239845671902992 -1.4776482590281759 0.31947638510545801 0.19882246242413082 -0.39679630209784772 -0.6311123288367001 -0.54337499138766165 -0.94599745474393415 -0.59516140279211449 -1.0000000180025095e-35 -1.0980507513708566 1.1043671090835778 -0.40766408141873328 -1.0000000180025095e-35 2.2963033953937355 0.69795770215589858 0.44419786863170474 0.012035437436504226 -1.3553969551355725 0.099216659364178963 1.0256889941597087 -1.3539172219125148 -1.0581897794921298 -1.0000000180025095e-35 -0.90133071686658717 -0.090251632744107371 1.0000000180025095e-35 -0.89210220608549806 -1.879311714623058 0.74176848693754283 0.76621134466583973 -0.69213497273332814 -0.89952640684440288 -0.26965413424403645 0.20833840993145911 -0.39679630209784772 -1.3553969551355725 -0.89952640684440288 -1.6997236880682718 -0.025007174774796685 0.19063022811999894 1.6139793839554371 0.28028468668154727 -1.0000000180025095e-35 1.0000000180025095e-35 0.56301556129151298 0.90910214000967648 0.97294096742351843 -0.58751298709754496 0.65736962985192238 0.75846053632114485 1.0000000180025095e-35 1.0000000180025095e-35 -1.6997236880682718 1.0234507861747568 -0.093334119403990598 -0.13528130431204144 0.13863207634862465 1.0000000180025095e-35 -1.0000000180025095e-35 -1.9085438908368551 -0.39679630209784772 1.0000000180025095e-35 -0.24088034630691349 -0.75108847134507106 1.1075377341837418 -1.4660177010625997 -1.1101121282439015 -0.19768716713492387 0.87494307042376496 0.38960847668467469 -0.37425249692766255 -0.012975559078130224 0.19591944055488197 1.0000000180025095e-35 -1.0000000180025095e-35 1.2266847476679332 -0.58539969551503501 0.53569660163839472 -1.0917035420692713 0.65274120213281839 1.2760689887719312 -0.50401900814601819
decision_type=2 2 2 2 2 2 2 2 2 2 2 2 2 2 2 2 2 2 2 2 2 2 2 2 2 2 2 2 2 2 2 2 2 2 2 2 2 2 2 2 2 2 2 2 2 2 2 2 2 2 2 2 2 2 2 2 2 2 2 2 2 2 2 2 2 2 2 2 2 2 2 2 2 2 2 2 2 2 2 2 2 2 2 2 2 2 2 2 2 2 2 2 2 2
left_child=1 5 8 31 7 6 17 20 14 51 13 15 88 38 23 33 54 28 82 48 21 67 34 44 -25 80 42 32 43 -13 -12 49 72 -10 84 -19 -36 -17 83 -30 71 -39 -20 74 -2 -37 -47 53 50 85 62 -7 61 -16 75 -26 -49 73 -15 -23 -43 -18 -8 64 -35 -57 -67 -3 69 70 -44 -41 -22 -40 -1 -11 -77 -73 79 -79 -21 -70 93 -5 -6 -4 -48 -61 -9 -66 -50 -34 -93 -14
right_child=2 4 3 10 22 9 19 12 11 16 30 29 18 58 47 37 52 35 26 25 27 59 -24 24 55 -27 -28 -29 39 -31 -32 -33 91 63 36 45 -38 41 57 40 -42 60 68 -45 -46 46 86 56 90 -51 -52 -53 -54 -55 -56 65 -58 -59 -60 87 -62 -63 -64 -65 89 66 -68 -69 81 -71 -72 77 -74 -75 -76 76 -78 78 -80 -81 -82 -83 -84 -85 -86 -87 -88 -89 -90 -91 -92 92 -94 -95
leaf_value=-0.072124975174665457 0.055543700691599113 -0.00056660823368777835 0.070951845584546813 0.092015250162644835 -0.040906696194516763 -0.089354214341867536 -0.074939077844222393 0.015910380444767183 0.011173634921115908 -0.068415158435150433 0.084619933751585719 0.025444795116921194 0.014292571805417535 0.031200813757352147 0.041985383182764055 0.020186753340065481 -0.042402621909976013 -0.0035266785273471708 -0.028493594577802081 -0.046566785197627018 0.040505293783332612 0.0025740133703220638 -0.083622472981611892 -0.032855720362729497 0.0073441256333063257 -0.0068873165530108282 0.0093497907975688584 -0.025637945892742361 -0.056450273096561435 0.0047440855962073286 0.058846649501679671 0.10157229906568926 -0.0091256598586146286 0.065887175649404536 -0.034179685907796596 -0.041056164490933328 -0.018559632984840351 0.031791683774569944 0.047072560782983622 -0.0069857821411763625 -0.059297930366463136 0.041737805899571295 -0.021286464127926872 -0.037979625363368547 0.026803434775876146 0.016824894957244398 -0.027511080775190808 0.0007449433788185917 -0.037528933783372243 0.076069813169224176 -0.094546547193418859 -0.12615544259548189 -0.076502266824245463 0.0054977179291502889 -0.045064311016451669 0.027066737930484426 -0.018057805861346424 0.062419803960378786 0.044060125644318764 -0.027963392530078009 0.061702706336098562 -0.011690857058221643 -0.039023042140020565 0.06468325688558467 0.018639345901707807 0.018349585235118867 -0.021284862011671069 0.035697872545570136 -0.0078095507969766975 0.017819062334352306 -0.00041763739283890165 -0.033356233761398069 0.0046725467993662907 0.017113438807427883 -0.048781531013242188 -0.040129419057457538 -0.065547007552939601 -0.02523144779398161 -0.026062460075879451 0.011634658873081209 -0.072028525324108514 -0.03297273840468664 0.014186181089557385 0.063041522794149138 -0.07111552357673645 0.09335862023489816 -0.014896348776716379 -0.04999497951939702 0.028471834728445274 0.048053053683704799 -0.060073597627330805 0.0084683505335955752 -0.016582157779484987 0.050361381222804397
leaf_weight=20 26 24 17 10.999999999999998 42 105 24 114 10.999999999999998 162 91 402 10.000000000000002 251 9.9999999999999982 75 175 52 28 191 14.000000000000002 9.9999999999999982 11.999999999999998 18 94 21 185 74 23 74 72 96 265 20 130 49 207 174 212 24 18 88 26 208 70 9.9999999999999982 170 83 14.999999999999998 142 22 9.9999999999999982 9.9999999999999982 108 37 96 50 43 80 211 34 10.999999999999998 10.999999999999998 85 11.999999999999998 35 9.9999999999999982 9.9999999999999982 131 28 235 109 12.999999999999998 9.9999999999999982 73 27 37 17 101 14.999999999999998 12.999999999999998 12.999999999999998 138 44 9.9999999999999982 105 62 15.999999999999998 76 27 245 56 20 11.999999999999998
leaf_count=20 26 24 17 11 42 105 24 114 11 162 91 402 10 251 10 75 175 52 28 191 14 10 12 18 94 21 185 74 23 74 72 96 265 20 130 49 207 174 212 24 18 88 26 208 70 10 170 83 15 142 22 10 10 108 37 96 50 43 80 211 34 11 11 85 12 35 10 10 131 28 235 109 13 10 73 27 37 17 101 15 13 13 138 44 10 105 62 16 76 27 245 56 20 12
internal_value=0 -0.0263231 0.039608 0.0608823 -0.00738576 -0.0456545 -0.0396186 -0.00226217 0.0240174 -0.061354 0.0490346 0.0317927 0.00603427 0.0429751 0.0110328 0.0404495 -0.0535369 -0.031111 0.0025217 -0.0545462 -0.0138516 -0.0233619 -0.0292217 0.0184731 0.0123587 -0.0443345 -0.00104097 -0.0080206 -0.0361172 0.0222266 0.0732354 0.0876714 -0.00447798 0.0545796 -0.0275435 -0.0222372 -0.0245852 0.034546 0.0519393 -0.0294981 -0.0273154 0.0381844 -0.0052108 -0.0428682 0.0345873 -0.0255806 -0.0224471 0.00068744 -0.0617943 0.0826165 -0.0755757 -0.0925543 -0.0424188 0.00858989 -0.0618227 0.0158219 -0.00632376 0.0484323 0.0343088 -0.0281623 0.0473018 -0.0405863 -0.0636512 0.0578953 0.0481161 0.0214737 0.00954193 0.0100994 -0.00370521 -0.000528232 -0.00249652 -0.0251512 0.0232525 0.0457231 -0.0538016 -0.0645663 -0.054824 -0.0269527 -0.0217047 -0.00795046 -0.0481893 -0.0100812 0.016906 0.0688363 -0.0467161 0.0902364 -0.0241399 -0.0295163 0.020935 0.0390027 -0.0587729 -0.00667365 0.00187611 0.0339665
internal_weight=0 4177 2776 1174 2110 2067 1493 1709 1602 574 814 1002 996 651 600 526 459 951 806 542 713 271 401 349 253 225 646 442 608 476 163 360 368 155 389 343 337 371 320 307 284 296 461 301 96 291 242 251 317 264 57 115 196 118 263 235 133 265 331 237 122 186 35 144 59 141 45 34 433 289 261 266 27 222 93 226 64 242 133 32 204 144 160 55 52 122 232 227 190 39 260 341 76 22
internal_count=6953 4177 2776 1174 2110 2067 1493 1709 1602 574 814 1002 996 651 600 526 459 951 806 542 713 271 401 349 253 225 646 442 608 476 163 360 368 155 389 343 337 371 320 307 284 296 461 301 96 291 242 251 317 264 57 115 196 118 263 235 133 265 331 237 122 186 35 144 59 141 45 34 433 289 261 266 27 222 93 226 64 242 133 32 204 144 160 55 52 122 232 227 190 39 260 341 76 22
is_linear=0
shrinkage=0.05


Tree=2
num_leaves=95
num_cat=0
split_feature=7 7 7 5 6 4 6 7 7 7 7 6 2 1 5 0 5 7 7 5 2 7 6 7 3 5 5 6 7 0 4 5 1 2 2 7 6 6 1 6 2 6 7 6 2 2 3 6 5 8 4 1 5 7 5 3 0 7 7 0 2 0 0 1 1 1 7 3 19 6 7 3 6 4 6 0 1 5 0 1 7 3 7 7 1 0 4 0 7 5 5 4 1 6
split_gain=2617.41 595.418 293.712 134.769 85.1618 70.7086 68.4484 65.427 50.5385 44.3231 38.1795 29.9546 19.9422 18.0494 15.8395 15.6547 15.8808 15.6473 15.2646 14.8054 14.724 14.5925 13.6996 12.3227 11.5236 10.5957 10.5299 10.453 10.2939 9.73142 9.66782 8.05541 8.05318 7.66044 7.30264 7.17212 7.1273 6.80086 6.66801 6.59485 6.00014 5.764 5.73438 5.53118 5.5218 7.05404 5.45714 5.00276 4.92052 4.89727 4.70448 4.65489 4.53352 4.47661 4.46399 4.41915 4.36536 4.34247 4.30367 4.26152 4.24691 3.89047 3.88171 3.68949 3.63854 3.63346 3.5342 3.52399 3.51253 3.38124 3.35122 3.302 3.27296 3.26849 4.23154 3.22751 3.17265 5.15279 3.05395 3.20625 2.99826 2.96552 2.93914 2.91779 2.91692 4.21246 2.89627 2.86748 2.82434 2.76784 2.70221 2.61406 3.51167 2.60627
threshold=0.24138863973992919 -0.27452386851427152 0.75273368542341679 -0.84444481499296031 0.3966745054887364 0.98892133140689276 0.18717576288121526 -0.026346921046254919 -1.0162991199300253 0.41037609674151881 1.1086205424598681 0.4239845671902992 0.75806545277904458 0.098111032486369112 -0.39679630209784772 -1.0000000180025095e-35 -1.0980507513708566 -0.47418829527560608 -0.6311123288367001 1.1043671090835778 -0.38143601526606907 -0.5218180100272255 0.19882246242413082 0.1095346755611321 2.2963033953937355 -1.9085438908368551 -0.40766408141873328 0.28883193225961273 0.83993122022144573 -1.0000000180025095e-35 -1.3553969551355725 -1.5288669541196163 -1.0581897794921298 0.75806545277904458 -0.30210776826491731 0.64492414111357721 0.099216659364178963 -0.89210220608549806 -0.331677309542806 -0.55177135692135482 0.2837332921343601 -1.879311714623058 -0.89952640684440288 -1.2548268572132766 0.012035437436504226 0.74176848693754283 0.33786990563117852 -0.57832021838218051 -0.90133071686658717 1.0000000180025095e-35 0.14631082229622636 -0.025007174774796685 0.87494307042376496 -0.89952640684440288 0.19063022811999894 1.6139793839554371 -1.0000000180025095e-35 0.91626567165800843 0.91626567165800843 1.0000000180025095e-35 -0.87507028655645913 1.0000000180025095e-35 -1.0000000180025095e-35 -1.0459450279921689 0.2663286439673293 0.76621134466583973 0.55517368586544291 0.75846053632114485 1.0000000180025095e-35 -0.024679047775097981 -0.13528130431204144 1.2882367156880297 0.4239845671902992 1.0234507861747568 -0.14675552871869293 -1.0000000180025095e-35 0.22302834610129321 -0.28661073766971318 1.0000000180025095e-35 -0.025007174774796685 -0.89952640684440288 -0.10918686573860394 -0.064212436441081946 1.1940720653011043 0.28930835077802869 -1.0000000180025095e-35 1.2266847476679332 -1.0000000180025095e-35 -0.35341416272567416 -1.8016429108802481 0.7016255562578334 0.65274120213281839 1.2760689887719312 -0.40130497474983762
decision_type=2 2 2 2 2 2 2 2 2 2 2 2 2 2 2 2 2 2 2 2 2 2 2 2 2 2 2 2 2 2 2 2 2 2 2 2 2 2 2 2 2 2 2 2 2 2 2 2 2 2 2 2 2 2 2 2 2 2 2 2 2 2 2 2 2 2 2 2 2 2 2 2 2 2 2 2 2 2 2 2 2 2 2 2 2 2 2 2 2 2 2 2 2 2
left_child=1 5 9 27 7 6 17 15 54 22 13 14 20 57 32 16 70 25 56 23 -9 42 26 40 52 81 38 28 69 -28 -13 -22 -11 43 80 61 -12 -15 -2 84 46 -36 51 50 53 62 82 -14 -19 60 -17 68 -23 -43 -7 67 71 -5 -39 -30 -24 -16 -46 -41 -63 -37 -34 88 -8 -4 -3 -10 -48 -31 -75 -65 -50 -78 -49 -80 -27 -1 -6 -38 -33 -86 -18 -79 -20 -68 -67 -45 -93 -77
right_child=2 4 3 10 19 8 21 12 18 11 36 30 47 37 35 33 86 48 55 -21 31 24 49 -25 -26 34 29 -29 59 73 -32 39 66 -35 41 65 83 58 -40 63 -42 44 -44 91 45 -47 72 78 76 -51 -52 -53 -54 -55 -56 -57 -58 -59 -60 -61 -62 64 -64 75 -66 90 89 -69 -70 -71 -72 -73 -74 74 -76 93 77 87 79 -81 -82 -83 -84 -85 85 -87 -88 -89 -90 -91 -92 92 -94 -95
leaf_value=0.01420811873215895 0.028198585523513415 -0.00053827765320117282 0.080299001876099979 0.029154427925578687 -0.043503802778272364 -0.084886504596187962 -0.071192125665644798 -0.0038419712508424931 -0.060037605574837442 0.010614953088489447 0.078577412810267477 0.024172555632884639 -0.023764747177354165 0.066395723103892565 0.019253305352391829 0.02959131183368819 -0.025462203817759557 0.00013218939304351807 -0.043113439380867431 -0.079441350201765695 0.022491216760962926 -0.041279119976303159 -0.038218625262379652 -0.0092634456362301384 0.0010294108185917139 -0.068635148686521194 -0.025755759129921597 0.031638159779831768 0.070266314489500867 0.020852874595827114 0.0045068816923712557 0.03037315359753039 0.043922859663143757 -0.023524184251825016 -0.054322715799013779 0.036744900701870753 0.041742438259957867 0.043497886599791126 0.067756787171730629 -0.0095726880957098578 -0.046342044438307105 -0.047191790209494926 -0.054595415275428598 -0.0085306173541950647 -0.026399495165488469 -0.054931947305088949 5.833528497639825e-05 -0.0098654060964346747 -0.034595122521645143 0.0081676057807635507 -0.0086809374105471845 -0.089819219572977588 -0.076160578131675719 -0.033012144388899642 -0.11984766930341723 -0.072677155435085294 -0.042811094536571892 0.041243024263530971 0.062242206268840361 0.094133163108463189 -0.0034452302531766087 0.02038685571169481 -0.0017206497490406037 -0.0083032332328629912 0.035946017404684442 0.067716377973556521 0.08026825904846191 -0.011106314306909388 -0.037071890053762629 0.066314555704593658 0.033912978097796441 -0.089426694512367247 -0.022803056810164091 0.013401609697294507 -0.02009463648622235 -0.0054686172335225696 0.016176691241562367 -0.024807615411062276 -0.0012296536523434853 0.031913044601678847 -0.044199939722117665 -0.018419264368712902 -0.02684028044342995 0.063805266976990599 -0.010610652594671895 0.017298958349945773 -0.04749522907659412 -0.010623598977923393 -0.026030129040109703 0.056885898113250732 0.036780431717634197 0.0080449332884329899 -0.019195651859045031 0.010493522856258236
leaf_weight=13.000000000000002 59 24 113 238 51 105 24 165 216 10.999999999999998 82 402 45 51 73 21 220 30 146 11.999999999999998 163 136 9.9999999999999982 119 15.999999999999998 17 14.999999999999998 9.9999999999999982 21 120 74 36 48 60 30 43 22 205 12.999999999999998 34 39 76 323 261 254 21 17 74 38 120 12.999999999999998 22 9.9999999999999982 208 9.9999999999999982 9.9999999999999982 37 108 36 171 72 48 17 29 173 24 14.999999999999998 10.999999999999998 10.999999999999998 70 9.9999999999999982 9.9999999999999982 198 44 11.999999999999998 28 9.9999999999999982 124 27 9.9999999999999982 48 14.999999999999998 55 47 14.999999999999998 137 15.999999999999998 50 29 81 9.9999999999999982 56 14.999999999999998 295
leaf_count=13 59 24 113 238 51 105 24 165 216 11 82 402 45 51 73 21 220 30 146 12 163 136 10 119 16 17 15 10 21 120 74 36 48 60 30 43 22 205 13 34 39 76 323 261 254 21 17 74 38 120 13 22 10 208 10 10 37 108 36 171 72 48 17 29 173 24 15 11 11 70 10 10 198 44 12 28 10 124 27 10 48 15 55 47 15 137 16 50 29 81 10 56 15 295
internal_value=0 -0.0240085 0.039199 0.0578382 -0.00618042 -0.0433718 -0.0376377 -0.00102802 -0.0582863 0.0242825 0.0460044 0.0302031 0.0068044 0.0406536 0.038427 -0.0129342 -0.0223533 -0.0295555 -0.0508601 -0.0245864 0.00965918 -0.0518189 0.0115247 -0.0232121 -0.0392537 -0.0334064 0.019046 0.0820897 0.0834351 0.0129034 0.0211153 0.0126818 0.0518506 -0.00696431 -0.0346639 0.0328187 0.0686128 0.0498081 0.035341 0.00989623 -0.027823 -0.0329556 -0.0571756 -0.00424957 -0.0318427 -0.0270147 -0.025573 -0.00970208 -0.0188738 0.00173203 0.0149578 -0.0717969 -0.0436683 -0.0368067 -0.0879266 -0.0402978 -0.0587316 0.0329277 0.0462979 0.0915227 -0.00768589 0.029261 -0.0248514 0.00615597 0.0325667 0.046403 0.0550005 -0.038557 -0.0604686 0.0749498 0.00959444 -0.061338 -0.0209954 0.0161982 0.00622384 0.00767521 -0.0214422 -0.0187259 -0.00400099 0.00772783 -0.0505907 -0.00327084 -0.0348576 0.0567707 0.0175757 0.0145447 -0.026956 -0.0207317 -0.0402825 0.0605394 0.0586176 -0.0062166 0.00228988 0.00910981
internal_weight=0 4312 2641 1174 2245 2067 1493 1754 574 1467 789 1002 1058 638 526 696 270 951 459 491 902 542 465 479 162 699 263 385 375 191 476 737 155 426 671 371 151 292 72 574 360 606 380 366 576 292 321 156 252 202 34 57 146 284 115 196 263 346 241 192 82 294 271 386 221 77 144 186 35 183 34 226 215 176 56 352 222 184 111 37 65 28 106 69 188 152 236 174 175 96 34 332 71 323
internal_count=6953 4312 2641 1174 2245 2067 1493 1754 574 1467 789 1002 1058 638 526 696 270 951 459 491 902 542 465 479 162 699 263 385 375 191 476 737 155 426 671 371 151 292 72 574 360 606 380 366 576 292 321 156 252 202 34 57 146 284 115 196 263 346 241 192 82 294 271 386 221 77 144 186 35 183 34 226 215 176 56 352 222 184 111 37 65 28 106 69 188 152 236 174 175 96 34 332 71 323
is_linear=0
shrinkage=0.05


Tree=3
num_leaves=95
num_cat=0
split_feature=7 7 7 5 6 7 7 4 7 7 6 6 6 4 5 1 7 6 6 5 0 5 5 5 0 2 7 4 6 7 1 2 1 2 0 4 6 5 7 7 4 6 6 0 6 6 0 4 6 5 5 2 7 12 1 6 1 7 1 0 7 7 1 6 6 0 8 6 0 3 5 1 19 4 6 0 9 6 15 7 2 5 3 5 1 1 1 7 2 2 3 0 3 2
split_gain=2363.21 497.798 299.65 121.629 77.0386 64.2687 53.4112 52.7949 52.4207 34.457 28.8382 27.0943 25.9972 20.6583 17.0347 16.2895 16.0341 15.1047 13.6032 13.5405 12.8645 14.1745 11.9125 11.2507 13.1749 10.1929 10.4783 9.50119 9.43379 9.51293 9.29461 9.05921 8.39494 7.94575 7.79783 7.42384 7.35417 6.86135 6.57368 6.55236 6.43574 6.43238 6.13777 5.8219 5.36996 5.19642 5.02563 4.89054 5.39889 4.78354 4.42894 4.36839 4.27426 4.22506 4.12794 4.02192 4.91859 3.9809 4.76663 3.96505 3.91907 3.88406 3.67095 3.65438 4.52465 3.8883 3.75608 3.6482 3.43078 3.33679 3.21064 3.89536 3.17006 3.1464 4.17554 3.14311 3.62071 3.23878 4.11543 3.02447 3.00524 2.91016 2.84269 2.79296 3.23124 6.34087 2.7612 2.6333 2.61171 2.7215 2.56419 2.54972 2.54576 2.53727
threshold=0.20921111469174231 -0.27452386851427152 0.75273368542341679 -0.84444481499296031 0.43525658172237075 -0.75108847134507106 -0.026346921046254919 0.99898404330952206 0.41037609674151881 1.1086205424598681 0.17910283779409722 0.45096214105332882 0.48629745447807921 1.0637670000768016 -1.4776482590281759 0.098111032486369112 -1.0162991199300253 0.19882246242413082 -0.94599745474393415 -0.39679630209784772 -1.0000000180025095e-35 -1.0980507513708566 1.1043671090835778 -0.40766408141873328 -1.0000000180025095e-35 -0.45639728971694948 -0.48173260016314046 -1.3553969551355725 0.28883193225961273 1.0256889941597087 0.69795770215589858 0.38960847668467469 -1.0581897794921298 -1.0000000180025095e-35 -1.0000000180025095e-35 -1.4910747804649234 -1.3539172219125148 -1.3201498035334847 -0.090251632744107371 0.72003588154761167 0.35425636031557661 0.099216659364178963 -0.89210220608549806 -1.0000000180025095e-35 -0.69213497273332814 -0.26965413424403645 1.0000000180025095e-35 -1.28756884955327 0.66128088611837421 -1.6997236880682718 0.28028468668154727 0.84202231919635862 -0.5218180100272255 1.0000000180025095e-35 0.22302834610129321 -1.0913618026270002 -0.45869280676563257 -0.89952640684440288 -0.1437653573689347 1.0000000180025095e-35 0.91626567165800843 0.91626567165800843 -0.97641540428401841 0.88618655873846486 0.83918325575368258 -1.0000000180025095e-35 1.0000000180025095e-35 0.20844448215949157 1.0000000180025095e-35 -0.37772891057333424 -0.84444481499296031 -0.66647313030225364 1.0000000180025095e-35 0.95134849999335225 -0.093334119403990598 -1.0000000180025095e-35 1.0000000180025095e-35 0.13863207634862465 1.0000000180025095e-35 -0.13528130431204144 0.38960847668467469 -0.39679630209784772 0.8476977446630144 -1.5745233843305895 0.22302834610129321 0.31298746696641122 0.17773770264336508 1.1940720653011043 -0.28727361646605659 -0.011322189863218033 1.3282037309619272 1.0000000180025095e-35 0.23473234771972759 0.19591944055488197
decision_type=2 2 2 2 2 2 2 2 2 2 2 2 2 2 2 2 2 2 2 2 2 2 2 2 2 2 2 2 2 2 2 2 2 2 2 2 2 2 2 2 2 2 2 2 2 2 2 2 2 2 2 2 2 2 2 2 2 2 2 2 2 2 2 2 2 2 2 2 2 2 2 2 2 2 2 2 2 2 2 2 2 2 2 2 2 2 2 2 2 2 2 2 2 2
left_child=1 5 8 28 6 7 20 10 17 15 33 19 13 25 -8 60 51 23 -16 32 21 79 34 45 -25 -7 37 -13 29 49 44 36 -10 88 93 -14 81 -27 -36 46 53 -11 -17 82 -20 -2 -21 50 -49 91 -19 -9 86 -35 -48 -42 70 58 72 -26 -5 -44 -28 64 65 66 -37 -23 69 -34 71 -57 -12 -61 -75 76 -46 78 -77 -3 92 -22 -18 -64 -85 -86 -15 -43 -1 -90 -38 -4 -79 -6
right_child=2 4 3 9 22 12 14 16 11 41 57 27 35 52 18 42 43 47 30 39 31 67 -24 24 59 26 62 -29 -30 -31 -32 -33 68 40 38 63 90 -39 -40 -41 55 87 61 -45 75 -47 54 48 -50 -51 -52 -53 -54 -55 -56 56 -58 -59 -60 73 -62 -63 83 -65 -66 -67 -68 -69 -70 -71 -72 -73 -74 74 -76 77 -78 80 -80 -81 -82 -83 -84 84 85 -87 -88 -89 89 -91 -92 -93 -94 -95
leaf_value=-0.056306366893378174 0.050394808300412625 -0.00051136384524094562 0.063619103710002761 0.027696706850019071 -0.037521721176537022 -0.042386315762996674 0.018895027700713593 -0.11373838701031425 0.012888571893175445 0.074648541557352718 -0.067632518957058588 0.022872930826685792 -0.01961358509619128 -0.044631894374446528 0.01530446254182607 0.063075935716430345 -0.060556886559479862 0.039710108339786533 -0.026000841879951105 0.017638536024217805 0.037137149859751965 -0.026709257883105905 -0.075469284504652026 -0.030023294407874348 0.0064070638170109148 -0.014710584863582078 0.0049816496915331019 0.0027787171471256602 0.030056250910274685 0.091949658630029213 0.008487135558955472 -0.022017555569376179 0.069358139634132385 -0.016165397306203203 -0.030920449988200118 -0.060809335423012582 -0.0050424995304830956 -0.032233670781762265 -0.016574393797233918 0.052084561744157015 -0.060923723379770915 0.039655315867540515 0.041322992233241485 -0.028664372142936503 -0.037737897618297635 0.024217685349285603 0.019370537549257279 -0.0025672100399337389 -0.035452681034803389 0.068190091057699562 0.0049812151717820337 -0.080589576137876054 -0.036713143184925745 -0.033748960671773937 0.035327372821831259 -0.0065874969959259042 -0.0019594146311283111 -0.053610498383892959 -0.08674681795680006 0.02520079927641776 0.039180872844601117 0.059130095649096708 0.0011510538558165233 -0.078094692121852535 -0.017300280556082726 -0.042591846982095477 -0.041029080236330631 0.0041489549633115536 0.058570409570495752 0.037718993246555331 -0.064242988282983957 -0.041972218781177489 -0.035218296081505042 0.016812560772523282 -0.019310212321579458 -0.00037497350589392036 -0.0073638188140466819 -0.013189914600368134 0.023817694069523561 0.032217330560088159 -0.031136609413302863 0.0042841622749200236 -0.088113168478012094 -0.029060640738856409 0.0075285226572304968 -0.01975098566294441 -0.061612432201703399 0.060615001666419061 -0.036450371745211839 -0.056883257776498802 -0.030752746984362603 0.084491711031822944 0.0018202919111770046 -0.065545734465122227
leaf_weight=33 26 24 17 238 42 83 190 10.999999999999998 14.999999999999998 82 24 399 22 62 160 51 146 9.9999999999999982 28 75 14.000000000000002 227 11.999999999999998 18 94 68 19 69 9.9999999999999982 106 185 84 9.9999999999999982 93 130 96 321 313 207 34 18 22 205 13.999999999999998 12.999999999999998 70 50 115 13.999999999999998 147 112 103 103 54 214 9.9999999999999982 9.9999999999999982 148 23 91 108 36 18 10.999999999999998 10.999999999999998 97 32 9.9999999999999982 86 50 10.999999999999998 35 10.999999999999998 40 9.9999999999999982 235 40 57 19 9.9999999999999982 12.999999999999998 12.999999999999998 9.9999999999999982 62 25 144 39 47 88 20 9.9999999999999982 105 56 9.9999999999999982
leaf_count=33 26 24 17 238 42 83 190 11 15 82 24 399 22 62 160 51 146 10 28 75 14 227 12 18 94 68 19 69 10 106 185 84 10 93 130 96 321 313 207 34 18 22 205 14 13 70 50 115 14 147 112 103 103 54 214 10 10 148 23 91 108 36 18 11 11 97 32 10 86 50 11 35 11 40 10 235 40 57 19 10 13 13 10 62 25 144 39 47 88 20 10 105 56 10
internal_value=0 -0.0237636 0.0357567 0.0549463 -0.00667949 -0.0412032 -0.00205159 -0.0516273 0.021694 0.0437042 -0.0429535 0.0286929 -0.0337463 -0.0298091 0.00542718 0.0386209 -0.0692802 0.0100058 0.00225238 0.03639 -0.0124988 -0.0210761 -0.0264029 0.0167336 0.0112036 -0.0258878 -0.0237778 0.0199103 0.0779853 0.0792634 -0.000980335 -0.00723989 0.0485088 -0.0346426 -0.0248893 -0.0474456 -0.0037725 -0.0291062 -0.0221085 0.0311591 -0.0289334 0.0651821 0.0473177 -0.0595514 -0.00477964 0.0313073 0.0290604 0.000651118 -0.00613618 0.0742643 0.00782785 -0.0837881 -0.04388 -0.0226247 0.0323052 -0.0399738 -0.0342601 -0.0579617 -0.0690648 0.0143614 0.0312814 0.043983 -0.0162027 -0.0499246 -0.0486116 -0.0501424 -0.0558643 -0.0254072 0.0521684 0.0429922 -0.0400281 -0.0341089 -0.0574452 0.0196643 0.00958801 -0.00340737 -0.0148141 -0.00181644 0.00143471 0.00911472 -0.00837035 0.021319 -0.0623233 -0.0178192 -0.0192974 -0.0157156 -0.0511887 0.0539322 -0.0439958 -0.0402342 -0.00581924 0.0815832 -0.00575123 -0.042911
internal_weight=0 4177 2776 1174 2110 2067 1709 862 1602 789 578 1002 1205 936 996 638 284 600 806 534 713 271 401 349 253 732 649 468 385 375 646 442 161 372 389 269 358 381 337 373 231 151 292 170 461 96 339 251 129 269 122 114 204 147 264 84 66 206 58 235 346 241 268 247 236 225 128 237 146 60 56 45 35 141 50 433 53 380 254 34 126 27 156 249 231 169 101 69 141 108 331 122 113 52
internal_count=6953 4177 2776 1174 2110 2067 1709 862 1602 789 578 1002 1205 936 996 638 284 600 806 534 713 271 401 349 253 732 649 468 385 375 646 442 161 372 389 269 358 381 337 373 231 151 292 170 461 96 339 251 129 269 122 114 204 147 264 84 66 206 58 235 346 241 268 247 236 225 128 237 146 60 56 45 35 141 50 433 53 380 254 34 126 27 156 249 231 169 101 69 141 108 331 122 113 52
is_linear=0
shrinkage=0.05


Tree=4
num_leaves=95
num_cat=0
split_feature=7 7 7 5 6 7 7 4 7 7 6 6 6 4 2 6 7 0 5 5 2 5 6 7 5 7 5 4 6 0 7 1 2 8 4 4 7 6 2 6 1 0 2 3 2 6 5 6 4 6 2 4 5 5 2 5 7 5 0 7 1 6 6 0 8 1 0 6 19 5 4 12 7 19 0 1 3 0 5 1 2 5 19 0 0 6 0 1 7 4 2 19 5 4
split_gain=2133.26 484.586 238.908 109.949 69.7252 58.0025 53.1858 47.6474 35.8264 35.0834 26.0265 24.4526 23.4625 18.6441 16.6641 14.9664 14.4708 12.7888 12.938 12.2203 12.21 12.0316 11.1625 10.2762 9.21618 9.52869 8.6644 8.57483 7.91006 7.81743 7.65858 7.57643 7.17104 6.8329 6.70002 6.314 5.98604 5.84871 6.53524 5.6649 5.64033 5.25426 5.19766 4.67909 4.62686 4.40157 4.39549 4.30925 4.8512 4.2704 4.26194 4.07596 4.07434 4.06551 3.94247 3.93602 3.85752 3.84988 3.61379 3.59276 4.30188 3.29808 4.0835 3.50919 3.38986 3.24697 3.23305 3.21601 3.18717 6.50869 3.87249 3.54911 3.16378 3.85697 3.41124 3.15537 3.11883 3.09628 3.10036 2.9654 2.89358 4.63666 2.86098 2.82563 2.81034 2.73684 2.73016 2.85079 2.72959 2.72046 2.64796 2.63882 2.62131 2.59814
threshold=0.24138863973992919 -0.27452386851427152 0.75273368542341679 -1.0191749651556881 0.3966745054887364 -0.75108847134507106 -0.026346921046254919 0.99898404330952206 0.41037609674151881 1.1086205424598681 0.17910283779409722 0.45096214105332882 0.48629745447807921 1.0637670000768016 0.75806545277904458 0.31947638510545801 -1.0162991199300253 -1.0000000180025095e-35 -1.0980507513708566 -0.39679630209784772 -0.38143601526606907 1.1043671090835778 0.19882246242413082 0.1095346755611321 -1.0191749651556881 -0.48173260016314046 -0.40766408141873328 -1.3553969551355725 0.099216659364178963 -1.0000000180025095e-35 1.0256889941597087 -1.0581897794921298 -1.0000000180025095e-35 1.0000000180025095e-35 -1.4910747804649234 1.0129597499113518 0.64492414111357721 -1.879311714623058 0.74176848693754283 -0.89210220608549806 -0.331677309542806 -1.0000000180025095e-35 0.31455204585280766 0.33786990563117852 -0.46505797572287516 0.85764140118449761 -1.2263470254627162 -1.3539172219125148 0.14631082229622636 -0.57832021838218051 -0.474277549906236 0.66306324995830535 -1.5573412819658701 -1.6997236880682718 0.84202231919635862 -2.5682760655556645 -0.5218180100272255 -0.963402289731914 1.0000000180025095e-35 -0.89952640684440288 -0.1437653573689347 0.88618655873846486 0.83918325575368258 -1.0000000180025095e-35 1.0000000180025095e-35 0.22302834610129321 0.5760015467225249 0.13863207634862465 1.0000000180025095e-35 -1.0980507513708566 0.3134332837485469 1.0000000180025095e-35 1.0256889941597087 1.0000000180025095e-35 0.5760015467225249 0.76621134466583973 1.423542671460599 1.0000000180025095e-35 -1.6997236880682718 0.68312695417513047 0.28674081989225503 -0.28661073766971318 1.0000000180025095e-35 1.0000000180025095e-35 -1.0000000180025095e-35 0.4239845671902992 1.0000000180025095e-35 -0.025007174774796685 -0.13528130431204144 -0.017616690866108221 0.091934944324982684 1.0000000180025095e-35 -0.52001942872491558 1.2266847476679332
decision_type=2 2 2 2 2 2 2 2 2 2 2 2 2 2 2 2 2 2 2 2 2 2 2 2 2 2 2 2 2 2 2 2 2 2 2 2 2 2 2 2 2 2 2 2 2 2 2 2 2 2 2 2 2 2 2 2 2 2 2 2 2 2 2 2 2 2 2 2 2 2 2 2 2 2 2 2 2 2 2 2 2 2 2 2 2 2 2 2 2 2 2 2 2 2
left_child=1 5 8 30 6 7 17 10 22 15 32 19 13 24 20 39 54 18 88 31 -8 23 26 42 55 50 40 -13 89 -28 53 -10 -1 52 -14 47 65 -34 68 92 -2 -18 43 -6 -27 76 -35 48 -19 -16 -26 -49 -22 -4 -9 -7 -15 -48 -54 60 82 62 63 64 -36 -21 -17 -60 70 -70 71 -39 73 74 -41 -38 -24 78 -33 91 81 -46 -12 -67 -83 -45 -51 -88 -3 -11 -30 -31 -5 -20
right_child=2 4 3 9 21 12 14 16 11 28 59 27 34 56 49 66 41 35 93 36 33 -23 45 -25 25 44 29 -29 90 79 -32 77 37 46 61 -37 75 38 -40 72 -42 -43 -44 85 80 -47 57 51 -50 86 -52 -53 58 -55 -56 -57 -58 -59 67 -61 -62 -63 -64 -65 -66 83 -68 -69 69 -71 -72 -73 -74 -75 -76 -77 -78 -79 -80 -81 -82 84 -84 -85 -86 -87 87 -89 -90 -91 -92 -93 -94 -95
leaf_value=-0.041796011128958241 0.025466851725921794 -0.00048579565482214098 0.077504073529214165 0.035986582636833193 -0.031869165609010833 0.014752828401441759 -0.0035523016147922279 -0.1080514663999731 0.012244143032779297 0.05770029425621033 -0.064250892338653415 0.021729284568566057 -0.01863290574401617 -0.048629297935784251 -0.02194884565555387 0.026332004839399209 -0.059207149155628996 0.032291068005211206 -0.022916750153103335 0.015762435682198227 0.02159186765568814 -0.071695817261934289 0.0017392879896102607 -0.0082689489002687813 -0.051253786204116684 -0.034884191850821179 -0.022966806044181189 0.002639781296265015 0.054235804441475105 0.013138621939568346 0.087301418992380309 0.056916256472468375 -0.057677613099416096 0.014737182837416186 -0.057768867397680883 -0.019227361100931446 0.033019875934304194 -0.012516893865540625 -0.055146280281683981 0.039394406219547116 0.06184920657139558 -0.027231154218316081 -0.043524908316986903 0.0001955460976151859 0.0050203690054611526 -0.030714800013229251 -0.030158890155144037 -0.0075780557579736216 -0.0082839750326596778 -0.0092337526047501627 -0.03089007471832865 0.0078434813179605236 0.0090034569293669792 0.06505877521466201 -0.076560097715808351 -0.014600322086443294 -0.034877486324426041 -0.00010274231801495741 0.022286826330553563 -0.050929971922163836 -0.082409476294465697 -0.07418995635076002 -0.016435267606919463 -0.040462255379972389 -0.03897762610577047 0.019572035550954756 0.037399864442400885 -0.0032542568298854998 -0.025178842432796951 0.025131778381764891 -0.03577563263223333 -0.030608947796787585 0.06909668147563934 0.011465259895405987 0.056681546027010137 0.053402823253589519 0.029160123115236108 0.055641890055131774 0.032805735035799442 0.024657913635914717 -0.028115177758038047 -0.021855002079799804 -0.033457380397753284 0.032118755399008818 -0.0073796442638032452 -0.020693417367442412 -0.0010456367809739378 0.03020589366089553 0.030606463048607115 0.077592983841896057 0.026509227268397807 -0.0092293438191215198 0.064287753091711142 -0.043785005400422961
leaf_weight=141 59 24 122 9.9999999999999982 106 12.999999999999998 165 10.999999999999998 14.999999999999998 23 24 399 22 101 45 240 156 17.000000000000004 220 58 135 11.999999999999998 181 119 28 45 14.999999999999998 69 62 109 96 20 14.999999999999998 48 96 77 43 66 17 211 12.999999999999998 13.999999999999998 35 17 26 9.9999999999999982 11.999999999999998 268 12.999999999999998 74 312 51 330 142 103 94 103 95 103 148 23 10.999999999999998 10.999999999999998 97 32 60 91 13.999999999999998 18.000000000000004 9.9999999999999982 59 46 9.9999999999999982 10.999999999999998 33 34 10.999999999999998 86 40 52 50 117 10.999999999999998 178 47 202 27 9.9999999999999982 9.9999999999999982 68 9.9999999999999982 14.999999999999998 45 15.999999999999998
leaf_count=141 59 24 122 10 106 13 165 11 15 23 24 399 22 101 45 240 156 17 220 58 135 12 181 119 28 45 15 69 62 109 96 20 15 48 96 77 43 66 17 211 13 14 35 17 26 10 12 268 13 74 312 51 330 142 103 94 103 95 103 148 23 11 11 97 32 60 91 14 18 10 59 46 10 11 33 34 11 86 40 52 50 117 11 178 47 202 27 10 10 68 10 15 45 16
internal_value=0 -0.0216746 0.0353884 0.052199 -0.00559116 -0.039143 -0.000929046 -0.0490459 0.0219354 0.0420231 -0.0408059 0.0272583 -0.0320589 -0.0283187 0.00613275 0.036829 -0.0658162 -0.0116638 -0.0201772 0.0345705 0.00874237 -0.0222456 0.0104653 -0.0210068 -0.0245934 -0.0269147 0.0172546 0.0189148 0.0627677 0.0116826 0.0752077 0.0460833 -0.0329104 0.0114949 -0.0450734 -0.00626796 0.0296012 -0.0274868 -0.0253902 0.0445394 0.0320359 -0.0565738 -0.0252174 -0.0232458 -0.0201716 0.00162586 0.00216592 -0.00340872 0.0147085 -0.00895621 -0.0325671 -0.00511254 0.0139794 0.07081 -0.0795987 -0.0110341 -0.041686 -0.00347353 0.0116804 -0.0550636 -0.0656116 -0.0474284 -0.046181 -0.0476353 -0.0530711 0.0263705 0.0293748 0.0192306 -0.0228482 -0.00721076 -0.0254087 -0.0199476 0.0415087 0.0404268 0.0417324 0.0420201 0.00331027 0.04956 0.0408426 0.0146357 -0.0174129 -0.0145966 -0.0545729 0.0289557 -0.0177066 -0.0190719 -0.00368893 0.00740072 0.00865899 0.0725652 0.0503849 0.0104328 0.0591421 -0.0243315
internal_weight=0 4312 2641 1174 2245 2067 1754 862 1467 814 578 1002 1205 936 1058 651 284 696 270 534 902 491 465 479 732 625 263 468 163 191 360 161 372 737 269 426 373 231 216 320 72 170 360 325 285 202 155 349 30 156 340 319 582 264 114 107 204 107 447 206 58 247 236 225 128 296 331 117 199 28 171 112 265 255 244 77 192 146 60 176 240 190 35 238 164 219 111 37 34 91 72 124 55 236
internal_count=6953 4312 2641 1174 2245 2067 1754 862 1467 814 578 1002 1205 936 1058 651 284 696 270 534 902 491 465 479 732 625 263 468 163 191 360 161 372 737 269 426 373 231 216 320 72 170 360 325 285 202 155 349 30 156 340 319 582 264 114 107 204 107 447 206 58 247 236 225 128 296 331 117 199 28 171 112 265 255 244 77 192 146 60 176 240 190 35 238 164 219 111 37 34 91 72 124 55 236
is_linear=0
shrinkage=0.05


Tree=5
num_leaves=95
num_cat=0
split_feature=7 7 7 5 6 7 7 4 7 7 2 6 0 6 4 1 5 7 6 5 6 0 5 5 5 0 1 0 2 6 4 2 5 0 7 1 1 6 5 7 7 4 0 6 6 0 16 6 4 2 6 7 5 0 0 5 7 5 6 2 1 0 19 1 4 5 7 7 3 7 2 1 3 5 0 2 7 19 4 6 2 0 3 2 3 7 4 5 5 2 5 5 0 3
split_gain=1926.32 405.037 243.72 99.3447 62.8514 52.3472 43.3686 43.0018 42.4085 28.1375 23.651 22.0684 21.6791 22.64 17.3797 14.8408 13.9465 13.0599 12.3596 11.0289 10.8371 10.4621 11.5386 9.68933 9.18624 10.9905 8.97009 8.24556 7.8811 7.76864 7.73878 7.57395 7.05736 6.91567 6.90688 6.83773 6.50147 6.16058 5.99033 5.70447 5.44689 5.23209 5.17241 5.14931 4.90542 4.74197 4.656 4.58445 4.38167 4.97861 4.36727 4.35487 4.34499 4.16902 4.08943 4.05625 4.0449 3.7558 3.56061 3.55808 3.50852 3.4519 3.36521 3.32699 3.31417 3.29351 3.1856 3.07654 3.01507 2.93475 2.89616 4.02114 2.85997 2.85339 2.77409 2.70286 2.82761 4.53497 2.65943 3.60139 2.64042 3.1731 3.48868 2.59135 2.56553 2.46345 2.42636 2.4187 2.38549 2.38533 2.38455 2.50607 2.30613 2.2578
threshold=0.20921111469174231 -0.27452386851427152 0.75273368542341679 -0.84444481499296031 0.43525658172237075 -0.75108847134507106 -0.026346921046254919 0.99898404330952206 0.41037609674151881 1.1241222379631297 -0.28727361646605659 0.45096214105332882 1.0000000180025095e-35 0.48629745447807921 1.0637670000768016 0.098111032486369112 -1.5288669541196163 -1.0162991199300253 0.19882246242413082 -0.39679630209784772 -0.94599745474393415 -1.0000000180025095e-35 -1.0980507513708566 1.1043671090835778 -0.40766408141873328 -1.0000000180025095e-35 -1.0459450279921689 0.5760015467225249 -0.45639728971694948 0.26114185433457665 -1.3553969551355725 0.44419786863170474 -1.9085438908368551 -1.0000000180025095e-35 -0.48173260016314046 -1.0581897794921298 0.69795770215589858 -1.3539172219125148 -1.2263470254627162 -0.090251632744107371 0.72003588154761167 -1.4910747804649234 1.0000000180025095e-35 -0.65000888522831513 0.4239845671902992 -1.0000000180025095e-35 1.0000000180025095e-35 -0.89210220608549806 -1.28756884955327 -0.90060387292429056 -0.26965413424403645 0.91626567165800843 -1.9085438908368551 1.0000000180025095e-35 -1.0000000180025095e-35 1.1043671090835778 -0.40473299978799826 0.28028468668154727 -1.836446293605986 0.84202231919635862 0.39523649431992397 1.0000000180025095e-35 1.0000000180025095e-35 0.17773770264336508 -0.58751298709754496 -1.9962781810424863 0.91626567165800843 0.79629713432234583 0.59418415665120894 0.55517368586544291 0.38960847668467469 0.31298746696641122 0.59418415665120894 -1.3201498035334847 -1.0000000180025095e-35 0.74176848693754283 -0.89952640684440288 1.0000000180025095e-35 0.95134849999335225 -0.093334119403990598 -0.61209042466977281 -1.0000000180025095e-35 0.75153249383211185 0.77826570084739533 0.8476977446630144 -0.13528130431204144 -0.012975559078130224 -0.39679630209784772 -1.8016429108802481 -0.40983642393745801 -0.37425249692766255 -0.50401900814601819 -1.0000000180025095e-35 1.3282037309619272
decision_type=2 2 2 2 2 2 2 2 2 2 2 2 2 2 2 2 2 2 2 2 2 2 2 2 2 2 2 2 2 2 2 2 2 2 2 2 2 2 2 2 2 2 2 2 2 2 2 2 2 2 2 2 2 2 2 2 2 2 2 2 2 2 2 2 2 2 2 2 2 2 2 2 2 2 2 2 2 2 2 2 2 2 2 2 2 2 2 2 2 2 2 2 2 2
left_child=1 5 8 27 6 7 21 10 18 15 54 19 13 14 28 66 -8 59 24 35 90 22 85 33 50 -26 -12 29 -7 42 -13 37 -30 -6 73 -10 38 87 -22 -35 53 -15 -4 -40 -11 84 52 86 57 -50 -2 -49 -28 -21 -1 -43 63 -20 -54 -9 -55 -27 80 -16 -24 -44 -5 -67 75 92 71 74 83 -34 -36 76 77 -60 89 -80 -45 -82 -83 -64 -19 -3 -17 -23 -71 -63 91 -18 -37 -39
right_child=2 4 3 9 23 12 16 17 11 44 26 30 -14 41 56 47 20 45 48 40 36 31 64 -25 25 61 46 -29 32 -31 -32 -33 34 39 70 69 -38 93 43 -41 -42 55 65 62 -46 -47 -48 51 49 -51 -52 -53 58 60 -56 -57 -58 -59 68 -61 -62 78 72 -65 -66 67 -68 -69 -70 88 -72 -73 -74 -75 -76 -77 -78 -79 79 -81 81 82 -84 -85 -86 -87 -88 -89 -90 -91 -92 -93 -94 -95
leaf_value=-0.059094243307526301 0.045840580302935384 -0.00046150594328840574 0.052854285664146849 0.024897831457103566 -0.039466061607862896 -0.038505052538906653 0.01876276191301407 -0.10264889489520679 0.011631935859719913 0.066964123422627919 -0.0474573251126068 0.020642820135561894 0.029278414249420168 -0.020181117118114517 -0.03941031402758903 0.07772651694037698 0.010868534594774243 -0.054568683049858437 0.036777992062270642 0.01580459866176049 0.0086397194985820113 0.033810650291187419 0.0052495649474440147 -0.068111026287078866 -0.027478276544974912 0.0056385421773735836 -0.0080562985808539551 0.089136425478785641 0.011849170103669168 0.032385746637980148 0.0025077924606444289 -0.021131609881145732 -0.017113535008314303 -0.028084306851602521 -0.0080373444009658908 0.015588828213512899 0.0076140334348452302 -0.0047139888803764416 -0.025464900030243782 -0.014720330135626854 0.04719986678922878 -0.044787864602202999 0.081242399662733084 -0.014957873470699178 0.046134446125204974 -0.025869596177445994 -0.012219871332248052 0.03728101447451769 -0.036470455955713986 -0.0026534468739524359 0.021842591821083002 0.05373858100175858 -0.057336922415665216 0.020421335883438588 -0.034260280195035429 -0.07586172385649248 -0.027645842413953011 0.0047969709263530344 -0.04019082076170228 -0.072732091702303839 0.032963714424682704 0.010955581684330744 -0.042753914956535605 -0.055165032540657077 -0.024162049425175081 0.062819243574684311 0.035092924317691176 0.074968792874403681 -0.014930899500846861 0.070393297672271732 -0.026122660211597884 -0.018061000381463341 -0.00043208710849285126 -0.029100903420569226 0.019151261076331139 -0.052388964505756613 -0.026004140141178925 -0.0078202592868668337 0.015453925291076304 -0.018093588771298529 -0.015076316693901188 -0.0011362612265356277 0.018137822658396686 -0.0094285827502608305 -0.080747152566909786 0.029076139493845406 0.051210603024810557 0.0038599218600071394 0.048726895570485707 0.02849500511314661 0.0116298269595195 0.044759769861896836 0.042574977735057473 -0.028828359171748166
leaf_weight=130 26 24 42 238 52 82 153 10.999999999999998 14.999999999999998 91 84 399 14.999999999999998 21 106 10.999999999999998 10.000000000000002 146 9.9999999999999982 75 86 14.000000000000002 9.9999999999999982 11.999999999999998 18 94 19 51 14.999999999999998 14.999999999999998 69 74 59 130 43 9.9999999999999982 185 331 31 207 34 232 68 39 41 13.999999999999998 36 205 11.999999999999998 117 70 50 13.999999999999998 80 19 10.999999999999998 47 112 110 103 184 28 14.000000000000002 49 227 110 113 99 25 14.999999999999998 60 140 13.999999999999998 313 11.999999999999998 17 112 11.999999999999998 40 9.9999999999999982 36 242 26 9.9999999999999982 9.9999999999999982 9.9999999999999982 40 12.999999999999998 83 63 138 11.999999999999998 38 9.9999999999999982
leaf_count=130 26 24 42 238 52 82 153 11 15 91 84 399 15 21 106 11 10 146 10 75 86 14 10 12 18 94 19 51 15 15 69 74 59 130 43 10 185 331 31 207 34 232 68 39 41 14 36 205 12 117 70 50 14 80 19 11 47 112 110 103 184 28 14 49 227 110 113 99 25 15 60 140 14 313 12 17 112 12 40 10 36 242 26 10 10 10 40 13 83 63 138 12 38 10
internal_value=0 -0.0214549 0.0322828 0.049589 -0.00604447 -0.0371859 -0.00186436 -0.0465936 0.0196002 0.0394289 -0.0387656 0.0258954 -0.030456 -0.0312089 -0.0275265 0.0351966 0.00487473 -0.0625254 0.00908726 0.032842 0.00235413 -0.0112783 -0.0190133 -0.0238594 0.0151731 0.0101762 -0.0328049 0.0704107 -0.0239084 0.0675514 0.0179691 -0.0065358 -0.022044 -0.0224944 -0.0228548 0.0437792 -0.000389731 -0.00360078 -0.00336302 -0.0198756 0.0281211 -0.0441253 0.069205 -0.00586844 0.0604943 -0.0537451 -0.0292373 0.0432449 0.000625267 -0.00579922 0.028342 0.040508 -0.03122 0.0262076 -0.0559275 -0.0461945 -0.0404947 0.00741837 -0.0327376 -0.0756188 0.029163 0.0130604 -0.00427398 -0.0443908 -0.0229211 0.0716842 0.02818 0.0685743 -0.0314898 0.047082 -0.0165164 -0.0135607 -0.0183918 -0.0271997 -0.00210529 -0.0331391 -0.0317406 -0.0370068 0.0180082 0.00874442 -0.0027099 -0.00113862 0.000733613 -0.0288684 -0.0562468 0.00822604 0.0569297 0.0193899 0.0520432 0.0230983 0.014067 0.0293547 0.0369529 -0.00542116
internal_weight=0 4177 2776 1174 2110 2067 1709 862 1602 789 578 1002 1205 1190 926 657 996 284 600 534 843 713 271 401 349 253 429 385 724 334 468 442 642 389 627 161 683 368 498 337 373 264 319 412 132 170 345 306 251 129 96 255 309 339 149 243 202 122 290 114 264 235 381 155 237 277 351 209 276 146 255 195 38 372 55 251 234 122 141 50 343 304 268 24 156 34 51 27 98 91 160 22 48 341
internal_count=6953 4177 2776 1174 2110 2067 1709 862 1602 789 578 1002 1205 1190 926 657 996 284 600 534 843 713 271 401 349 253 429 385 724 334 468 442 642 389 627 161 683 368 498 337 373 264 319 412 132 170 345 306 251 129 96 255 309 339 149 243 202 122 290 114 264 235 381 155 237 277 351 209 276 146 255 195 38 372 55 251 234 122 141 50 343 304 268 24 156 34 51 27 98 91 160 22 48 341
is_linear=0
shrinkage=0.05


Tree=6
num_leaves=95
num_cat=0
split_feature=7 7 7 5 6 7 7 4 7 7 6 6 0 6 4 2 6 7 0 5 6 5 5 6 7 15 5 4 7 4 5 0 1 0 2 4 6 2 7 1 4 7 6 16 0 4 5 8 1 0 5 7 6 5 6 4 5 2 7 3 1 7 0 0 6 4 5 0 7 8 1 1 0 15 0 7 3 1 2 4 1 8 2 19 7 7 5 7 3 19 5 4 0 4
split_gain=1738.58 394.409 194.35 89.8427 57.017 47.2434 43.2232 38.8091 28.9745 28.4358 21.5638 19.9168 19.5654 20.4326 15.6852 13.8428 12.3642 11.7865 10.4473 10.5407 10.3012 9.95354 9.78185 9.12464 8.84393 7.19614 7.12608 6.98425 6.90781 6.62135 6.42971 6.26885 6.17105 6.04837 5.82786 5.52022 5.50236 5.21623 4.99312 4.89128 4.72196 4.69814 4.59983 4.43898 4.27963 4.24478 4.08283 3.90359 3.80218 4.53726 3.74804 3.67079 3.66661 3.66077 3.57574 3.41037 3.36102 3.31392 3.19354 3.17279 3.16673 5.03595 3.15474 3.1506 3.08476 2.9676 3.43541 2.96453 2.92581 2.77863 2.74603 2.7299 2.71495 2.74367 2.59407 2.583 3.25671 2.58288 2.58277 2.5347 2.50692 2.69944 2.47616 6.09575 5.87688 4.58226 2.43232 2.4016 2.35016 2.33481 2.3313 2.33061 2.32291 2.552
threshold=0.24138863973992919 -0.27452386851427152 0.75273368542341679 -1.0980507513708566 0.3966745054887364 -0.75108847134507106 -0.026346921046254919 0.99898404330952206 0.41037609674151881 1.1086205424598681 0.26114185433457665 0.45096214105332882 1.0000000180025095e-35 0.48629745447807921 1.0637670000768016 0.75806545277904458 0.35610280357291085 -1.0162991199300253 -1.0000000180025095e-35 -1.0980507513708566 -0.47553865516436528 -0.39679630209784772 1.1043671090835778 0.19882246242413082 -0.090251632744107371 1.0000000180025095e-35 -0.40766408141873328 -1.3553969551355725 0.79629713432234583 -0.017616690866108221 -1.4407918841533836 -1.0000000180025095e-35 -1.0581897794921298 -1.0000000180025095e-35 -0.28330131884254278 0.52902059590070494 0.23343436989128677 0.75806545277904458 0.64492414111357721 -0.77077940607471096 -1.4910747804649234 -0.47418829527560608 -0.89210220608549806 1.0000000180025095e-35 -1.0000000180025095e-35 0.44864036380185546 -1.9085438908368551 1.0000000180025095e-35 0.28930835077802869 -1.0000000180025095e-35 -1.8016429108802481 -0.36180344176969975 -1.2548268572132766 1.1043671090835778 -0.57832021838218051 0.14631082229622636 0.19063022811999894 -0.87507028655645913 -0.6311123288367001 -0.82792222193712284 -0.15492978542140831 -1.0805335347511338 1.0000000180025095e-35 1.0000000180025095e-35 -1.836446293605986 -1.1975580393605443 0.26266647860311437 -1.0000000180025095e-35 0.81532209690820845 1.0000000180025095e-35 0.22302834610129321 0.76621134466583973 1.0000000180025095e-35 1.0000000180025095e-35 -1.0000000180025095e-35 0.91626567165800843 -0.36293169134511855 0.17773770264336508 -0.7419207959266193 0.87751155082853682 0.30276555055359305 1.0000000180025095e-35 0.74176848693754283 1.0000000180025095e-35 -1.185536881828686 -0.89952640684440288 0.7016255562578334 0.054982938704307462 0.79805830785771825 1.0000000180025095e-35 -1.9962781810424863 1.2266847476679332 1.0000000180025095e-35 1.3832621756138153
decision_type=2 2 2 2 2 2 2 2 2 2 2 2 2 2 2 2 2 2 2 2 2 2 2 2 2 2 2 2 2 2 2 2 2 2 2 2 2 2 2 2 2 2 2 2 2 2 2 2 2 2 2 2 2 2 2 2 2 2 2 2 2 2 2 2 2 2 2 2 2 2 2 2 2 2 2 2 2 2 2 2 2 2 2 2 2 2 2 2 2 2 2 2 2 2
left_child=1 5 8 28 6 7 18 10 23 16 34 21 13 14 25 20 42 56 19 -3 48 32 24 26 -6 36 39 -13 63 -11 -22 -28 -10 -26 -1 59 41 52 70 -2 -15 -7 -5 46 -19 -30 -36 57 -8 -50 -27 77 55 -42 -17 -20 -9 -25 -38 -32 -12 -62 -44 -4 -48 66 -35 -61 -18 -70 -23 -40 73 -34 -63 -64 -77 -16 -71 -37 81 -33 83 85 -85 -66 -73 -56 -43 -41 -65 -21 93 -89
right_child=2 4 3 9 22 12 15 17 11 29 60 27 -14 40 51 54 68 44 37 91 30 38 -24 47 33 50 31 -29 45 -31 35 80 72 65 43 79 58 -39 71 89 53 88 62 -45 -46 -47 64 -49 49 -51 -52 -53 -54 -55 87 -57 -58 -59 -60 67 61 74 75 90 82 -67 -68 -69 69 78 -72 86 -74 -75 -76 76 -78 -79 -80 -81 -82 -83 -84 84 -86 -87 -88 92 -90 -91 -92 -93 -94 -95
leaf_value=-0.04681501478965705 0.018027839419387636 0.0078147351796574449 0.042363610225064414 0.053276306317586987 -0.028118617602825514 -0.02722215821923309 0.023926547770895583 -0.069175685283083183 0.011050338783922295 0.047328146173491736 -0.046624551314617631 0.019610679205479323 0.02781449317932129 -0.019172061434281726 -0.037577881923782724 -0.020116586970786256 0.020751783127586049 -0.053434451325581625 0.024696252601487296 -0.020622970445970584 0.013115028864446959 0.014008966044714506 -0.064705477158228553 -0.033872879128903154 -0.035267508203784624 0.013891636527010373 -0.020444551932935914 0.002382402860667503 0.077080117654183822 0.067475451117283425 0.011232969866001181 -0.0060529462800457566 0.021994118623080709 0.021808224391530864 -0.0076534831348046856 0.010749975530291845 -0.061237633228302002 -0.019306533746421339 0.029685876761064975 0.055075197980592128 -0.042548470782589748 -0.016759852229263714 0.020980192418210211 -0.011608877477960454 -0.024576116147051966 0.053770256855271086 -0.054470076092651913 0.0072523765600635672 -0.013748872425640003 0.014357518162412037 -0.014075936540170204 -0.02531442296292101 -0.0050029371900509219 -0.072068638964132833 -0.016070179222151638 -0.0078896036228308306 -0.099524487555027019 -0.0031556614687562818 -0.032606019335798923 -0.02017180464629616 -0.091367450593547395 -0.061572567592648897 0.037184328254628578 0.074973555002361539 -0.038853344082211458 -0.015358634222848494 -0.0079073964008351868 -0.0028981857862461109 0.014459831760420153 0.031096028818847234 0.026141909977515084 0.057277324919899314 0.050422980727324651 0.044410714977540268 -0.036610900312662127 0.074341589754278015 0.041694500051438814 -0.051210645031110918 0.057283775806427011 -0.0036067364982476364 0.017465775834921843 0.015340140767317887 -0.048384093493223194 0.020858019632710653 -0.02425610594634366 -0.024917090971600907 0.027926914170384412 0.00028091643047942357 -0.035523319534129565 0.026129567961801176 0.059540683475251377 -0.040387653541984037 0.012587252644256556 -0.026644913492385638
leaf_weight=48 42 34 21 56 171 334 101 104 14.999999999999998 88 115 399 14.999999999999998 21 109 45 132 156 21 220 163 58 11.999999999999998 9.9999999999999982 30 13.999999999999998 14.999999999999998 69 174 76 35 29 21 10.999999999999998 19 161 13.999999999999998 60 43 19 232 229 26 36 13.999999999999998 22 13.999999999999998 120 15.999999999999998 140 83 42 332 10.999999999999998 28 12.999999999999998 9.9999999999999982 72 32 28 10.999999999999998 34 212 32 120 183 84 220 24 161 238 24 86 39 14.999999999999998 10.999999999999998 25 51 9.9999999999999982 38 117 30 18 10.999999999999998 21 116 9.9999999999999982 44 18 11.000000000000002 104 15.999999999999998 28 10.999999999999998
leaf_count=48 42 34 21 56 171 334 101 104 15 88 115 399 15 21 109 45 132 156 21 220 163 58 12 10 30 14 15 69 174 76 35 29 21 11 19 161 14 60 43 19 232 229 26 36 14 22 14 120 16 140 83 42 332 11 28 13 10 72 32 28 11 34 212 32 120 183 84 220 24 161 238 24 86 39 15 11 25 51 10 38 117 30 18 11 21 116 10 44 18 11 104 16 28 11
internal_value=0 -0.0195671 0.0319475 0.0471096 -0.00505714 -0.0353266 -0.000841239 -0.044264 0.0198137 0.0380399 -0.0368273 0.0246006 -0.0289332 -0.0296485 -0.0261502 0.00552489 0.0333908 -0.0593991 -0.0105185 -0.0182132 0.00790336 0.0311999 -0.0201176 0.00949864 -0.0190006 -0.0227129 0.015637 0.0170706 0.0682037 0.0566647 0.00453052 0.0105838 0.0415902 -0.0139383 -0.0304632 0.00162745 -0.0246736 -0.00564157 0.026715 0.029042 -0.041919 -0.0233556 0.0402187 -0.0282523 -0.0510579 0.0744637 -0.0301305 0.00150668 0.0163683 0.0114748 -0.0100394 -0.03847 -0.00340142 -0.0438848 -0.00822758 0.012237 -0.0718379 -0.00690166 -0.04132 -0.00285957 -0.0514828 -0.0607945 0.0375499 0.0603887 -0.0315541 -0.0116365 -0.00446664 -0.00484843 0.0265002 0.0303915 0.0237645 0.0380574 0.0447279 0.0365649 -0.0539312 0.0392871 0.05167 -0.0419233 0.0326275 0.00800849 0.0132282 0.00482489 -0.0304323 -0.0292266 -0.00874813 -0.0320033 0.0486449 -0.00340771 -0.0181272 0.0444618 0.0631719 -0.0219629 0.000863968 -0.00510425
internal_weight=0 4312 2641 1174 2245 2067 1754 862 1467 821 578 1002 1205 1190 926 1058 657 284 696 270 902 534 491 465 479 724 263 468 353 164 645 191 161 308 403 482 627 426 373 72 264 581 330 355 170 196 319 202 257 156 97 202 366 243 156 34 114 82 46 283 175 60 274 157 300 278 95 248 327 195 296 77 146 60 49 248 36 160 171 199 176 59 286 268 32 236 34 111 247 30 136 236 83 55
internal_count=6953 4312 2641 1174 2245 2067 1754 862 1467 821 578 1002 1205 1190 926 1058 657 284 696 270 902 534 491 465 479 724 263 468 353 164 645 191 161 308 403 482 627 426 373 72 264 581 330 355 170 196 319 202 257 156 97 202 366 243 156 34 114 82 46 283 175 60 274 157 300 278 95 248 327 195 296 77 146 60 49 248 36 160 171 199 176 59 286 268 32 236 34 111 247 30 136 236 83 55
is_linear=0
shrinkage=0.05


Tree=7
num_leaves=95
num_cat=0
split_feature=7 7 7 5 6 7 7 4 7 7 6 6 0 6 4 2 2 6 7 6 6 5 0 5 5 0 2 2 4 1 7 0 5 7 5 1 2 6 0 7 1 4 6 2 5 0 4 6 6 6 5 19 7 5 3 5 0 1 1 0 6 2 0 1 1 7 1 15 7 2 1 0 0 5 5 0 2 0 3 4 6 7 7 7 6 1 2 4 2 5 4 1 5 0
split_gain=1570.03 329.61 198.268 81.1624 51.3446 42.6372 35.2095 35.0252 34.3409 25.7682 19.4613 17.9749 17.6577 18.4404 14.1559 11.4251 11.437 10.9577 10.6373 10.0538 9.52548 8.98307 8.51515 9.39111 7.87765 7.87419 6.77209 6.32359 6.30329 6.03509 6.01832 5.82008 5.72004 5.72716 5.61577 5.56937 5.33467 5.0466 4.73544 4.55835 4.52282 4.26157 4.16608 4.12151 5.87358 3.86237 3.7637 4.29211 3.59003 3.58986 3.44138 3.41094 3.32124 3.31274 3.30655 3.30384 3.18346 3.1114 3.10952 3.09097 3.07751 3.0398 3.0203 2.89771 2.85797 4.54494 2.73534 2.63242 2.6214 2.61256 3.50762 2.53816 2.41897 2.49055 2.41666 2.39711 3.75663 2.34115 2.31539 2.27728 3.15035 2.22845 2.22327 2.1961 2.65685 2.83726 2.16812 2.16557 2.12798 2.12105 2.11847 2.66415 2.12128 2.10567
threshold=0.20921111469174231 -0.27452386851427152 0.75273368542341679 -1.0191749651556881 0.43525658172237075 -0.75108847134507106 -0.026346921046254919 0.99898404330952206 0.41037609674151881 1.0398912037715964 0.26114185433457665 0.45096214105332882 1.0000000180025095e-35 0.48629745447807921 1.0637670000768016 0.75806545277904458 -0.40204556953457521 0.31947638510545801 -1.0162991199300253 0.19882246242413082 0.099216659364178963 -0.39679630209784772 -1.0000000180025095e-35 -1.0980507513708566 1.1043671090835778 -1.0000000180025095e-35 -0.45639728971694948 0.38960847668467469 -1.3553969551355725 -1.0581897794921298 1.0617023382524755 -1.0000000180025095e-35 -1.9085438908368551 -0.48173260016314046 -0.40766408141873328 -1.0581897794921298 -1.0000000180025095e-35 -1.3539172219125148 1.0000000180025095e-35 -0.090251632744107371 0.76621134466583973 -1.4910747804649234 -0.89210220608549806 0.31889261936064056 -0.84444481499296031 -1.0000000180025095e-35 -1.28756884955327 0.66128088611837421 0.17910283779409722 -0.47553865516436528 -1.6997236880682718 1.0000000180025095e-35 -0.40473299978799826 0.28028468668154727 -0.0555617821848471 1.1043671090835778 0.5760015467225249 0.27841716517379483 0.15430800854490381 -1.0000000180025095e-35 0.20844448215949157 0.84202231919635862 1.0000000180025095e-35 1.1172748372430215 -0.15492978542140831 -1.0805335347511338 0.17773770264336508 1.0000000180025095e-35 0.59832388682865856 0.44419786863170474 0.31298746696641122 -1.0000000180025095e-35 1.0000000180025095e-35 -0.58881520231972739 -1.3201498035334847 1.0000000180025095e-35 1.056542156573719 -1.0000000180025095e-35 0.8476977446630144 0.95134849999335225 -0.093334119403990598 0.65736962985192238 -0.13528130431204144 1.4081977862984802 -0.26965413424403645 0.55149606817129104 0.19591944055488197 1.2083614303772603 -0.34583637243454907 -0.52001942872491558 0.65274120213281839 1.2760689887719312 -1.3201498035334847 -1.0000000180025095e-35
decision_type=2 2 2 2 2 2 2 2 2 2 2 2 2 2 2 2 2 2 2 2 2 2 2 2 2 2 2 2 2 2 2 2 2 2 2 2 2 2 2 2 2 2 2 2 2 2 2 2 2 2 2 2 2 2 2 2 2 2 2 2 2 2 2 2 2 2 2 2 2 2 2 2 2 2 2 2 2 2 2 2 2 2 2 2 2 2 2 2 2 2 2 2 2 2
left_child=1 5 8 30 6 7 22 10 19 17 36 21 13 14 26 16 -8 42 61 25 83 35 23 82 31 54 -7 37 -13 -18 50 86 -28 74 58 -10 -1 -24 -23 -33 -40 -15 89 -38 48 78 53 -48 -45 57 -4 56 66 -21 -2 -43 -44 -31 -27 -59 -25 -9 -36 81 -12 -66 -16 -51 -37 70 93 -69 -19 -74 -34 -17 -77 -67 -20 88 -81 -42 -3 84 85 -11 -6 -68 -64 -5 92 -92 -39 -35
right_child=2 4 3 9 24 12 15 18 11 20 64 28 -14 41 52 75 29 72 45 46 -22 38 27 60 -26 34 32 -29 -30 49 -32 39 33 69 62 68 43 90 40 -41 63 55 51 44 -46 -47 47 -49 -50 67 -52 -53 -54 -55 -56 -57 -58 59 -60 -61 -62 -63 79 -65 65 77 87 71 -70 -71 -72 -73 73 -75 -76 76 -78 -79 -80 80 -82 -83 -84 -85 -86 -87 -88 -89 -90 -91 91 -93 -94 -95
leaf_value=-0.036178699249061398 0.002532478074232737 -0.00082916749937188197 0.066787312144324901 0.029226035699248316 -0.030926318590839705 -0.035108063792491838 -0.0052990015185892542 -0.093229971148751006 0.01049782207235694 0.039896437555551528 -0.044293324185697286 0.018630145196534487 0.026423768599828087 -0.018213458733987952 -0.035560904153323962 -0.014277150414692347 -0.0090659574478022045 0.003664944161261831 -0.049168526508832633 0.034482955262064935 0.040975963517471597 0.014242325080129759 0.017789062153961924 -0.021871420350500142 -0.061470203225811329 0.022550781212142997 0.010664301551878454 -0.018239803771887508 0.0022632826504338046 0.022722018957655465 0.075637677803144357 -0.025274159977069267 -0.015253258414440236 -0.006785655236088259 0.0048883957580286774 0.036735547470327999 -0.017040957569972509 0.012045305328709739 0.023077375589470778 -0.013327905572140995 0.034190267108912979 -0.040421047682295846 0.03366466674388726 -0.022059359626918296 -0.051488706011038568 -0.023347310023382306 -0.0021585180768338235 -0.031480112688482872 -0.050986598548479381 0.0051834539989253272 0.055453941142642418 0.0074917147825048734 -0.024903591539948547 0.004447462200447002 -0.033558819798583335 -0.06846520873633298 0.050150927484912039 -0.0105903349754711 0.048247528927666802 0.01336176644580326 0.0064706088788807391 -0.065577772248861854 0.010787046882978758 0.018719712831079961 -0.086799080390483146 -0.058493940093938046 -0.033226377091237477 0.00016989208614596953 0.050289859848036883 -0.024031629916122659 -0.016260958679070299 0.017841449875624912 0.047246866300702101 0.023969426039070221 -0.026285168071003697 -0.0082759924308472392 0.023918069945648313 -0.034780354599157973 -0.07403806954622269 0.014161855169804767 -0.017214650893583896 0.050293107979720642 0.027231595888733862 0.082499305407206222 0.067558074214806169 0.068010118177958906 -0.056831606924533845 -0.056494196653366094 0.02680007669506437 0.054736377620561563 0.0082297011791005008 -0.013029521245043724 -0.0079747961474683025 0.016178641941111821
leaf_weight=156 15.000000000000002 24 126 9.9999999999999982 42 82 166 10.999999999999998 14.999999999999998 25 115 399 14.999999999999998 21 106 85 42 13.999999999999998 146 9.9999999999999982 108 76 27 227 11.999999999999998 74 14.999999999999998 84 69 90 91 130 59 43 94 84 108 13.999999999999998 175 207 70 232 211 101 26 13.999999999999998 115 13.999999999999998 11.999999999999998 298 143 10.999999999999998 47 112 10.999999999999998 10.999999999999998 34 14.999999999999998 13.999999999999998 132 9.9999999999999982 103 32 21 10.999999999999998 34 13.999999999999998 26 62 59 140 93 11.999999999999998 271 313 37 11.999999999999998 14.999999999999998 9.9999999999999982 40 9.9999999999999982 31 9.9999999999999982 11.999999999999998 48 13.999999999999998 9.9999999999999982 35 59 44 56 20 241 12.999999999999998
leaf_count=156 15 24 126 10 42 82 166 11 15 25 115 399 15 21 106 85 42 14 146 10 108 76 27 227 12 74 15 84 69 90 91 130 59 43 94 84 108 14 175 207 70 232 211 101 26 14 115 14 12 298 143 11 47 112 11 11 34 15 14 132 10 103 32 21 11 34 14 26 62 59 140 93 12 271 313 37 12 15 10 40 10 31 10 12 48 14 10 35 59 44 56 20 241 13
internal_value=0 -0.0193694 0.0291448 0.0447541 -0.00546771 -0.0335602 -0.00168958 -0.0420508 0.0177057 0.0360113 -0.0349859 0.0233706 -0.0274865 -0.0281661 -0.0248427 0.00438259 0.00649399 0.0308162 -0.0564292 0.00824547 0.0512451 0.0296399 -0.0101719 -0.0171501 -0.0215695 0.0137344 -0.0215773 -0.00589334 0.0162171 0.00930668 0.0645226 -0.0203387 -0.0198491 -0.020579 0.0158652 0.0395107 -0.0289401 -0.00299641 0.0253793 -0.0179363 0.0282292 -0.039823 0.0373918 -0.0243683 -0.0300614 -0.048505 0.000613523 -0.00534071 -0.0251313 0.0104866 0.0607625 0.0347296 -0.0365465 0.00690939 -0.0127369 -0.0416905 0.0359526 0.0154003 0.0266389 0.0109177 -0.0206756 -0.068246 0.0118308 0.035619 -0.0489087 -0.0577548 -0.0400769 0.00769386 0.0424915 -0.0148073 -0.0120306 0.0139804 0.0239528 0.0249565 -0.0245355 -0.00919965 -0.000391732 -0.0512347 -0.0507627 0.016459 0.00788655 0.0391327 0.007424 0.0624478 0.0596821 0.0499885 -0.0359081 -0.0498462 0.0211691 0.0500122 -0.0046919 0.00263517 -0.00687565 -0.00145466
internal_weight=0 4177 2776 1174 2110 2067 1709 862 1602 814 578 1002 1205 1190 926 996 862 607 284 600 207 534 713 271 401 349 724 442 468 696 360 389 642 627 323 161 403 358 373 337 297 264 310 247 139 170 251 129 113 654 269 256 202 122 26 243 245 237 88 147 237 114 235 122 175 60 155 417 146 255 196 119 297 283 372 134 49 49 156 141 50 101 34 99 87 39 52 49 91 54 331 76 255 56
internal_count=6953 4177 2776 1174 2110 2067 1709 862 1602 814 578 1002 1205 1190 926 996 862 607 284 600 207 534 713 271 401 349 724 442 468 696 360 389 642 627 323 161 403 358 373 337 297 264 310 247 139 170 251 129 113 654 269 256 202 122 26 243 245 237 88 147 237 114 235 122 175 60 155 417 146 255 196 119 297 283 372 134 49 49 156 141 50 101 34 99 87 39 52 49 91 54 331 76 255 56
is_linear=0
shrinkage=0.05


Tree=8
num_leaves=95
num_cat=0
split_feature=7 7 7 5 6 7 7 4 7 7 2 6 0 6 4 1 2 7 6 0 5 15 6 5 0 0 1 2 2 4 0 7 5 7 5 7 4 1 6 6 4 2 7 6 6 7 3 3 6 3 0 8 5 5 0 7 0 15 7 3 5 0 4 16 5 2 1 4 0 2 2 5 2 7 1 2 0 19 6 6 15 4 3 1 1 6 0 2 4 6 1 5 4 6
split_gain=1416.95 297.473 178.937 73.3159 46.4846 38.48 32.068 31.6102 30.9927 21.5599 17.8687 16.2223 15.9361 16.6425 12.7757 11.1849 11.0786 9.60019 9.07356 8.59533 8.63218 8.2978 8.14466 7.5028 7.10646 6.85035 6.62846 6.11181 5.73695 5.68872 5.34346 5.21536 5.16233 5.16876 5.06823 4.85598 4.40473 4.12922 4.08535 3.86635 3.84607 3.75586 3.73089 4.96546 3.97045 3.65139 3.56534 3.55659 3.51216 3.88304 3.48579 3.47822 3.46988 3.42067 3.26517 3.24693 3.11971 3.55231 3.01145 2.98416 2.98172 2.9524 2.913 3.03365 2.87488 2.81806 2.80634 2.76117 2.72582 2.63615 2.60475 2.57582 2.44536 2.44503 2.42474 2.37268 3.43065 2.34893 2.31209 2.26648 2.24259 2.22583 2.20745 4.7883 2.1807 2.16782 2.16339 3.39036 2.10494 2.10266 2.07919 2.06813 2.05524 2.84319
threshold=0.20921111469174231 -0.27452386851427152 0.75273368542341679 -0.90133071686658717 0.3966745054887364 -0.75108847134507106 -0.028220207130362534 0.99898404330952206 0.41037609674151881 1.1241222379631297 -0.28727361646605659 0.45096214105332882 1.0000000180025095e-35 0.48629745447807921 1.0637670000768016 0.098111032486369112 0.75806545277904458 -1.0162991199300253 0.19882246242413082 -1.0000000180025095e-35 -1.0980507513708566 1.0000000180025095e-35 -0.44398010513376018 1.1043671090835778 -1.0000000180025095e-35 1.0000000180025095e-35 -1.0459450279921689 -0.45639728971694948 0.2754547449805882 -1.3553969551355725 1.0000000180025095e-35 0.83993122022144573 -1.9085438908368551 -0.48173260016314046 -0.40766408141873328 -0.090251632744107371 1.0129597499113518 -1.0581897794921298 0.20893796902231643 0.4239845671902992 -1.4910747804649234 -0.01526168432669441 -1.86552310548925 -1.879311714623058 -1.3539172219125148 0.58411417467756332 0.43183559559363111 1.8203392933903484 0.85764140118449761 1.6139793839554371 -1.0000000180025095e-35 1.0000000180025095e-35 -1.9085438908368551 -0.028176382044812747 -1.0000000180025095e-35 0.91626567165800843 -1.0000000180025095e-35 1.0000000180025095e-35 -0.36180344176969975 -0.0555617821848471 1.1043671090835778 1.0000000180025095e-35 0.018403799529174956 1.0000000180025095e-35 0.19063022811999894 -0.011322189863218033 0.15430800854490381 1.1169051115846382 1.0000000180025095e-35 -0.34583637243454907 0.93764527755984972 0.37161643386786575 -1.0756391296035579 0.91626567165800843 -1.3280437610915421 0.38960847668467469 -1.0000000180025095e-35 1.0000000180025095e-35 -0.024679047775097981 -1.0760966960922855 1.0000000180025095e-35 -0.29210067337601359 0.22204021976256985 0.020267699290952196 0.31298746696641122 -0.6172905197210572 1.0000000180025095e-35 1.056542156573719 0.11488186187527465 -0.066747581017794766 0.85632614232284521 -0.056570375727956909 0.95134849999335225 -0.093334119403990598
decision_type=2 2 2 2 2 2 2 2 2 2 2 2 2 2 2 2 2 2 2 2 2 2 2 2 2 2 2 2 2 2 2 2 2 2 2 2 2 2 2 2 2 2 2 2 2 2 2 2 2 2 2 2 2 2 2 2 2 2 2 2 2 2 2 2 2 2 2 2 2 2 2 2 2 2 2 2 2 2 2 2 2 2 2 2 2 2 2 2 2 2 2 2 2 2
left_child=1 5 8 25 6 7 19 10 18 15 54 21 13 14 27 73 22 64 24 20 -3 30 41 28 59 -4 -12 -7 35 -13 51 78 -29 77 66 46 62 -23 56 -11 -15 91 -28 -44 -45 67 -6 72 49 74 89 -10 -46 -17 -1 -55 71 61 85 -2 -42 -58 -21 -64 -9 -63 -26 88 -36 -47 -71 -24 -37 -5 -20 76 80 84 -27 -78 -35 -22 83 -76 -34 -16 -18 -88 -32 -19 -57 -8 -70 -94
right_child=2 4 3 9 23 12 16 17 11 39 26 29 -14 40 58 53 86 50 48 36 81 37 38 -25 34 31 42 32 -30 -31 45 -33 33 75 68 47 -38 -39 -40 -41 60 -43 43 44 52 69 -48 -49 -50 -51 -52 -53 -54 55 -56 90 57 -59 -60 -61 -62 65 63 -65 -66 -67 -68 -69 92 70 -72 -73 -74 -75 82 -77 79 -79 -80 -81 -82 -83 -84 -85 -86 -87 87 -89 -90 -91 -92 -93 93 -95
leaf_value=-0.050983531288802619 0.0024058541407187776 0.0070527985096251709 0.042373637689034578 0.02116724127925439 -0.034314082957365932 -0.03335266081458696 0.0068950060719194326 -0.062371540189577412 0.019364893126588029 0.057873748591088729 -0.040651142857400596 0.017698637812653965 0.025102580587069198 -0.017302785124186249 -0.047762257514930351 0.049064221672713765 -0.013563292821978821 -0.046401904853926583 -0.012189302383922041 -0.006750287760365516 -0.0012660134180138508 0.014019505034845609 0.0025632180612195623 -0.058396690711379054 0.021423242207163493 0.061365527938110669 0.0024015642081697784 0.010131086409091951 -0.036139238180547227 0.0021501182052104371 0.019747616858997695 0.068999666657104997 -0.016458206569293029 -0.017843817154155863 0.004643975879422369 -0.029355019644241444 -0.015903044259780414 0.044046363409142947 -0.0069609591855260087 0.039412518318106493 -0.038399994402626085 0.016942330300530772 -0.056268089551192071 -0.01000979135016678 -0.0062206670004678402 0.023017998247900431 -0.018096122280279597 0.015605432370846923 -0.025812572628880544 0.032406389415264129 -0.022179945631484902 -0.0044917898767284662 -0.028352094700353016 0.031991822691182198 -0.028793013066445529 0.038548693165648733 0.0018920175096908403 0.015841788612306118 -0.022803522273898126 -0.03188087804750963 -0.065041947364807132 0.016301336801434693 -0.00063990161775849584 0.018390501026064158 -0.090439809560775755 -0.0081614972358303416 0.045835151842662264 0.0096684860161923136 0.020110665084563894 0.044731274689547719 0.025699106693267821 -0.019837311338189813 -0.011853143810402863 0.030092998255823074 0.0018393594496754102 -0.02276175883288185 0.014168255988301504 -0.030240074938679442 0.04922827489387531 -0.0081380287605908614 -0.00052177227493798871 -0.021172423464542428 0.0073087062132922379 -0.030118654508675846 -0.02528893116572551 -0.034430847555680689 -0.0078621928252883867 0.02272216627995173 0.030869118017234055 -0.0667118598307882 0.059790461303459275 -0.01986114174127579 0.01345376238183235 -0.016353918274980971
leaf_weight=130 15.000000000000002 34 46 239 51 82 26 104 78 92 84 399 14.999999999999998 21 41 50 85 142 32 195 14.999999999999998 12.999999999999998 33 11.999999999999998 74 99 11.999999999999998 14.999999999999998 41 69 72 173 135 124 94 22 77 96 80 41 232 210 12.999999999999998 40 19 34 101 10.999999999999998 11.999999999999998 9.9999999999999982 13.999999999999998 19 261 206 19 32 276 84 42 10.999999999999998 10.999999999999998 74 129 25 9.9999999999999982 13.999999999999998 13.999999999999998 29 91 64 25 21 215 113 72 60 18 92 65 31 22 220 111 13.999999999999998 145 119 37 11.999999999999998 104 13.999999999999998 18 9.9999999999999982 40 9.9999999999999982
leaf_count=130 15 34 46 239 51 82 26 104 78 92 84 399 15 21 41 50 85 142 32 195 15 13 33 12 74 99 12 15 41 69 72 173 135 124 94 22 77 96 80 41 232 210 13 40 19 34 101 11 12 10 14 19 261 206 19 32 276 84 42 11 11 74 129 25 10 14 14 29 91 64 25 21 215 113 72 60 18 92 65 31 22 220 111 14 145 119 37 12 104 14 18 10 40 10
internal_value=0 -0.0184009 0.0276875 0.0425164 -0.00519432 -0.0318822 -0.00131397 -0.0399482 0.0168204 0.0338219 -0.0332366 0.022202 -0.0261122 -0.0267578 -0.0236006 0.0301106 0.00459824 -0.0536077 0.0078332 -0.00949749 -0.0164949 0.0281579 0.00675679 -0.019388 0.0130476 0.060473 -0.0280556 -0.0204984 -0.0183266 0.0154062 0.0250014 0.0629435 -0.0188566 -0.0195501 0.0150719 -0.0165008 -0.00507893 0.0404652 0.00353277 0.0521827 -0.0378319 0.0143843 -0.0249888 -0.0259759 -0.0247453 0.0280503 -0.0235377 -0.0121878 0.000582846 0.00190814 -0.0460797 0.0146919 -0.0268503 0.0371023 -0.0481539 0.034766 0.00520508 0.00657354 -0.0347192 -0.0121001 -0.039606 0.00443471 -0.0026908 0.00244945 -0.0648337 0.0124095 0.025307 0.0239639 0.0112392 0.0348609 0.0393852 -0.0061481 -0.0134778 0.0240326 0.000576338 -0.0140669 -0.0113916 -0.0233087 0.056555 5.61167e-05 -0.0152336 -0.0199018 0.00264994 -0.00336311 -0.0210313 -0.037847 -0.00873966 -0.000372146 0.0263194 -0.0482246 0.0461957 -0.000537257 0.015636 0.00749223
internal_weight=0 4177 2776 1174 2110 2067 1657 862 1602 791 578 1002 1205 1190 926 658 962 284 600 695 269 534 828 453 349 383 429 724 441 468 425 337 642 627 323 400 426 109 582 133 264 246 345 333 320 328 152 248 251 239 170 97 280 306 149 256 502 448 202 26 243 364 349 154 114 88 88 205 235 123 89 54 237 352 229 255 195 372 164 49 146 235 197 86 280 160 134 49 176 156 50 36 141 50
internal_count=6953 4177 2776 1174 2110 2067 1657 862 1602 791 578 1002 1205 1190 926 658 962 284 600 695 269 534 828 453 349 383 429 724 441 468 425 337 642 627 323 400 426 109 582 133 264 246 345 333 320 328 152 248 251 239 170 97 280 306 149 256 502 448 202 26 243 364 349 154 114 88 88 205 235 123 89 54 237 352 229 255 195 372 164 49 146 235 197 86 280 160 134 49 176 156 50 36 141 50
is_linear=0
shrinkage=0.05


Tree=9
num_leaves=95
num_cat=0
split_feature=7 7 7 5 6 7 7 4 6 7 7 6 7 0 6 2 6 15 6 0 5 6 5 5 7 5 1 1 8 0 2 7 4 2 5 4 0 4 2 3 6 19 0 5 0 7 2 3 6 1 6 7 1 1 0 0 8 5 0 6 4 2 3 3 19 1 6 4 4 4 4 2 4 2 6 6 7 4 1 0 5 19 2 7 7 19 3 2 5 1 4 3 3 4
split_gain=1279.42 289.533 142.536 66.4663 42.22 35.0855 31.701 29.0392 25.2927 21.0294 21.0195 14.6407 13.6431 11.8987 10.873 10.2979 9.02346 8.179 7.85864 7.71828 7.75164 7.70568 7.58349 7.16617 6.81647 6.75324 6.95879 6.79281 8.80926 5.95002 5.90443 5.62922 5.13407 4.92449 4.91224 4.49154 4.12284 3.97743 3.9649 3.75244 3.59392 3.58837 3.52963 3.51556 3.77019 3.60264 3.46733 3.44228 3.38736 3.37827 3.01436 2.97861 2.97873 2.95913 3.74248 2.95301 3.16736 3.43024 2.89835 3.03487 2.8478 2.82507 2.69419 2.78113 3.01933 2.6644 2.66309 3.40207 2.98308 2.65582 2.64807 2.65219 2.60894 2.59692 2.58381 2.83157 4.16993 3.62364 2.52062 2.4906 2.46303 2.45155 2.43841 2.31988 2.28019 2.24598 2.23985 2.22822 2.24805 2.20404 2.13013 2.10695 2.82864 2.07386
threshold=0.24138863973992919 -0.27452386851427152 0.75273368542341679 -1.0980507513708566 0.3966745054887364 -0.59516140279211449 -0.025144706014029693 0.99898404330952206 0.17910283779409722 1.0398912037715964 0.41037609674151881 0.45096214105332882 -1.0162991199300253 1.0000000180025095e-35 0.48629745447807921 0.75806545277904458 0.35610280357291085 1.0000000180025095e-35 0.33638142627169304 -1.0000000180025095e-35 -1.0980507513708566 -0.47553865516436528 -0.98813565500214562 1.1043671090835778 0.1095346755611321 -0.43048407513383918 -0.77077940607471096 0.25253570990525442 1.0000000180025095e-35 0.5760015467225249 0.38960847668467469 0.58411417467756332 -1.3553969551355725 -0.30210776826491731 -1.4407918841533836 0.52902059590070494 1.0000000180025095e-35 1.0129597499113518 0.31455204585280766 0.33786990563117852 0.85764140118449761 1.0000000180025095e-35 1.0000000180025095e-35 -1.9085438908368551 -1.0000000180025095e-35 -1.86552310548925 -0.474277549906236 -0.49494821273056938 -0.89210220608549806 -0.92459413178599525 -0.57832021838218051 -0.89952640684440288 -0.1437653573689347 0.28930835077802869 -1.0000000180025095e-35 1.0000000180025095e-35 1.0000000180025095e-35 0.51710178727405443 -1.0000000180025095e-35 -1.1224510309110374 -1.4910747804649234 -0.34583637243454907 -0.82792222193712284 0.22259277778516792 1.0000000180025095e-35 -1.0893935163051818 -1.2978746620333912 0.67524865171885129 0.14631082229622636 1.0534926987967752 1.0487961488342985 -0.23352598773952168 1.1075377341837418 0.84202231919635862 -1.879311714623058 -1.2548268572132766 -0.89952640684440288 0.5998230642285679 0.19888990642668039 1.0000000180025095e-35 -1.9962781810424863 1.0000000180025095e-35 -0.0059557395456143738 -0.35341416272567416 1.1086205424598681 1.0000000180025095e-35 1.423542671460599 -1.0917035420692713 -0.90133071686658717 -0.1159638567063473 0.87751155082853682 -0.52013052357555545 -0.8543599105186469 1.2266847476679332
decision_type=2 2 2 2 2 2 2 2 2 2 2 2 2 2 2 2 2 2 2 2 2 2 2 2 2 2 2 2 2 2 2 2 2 2 2 2 2 2 2 2 2 2 2 2 2 2 2 2 2 2 2 2 2 2 2 2 2 2 2 2 2 2 2 2 2 2 2 2 2 2 2 2 2 2 2 2 2 2 2 2 2 2 2 2 2 2 2 2 2 2 2 2 2 2
left_child=1 5 10 29 6 7 19 8 33 16 25 22 73 14 17 21 48 30 70 20 -3 53 49 24 38 26 65 28 72 36 46 78 -13 -1 -23 62 -4 66 39 89 60 -30 -33 -35 45 -45 -7 -46 -5 -12 -17 52 81 -8 -55 56 57 -29 -48 -60 -16 -44 -36 64 -64 -2 68 -68 -21 -63 71 -11 -27 -9 -47 -76 91 -78 -24 -50 -38 -10 -61 -32 -82 -28 -14 -53 -89 -6 -37 92 -77 -22
right_child=2 4 3 9 23 13 15 12 51 18 11 32 86 -15 40 50 -18 -19 -20 37 93 34 31 -25 -26 27 85 55 41 -31 83 42 -34 43 35 90 80 -39 -40 -41 -42 -43 61 44 47 74 58 -49 79 -51 -52 87 -54 54 -56 -57 -58 -59 59 82 -62 69 63 -65 -66 -67 67 -69 -70 -71 -72 -73 -74 -75 75 76 77 -79 -80 -81 84 -83 -84 -85 -86 -87 -88 88 -90 -91 -92 -93 -94 -95
leaf_value=-0.039877428531439774 0.00029446522169040913 0.0067001585396664108 0.041776411695579108 0.045024846148761843 -0.014038638009464947 -0.029684922271049942 0.02078537222892415 -0.08468439822847193 -0.051671374092499417 0.049670163908454246 0.020782976774498821 0.016813706301087351 -0.039918591592937619 0.02348335725920541 -0.012790515164242074 -0.018043729450243216 0.021588486142825249 -0.0018951863965444397 0.034636016040492587 0.022392916360071728 -0.017571843523659151 0.011376678129155304 0.01144575362969321 -0.055476857349276543 -0.0059828010000319799 -0.011381753657746022 0.049824929041297816 0.022239406925759146 0.0096258614871229213 0.076198408575285051 -0.030445309899970081 0.012788487784564496 0.0020426124820242756 -0.0039401583528767027 0.010274591268971563 0.0096048416996444147 0.066675012865487271 -0.015107892584297565 -0.035776200358356748 -0.014326637242569856 -0.060508819421132412 -0.020376969382844189 0.021867098149788732 0.0022814862430095674 -0.028598380678643783 -0.043521403795794444 -0.018529330524389296 0.0049714835227600172 0.016692919228584149 0.043758078403770925 -0.0027024263172066429 -0.020673057958483697 -0.065875998009806092 -0.013113191261072644 0.012422518168907722 0.017955410410404989 -0.012431203834712506 -0.0062337210073190579 0.013808830112351903 -0.0070572717704487087 -0.034429259643386306 0.043154658106240362 -0.0069680329089915026 0.001196206740528476 -0.032325921093042082 0.01839219095571986 -0.0060733279120005835 0.0089122883298180314 -0.0080832516917815588 0.024672364844725684 0.030996696244586598 0.065120270731402377 -0.037836728177287365 -0.059125807343358261 -0.014416002981557414 -0.026260089301145997 -0.019952327240167596 -0.036579876966201345 0.022383959613815771 0.032988106972970471 0.053595812120622068 -0.023166266930374234 -0.032205074404676758 -0.016229136197772973 0.069470659242226535 0.021435223502868951 -0.062968056039376705 -0.028132576693315061 -0.042320291381584461 -0.030211541762986738 -0.0035563303623348478 -0.029785838818586454 -0.055936887860298157 -0.036216078349389134
leaf_weight=45 33 34 43 55 29 52 101 10.999999999999998 24 61 20 399 252 13.999999999999998 17 45 293 57 85 21 220 163 71 11.999999999999998 119 61 19 28 106 42 184 22 69 24 35 161 68 77 35 219 11.999999999999998 10.999999999999998 34 11.999999999999998 11.999999999999998 19 226 21 26 80 111 14.999999999999998 23 15.999999999999998 139 95 20 17 13.999999999999998 49 144 77 121 114 12.999999999999998 53 272 44 12.999999999999998 26 10.999999999999998 51 10.999999999999998 103 58 12.999999999999998 205 39 204 239 174 10.999999999999998 11.999999999999998 34 26 11.000000000000002 10.999999999999998 32 219 77 38 82 21 15.999999999999998
leaf_count=45 33 34 43 55 29 52 101 11 24 61 20 399 252 14 17 45 293 57 85 21 220 163 71 12 119 61 19 28 106 42 184 22 69 24 35 161 68 77 35 219 12 11 34 12 12 19 226 21 26 80 111 15 23 16 139 95 20 17 14 49 144 77 121 114 13 53 272 44 13 26 11 51 11 103 58 13 205 39 204 239 174 11 12 34 26 11 11 32 219 77 38 82 21 16
internal_value=0 -0.0167855 0.027406 0.0403906 -0.00435351 -0.0302881 -0.000725684 -0.0355439 -0.0305456 0.0325895 0.0170148 0.0210919 -0.0471449 -0.0222142 -0.0230129 0.00473278 0.0279282 -0.0199553 0.0463271 -0.00900344 -0.0156202 0.00678634 0.02675 -0.0173132 -0.0163571 0.00822911 0.0186807 0.00475523 -0.00166294 0.0585341 -0.0217582 0.0238898 0.0146359 -0.0240269 0.00387325 0.00133578 0.0561485 -0.00481954 -0.0197864 -0.0180644 -0.0341119 0.00680508 0.0313787 -0.0226173 -0.0235472 -0.0247461 -0.0177626 -0.00723574 0.0337329 0.0391631 -0.0071278 -0.0416314 -0.0518981 0.0141259 0.00978657 0.0123367 0.00412471 0.0114829 -0.0157029 -0.00718591 -0.0321444 0.034364 -0.00271163 -0.00454436 -0.00942813 0.0114477 -0.0025561 -0.00398672 0.0107403 0.0384892 0.0544063 0.0567055 -0.0154235 -0.061592 -0.0254883 -0.0246686 -0.0263204 -0.02261 0.0195599 0.0313893 0.0584545 -0.0427126 -0.0120044 -0.0282281 0.0556595 0.0394154 -0.0408826 -0.0393928 -0.0405115 -0.0257869 0.00709165 -0.034125 -0.0445899 -0.0188359
internal_weight=0 4312 2641 1174 2245 2067 1754 1252 875 821 1467 1002 377 815 801 1057 613 628 208 697 270 901 534 491 479 465 116 349 189 353 571 434 468 551 645 482 311 427 360 325 173 117 159 506 482 449 353 33 320 100 156 324 58 256 155 160 65 45 301 75 161 137 283 248 134 86 350 316 34 103 123 112 72 114 437 418 360 244 275 265 268 35 61 218 200 30 263 266 251 106 199 116 34 236
internal_count=6953 4312 2641 1174 2245 2067 1754 1252 875 821 1467 1002 377 815 801 1057 613 628 208 697 270 901 534 491 479 465 116 349 189 353 571 434 468 551 645 482 311 427 360 325 173 117 159 506 482 449 353 33 320 100 156 324 58 256 155 160 65 45 301 75 161 137 283 248 134 86 350 316 34 103 123 112 72 114 437 418 360 244 275 265 268 35 61 218 200 30 263 266 251 106 199 116 34 236
is_linear=0
shrinkage=0.05


Tree=10
num_leaves=95
num_cat=0
split_feature=7 7 7 5 6 7 4 7 7 6 7 5 7 0 6 5 6 6 1 15 6 4 6 0 5 0 0 2 2 1 1 8 2 4 2 0 6 0 5 6 0 5 6 19 7 6 2 1 2 2 6 7 1 4 15 3 7 1 6 0 3 0 6 4 6 3 19 6 7 5 19 0 4 19 1 2 4 15 6 7 4 1 3 4 3 2 6 7 9 6 4 1 5 7
split_gain=1155.23 239.003 148.098 59.9859 38.2116 31.6647 26.2078 25.9704 25.4515 22.8267 18.979 13.2514 12.3129 10.7385 9.81289 8.75833 8.28342 8.14367 7.4165 7.38155 7.1347 6.51711 6.4677 6.31044 6.93102 6.20517 5.36989 5.32875 4.93925 4.70855 4.57362 4.45182 4.44435 4.37374 3.9983 4.38582 3.94798 3.85965 4.4379 3.78693 3.72086 3.44886 3.51493 3.41686 3.33809 3.24351 3.18483 3.24745 3.25712 3.12927 3.05709 2.84735 2.81151 2.77595 2.70162 2.69276 2.6882 2.68831 2.68135 2.63962 2.9173 2.61576 2.73897 2.57014 2.52071 2.46641 3.89247 3.03573 2.46238 2.45914 2.36264 2.4806 2.28654 2.21253 2.212 2.20633 2.17092 2.11824 2.11088 2.09369 2.04013 4.44186 2.02445 2.02595 2.02147 2.01097 2.05486 2.0065 2.00126 1.99986 2.74817 1.98946 2.62635 1.92184
threshold=0.17358377901369684 -0.27452386851427152 0.75273368542341679 -1.0980507513708566 0.43525658172237075 -0.59516140279211449 0.99898404330952206 0.41037609674151881 -0.028220207130362534 0.17910283779409722 1.0398912037715964 -0.5596407152451438 -1.0162991199300253 1.0000000180025095e-35 0.48629745447807921 -1.5288669541196163 0.19882246242413082 0.35610280357291085 0.17773770264336508 1.0000000180025095e-35 0.099216659364178963 0.90255729558636022 -0.94599745474393415 -1.0000000180025095e-35 -1.0980507513708566 -1.0000000180025095e-35 0.5760015467225249 0.38960847668467469 0.38960847668467469 -1.0581897794921298 0.69795770215589858 1.0000000180025095e-35 -0.30210776826491731 1.0330516354656409 0.028009938216187118 1.0000000180025095e-35 -1.3539172219125148 1.0000000180025095e-35 0.87494307042376496 -0.89210220608549806 1.0000000180025095e-35 -1.2263470254627162 -0.65000888522831513 1.0000000180025095e-35 -0.090251632744107371 0.85764140118449761 0.74176848693754283 -0.65305330128864747 0.53569660163839472 -0.474277549906236 -0.89210220608549806 0.51788711041637547 -0.77077940607471096 -0.029107369905348086 1.0000000180025095e-35 1.8203392933903484 -0.89952640684440288 -0.1437653573689347 0.20844448215949157 -1.0000000180025095e-35 -0.49494821273056938 -1.0000000180025095e-35 -1.1224510309110374 -1.4910747804649234 -0.14675552871869293 0.8308804588333315 1.0000000180025095e-35 0.099216659364178963 0.48436488920577964 0.19063022811999894 1.0000000180025095e-35 0.5760015467225249 -0.30610697994772257 1.0000000180025095e-35 -0.17579119958522305 0.052606771721749393 -1.4116387045190659 1.0000000180025095e-35 -0.25237008064346195 -0.35341416272567416 -0.37314379842443768 -0.68486821935503672 1.3282037309619272 0.65274120213281839 1.423542671460599 -1.0917035420692713 0.38068645339981849 -0.13528130431204144 1.0000000180025095e-35 0.55607764252710379 -0.82702645705031486 0.055458102655161587 0.60826222307029931 1.4081977862984802
decision_type=2 2 2 2 2 2 2 2 2 2 2 2 2 2 2 2 2 2 2 2 2 2 2 2 2 2 2 2 2 2 2 2 2 2 2 2 2 2 2 2 2 2 2 2 2 2 2 2 2 2 2 2 2 2 2 2 2 2 2 2 2 2 2 2 2 2 2 2 2 2 2 2 2 2 2 2 2 2 2 2 2 2 2 2 2 2 2 2 2 2 2 2 2 2
left_child=1 5 7 26 8 6 9 16 23 32 17 29 69 14 19 -10 21 50 31 27 93 34 -17 24 87 -6 40 49 36 -9 41 -13 -1 55 35 53 -25 -20 43 -23 -4 -24 -43 -39 77 63 47 48 54 -7 88 -33 -36 -2 -34 76 57 73 -26 -49 -61 -51 -63 -16 -41 66 67 -44 -31 -8 71 -52 -42 -11 -67 -64 -18 -27 -73 -29 81 -19 83 -38 -14 -58 -87 -3 -5 90 -78 92 -88 -12
right_child=2 4 3 10 25 13 12 11 15 56 20 18 84 -15 45 22 33 80 37 -21 -22 39 30 28 58 44 -28 79 -30 68 -32 51 46 -35 52 -37 82 38 -40 64 72 42 65 -45 -46 -47 -48 59 -50 61 70 -53 -54 -55 -56 -57 85 -59 -60 60 -62 62 75 -65 -66 74 -68 -69 -70 -71 -72 78 -74 -75 -76 -77 89 -79 -80 -81 -82 -83 -84 -85 -86 86 91 -89 -90 -91 -92 -93 -94 -95
leaf_value=-0.037883556803895373 0.016259337733744793 -0.0014753569887640575 0.039687591676362037 0.023698332905769351 -0.034359452810815788 -0.02820067656441377 -0.056235232662696102 0.010480223115729659 0.014691238231908264 -0.049087804829468951 0.051140247538000685 0.0030474741519719833 -0.037922662197952234 0.022309188970497676 -0.012150989450952587 0.010878069001257481 0.0054709225216753449 0.051325544839104023 0.012937786593776791 -0.0018004269931432709 0.035185434158310429 -0.022167528296510378 0.0061867081679349003 0.015905581870012814 -0.018902471010002465 -0.028082095673056071 0.072388486493201495 -0.028923044203395917 -0.015950711607001723 0.025301654851346306 0.0062939269046421303 0.0033223368500064059 -0.02619474210557254 -0.032225547581911089 0.014853140337464328 0.017690451481663014 -0.0054433139624785742 0.025163942982684463 -0.0011672598775476217 0.0088125566919137477 0.067071553662016586 -0.021070636559518116 0.00029830713054380525 0.040956772264184024 -0.012305408610644428 -0.057483380784591045 -0.039664449526563936 -0.023477990718919931 0.0028809640142652727 -0.017602863855813469 0.028864282601696673 0.017159214445896315 0.03086421171219313 -0.00677305879015919 0.0014002904334726434 0.024606521055102349 -0.019639405409495037 -0.062582197947346638 0.0075550241582095631 -0.027168462146073574 0.0046584309503992297 0.013118389202281833 -0.0069439899548888219 -0.032707796394889653 -0.015135508571536498 0.024093045254370997 -0.022494536701284734 -0.010242635486667076 0.041092768235474218 -0.082194771803915503 0.0081420708447694778 0.061341679773547431 0.05368342482650177 -0.022007953240112826 -0.0002482868198837553 -0.031677666306495669 -0.023411050066351892 -0.015380986921994364 0.034891168874067562 -0.015417679289684579 0.0042012641982485856 0.020219109387569902 -0.026132886521518229 0.0040332204474284551 -0.059819653901186855 -0.030501643865231853 -0.041609368192685119 0.025182368475943809 0.047542421693320985 -0.01178389906098007 0.0047161672670027301 -0.057370753871167413 -0.021906372238146635 0.072485249737898508
leaf_weight=45 19 24 43 10.999999999999998 55 52 104 19 153 24 87 80 252 13.999999999999998 17 155 110 11.999999999999998 69 57 109 14.999999999999998 85 27 226 74 42 184 84 33 183 41 34 9.9999999999999982 52 92 248 208 13.999999999999998 71 37 31 199 41 208 11.999999999999998 23 380 27 226 218 399 58 42 11.999999999999998 11.999999999999998 14.999999999999998 23 9.9999999999999982 12.000000000000002 18 13.999999999999998 50 144 12.999999999999998 13.999999999999998 29 104 98 9.9999999999999982 11.999999999999998 10.999999999999998 231 10.999999999999998 28 10.999999999999998 9.9999999999999982 59 24 34 18 263 9.9999999999999982 73 10.999999999999998 61 154 9.9999999999999982 44 51 66 17 19 11.999999999999998
leaf_count=45 19 24 43 11 55 52 104 19 153 24 87 80 252 14 17 155 110 12 69 57 109 15 85 27 226 74 42 184 84 33 183 41 34 10 52 92 248 208 14 71 37 31 199 41 208 12 23 380 27 226 218 399 58 42 12 12 15 23 10 12 18 14 50 144 13 14 29 104 98 10 12 11 231 11 28 11 10 59 24 34 18 263 10 73 11 61 154 10 44 51 66 17 19 12
internal_value=0 -0.0167197 0.0248434 0.038371 -0.00479255 -0.0287737 -0.0337667 0.0150581 -0.00152202 -0.0290183 0.0309601 0.0200373 -0.0447876 -0.0211034 -0.0218622 0.00370078 0.00702397 0.0265318 0.0176247 -0.0189576 0.0440108 0.0119085 0.00166994 -0.00871804 -0.0147407 -0.0187749 0.0556074 -0.0206703 -0.00503904 0.0337411 -0.000450807 0.0138972 -0.0228256 0.000196919 0.0160246 0.0107973 -0.00247876 0.0234629 0.0262243 0.000973909 0.0533411 -0.00296976 -0.00489149 0.0277644 -0.0162612 -0.0324063 -0.0214864 -0.0206208 -0.0109045 -0.0168744 0.0320463 0.0158699 0.0232953 0.000400966 -0.018996 0.00149903 -0.0395498 -0.0493032 -0.0177814 -0.0223507 -0.00807233 -0.0149178 -0.00682662 -0.0305372 0.00510631 -0.00355043 -0.00499462 -0.00331971 0.0371149 -0.0585124 0.0298199 0.0308481 0.0555318 -0.040577 0.00786549 -0.0114042 0.000329026 -0.0224478 0.0432042 -0.0268167 0.0205091 0.0215765 -0.00397839 -0.00328821 -0.0388385 -0.0374232 -0.0384859 0.00636515 0.0427736 -0.00412459 0.00101522 -0.0410493 -0.0394455 0.0537275
internal_weight=0 4156 2797 1174 2089 2067 1252 1623 1693 875 821 1002 377 815 801 981 621 613 852 628 208 362 828 712 270 396 353 571 442 150 673 520 551 259 263 153 358 332 263 99 311 490 405 249 341 173 506 483 73 353 320 440 110 61 46 249 324 58 236 410 30 301 75 161 84 374 332 303 131 114 265 253 268 35 42 61 237 133 35 218 293 275 331 321 263 266 251 34 55 127 76 190 173 99
internal_count=6953 4156 2797 1174 2089 2067 1252 1623 1693 875 821 1002 377 815 801 981 621 613 852 628 208 362 828 712 270 396 353 571 442 150 673 520 551 259 263 153 358 332 263 99 311 490 405 249 341 173 506 483 73 353 320 440 110 61 46 249 324 58 236 410 30 301 75 161 84 374 332 303 131 114 265 253 268 35 42 61 237 133 35 218 293 275 331 321 263 266 251 34 55 127 76 190 173 99
is_linear=0
shrinkage=0.05


Tree=11
num_leaves=95
num_cat=0
split_feature=7 7 7 5 6 7 4 7 7 7 2 6 0 6 4 5 6 6 7 6 15 0 4 6 5 0 5 1 5 7 0 0 0 8 2 4 1 4 7 1 8 0 0 9 2 1 8 4 7 7 6 6 5 2 7 6 19 0 15 1 5 3 0 4 1 2 6 5 3 4 6 5 4 0 4 0 2 2 6 1 5 4 0 5 5 1 5 0 5 6 4 7 4 2
split_gain=1042.6 215.701 133.658 54.2403 34.486 29.0048 23.5332 23.4383 22.97 17.2555 13.5571 11.984 11.8965 12.2095 9.58025 7.9044 7.47578 7.29534 6.82174 6.52197 6.51351 6.18127 5.88509 5.8371 5.7348 4.87856 5.45361 4.79639 4.71208 4.59171 4.44928 4.31647 4.30208 4.25936 4.19224 4.04607 3.96428 3.9473 3.93903 3.33251 3.31485 4.26015 3.25093 3.2328 3.12473 3.11787 3.07145 3.05068 3.01521 2.99648 4.18048 3.36528 2.88697 4.44724 2.82219 2.8104 2.74677 2.74553 2.73967 4.19939 2.73896 2.61648 2.50997 2.50473 2.8057 2.78047 2.6777 2.50003 2.43022 2.36786 2.30912 2.21937 2.21221 2.1832 2.17221 2.12015 2.11788 2.01502 2.00689 2.00176 1.97341 1.95926 1.93459 1.86229 1.86004 1.85342 1.84307 2.96697 2.32731 1.81238 2.14633 1.81086 1.79792 1.79522
