tree
version=v3
num_class=1
num_tree_per_iteration=1
label_index=0
max_feature_idx=21
objective=regression
feature_names=Column_0 Column_1 Column_2 Column_3 Column_4 Column_5 Column_6 Column_7 Column_8 Column_9 Column_10 Column_11 Column_12 Column_13 Column_14 Column_15 Column_16 Column_17 Column_18 Column_19 Column_20 Column_21
feature_infos=[-0.58496250072115641:1.5849625007211563] [-25.248912418052441:2.8814043831167151] [-1.6958580529454614:25.275676834914062] [-1.4627090229224107:10.195982237753583] [-3.9074842479063827:8.228870322266177] [-3.3286451817986502:5.8961276565798384] [-3.3030650159285595:5.8365755413379112] [-2.326347865140169:1.8827184988991261] [0:1] [0:1] [0:1] none [0:1] [0:1] [0:1] [0:1] [0:1] [0:1] none [0:1] [0:1] [0:1]
tree_sizes=8726 8680 8736 8751 8763 8720 8670 8720 8762 8655 8670 8807 8740 8811 8792 8801 8715 8852 8722 8838 8790 8816 8676 8767 8873 8839 8850 8858 8914 8817 8905 8832 8844 8924 9055 8948 9038 9108 9165 9058 8919 9025 9040 8998 9098 9176 9059 9046 9063 9175 9102 9091 9220 9184 9175 9228 9269 9285 9148 9122 9274 9249 9214 9247 9188 9128 9265 9261 9188 9235 9142 9253 9234 9259 9242 9276 9397 9274 9139 9095 9234 9444 9141 9245 9121 9174 9345 9078 9214 9451 9112 9423 9326 9390 9544 9300 9565 9384 9359 9357 9146 9518 9311 9288 9271 9463 9251 9488 9376 9412 9353 9646 9379 9304 9585 9497 9317 9480 9576 9300 9605 9413 9599 9332 9565 9532 9388 9297 9697 9433 9437 9485 9485 9364 9567 9485 9359 9521 9489 9491 9465 9444 9412 9479 9401 9587 9454 9339 9440 9506 9184 9593 9378 9422 9484 9605 9579 9599 9528 9453 9531 9507 9575 9509 9436 9397 9578 9672 9507 9553 9670 9602 9580 9747 9438 9542 9564 9596 9587 9501

Tree=0
num_leaves=95
num_cat=0
split_feature=7 7 7 5 4 6 7 6 7 6 2 6 2 7 7 7 6 4 0 7 1 0 5 5 0 4 6 0 0 6 7 7 6 6 6 6 0 16 0 3 3 0 5 2 7 16 6 7 8 7 2 1 4 0 2 6 3 7 9 7 5 3 6 19 7 0 4 4 7 5 4 6 6 6 4 3 3 0 6 8 7 7 4 2 5 5 8 3 1 4 7 6 1 5
split_gain=3215.69 710.88 290.206 244.112 92.2788 88.3658 77.0837 70.4761 56.2121 45.2694 41.3498 34.1534 32.778 28.6987 27.7949 24.6512 23.0125 22.4929 20.1233 19.478 19.3069 18.2899 19.5574 18.0569 14.5419 12.4395 10.9611 10.232 10.0878 9.8743 9.79645 9.74332 8.51214 10.7605 8.39879 8.3857 7.84433 7.18992 7.1714 7.15846 7.0775 6.95173 6.89718 6.48753 6.31563 6.19723 6.13137 5.85751 5.78337 7.13988 6.03795 5.7152 5.67579 5.5655 5.27885 5.20937 6.94507 5.14638 5.09076 4.95706 4.83339 4.74689 5.03479 4.72081 4.68112 4.447 4.40418 4.34178 7.1298 4.28612 4.22186 4.66986 4.19994 4.1433 4.04614 3.94986 3.87491 3.86401 3.73601 3.69238 3.62225 3.59536 3.55408 3.50106 3.45788 3.35281 3.13817 3.13052 5.29617 3.06709 3.09653 3.00763 3.00607 2.99883
threshold=-0.0054292663829023898 0.41037609674151881 -0.45756701530840244 -0.96679074834010492 0.99896100846971592 0.18652260264741236 0.95650605790247567 0.20893796902231643 -1.0162991199300253 0.48019883016041726 0.74660187133757649 0.48019883016041726 0.74660187133757649 0.79924344599863806 0.12585879549263559 0.64492414111357721 0.4239845671902992 1.4694377355218522 -1.0000000180025095e-35 -0.89952640684440288 -0.12512999117723392 1.0000000180025095e-35 -1.1094358322900122 -0.94701732200825484 -1.0000000180025095e-35 -0.31080975434383268 0.33538183520336978 -1.0000000180025095e-35 -1.0000000180025095e-35 0.88835550965684151 0.59726357084770287 0.16733286632593133 -3.1805128858049394 -1.2536285414518975 -1.1307649921509115 -0.046518060277015112 1.0000000180025095e-35 1.0000000180025095e-35 -1.0000000180025095e-35 1.0693973722735843 1.1770740569436762 -1.0000000180025095e-35 -1.8533104448087105 -0.21906578638213278 -0.75108847134507106 1.0000000180025095e-35 0.4239845671902992 1.1241222379631297 1.0000000180025095e-35 -0.64955183932028848 -0.075071387974110906 -0.92410713194870553 1.2220752290528616 -1.0000000180025095e-35 -0.63674404677240248 -1.277751912474119 -0.033042439374645585 0.62650330512866759 1.0000000180025095e-35 -0.20081988058101274 -1.8533104448087105 0.46437488160534729 -0.57312173415783374 1.0000000180025095e-35 -0.35341416272567416 1.0000000180025095e-35 1.1892074368404026 0.6967536245012188 -0.92728238192385237 -0.33765183236873403 -1.2309469733451841 0.55595144128377616 -0.61366736979448733 1.0000000180025095e-35 1.1169051115846382 -0.56292780299678047 1.080090358826032 1.0000000180025095e-35 0.44864589882199063 1.0000000180025095e-35 1.234248905614802 -0.68837615223592208 0.75043873046251852 0.17055289520941139 -0.40072562613812163 -0.32644525938532964 1.0000000180025095e-35 -0.16171512529101287 -1.3175120406085197 0.65124826504279076 -0.24840885757484252 -1.1254699814923388 -0.65987668096370278 -0.90335646421500215
decision_type=2 2 2 2 2 2 2 2 2 2 2 2 2 2 2 2 2 2 2 2 2 2 2 2 2 2 2 2 2 2 2 2 2 2 2 2 2 2 2 2 2 2 2 2 2 2 2 2 2 2 2 2 2 2 2 2 2 2 2 2 2 2 2 2 2 2 2 2 2 2 2 2 2 2 2 2 2 2 2 2 2 2 2 2 2 2 2 2 2 2 2 2 2 2
left_child=2 7 4 13 5 23 11 10 -6 12 21 15 18 30 24 36 47 27 20 63 59 22 60 42 46 57 32 44 52 37 51 61 -20 69 -17 45 -5 38 86 64 89 58 -1 -43 -10 67 -9 -8 53 93 -51 -3 -12 54 -21 56 -23 -13 -24 -4 -2 62 -30 79 -14 -15 -46 68 75 -34 92 -72 -69 -32 -38 91 82 -36 -26 -7 -18 -44 -22 85 -47 -77 -11 -48 -89 -35 -91 -25 -16 -50
right_child=1 3 9 6 8 19 16 14 17 29 28 25 39 65 70 34 80 -19 26 48 76 55 41 35 78 -27 -28 -29 31 -31 73 -33 33 40 77 -37 74 -39 -40 -41 -42 43 81 -45 66 84 87 -49 49 50 -52 -53 -54 -55 -56 -57 -58 -59 -60 -61 -62 -63 -64 -65 -66 -67 -68 72 -70 -71 71 -73 -74 -75 -76 83 -78 -79 -80 -81 -82 -83 -84 -85 -86 -87 -88 88 -90 90 -92 -93 -94 -95
leaf_value=0.00052873153358562821 0.049018512166579986 0.027799631158309954 -0.0081745240408176607 0.01993128578823726 -0.10345361208745253 -0.1107104163033843 0.064968141358984877 -0.014298156193291549 -0.072155973921673999 -0.056726888600905072 -0.064416395197117796 0.019233561055899087 -0.045333134321075899 0.07393787502113687 0.036040722929361245 0.070008269209144852 0.045054319973439033 -0.13659149680617175 -0.03619983165456292 -0.082279848173518036 -0.028548558618037598 0.024630919145219306 -0.036630636782180342 -0.04858749563204965 -0.0068319940029634508 0.0065011622709338574 -0.028346592633319911 -0.044332858239191003 -0.022930050527943186 -0.086992435497573795 0.082557556220922756 0.0092465573567017071 0.040140437867498512 -0.0066598635071151999 0.026190736636111583 -0.057150238594435195 0.040104376650920023 -0.051269138876526628 -0.027339579184501538 0.0026799062420157374 -0.039585328658001843 0.0030022077658615975 -0.032622134697711559 0.015847533940737773 -0.04737645279325766 -0.0086446800823780125 -0.034723393659618705 0.084320686699999578 -0.044045828400558026 -0.030487021974799258 -0.060516004521266306 0.062132705592039005 -0.012369293964979272 -0.05243603172732117 -0.063419516042500595 0.025616588566840952 0.069194651815802866 0.031524648612828436 -0.0015089977006884632 0.01998210280803122 0.021563188093408573 -0.038199898783163204 0.00048475870146698547 -0.064072026110765568 -0.03079909123938818 0.098251822299847455 -0.070586010275649577 -0.040441596120175935 -0.037120407142866602 0.0045735906497118657 0.0047109011100867565 -0.014473905483367923 0.0013911036306845927 0.067319364263066755 0.022233545679716988 -0.01515507387327872 -0.05480935930246756 0.050032820311182245 -0.019431183939967879 -0.082521673196772824 0.065624530843664139 -0.016975601847735743 -0.0088726683627339421 -0.072269319338134699 -0.032991745400753843 -0.04687011394607745 -0.033326814640379301 -0.042378010846254435 -0.092654436760585379 -0.018225315803241951 0.0096777583336611107 -0.080903380907652006 0.0075075039979545068 -0.070408995913753894
leaf_weight=29 17 15.999999999999998 54 84 116 26 68 10.999999999999998 142 38 11.000000000000002 102 96 21 9.9999999999999982 54 121 9.9999999999999982 21 55 280 18 12.999999999999998 12.000000000000002 96 65 57 75 38 10.999999999999998 108 88 18 320 18 64 220 81 139 11.999999999999998 14.999999999999998 206 88 188 60 25 10.000000000000002 92 13.999999999999998 47 26 50 9.9999999999999982 66 114 238 17 516 50 22 281 15.999999999999998 58 12.999999999999998 131 180 31 12.000000000000002 261 15.999999999999998 79 53 11.999999999999998 76 37 9.9999999999999982 12.999999999999998 304 152 21 26 63 25 10.999999999999998 35 50 23 10.000000000000002 10.999999999999998 11.999999999999998 58 18 120 47
leaf_count=29 17 16 54 84 116 26 68 11 142 38 11 102 96 21 10 54 121 10 21 55 280 18 13 12 96 65 57 75 38 11 108 88 18 320 18 64 220 81 139 12 15 206 88 188 60 25 10 92 14 47 26 50 10 66 114 238 17 516 50 22 281 16 58 13 131 180 31 12 261 16 79 53 12 76 37 10 13 304 152 21 26 63 25 11 35 50 23 10 11 12 58 18 120 47
internal_value=-4.26876e-09 0.029573 -0.0390917 0.0489286 -0.0540893 -0.0464988 0.0402847 0.00638066 -0.0736599 -0.0229396 0.0129561 0.0353091 -0.0184755 0.0816451 -0.00849738 0.0429312 0.0629744 -0.0627918 -0.0141518 -0.0643182 -0.0226643 0.0171742 0.0131639 -0.0354198 -0.0191617 0.0273076 -0.00766456 -0.0603957 -0.00666516 -0.0405207 0.0703357 -0.00320364 -0.00510179 -0.00361418 0.0517603 -0.0402251 0.033196 -0.0387016 -0.0336117 -0.0349561 -0.0058823 0.00666552 -0.0218049 0.00913145 -0.0655661 -0.0377964 -0.0463689 0.0760959 -0.0600221 -0.0517326 -0.0411823 0.0538095 -0.0396321 -0.0647489 -0.0695575 0.0282653 0.0462762 0.029496 -0.00875632 -2.39215e-05 0.0231294 -0.0129859 -0.0087836 -0.0907394 -0.0369456 0.0957116 -0.055283 -0.0401201 -0.0414855 0.0234031 0.00330669 -0.00299209 -0.0195252 0.0762635 0.0375315 -0.0527656 -0.0280753 0.0487 -0.0145541 -0.0981154 0.0486926 -0.0260941 -0.0269358 -0.0463383 -0.0228471 -0.0415843 -0.0479039 -0.0577488 -0.0687133 -0.00458603 0.00489437 -0.067977 0.00970237 -0.0643584
internal_weight=0 3959 2995 2158 1553 1119 1707 1801 434 1442 1249 1400 1150 451 552 717 307 318 911 429 394 1028 755 690 290 683 517 308 221 292 250 200 460 439 376 510 341 281 200 239 405 457 180 394 233 446 42 160 369 134 73 66 21 235 169 273 35 618 63 76 298 112 96 60 227 201 91 386 362 34 262 132 24 184 257 101 318 322 248 47 147 151 305 71 60 60 61 31 21 390 70 30 130 61
internal_count=6954 3959 2995 2158 1553 1119 1707 1801 434 1442 1249 1400 1150 451 552 717 307 318 911 429 394 1028 755 690 290 683 517 308 221 292 250 200 460 439 376 510 341 281 200 239 405 457 180 394 233 446 42 160 369 134 73 66 21 235 169 273 35 618 63 76 298 112 96 60 227 201 91 386 362 34 262 132 24 184 257 101 318 322 248 47 147 151 305 71 60 60 61 31 21 390 70 30 130 61
is_linear=0
shrinkage=1


Tree=1
num_leaves=95
num_cat=0
split_feature=7 7 7 5 4 6 7 6 7 6 2 6 2 7 7 7 6 4 0 7 0 5 5 5 0 4 6 0 0 7 6 7 6 6 6 6 3 1 3 3 0 5 7 6 4 16 7 0 6 8 7 2 4 7 6 0 1 1 7 0 7 7 9 7 3 6 19 7 1 3 0 4 0 8 5 5 6 3 5 8 7 7 7 2 5 3 1 4 5 9 6 1 1 2
split_gain=2902.16 641.569 261.911 220.414 83.3759 77.8102 71.0457 63.6047 51.5874 40.9008 37.3182 31.9467 29.9631 25.1084 23.9168 21.7021 21.4041 20.3631 19.379 17.8725 16.5066 17.6506 16.203 16.0785 13.8483 11.2266 9.52505 9.18766 9.10427 9.05899 9.02537 8.79334 7.66234 7.61793 7.68221 9.71133 7.0677 6.6136 6.46051 6.38744 6.27394 6.2247 5.94237 5.88222 5.82214 6.45462 6.43465 5.55441 5.53356 5.18718 6.1713 5.50676 5.1224 5.1036 5.14748 4.9836 5.13601 4.88558 4.82906 4.81275 4.65158 4.64461 4.59441 4.45142 4.28407 4.5439 4.26053 4.22471 4.19713 4.3747 4.12517 4.0987 3.87032 4.64487 3.86822 3.64836 3.61456 3.56475 3.56417 3.33237 3.26908 3.24995 3.186 3.1597 3.12074 3.04485 3.2028 3.03293 3.02591 2.99117 2.93499 2.90148 2.85148 3.45457
threshold=-0.0054292663829023898 0.41037609674151881 -0.45756701530840244 -1.0377817267602831 0.95491882395990169 0.18652260264741236 0.95650605790247567 0.20893796902231643 -1.0162991199300253 0.43346536179713829 0.74660187133757649 0.48019883016041726 0.74660187133757649 0.20921111469174231 0.6613558106386257 0.62650330512866759 0.4239845671902992 1.4694377355218522 -1.0000000180025095e-35 -0.89952640684440288 1.0000000180025095e-35 -1.1094358322900122 -0.52042449127318657 -0.94701732200825484 -1.0000000180025095e-35 -0.31080975434383268 -1.1307649921509115 -1.0000000180025095e-35 -1.0000000180025095e-35 0.79924344599863806 0.88835550965684151 0.16733286632593133 -0.046518060277015112 0.33538183520336978 -3.1805128858049394 -1.2536285414518975 0.021116601087300107 -0.92410713194870553 1.0693973722735843 1.1770740569436762 -1.0000000180025095e-35 -1.8533104448087105 -0.75108847134507106 -0.5314980062042266 0.6967536245012188 1.0000000180025095e-35 -0.92728238192385237 1.0000000180025095e-35 0.4239845671902992 1.0000000180025095e-35 -0.64955183932028848 -0.062879404215040471 1.2220752290528616 0.24138863973992919 -1.2536285414518975 -1.0000000180025095e-35 -0.33228227999269516 0.064047347894159223 1.1241222379631297 1.0000000180025095e-35 -0.20081988058101274 0.62650330512866759 1.0000000180025095e-35 0.1095346755611321 0.46437488160534729 -0.57312173415783374 1.0000000180025095e-35 -0.35341416272567416 -1.2678046973119708 1.4907664856072247 1.0000000180025095e-35 1.1892074368404026 -1.0000000180025095e-35 1.0000000180025095e-35 -0.33765183236873403 -1.8533104448087105 0.44864589882199063 -0.56292780299678047 -0.40757236268739555 1.0000000180025095e-35 1.234248905614802 -0.64955183932028848 1.1940720653011043 0.17055289520941139 -0.40072562613812163 1.080090358826032 1.0491142505340101 -2.0745638092139158 -0.32644525938532964 1.0000000180025095e-35 -0.38311487346319212 0.77525613651893344 -0.11623379794209888 -0.90013792590951347
decision_type=2 2 2 2 2 2 2 2 2 2 2 2 2 2 2 2 2 2 2 2 2 2 2 2 2 2 2 2 2 2 2 2 2 2 2 2 2 2 2 2 2 2 2 2 2 2 2 2 2 2 2 2 2 2 2 2 2 2 2 2 2 2 2 2 2 2 2 2 2 2 2 2 2 2 2 2 2 2 2 2 2 2 2 2 2 2 2 2 2 2 2 2 2 2
left_child=2 7 4 14 5 23 11 10 -6 12 20 15 18 24 37 47 58 27 22 66 21 63 60 41 48 61 -17 42 52 -16 36 64 44 34 -20 74 57 -3 67 -37 62 -1 -10 -42 45 46 77 -5 -9 55 -51 -52 -12 -22 -55 56 -21 -11 -8 -28 -4 -13 -23 90 65 -30 79 -14 -15 92 -31 -44 73 -38 -36 -65 -26 -25 -61 -7 -18 -43 -72 88 -47 86 -24 -78 -79 -80 -2 -49 -70 -94
right_child=1 3 9 6 8 19 16 13 17 30 28 25 38 68 29 26 80 -19 33 49 53 40 85 32 76 -27 59 -29 31 70 -32 -33 -34 -35 35 39 72 -39 -40 -41 43 81 71 -45 -46 84 -48 91 -50 50 51 -53 -54 54 -56 -57 -58 -59 -60 78 -62 -63 -64 75 -66 -67 -68 -69 69 -71 82 -73 -74 -75 -76 -77 87 83 89 -81 -82 -83 -84 -85 -86 -87 -88 -89 -90 -91 -92 -93 93 -95
leaf_value=0.00050229895217665315 0.025700165611969961 0.024470696399609249 -0.0086921431048184016 0.018370404693524581 -0.098014393550717949 -0.10517489285423205 0.062464069337516595 -0.013583243773742157 -0.068015772344604625 -0.042466670964810868 -0.061195570636879297 0.018271887094220698 -0.043066472715387744 -0.0088118212335571953 0.075076848628863796 0.066020445393458499 0.042801608360749636 -0.12976191964000464 -0.034389836589495341 -0.059493972992926247 0.020569224709430962 -0.034799100920701258 -0.026431325493858761 -0.064578172117471702 -0.0063641984403067457 0.006176108382642269 0.026014048269679471 -0.042227885746336603 -0.021783544164837191 0.06981811940670013 -0.082642809911207718 0.0087842339141802357 -0.054292722285026684 -0.024865136882465968 0.038133420298496888 -0.0043567204714203495 -0.052033335645053837 0.061055756764752528 0.002545914798974991 -0.037606057080750668 0.018075134159408063 -0.030828382117033471 -0.044906184042338287 0.0047043778583918455 -0.0061658692080527547 -0.0082124417610466485 -0.035264382251516929 0.029432993826846922 -0.054861356558338292 -0.060767637665073086 -0.03010364584270956 -0.060032027147032999 -0.011750825047492981 0.059864852511707478 0.030265244334522226 -0.049814226546070796 -0.07833989020437003 -0.072641625162214049 0.079843547195196152 0.060421735888755906 0.018983002032407308 0.029948419980278831 -0.0014335436485707761 0.058241408792409036 -0.036289899502298793 0.00046052482492964849 -0.060868420222630872 -0.029259132161089541 0.0097108834293172797 0.039797592014074325 0.088410261719026301 -0.0670567075331365 -0.026528446567613335 -0.019048684140046439 0.0043449156219139695 0.027506609298760379 0.0012900149682536723 -0.014397315829992294 0.035718608605609818 -0.07839558507714954 0.062343310758184937 -0.015879429273734817 0.10225119415451499 -0.068655849044973211 -0.031342153352286135 -0.04933359048196248 0.0023425280302762984 -0.020496132329735961 -0.044526604056358339 0.047384629705959143 0.013399640792085013 0.041426133688758401 -0.03067566301673651 0.0022650402540770865
leaf_weight=29 77 14.999999999999998 49 74 117 26 69 10.999999999999998 155 83 11.000000000000002 102 96 49 153 62 121 9.9999999999999982 21 102 148 12.999999999999998 294 30 113 65 31 77 38 20 10.999999999999998 88 64 53 18 390 37 70 11.999999999999998 14.999999999999998 117 90 64 277 15.999999999999998 25 261 124 31 60 51 22 9.9999999999999982 17 108 66 56 15.999999999999998 95 41 22 516 50 10.999999999999998 15.999999999999998 58 12.999999999999998 131 129 9.9999999999999982 107 31 139 14.999999999999998 15.999999999999998 79 18 9.9999999999999982 71 21 26 61 68 10.999999999999998 35 13.999999999999998 9.9999999999999982 142 50 243 131 85 9.9999999999999982 39
leaf_count=29 77 15 49 74 117 26 69 11 155 83 11 102 96 49 153 62 121 10 21 102 148 13 294 30 113 65 31 77 38 20 11 88 64 53 18 390 37 70 12 15 117 90 64 277 16 25 261 124 31 60 51 22 10 17 108 66 56 16 95 41 22 516 50 11 16 58 13 131 129 10 107 31 139 15 16 79 18 10 71 21 26 61 68 11 35 14 10 142 50 243 131 85 10 39
internal_value=0 0.0280943 -0.0371371 0.0464822 -0.0513848 -0.0439386 0.0384762 0.00606163 -0.0694098 -0.0217926 0.0123083 0.0337174 -0.0174675 -0.0080725 0.0783766 0.0409819 0.0601128 -0.0594788 -0.0132968 -0.0609529 0.0163155 0.0125057 -0.021713 -0.0335354 -0.0173222 0.0259423 0.0478292 -0.0573295 -0.0063319 0.0841842 -0.0381877 -0.00304345 -0.0381326 -0.00691487 -0.00484669 -0.00343347 -0.0365014 0.0545996 -0.0332083 -0.00558818 0.00633225 -0.0207146 -0.0619808 0.00867488 -0.0357712 -0.0368937 -0.0394112 0.0301425 -0.0440504 -0.0567093 -0.0488876 -0.0391232 -0.0376505 0.026852 0.0342908 -0.0613534 -0.0661735 -0.0473434 0.0725314 0.0449073 -0.000116746 0.0280212 -0.0083185 0.021973 -0.0123366 -0.00834442 -0.0862024 -0.0350984 0.00422144 0.0076184 0.09133 -0.0521342 -0.0308818 -0.0425185 0.0222329 0.0312631 -0.0132102 -0.0501274 0.0465571 -0.0932097 0.046258 -0.0247894 0.0937885 -0.0440214 -0.0217048 -0.0265348 -0.0254848 -0.0180452 -0.0395051 0.0447468 0.0179532 0.0343106 0.00581058 -0.00445755
internal_weight=0 3959 2995 2158 1553 1099 1725 1801 454 1442 1249 1414 1141 552 433 731 311 337 902 417 1028 755 389 682 315 683 448 327 221 348 301 200 502 513 460 439 290 85 239 405 457 180 250 394 438 422 362 283 42 357 133 73 21 273 125 224 158 99 164 386 71 618 63 298 112 96 60 227 237 188 195 95 191 52 34 90 273 101 355 47 147 151 175 71 60 318 304 160 60 314 208 209 178 49
internal_count=6954 3959 2995 2158 1553 1099 1725 1801 454 1442 1249 1414 1141 552 433 731 311 337 902 417 1028 755 389 682 315 683 448 327 221 348 301 200 502 513 460 439 290 85 239 405 457 180 250 394 438 422 362 283 42 357 133 73 21 273 125 224 158 99 164 386 71 618 63 298 112 96 60 227 237 188 195 95 191 52 34 90 273 101 355 47 147 151 175 71 60 318 304 160 60 314 208 209 178 49
is_linear=0
shrinkage=0.05


Tree=2
num_leaves=95
num_cat=0
split_feature=7 7 7 5 4 6 7 6 7 6 2 6 2 7 7 7 6 4 0 7 0 5 5 1 0 4 0 1 0 0 7 7 6 6 6 6 6 0 3 3 0 5 2 4 7 16 7 8 7 2 2 4 7 6 1 0 2 7 7 7 9 0 0 7 1 1 6 6 6 19 4 7 6 5 3 4 2 5 4 6 2 5 3 3 2 0 6 2 7 3 7 5 4 7
split_gain=2619.2 579.016 236.375 198.958 75.2639 72.0188 62.774 57.4032 45.7896 36.913 33.6797 27.802 27.0417 23.4071 22.663 20.3367 18.7312 18.3143 17.4896 15.8646 14.8972 15.9296 14.689 14.6513 11.8396 10.132 8.35412 8.26925 10.004 8.2166 7.99458 7.93599 6.87518 6.93319 8.76448 6.83956 6.82211 6.40867 5.83061 5.76466 5.66223 5.61779 5.46255 5.23837 5.15986 5.03874 4.79848 4.70373 5.82254 4.97625 4.62978 4.62297 4.606 4.6456 4.597 4.53088 4.47809 4.35273 4.24385 4.19176 4.14645 4.08483 4.05692 4.0174 4.01017 3.86967 3.71445 3.68859 3.67679 3.62005 3.61618 5.80727 3.69156 3.60082 3.57834 3.53457 3.49673 3.49107 3.42967 3.92271 3.29863 3.29265 3.21719 3.21513 3.18737 3.18063 3.06979 6.25694 3.62073 3.05628 3.0432 3.03774 2.99716 2.95035
threshold=-0.0054292663829023898 0.41037609674151881 -0.45756701530840244 -0.96679074834010492 0.99896100846971592 0.18652260264741236 0.95650605790247567 0.20893796902231643 -1.0162991199300253 0.43346536179713829 0.74660187133757649 0.48019883016041726 0.74660187133757649 0.79924344599863806 0.12585879549263559 0.64492414111357721 0.4239845671902992 1.4694377355218522 -1.0000000180025095e-35 -0.89952640684440288 1.0000000180025095e-35 -1.1094358322900122 -0.94701732200825484 -0.0053099774655793125 -1.0000000180025095e-35 -0.31080975434383268 -1.0000000180025095e-35 -0.12512999117723392 1.0000000180025095e-35 -1.0000000180025095e-35 0.59726357084770287 0.16733286632593133 0.33538183520336978 -3.1805128858049394 -1.2536285414518975 -0.046518060277015112 -1.1307649921509115 1.0000000180025095e-35 1.0693973722735843 1.1770740569436762 -1.0000000180025095e-35 -1.8533104448087105 -0.21906578638213278 -0.027188278752672743 -0.75108847134507106 1.0000000180025095e-35 1.1241222379631297 1.0000000180025095e-35 -0.64955183932028848 -0.075071387974110906 -0.90013792590951347 1.2220752290528616 0.24138863973992919 -1.2536285414518975 -0.92410713194870553 -1.0000000180025095e-35 -0.9175025805860314 -0.36180344176969975 -0.20081988058101274 0.62650330512866759 1.0000000180025095e-35 -1.0000000180025095e-35 0.5760015467225249 0.1095346755611321 -0.18096350217462223 -0.87701180606974349 -0.57312173415783374 1.0000000180025095e-35 0.82530542688640651 1.0000000180025095e-35 0.6967536245012188 -0.92728238192385237 -0.61366736979448733 -0.15938199136941672 0.25339069719581958 1.1169051115846382 0.27874134579203763 -0.33765183236873403 -1.2309469733451841 0.55595144128377616 -1.0722522719320622 -1.8533104448087105 -0.56292780299678047 1.080090358826032 -0.69111579900955344 1.0000000180025095e-35 -0.21157002808924211 0.551781888425393 -1.0162991199300253 0.15155007071988466 0.072779113123791303 -1.1956518565263308 0.75043873046251852 1.234248905614802
decision_type=2 2 2 2 2 2 2 2 2 2 2 2 2 2 2 2 2 2 2 2 2 2 2 2 2 2 2 2 2 2 2 2 2 2 2 2 2 2 2 2 2 2 2 2 2 2 2 2 2 2 2 2 2 2 2 2 2 2 2 2 2 2 2 2 2 2 2 2 2 2 2 2 2 2 2 2 2 2 2 2 2 2 2 2 2 2 2 2 2 2 2 2 2 2
left_child=2 7 4 13 5 22 11 10 -6 12 20 15 18 30 24 37 46 26 23 64 21 63 41 58 43 59 44 57 68 51 54 65 33 -20 77 45 -17 -5 61 -36 60 -1 -42 50 -10 70 -8 55 -49 -50 -9 -12 -22 -54 -3 56 -21 -11 -4 -13 -23 -14 91 -2 69 -31 -67 -32 -29 -7 71 82 -72 -46 -75 -39 -59 -35 -16 -80 -26 -65 -24 92 -66 -38 88 89 -43 -88 -82 -15 -25 -18
right_child=1 3 9 6 8 19 16 14 17 27 29 25 38 62 78 36 93 -19 32 47 52 40 35 83 80 -27 -28 28 -30 31 67 -33 -34 34 39 -37 85 75 -40 -41 42 86 -44 -45 73 -47 -48 48 49 -51 -52 -53 53 -55 -56 -57 -58 76 -60 -61 -62 -63 -64 81 84 66 -68 -69 -70 -71 72 -73 -74 74 -76 -77 -78 -79 79 -81 90 -83 -84 -85 -86 -87 87 -89 -90 -91 -92 -93 -94 -95
leaf_value=0.00047718391207785443 0.017055540595230505 0.02522424600319937 -0.0083185461312532422 0.017909431364941632 -0.093380208262081807 -0.081855212986469278 0.058596534599714423 -0.060185643415898084 -0.065147381354595579 -0.045251528918743136 -0.058135791224512172 0.017358292785345338 -0.045803362481734333 0.085785955391010318 0.0087543812225787682 0.063206835767185249 0.04066152753662472 -0.12327382244169711 -0.032670344270410989 -0.081036093990717623 0.019540763865822826 -0.03305914585406964 -0.06134926209847133 -0.025696703786945049 -0.035099083962268199 0.0058673029278333375 -0.040004817535479867 -0.048342775122610614 -0.0048578405609497662 -0.041402136161923411 0.074774090200662613 0.0083450223657895225 -0.023621879960849603 0.036226749420166016 -0.0041388844121963931 -0.051578087080270056 0.023580502180589571 0.036222471861084078 0.0024186201393604279 -0.035725754462182527 0.0026168827266427825 -0.054779852697482478 0.01440388428943945 -0.073435641825199127 -0.040272878062851888 -0.020619534947133315 0.076112480655960421 -0.058096185009010509 -0.027457484458275935 -0.054718818114354063 -0.019154501229058953 -0.011163284089416267 0.05687160831602181 0.028751981632646036 0.056015971243381507 -0.047323515410817259 -0.059144824061622019 -0.023464025721065145 0.01803385175087235 0.028450999451194739 -0.0013618661351501942 -0.029732896724123173 0.098422132604397264 0.055329339883544229 -0.11753246106884692 -0.020688850699225443 -0.0011458396280725157 0.060396356684596919 -0.080155433118343361 -0.047435130077329551 -0.037008873311181849 -0.033501163487575973 0.002210390940308571 -0.068907493341248488 -0.036891156435012819 0.019519549905246982 -0.054113984107971191 0.0041276694508269431 0.0043726714728753785 -0.013210549878553962 -0.015820782384002544 0.026131278101967859 -0.041820308059276889 -0.049602208515772454 -0.080962527142121252 0.045211732098648913 -0.0036925021053840672 0.010215617248083137 -0.025716378191699748 -0.030373323071968196 -0.0038078664583556447 0.067982489642066254 -0.0076253937873989354 0.059226143360137942
leaf_weight=29 208 15.999999999999998 50 84 116 25 68 9.9999999999999982 142 35 11.000000000000002 102 51 119 130 54 121 9.9999999999999982 21 28 148 12.999999999999998 30 279 15.999999999999998 65 75 99 12.999999999999998 9.9999999999999982 108 88 53 18 390 64 18 220 11.999999999999998 14.999999999999998 206 12.999999999999998 188 9.9999999999999982 47 60 92 61 47 26 22 9.9999999999999982 17 108 50 66 141 134 22 516 50 176 52 10.999999999999998 11.000000000000002 40 62 76 9.9999999999999982 10.999999999999998 12.000000000000002 261 11.999999999999998 32 11.999999999999998 37 9.9999999999999982 15.999999999999998 79 53 151 79 71 12.999999999999998 12.999999999999998 304 13.999999999999998 17 61 46 81 30 25 26
leaf_count=29 208 16 50 84 116 25 68 10 142 35 11 102 51 119 130 54 121 10 21 28 148 13 30 279 16 65 75 99 13 10 108 88 53 18 390 64 18 220 12 15 206 13 188 10 47 60 92 61 47 26 22 10 17 108 50 66 141 134 22 516 50 176 52 11 11 40 62 76 10 11 12 261 12 32 12 37 10 16 79 53 151 79 71 13 13 304 14 17 61 46 81 30 25 26
internal_value=0 0.0266896 -0.0352802 0.0441581 -0.0488155 -0.0419605 0.0363544 0.00575855 -0.0664901 -0.020703 0.0116929 0.0318644 -0.0165942 0.0736942 -0.00766888 0.0387413 0.0568301 -0.0566811 -0.0126319 -0.0580475 0.0154998 0.0118804 -0.0319587 -0.0206273 -0.0172985 0.0246451 -0.054519 -0.0362783 -0.0463167 -0.0060153 0.0634804 -0.00289128 -0.00656913 -0.00460436 -0.00326179 -0.0362927 0.0467606 0.029899 -0.0315479 -0.00530877 0.00601564 -0.0196789 0.00824114 -0.0418479 -0.0591909 -0.0340993 0.0686682 -0.0541703 -0.0466945 -0.037167 -0.0319767 -0.0357679 0.0255094 0.0325763 0.0485513 -0.0584331 -0.0627718 -0.0294364 -0.000266425 0.0266202 -0.00790257 -0.0333434 0.0863978 0.0208743 -0.0818923 -0.0117198 -0.00880977 0.0688355 -0.0512614 -0.071338 -0.0361946 -0.0374407 -0.0173992 -0.0498963 -0.0601758 0.0338178 -0.0255925 0.0211213 0.00298989 -0.00268726 -0.013141 0.0296999 -0.047621 -0.0252519 -0.0977237 0.0440025 -0.0235499 -0.0165611 -0.0308221 -0.0241478 -0.0116266 0.0822014 -0.0242106 0.0439451
internal_weight=0 3959 2995 2158 1553 1119 1707 1801 434 1442 1249 1400 1141 451 552 717 307 318 902 429 1028 755 690 389 290 683 308 301 122 221 250 200 513 460 439 510 376 341 239 405 457 180 394 42 233 446 160 369 134 73 32 21 273 125 66 235 169 179 72 618 63 227 201 298 60 112 102 184 109 36 386 362 24 91 44 257 144 34 262 132 248 90 101 317 24 322 151 77 74 60 232 149 304 147
internal_count=6954 3959 2995 2158 1553 1119 1707 1801 434 1442 1249 1400 1141 451 552 717 307 318 902 429 1028 755 690 389 290 683 308 301 122 221 250 200 513 460 439 510 376 341 239 405 457 180 394 42 233 446 160 369 134 73 32 21 273 125 66 235 169 179 72 618 63 227 201 298 60 112 102 184 109 36 386 362 24 91 44 257 144 34 262 132 248 90 101 317 24 322 151 77 74 60 232 149 304 147
is_linear=0
shrinkage=0.05


Tree=3
num_leaves=95
num_cat=0
split_feature=7 7 7 5 4 6 7 6 7 6 2 6 2 7 7 7 6 4 0 7 1 0 5 5 0 4 6 6 7 6 7 0 7 6 6 6 1 3 3 3 5 0 4 16 7 5 4 0 2 0 1 0 8 7 2 2 4 7 6 0 1 7 0 9 4 2 7 7 7 5 3 6 1 3 5 5 6 5 3 7 5 1 4 4 7 3 7 9 4 7 4 5 1 5
split_gain=2363.83 521.941 213.826 179.812 68.0875 63.4025 57.8535 51.9184 41.9842 33.4417 30.4947 25.9823 24.1692 20.6698 19.7255 17.8494 17.4114 16.5729 14.9818 14.5645 14.4698 13.3505 14.2639 13.0719 11.2379 9.14417 8.2048 7.88494 7.6794 7.51277 7.51099 7.41548 7.16223 6.28942 7.86045 6.25343 5.42817 5.39983 5.26213 5.23134 5.07006 5.05078 4.89889 5.25733 5.24106 4.87083 4.72763 4.70763 5.02787 4.52474 4.38659 4.30242 4.22699 5.01713 4.54041 4.17837 4.17223 4.15691 4.19265 4.05479 4.38665 3.91295 3.90734 3.90427 3.79491 4.33681 3.78306 3.76714 3.75107 3.63548 3.62371 3.74324 3.43753 3.97352 3.15069 3.13446 3.12468 3.04447 2.86925 2.84035 2.81647 2.76007 2.7417 2.71676 2.79462 2.71622 2.66269 2.65621 2.65451 2.72817 2.62281 2.61585 2.5859 2.91366
threshold=-1.0000000180025095e-35 0.41037609674151881 -0.45756701530840244 -1.0377817267602831 0.95491882395990169 0.18652260264741236 0.95650605790247567 0.20893796902231643 -1.0162991199300253 0.48019883016041726 0.74660187133757649 0.48019883016041726 0.74660187133757649 0.20921111469174231 0.6613558106386257 0.62650330512866759 0.4239845671902992 1.4694377355218522 -1.0000000180025095e-35 -0.89952640684440288 -0.12512999117723392 1.0000000180025095e-35 -1.1094358322900122 -0.94701732200825484 -1.0000000180025095e-35 -0.31080975434383268 0.33538183520336978 -1.1307649921509115 -0.63757762310625421 0.88835550965684151 1.0575442935690054 -1.0000000180025095e-35 0.16733286632593133 -3.1805128858049394 -1.2536285414518975 -0.046518060277015112 -0.92410713194870553 0.021116601087300107 1.0693973722735843 1.1770740569436762 -1.8533104448087105 -1.0000000180025095e-35 0.6967536245012188 1.0000000180025095e-35 -0.92728238192385237 -1.7139752760465827 -0.027188278752672743 -1.0000000180025095e-35 -0.21906578638213278 1.0000000180025095e-35 0.064047347894159223 -1.0000000180025095e-35 1.0000000180025095e-35 -0.64955183932028848 -0.062879404215040471 -0.90013792590951347 1.2220752290528616 0.24138863973992919 -1.2536285414518975 -1.0000000180025095e-35 -0.33228227999269516 1.1241222379631297 1.0000000180025095e-35 1.0000000180025095e-35 -2.2272370481588397 -0.69111579900955344 0.62650330512866759 -0.35341416272567416 -0.13528130431204144 -1.8533104448087105 0.46437488160534729 -0.57312173415783374 -1.2678046973119708 1.4907664856072247 -0.33765183236873403 -0.40757236268739555 0.44864589882199063 -0.39679630209784772 1.080090358826032 -0.68837615223592208 -0.40072562613812163 1.0491142505340101 0.92578369831517693 0.65124826504279076 -0.24840885757484252 1.7877261932582429 1.234248905614802 1.0000000180025095e-35 1.1075377341837418 -0.75108847134507106 -2.0745638092139158 -0.90335646421500215 0.32881565197104023 -0.17557263769780859
decision_type=2 2 2 2 2 2 2 2 2 2 2 2 2 2 2 2 2 2 2 2 2 2 2 2 2 2 2 2 2 2 2 2 2 2 2 2 2 2 2 2 2 2 2 2 2 2 2 2 2 2 2 2 2 2 2 2 2 2 2 2 2 2 2 2 2 2 2 2 2 2 2 2 2 2 2 2 2 2 2 2 2 2 2 2 2 2 2 2 2 2 2 2 2 2
left_child=2 7 4 14 5 23 11 10 -6 12 21 15 18 24 36 49 61 28 20 64 68 22 69 40 46 66 33 -17 51 37 45 56 70 -20 74 42 -3 50 67 83 -1 -39 43 44 77 -16 55 63 -49 -5 -11 88 59 91 85 -9 -12 -23 -59 60 -21 -8 -29 -24 -7 -66 -13 -14 -4 -2 71 -33 -15 -74 -35 -64 -26 -25 81 -42 -45 -22 -50 92 -85 -55 -18 -77 89 -10 -78 -54 -36 -94
right_child=1 3 9 6 8 19 16 13 17 29 31 25 38 72 30 27 86 -19 26 52 78 57 47 35 76 -27 -28 62 -30 -31 -32 32 -34 34 39 -37 -38 41 -40 -41 79 -43 -44 80 -46 -47 -48 48 82 -51 -52 -53 53 54 -56 -57 -58 58 -60 -61 -62 -63 75 -65 65 -67 -68 -69 -70 -71 -72 -73 73 -75 -76 87 90 -79 -80 -81 -82 -83 -84 84 -86 -87 -88 -89 -90 -91 -92 -93 93 -95
leaf_value=0.00045332479579695347 0.04228344191523159 0.02186870787292719 -0.0044082419044123248 0.016520780053090406 -0.088468755361361395 -0.056017763117949176 0.05638218035354562 -0.057176360897719859 -0.057577763109559747 -0.03797175393598836 -0.055229002626782098 0.016490378102981578 -0.039200513817680381 -0.0079260073450146892 0.079105497710406786 0.059737098150916636 0.038628451181344753 -0.11711013022810222 -0.031036825832866488 -0.053540568327412524 -0.024011165719255934 0.018563725393441682 -0.031406188383698463 -0.02159872118694087 -0.0056083984977969561 0.0055739378699889552 -0.024412761112315613 0.023503940444319481 -0.037720231900612515 -0.07529529820788991 0.088562750849830979 -0.019659923899330592 0.0079277708957141094 0.034415411949157718 -0.00035726982097213089 -0.048999180941609669 0.055013227569205431 -0.042230892831340752 0.0022976892689863843 -0.033939467097322144 -0.028174681305377321 -0.023217633214560066 -0.0051101738587021831 -0.0067708429656922822 -0.031826104397860523 0.065354849719743938 -0.069763860106468206 0.0023622300083998866 0.015938049464938091 0.030907807372171772 -0.066592405363917348 -0.038815408106893302 -0.03590034267732075 -0.032817380948037635 -0.054294484311884099 -0.018196776242588055 -0.010605119280517102 0.054028029827510607 0.027314382768236101 -0.044957337630066006 -0.070957462968570847 0.072026541809502395 0.055016057629410808 -0.00058379962812272871 -0.11079804698626201 -0.075697481922918197 0.02702844881970623 -0.026162320494879293 0.027163720977577296 0.018472243058147219 -0.033163760404568164 0.00052949468894251462 0.0052203615156808103 0.037611550055444247 0.0039212858304381376 0.031808666837677156 0.0015114374018998611 -0.048427517758159157 -0.047122096614195752 -0.014267709618434311 -0.028744069734322177 0.0026970282942056657 -0.0024888869698928753 -0.016889265396942698 0.0096186552004053679 -0.0037540167942643164 0.05626483608323795 0.042802114951052544 -0.063405206017504059 -0.039148183273417611 -0.01874824613004818 -0.060583955926678916 -0.034480406106872995 -0.0079726174125810054
leaf_weight=29 17 14.999999999999998 65 74 117 14.999999999999998 69 9.9999999999999982 71 82 11.000000000000002 102 96 49 120 62 121 9.9999999999999982 21 102 296 148 12.999999999999998 11.999999999999998 113 65 57 31 75 10.999999999999998 89 38 88 18 130 64 70 47 11.999999999999998 14.999999999999998 88 136 15.999999999999998 25 261 139 9.9999999999999982 205 165 209 15.999999999999998 32 13.999999999999998 41 22 22 9.9999999999999982 17 108 66 56 95 41 49 11.999999999999998 33 516 131 10.999999999999998 281 15.999999999999998 58 178 9.9999999999999982 15.999999999999998 71 18 89 12.999999999999998 63 35 9.9999999999999982 23 11.999999999999998 58 9.9999999999999982 26 243 121 28 142 46 10.999999999999998 180
leaf_count=29 17 15 65 74 117 15 69 10 71 82 11 102 96 49 120 62 121 10 21 102 296 148 13 12 113 65 57 31 75 11 89 38 88 18 130 64 70 47 12 15 88 136 16 25 261 139 10 205 165 209 16 32 14 41 22 22 10 17 108 66 56 95 41 49 12 33 516 131 11 281 16 58 178 10 16 71 18 89 13 63 35 10 23 12 58 10 26 243 121 28 142 46 11 180
internal_value=0 0.02537 -0.0334966 0.0419502 -0.0463748 -0.0396458 0.0347191 0.00548127 -0.0626636 -0.0196463 0.0111326 0.0304247 -0.0158154 -0.00728543 0.0707576 0.0369762 0.0542438 -0.0537045 -0.01211 -0.0550043 -0.0194447 0.0147615 0.0113273 -0.0302551 -0.0156779 0.0234129 -0.00651692 0.043186 -0.0517655 -0.0347598 0.0760318 -0.00571454 -0.00274671 -0.0043042 -0.00302833 -0.0344001 0.0491642 -0.033173 -0.0299705 -0.00496227 -0.018695 -0.0281008 -0.0322669 -0.0332966 -0.0355686 0.0717258 -0.0397555 0.00575803 0.00777809 0.0271458 -0.0426445 -0.0559456 -0.0511735 -0.0441128 -0.0353086 -0.0303779 -0.0339795 0.0242339 0.0309474 -0.0553658 -0.0597136 0.0654445 0.0405275 -0.00704656 -0.0777977 -0.0850576 0.0252892 -0.0316763 0.000161384 0.0198306 -0.0111338 -0.00746215 0.00386905 0.0069433 0.0200652 0.042014 -0.0119736 -0.0452399 -0.0241157 -0.0223724 -0.0195886 -0.0231383 0.0136837 -0.00385061 0.00507444 -0.0271187 0.0417478 0.0403163 -0.0584373 -0.0523654 -0.016469 -0.0548244 -0.00579689 -0.00949924
internal_weight=0 3957 2997 2158 1553 1099 1725 1799 454 1444 1247 1414 1152 552 433 731 311 337 913 417 395 1026 753 682 315 683 518 448 327 292 348 221 200 461 440 502 85 281 239 406 180 183 438 422 362 259 42 455 393 283 98 252 357 133 73 32 21 273 125 224 158 164 386 62 60 45 618 227 76 298 112 96 237 188 34 355 273 101 319 151 60 306 188 391 70 51 147 314 220 99 160 60 321 191
internal_count=6954 3957 2997 2158 1553 1099 1725 1799 454 1444 1247 1414 1152 552 433 731 311 337 913 417 395 1026 753 682 315 683 518 448 327 292 348 221 200 461 440 502 85 281 239 406 180 183 438 422 362 259 42 455 393 283 98 252 357 133 73 32 21 273 125 224 158 164 386 62 60 45 618 227 76 298 112 96 237 188 34 355 273 101 319 151 60 306 188 391 70 51 147 314 220 99 160 60 321 191
is_linear=0
shrinkage=0.05


Tree=4
num_leaves=95
num_cat=0
split_feature=7 7 7 7 5 4 6 6 7 2 6 6 5 2 5 7 4 0 7 5 7 5 5 7 1 1 1 0 0 8 7 0 1 0 7 0 6 6 6 6 3 3 3 5 1 6 4 16 7 0 7 6 0 6 7 9 8 7 2 7 0 1 0 0 7 4 2 19 0 4 2 6 7 0 5 4 5 3 6 2 6 2 7 2 3 3 4 2 7 3 4 5 5 6
split_gain=2133.39 471.924 192.52 108.959 103.949 61.449 57.2207 50.1394 37.8908 30.1766 30.1236 26.5616 22.6579 22.0355 15.7559 15.2385 14.957 14.2643 13.1445 12.1096 11.8168 11.7974 11.449 9.0213 8.55622 8.31329 8.66527 7.99025 7.75733 7.59485 7.32438 7.07623 6.98557 8.74143 6.93066 6.49602 5.64372 5.53373 5.64576 7.14081 4.89142 4.78681 4.74907 4.57573 4.52457 5.12837 4.42125 4.74474 4.73006 4.24883 3.93792 3.93047 3.88293 3.82659 4.90794 3.81935 3.81486 4.52796 4.10751 3.67611 3.65945 3.95895 3.64344 3.55101 3.53514 3.42491 3.91398 3.38557 3.32342 3.20889 3.12104 3.05527 2.91157 2.89492 3.24382 2.86261 2.8435 2.83867 2.89597 2.78075 2.77143 5.66624 3.1846 2.74713 2.7311 2.71776 2.67164 2.60046 2.59431 2.58376 2.56319 2.56027 2.55371 2.55284
threshold=-0.0054292663829023898 0.69933554306849299 -0.45756701530840244 0.31487239247288518 -0.84275417914438078 0.95491882395990169 0.18652260264741236 0.1985904682818162 -1.0162991199300253 0.74660187133757649 0.43346536179713829 0.4239845671902992 -0.55976193132100061 0.74660187133757649 1.06798076437235 1.1241222379631297 1.4694377355218522 -1.0000000180025095e-35 -0.89952640684440288 -1.5745233843305895 0.072779113123791303 -0.94701732200825484 -0.12293445390476591 0.79924344599863806 -1.0904437826954538 0.18214949276224152 1.3642088471925333 0.5760015467225249 1.0000000180025095e-35 1.0000000180025095e-35 0.1095346755611321 1.0000000180025095e-35 -0.12512999117723392 1.0000000180025095e-35 -0.63757762310625421 -1.0000000180025095e-35 -0.046518060277015112 0.33538183520336978 -3.1805128858049394 -1.2536285414518975 2.3327269006513141 1.3726302305734817 1.0693973722735843 -1.8533104448087105 -0.87701180606974349 -0.58061622166160365 0.6967536245012188 1.0000000180025095e-35 -0.92728238192385237 -1.0000000180025095e-35 0.48436488920577964 -0.63278263921122624 -1.0000000180025095e-35 -1.1307649921509115 0.92942592740239982 1.0000000180025095e-35 1.0000000180025095e-35 -0.64955183932028848 -0.054720547533118044 -0.36180344176969975 -1.0000000180025095e-35 -0.33228227999269516 -1.0000000180025095e-35 0.5760015467225249 0.51788711041637547 -2.2272370481588397 -0.69111579900955344 1.0000000180025095e-35 -1.0000000180025095e-35 0.18245861749165102 0.27874134579203763 0.82530542688640651 1.234248905614802 1.0000000180025095e-35 -1.9425085752268634 1.2123892782576233 -0.33765183236873403 -0.60416754498986769 -1.1254699814923388 0.17055289520941139 -0.21157002808924211 0.551781888425393 -1.0162991199300253 -0.4522377115952772 0.15155007071988466 0.45050163170984275 -1.2309469733451841 -0.88454428944518859 0.62650330512866759 1.7877261932582429 0.65124826504279076 -0.32644525938532964 -1.8533104448087105 0.4239845671902992
decision_type=2 2 2 2 2 2 2 2 2 2 2 2 2 2 2 2 2 2 2 2 2 2 2 2 2 2 2 2 2 2 2 2 2 2 2 2 2 2 2 2 2 2 2 2 2 2 2 2 2 2 2 2 2 2 2 2 2 2 2 2 2 2 2 2 2 2 2 2 2 2 2 2 2 2 2 2 2 2 2 2 2 2 2 2 2 2 2 2 2 2 2 2 2 2
left_child=2 3 5 7 23 6 21 9 -7 22 13 15 24 17 20 53 34 19 65 -4 68 43 30 73 -5 29 28 -13 -27 87 67 49 59 71 52 75 46 38 -19 76 -22 90 62 -1 -37 -46 47 48 77 55 -26 -51 -10 69 -55 -24 60 -58 89 -12 61 -20 -15 -25 -31 -8 -67 -2 93 -6 -61 -34 -29 -3 -75 -11 -40 78 -23 91 82 84 -45 -30 -82 -39 -21 -14 -85 -59 -41 -79 -32 -9
right_child=1 4 10 12 11 8 18 14 16 35 32 27 25 42 -16 -17 -18 37 56 86 40 36 31 63 50 26 -28 72 83 64 92 -33 33 -35 -36 44 -38 85 39 41 -42 -43 -44 80 45 -47 -48 -49 -50 51 -52 -53 -54 54 -56 -57 57 58 -60 70 -62 -63 -64 -65 -66 66 -68 -69 -70 -71 -72 -73 -74 74 -76 -77 -78 79 -80 -81 81 -83 -84 88 -86 -87 -88 -89 -90 -91 -92 -93 -94 -95
leaf_value=0.00043065908268607902 0.016492516919368365 0.046056819863050533 0.0081943367344425311 0.0093607621733099219 0.06648366320878267 -0.08404531599874171 -0.053216875642538075 -0.011362207122147083 -0.055515411183746026 -0.054255598299205288 -0.041000782075737208 0.026752841305169691 -0.016518706052253643 -0.04185994963581656 -0.071496342923492204 0.067481387783499325 -0.11125462239608169 -0.029484985334177812 -0.050863540143358948 -0.00087414465068529057 -0.0028594620620318945 -0.036522484503009094 -0.033612212383498749 0.074284586719438148 0.033889989272448358 0.016241335091322209 -0.018904176056385044 0.037948898175934782 0.024066376537871612 0.011728549067053822 0.049658248076836276 0.018120112376301688 -0.043943249163302507 -0.0032270803474462951 -0.035834221273660663 -0.037842306755483154 -0.046549222030444072 -0.036366238758752223 0.032694641790456246 -0.0058313794422537183 0.032737730802036825 -0.038958271145820622 0.0021828033030033113 -0.05063212662935257 -0.016261401570712528 0.0029483318213510135 -0.0048546656034886837 -0.018609130120409344 -0.030234800389757333 0.01789178985451895 0.051652590531049314 0.0039006162033254198 -0.036874638870358467 0.038940149175289734 0.054207721589641135 -0.0011505117690241015 -0.052083221807455032 -0.031722008775581012 -0.053538070697533462 -0.02092335317422872 -0.042709472939146287 -0.067409591283649206 -0.026682557861998003 0.089000227994152484 0.022904917852712925 -0.10525814319650334 -0.071912607680441762 0.00057064370514872751 -0.014684779814335925 0.041330046375237767 -0.049879999160766603 -0.072942750751972193 0.057381929133249368 0.079761781295140596 0.061176670660023337 -0.016423003962263465 0.0037252215610351414 -0.010506498608738184 -0.069447470204356848 -0.060954562642357574 -0.0024964850196348772 0.010868152850033607 -0.023375199130568347 0.032210617343889095 -0.027718015820921767 -0.012756156483117273 -0.022441510767454195 0.0081981493140313218 0.045127347627511395 -0.0035663158632814884 0.0046011922467086045 -0.038131778601270455 0.025738075473082236 -0.041830334304408599
leaf_weight=29 232 23 38 18 32 117 14.999999999999998 9.9999999999999982 220 10.000000000000002 35 307 11.999999999999998 51 9.9999999999999982 85 9.9999999999999982 21 102 14.999999999999998 276 11.000000000000002 11.999999999999998 153 46 99 9.9999999999999982 119 71 91 11.999999999999998 132 99 12.999999999999998 75 9.9999999999999982 64 19 18 323 9.9999999999999982 9.9999999999999982 11.999999999999998 12.999999999999998 51 109 15.999999999999998 60 261 63 97 247 32 260 66 37 60 44 19 134 66 56 176 56 318 11.999999999999998 33 39 163 21 9.9999999999999982 9.9999999999999982 23 30 108 9.9999999999999982 15.999999999999998 9.9999999999999982 17 10.999999999999998 13.999999999999998 17 61 154 46 34 336 94 52 9.9999999999999982 72 52 159 22
leaf_count=29 232 23 38 18 32 117 15 10 220 10 35 307 12 51 10 85 10 21 102 15 276 11 12 153 46 99 10 119 71 91 12 132 99 13 75 10 64 19 18 323 10 10 12 13 51 109 16 60 261 63 97 247 32 260 66 37 60 44 19 134 66 56 176 56 318 12 33 39 163 21 10 10 23 30 108 10 16 10 17 11 14 17 61 154 46 34 336 94 52 10 72 52 159 22
internal_value=0 0.0240876 -0.0318407 0.0121344 0.0490188 -0.044056 -0.0376635 0.00395035 -0.0595304 0.00977754 -0.018685 0.0399587 0.0245723 -0.0149732 -0.00937741 0.048348 -0.0510193 -0.0113965 -0.0522541 -0.0186172 -0.00808595 -0.0287423 0.0134763 0.0713751 0.0418493 0.0214851 0.0270327 0.0312891 0.0282544 0.0173271 0.019314 0.00822113 -0.0327552 -0.0419816 -0.0491772 -0.00838512 -0.0326801 -0.0059212 -0.0041585 -0.00294698 -0.0016148 -0.00479465 -0.0284719 -0.0177602 -0.00521404 -0.00317477 -0.0306536 -0.0316318 -0.0337902 0.00458139 0.0459387 0.00674398 -0.0531483 0.0440569 0.0420311 -0.00910032 -0.0486148 -0.0419071 -0.0335432 -0.0264668 -0.0525975 -0.056728 -0.0300925 0.0782275 0.0204182 -0.0739078 -0.0808048 0.0142012 -0.017577 0.0565171 -0.0229342 -0.0466038 0.0410965 0.0624798 0.0652169 -0.0353393 0.019062 -0.0429779 -0.0565127 -0.0377865 -0.0212538 -0.0146133 -0.0281636 0.0325479 -0.021833 -0.0212201 -0.0215198 0.00540001 0.0354712 -0.026508 -0.00392975 -0.0336761 0.0274167 -0.032309
internal_weight=0 3959 2995 2676 1283 1553 1099 1614 454 1123 1442 913 1062 1141 491 464 337 902 417 389 481 682 933 370 161 901 386 449 376 515 442 491 301 122 327 190 502 513 460 439 286 405 239 180 170 160 438 422 362 359 143 310 252 379 326 49 357 133 73 179 224 158 227 209 409 60 45 271 195 53 144 109 142 161 138 20 34 101 28 73 151 77 74 277 60 53 351 106 206 54 395 62 171 32
internal_count=6954 3959 2995 2676 1283 1553 1099 1614 454 1123 1442 913 1062 1141 491 464 337 902 417 389 481 682 933 370 161 901 386 449 376 515 442 491 301 122 327 190 502 513 460 439 286 405 239 180 170 160 438 422 362 359 143 310 252 379 326 49 357 133 73 179 224 158 227 209 409 60 45 271 195 53 144 109 142 161 138 20 34 101 28 73 151 77 74 277 60 53 351 106 206 54 395 62 171 32
is_linear=0
shrinkage=0.05


Tree=5
num_leaves=95
num_cat=0
split_feature=7 7 7 5 7 4 6 6 6 6 7 4 6 2 2 7 5 0 7 4 0 1 2 7 0 7 2 7 3 6 1 0 6 6 5 6 0 3 8 5 5 6 6 1 6 8 7 7 0 1 1 1 3 3 0 0 7 6 0 1 3 1 7 7 7 0 1 6 2 6 0 0 19 5 9 7 2 6 3 1 3 4 6 6 15 2 7 5 2 0 7 4 1 1
split_gain=1925.41 425.926 174.149 127.846 56.5732 55.7145 43.7311 42.7716 35.7491 27.2842 24.8574 20.4801 20.3687 19.692 16.2043 14.353 12.5846 14.2897 12.5347 12.4143 12.1854 12.1065 11.954 11.72 10.854 10.7044 10.1052 8.034 7.92316 7.58468 7.41205 7.27855 6.85065 6.78005 6.55327 6.35223 6.15918 5.76961 5.68964 5.28831 5.26362 5.07402 6.51357 5.0165 4.90273 4.89357 5.61541 4.81126 4.76684 6.59055 4.63556 4.5557 4.40295 4.28604 4.06545 3.99124 3.86807 3.79137 3.78748 3.78023 3.65791 4.10661 3.6027 3.36127 3.35912 3.31056 3.91225 3.21475 3.17658 3.16871 3.09651 3.05683 2.94162 2.86104 2.81961 2.77293 2.84414 2.72955 2.62798 4.39008 2.58325 2.61106 2.57352 3.14171 2.56098 3.55246 2.52203 2.46924 2.4601 2.43056 2.41272 2.40347 2.39264 3.25889
threshold=-1.0000000180025095e-35 0.62650330512866759 -0.45756701530840244 -0.58904338776167198 0.24138863973992919 1.0636049601784756 0.18652260264741236 0.16436832807303114 0.34837980620913694 0.48019883016041726 -1.0162991199300253 0.89013993632118227 0.2974114470227836 0.74660187133757649 0.74660187133757649 0.92942592740239982 -0.42482200160136518 1.0000000180025095e-35 0.79924344599863806 1.4694377355218522 -1.0000000180025095e-35 -0.12512999117723392 0.0067312228128068629 -0.89952640684440288 -1.0000000180025095e-35 1.0575442935690054 -0.1986172811861534 -1.1889790493803409 2.3327269006513141 -1.9101603618713561 -0.92410713194870553 -1.0000000180025095e-35 -1.1307649921509115 0.35610280357291085 -0.071990070706686352 0.94633017005394293 -1.0000000180025095e-35 -0.13496372675477783 1.0000000180025095e-35 -1.1636211002044969 -1.8533104448087105 -3.1805128858049394 -1.1936799541375385 0.64030065276323389 0.4239845671902992 1.0000000180025095e-35 -0.64955183932028848 0.072779113123791303 1.0000000180025095e-35 -0.11623379794209888 0.019987117173903678 -1.0904437826954538 1.1770740569436762 1.0693973722735843 -1.0000000180025095e-35 -1.0000000180025095e-35 0.51788711041637547 0.13863207634862465 0.5760015467225249 -1.0581897794921298 0.063203608146462281 -1.1402006386825132 -0.92728238192385237 -0.13528130431204144 -0.35341416272567416 -1.0000000180025095e-35 -0.33228227999269516 -0.63278263921122624 0.2174089017550753 0.80045871296958515 1.0000000180025095e-35 -1.0000000180025095e-35 1.0000000180025095e-35 -0.33765183236873403 1.0000000180025095e-35 0.78145421446693553 -0.80872495547206225 -0.36278205067759206 -0.16171512529101287 -1.3175120406085197 1.080090358826032 0.75043873046251852 -1.7889803984324344 -1.333541031950902 1.0000000180025095e-35 0.66046328993166659 1.2733823816338503 -0.90335646421500215 0.87764640361456314 1.0000000180025095e-35 1.1241222379631297 0.12112660633741561 0.20833840993145911 -0.2482762243652111
decision_type=2 2 2 2 2 2 2 2 2 2 2 2 2 2 2 2 2 2 2 2 2 2 2 2 2 2 2 2 2 2 2 2 2 2 2 2 2 2 2 2 2 2 2 2 2 2 2 2 2 2 2 2 2 2 2 2 2 2 2 2 2 2 2 2 2 2 2 2 2 2 2 2 2 2 2 2 2 2 2 2 2 2 2 2 2 2 2 2 2 2 2 2 2 2
left_child=2 4 5 18 7 6 14 11 15 13 77 26 16 20 22 32 30 34 39 36 21 63 62 72 44 50 70 -16 38 -24 -6 40 -5 41 37 48 -12 -18 92 -3 -31 -22 73 -19 -9 65 87 -26 49 55 75 -20 -44 64 -28 74 -40 -42 89 -48 -35 -62 -1 -4 -15 66 -25 -13 91 -49 -2 88 -8 -43 -11 -10 -77 -7 -46 -80 81 -23 -56 -84 85 -85 -27 -47 -29 -53 -17 -34 93 -14
right_child=1 3 9 8 12 10 23 24 25 35 19 67 28 53 27 90 17 43 51 -21 33 80 29 45 47 86 54 71 -30 31 -32 -33 68 60 -36 -37 -38 -39 56 -41 57 42 52 -45 78 46 59 69 -50 -51 -52 58 -54 -55 82 -57 -58 -59 -60 -61 61 -63 -64 -65 -66 -67 -68 -69 -70 -71 -72 -73 -74 -75 -76 76 -78 -79 79 -81 -82 -83 83 84 -86 -87 -88 -89 -90 -91 -92 -93 -94 -95
leaf_value=-0.042348539102187555 9.9206672086076854e-05 0.061171049553948115 -0.0039336950186854942 0.054162894354376483 0.02268210254773936 -0.071423356754835271 -0.075217646763970469 -0.0099165386653372236 0.022651260715513044 -0.02447007241472602 -0.053181254258126268 -0.016902346791799316 -0.00077406762995653683 -0.035692927996084721 -0.084727767109870913 0.050214027161851076 0.0023887653136625882 0.019480660545530465 0.041991762749173427 -0.10569189481437208 -0.028010735971232256 -0.022264509691833603 -0.044385691735272612 -0.048173814506100664 -0.014181700975705798 0.038535068370401861 0.0014072331993116275 -0.060649098400716431 0.046423388100587409 0.00040912613401125224 0.044211948917429779 0.014780847926158459 0.03449900740618754 -0.046086565577066863 0.011376817951414493 -0.070545225739479064 -0.033976268200893646 -0.04602511234581471 0.0069274130882695326 0.043289179780653553 -0.023169322583394557 0.031059908784098096 -0.0037265926154191513 0.032403332507237793 -0.024469313025474542 -0.031501162557729653 -0.045684191667371331 -0.00068030880458361243 -0.0043283166637753737 -0.041608738672791745 -0.0015126886174959295 0.054666089415550234 -0.030489571997895839 0.0020736642181873322 -0.0025562744354829196 -0.019972433091395281 0.021773391801577349 0.0082041829358786341 0.085900540906807488 -0.022972499687028559 -0.0428646020591259 -0.0055374684078352797 -0.030521553734627865 0.025952833382920787 -0.02338104715130029 -0.040850695272657417 -0.063645912245847286 -0.002486709195934236 0.02607567435158278 -0.024676954684158169 0.014047662632119859 -0.029643533321527332 -0.048405227437615397 0.0044450808235484618 -0.047572263303611965 0.032401133301746418 0.015430038730646002 -0.088238995617086244 -0.031634846962988371 -0.077408925511620263 -0.043643916914096248 -0.0054022379666566851 0.037747427389809962 0.015242575166626048 0.02200440732328772 -0.01258762109403809 0.05903722435235978 -0.055311170798175192 -0.036368125326493209 0.073325480118285144 0.063281419010538811 0.044368535369634629 0.014209899551382191 -0.023782435400215421
leaf_weight=88 181 158 65 60 68 43 48 13.999999999999998 416 25 184 56 81 96 13.999999999999998 66 16.000000000000004 162 10.999999999999998 9.9999999999999982 21 281 30 110 182 60 45 27 12.999999999999998 29 97 15.999999999999998 161 12.999999999999998 124 9.9999999999999982 54 9.9999999999999982 135 56 260 18 389 140 10.000000000000002 13.999999999999998 27 166 17 102 17 20 15.999999999999998 11.999999999999998 15.999999999999998 110 65 9.9999999999999982 58 57 9.9999999999999982 28 240 10.999999999999998 131 67 65 125 67 14.999999999999998 51 26 12.999999999999998 23 28 166 29 55 10.000000000000002 10.999999999999998 12.999999999999998 25 19 258 159 11.999999999999998 20 49 17 137 76 100 19 19
leaf_count=88 181 158 65 60 68 43 48 14 416 25 184 56 81 96 14 66 16 162 11 10 21 281 30 110 182 60 45 27 13 29 97 16 161 13 124 10 54 10 135 56 260 18 389 140 10 14 27 166 17 102 17 20 16 12 16 110 65 10 58 57 10 28 240 11 131 67 65 125 67 15 51 26 13 23 28 166 29 55 10 11 13 25 19 258 159 12 20 49 17 137 76 100 19 19
internal_value=0 0.0228968 -0.0302311 0.0420143 0.00882085 -0.0418532 -0.0367827 0.00216643 0.0337865 -0.0177317 -0.0595414 0.0081311 0.0181469 -0.0142715 -0.0294448 0.0436067 0.0235202 0.0192058 0.0651643 -0.0511169 -0.0109268 -0.0175417 -0.0268604 -0.0491266 -0.0113126 0.0264352 0.0118141 -0.0501512 0.00816084 -0.0203629 0.035339 -0.018075 0.038629 -0.00588264 0.0065913 -0.0313831 -0.0488238 -0.016232 0.00660155 0.0564917 -0.0198332 -0.00399227 -0.00286135 0.0254713 -0.0344749 -0.0459313 -0.0387358 -0.0084412 -0.0299944 -0.0316409 0.0242409 0.0733763 -0.0047839 -0.0270483 0.0157561 -0.0254033 0.0117524 -0.0220073 0.0749821 -0.0302727 -0.0231926 -0.0153604 -0.0336946 0.000391987 -0.0285878 -0.0503021 -0.0539206 -0.0069468 0.0357874 -0.00266898 0.00316546 -0.0432359 -0.0695035 0.0161296 -0.036675 0.0249574 0.0298772 -0.0808607 -0.0455658 -0.0556117 -0.0218143 -0.0208869 0.0171477 0.0178514 0.0169702 0.0140057 0.0436606 -0.0500201 -0.0512678 0.0709485 0.0572078 0.0382804 -0.00205527 -0.00514566
internal_weight=0 3957 2997 1678 2279 1553 1207 1330 1238 1444 346 922 949 1152 757 530 617 452 440 248 913 395 673 450 408 708 741 84 332 345 165 315 388 518 150 292 238 26 319 214 299 467 446 302 45 389 147 363 282 265 628 226 405 239 509 163 200 270 215 84 51 38 328 76 227 242 175 181 328 181 232 70 61 41 53 611 195 98 31 21 319 306 464 448 429 270 80 63 44 157 142 261 119 100
internal_count=6954 3957 2997 1678 2279 1553 1207 1330 1238 1444 346 922 949 1152 757 530 617 452 440 248 913 395 673 450 408 708 741 84 332 345 165 315 388 518 150 292 238 26 319 214 299 467 446 302 45 389 147 363 282 265 628 226 405 239 509 163 200 270 215 84 51 38 328 76 227 242 175 181 328 181 232 70 61 41 53 611 195 98 31 21 319 306 464 448 429 270 80 63 44 157 142 261 119 100
is_linear=0
shrinkage=0.05


Tree=6
num_leaves=95
num_cat=0
split_feature=7 7 7 5 4 7 6 6 6 2 7 6 2 7 2 7 6 7 4 2 0 5 7 0 5 2 7 4 6 0 0 6 0 6 0 7 0 4 5 19 6 6 6 1 8 7 0 1 0 0 3 0 3 6 0 9 5 6 1 6 3 3 1 7 4 6 9 7 7 0 1 4 7 7 4 2 6 0 0 5 9 6 4 7 6 19 5 2 7 1 5 3 4 17
split_gain=1737.7 386.084 156.8 132.714 50.2823 42.5024 39.4673 38.3044 24.5617 23.11 22.4338 19.4049 17.7282 15.0558 14.6244 14.5372 13.1048 13.0495 11.2039 10.7885 10.7551 10.8902 10.5773 10.2789 10.3838 9.19488 7.25069 7.113 6.84518 6.56889 6.49522 6.0722 5.98019 5.73289 5.55866 5.4121 5.16155 5.84641 4.75042 4.56648 4.55252 5.92473 4.50324 4.48499 4.41645 5.0679 4.30207 5.94797 4.21023 4.01605 3.98615 3.97753 3.87738 3.6157 3.60209 3.51672 3.42852 3.42171 3.41166 3.39629 5.61757 3.30127 3.70622 3.25144 3.17497 3.07515 3.04247 3.0119 2.9898 2.98778 3.5308 2.98406 2.9175 2.88116 2.83485 3.78645 2.81863 2.75879 2.70143 2.58209 2.54469 2.5425 2.48122 2.46409 2.46342 2.44458 2.41445 2.40167 2.97044 2.39907 2.89951 2.29138 2.43916 2.26799
threshold=-0.0054292663829023898 0.41037609674151881 -0.45756701530840244 -1.0377817267602831 1.0636049601784756 0.95650605790247567 0.18652260264741236 0.20844448215949157 0.48019883016041726 0.74660187133757649 -1.0162991199300253 0.48019883016041726 0.74660187133757649 0.20921111469174231 0.74660187133757649 0.6613558106386257 0.12198914988144835 0.64492414111357721 1.4694377355218522 0.0067312228128068629 -1.0000000180025095e-35 -0.40072562613812163 -0.89952640684440288 1.0000000180025095e-35 -1.1094358322900122 -1.1152260315097691 -1.1889790493803409 -0.31080975434383268 -1.9101603618713561 -1.0000000180025095e-35 1.0000000180025095e-35 0.35610280357291085 1.0000000180025095e-35 0.94633017005394293 -1.0000000180025095e-35 1.0782780430686185 -1.0000000180025095e-35 -0.027188278752672743 -1.8533104448087105 1.0000000180025095e-35 -3.1805128858049394 -1.1936799541375385 -1.1307649921509115 -0.92410713194870553 1.0000000180025095e-35 -0.64955183932028848 1.0000000180025095e-35 -0.11623379794209888 1.0000000180025095e-35 -1.0000000180025095e-35 1.3726302305734817 -1.0000000180025095e-35 0.75973498501738257 -0.63278263921122624 -1.0000000180025095e-35 1.0000000180025095e-35 -1.9425085752268634 0.13863207634862465 -1.0581897794921298 -1.277751912474119 -0.033042439374645585 0.063203608146462281 -1.1402006386825132 -0.92728238192385237 -1.2309469733451841 -0.46267347077251336 1.0000000180025095e-35 0.1095346755611321 1.1241222379631297 -1.0000000180025095e-35 -0.33228227999269516 1.1169051115846382 -0.20081988058101274 0.6613558106386257 -2.2272370481588397 -0.67394361574648276 0.55595144128377616 -1.0000000180025095e-35 1.0000000180025095e-35 -0.33765183236873403 1.0000000180025095e-35 -0.39322313512092888 0.65124826504279076 -0.24840885757484252 -0.36278205067759206 1.0000000180025095e-35 -1.8533104448087105 0.091376631132026695 1.1940720653011043 0.32881565197104023 -0.17158064295319064 1.080090358826032 0.66287749335937574 1.0000000180025095e-35
decision_type=2 2 2 2 2 2 2 2 2 2 2 2 2 2 2 2 2 2 2 2 2 2 2 2 2 2 2 2 2 2 2 2 2 2 2 2 2 2 2 2 2 2 2 2 2 2 2 2 2 2 2 2 2 2 2 2 2 2 2 2 2 2 2 2 2 2 2 2 2 2 2 2 2 2 2 2 2 2 2 2 2 2 2 2 2 2 2 2 2 2 2 2 2 2
left_child=2 7 4 15 6 11 14 9 12 23 84 17 20 25 19 43 68 48 34 63 21 72 74 24 67 -9 -16 73 -21 38 39 40 -17 46 -12 56 37 -27 -30 65 -22 79 -19 -3 69 -46 47 54 -5 -14 82 66 -51 -53 80 -32 -34 -40 -47 60 -25 -33 -63 -1 -15 -11 -26 81 -7 70 -24 -50 85 -13 -8 -76 -66 -28 -44 -42 -10 -2 89 -84 -6 -4 -69 88 -18 -43 -91 92 -23 -60
right_child=1 3 8 5 10 16 22 13 33 30 18 27 49 64 26 32 87 42 -20 28 31 91 44 59 51 36 77 -29 29 -31 55 61 35 -35 -36 -37 -38 -39 57 -41 41 50 78 -45 45 58 -48 -49 71 52 -52 53 -54 -55 -56 -57 -58 -59 93 -61 -62 62 -64 -65 76 -67 -68 86 -70 -71 -72 -73 -74 -75 75 -77 -78 -79 -80 -81 -82 -83 83 -85 -86 -87 -88 -89 -90 90 -92 -93 -94 -95
leaf_value=-0.04023111261935397 0.02096886508056502 0.01740391208479802 -0.0019092258225119085 0.015223557252875775 -0.067852187988369964 0.049291285636992949 -0.047152647872765859 -0.058154101466590717 -0.023246569817885757 -0.017391793549462572 -0.050522190468061882 0.01629541803849861 -0.03783790134865448 0.0091890284998549353 -0.080491380606378837 0.047588181699670495 0.035768556417453856 0.051365682265975258 -0.10040729999542237 -0.042166406956190866 -0.026610199865397244 -0.021693854246071703 -0.045765125002204018 0.016224053129553797 -0.028309729315627082 -0.017282074940358771 -0.048704423755407338 0.0043173878919333221 0.00038866981992433813 0.014041805383749308 0.016373806428582143 -0.043782236885565984 0.074285312990347546 -0.067017965018749237 -0.032277454870442555 0.079588149018483628 -0.009199869991554057 -0.061617182195186616 -0.022010856622543474 -0.035053405472028419 0.029506913882990676 -0.0005692970667924009 0.018100174146238716 0.047531590887478423 -0.047519055056193527 -0.043399982237153585 -0.0041119010571171255 -0.039528301321700515 0.030112410159029837 -0.024671130185154919 -0.034311253238808029 0.014408072090217112 -0.0008336319588124752 0.0037507863759317184 -0.018973811695521529 -0.0032547808269208127 0.060414475323147858 0.0077939738985151052 -0.012023721410539645 0.018986737522068774 0.05630311422488269 -0.040721372887492183 -0.0052605949076158665 -0.028995476321360916 0.0038163566183739978 -0.00049156741026723592 -0.00110094583954434 0.046578831835226583 0.064641927729679069 -0.038808160880233034 -0.060463617054315716 0.014780114138045829 0.014169774887462459 0.023859926851832927 -0.095039063233595636 -0.063179748248534673 -0.011469253154471518 -0.028161356884699604 0.037061571762339485 0.0042228268277223991 -0.045193650387227537 0.0094889589600907973 -0.016088532439122599 0.0087312657587851096 -0.083827048377557237 -0.029036097824573517 0.02157590055331305 0.018562084560592971 0.051717243931795422 -0.034238824925639413 -0.0077781629115964857 -0.041461720202977843 -0.0078136364101535748 -0.031974033026822973
leaf_weight=88 76 14.999999999999998 49 87 43 53 14.999999999999998 10.999999999999998 25 51 184 176 53 117 13.999999999999998 42 126 55 9.9999999999999982 30 21 262 110 18 12.999999999999998 29 44 65 29 15.999999999999998 39 12.999999999999998 60 9.9999999999999982 54 73 272 9.9999999999999982 260 19 18 134 20 70 63 27 17 102 223 167 10.999999999999998 112 19 275 110 55 173 9.9999999999999982 29 233 17 9.9999999999999982 28 240 76 57 49 10.999999999999998 79 67 65 37 24 442 12.999999999999998 33 50 26 309 23 28 132 11.999999999999998 60 55 9.9999999999999982 79 14.999999999999998 38 10.999999999999998 176 12.999999999999998 36 28
leaf_count=88 76 15 49 87 43 53 15 11 25 51 184 176 53 117 14 42 126 55 10 30 21 262 110 18 13 29 44 65 29 16 39 13 60 10 54 73 272 10 260 19 18 134 20 70 63 27 17 102 223 167 11 112 19 275 110 55 173 10 29 233 17 10 28 240 76 57 49 11 79 67 65 37 24 442 13 33 50 26 309 23 28 132 12 60 55 10 79 15 38 11 176 13 36 28
internal_value=0 0.0217393 -0.0287365 0.0360035 -0.0397606 0.0297913 -0.0349436 0.00464751 -0.0168638 0.00957758 -0.0565644 0.0261105 -0.0135756 -0.00613755 -0.0279726 0.0607523 0.0465263 0.0317723 -0.048561 -0.0255174 -0.0103959 -0.0166191 -0.0466703 0.0127678 0.009754 -0.013228 -0.0476437 0.0200508 -0.0193447 -0.0171712 -0.00507443 -0.00565324 0.0652801 -0.029814 -0.0463826 0.0677084 -0.011639 -0.0286501 -0.0188415 -0.0124489 -0.00386061 -0.00278703 0.0381228 0.0422149 -0.0436347 -0.0367991 -0.0284947 -0.0300588 0.0247446 -0.0256959 -0.00462495 0.00495144 -0.0222361 0.00683507 -0.0241332 0.00488899 0.0639864 -0.020907 -0.0287591 0.0211683 0.035691 -0.0220329 -0.0145924 -0.0320099 0.00325801 -0.00847223 -0.00680601 0.0169901 0.0584784 -0.047787 -0.0512246 0.0279305 -0.000528174 0.0217056 -0.0660283 -0.0721835 -0.00224936 -0.0410741 0.0359089 0.0153232 -0.0348413 0.0136835 -0.00379404 0.00459463 -0.0768177 -0.006507 0.0246318 0.0377124 0.039464 -0.00567561 -0.00933467 -0.0209135 -0.020017 -0.0218239
internal_weight=0 3959 2995 2158 1553 1725 1207 1801 1442 1236 346 1414 1150 565 757 433 311 731 248 673 911 394 450 1015 747 322 84 683 345 315 221 517 348 292 238 306 311 39 299 127 466 445 384 85 389 147 282 265 347 239 404 449 186 387 163 94 233 270 84 268 35 51 38 328 243 108 62 298 132 242 175 260 83 618 61 46 126 70 329 41 53 208 393 72 98 59 90 179 164 321 187 311 298 57
internal_count=6954 3959 2995 2158 1553 1725 1207 1801 1442 1236 346 1414 1150 565 757 433 311 731 248 673 911 394 450 1015 747 322 84 683 345 315 221 517 348 292 238 306 311 39 299 127 466 445 384 85 389 147 282 265 347 239 404 449 186 387 163 94 233 270 84 268 35 51 38 328 243 108 62 298 132 242 175 260 83 618 61 46 126 70 329 41 53 208 393 72 98 59 90 179 164 321 187 311 298 57
is_linear=0
shrinkage=0.05


Tree=7
num_leaves=95
num_cat=0
split_feature=7 7 7 5 4 6 6 7 7 6 2 7 6 2 7 3 1 0 7 5 0 5 5 2 0 7 0 1 1 0 7 1 0 0 4 6 3 8 0 19 5 6 6 9 1 4 16 2 0 7 3 5 7 0 6 3 0 9 6 15 4 6 8 7 2 7 4 2 7 0 2 7 2 2 6 19 2 3 2 5 3 7 3 1 5 8 2 5 3 1 6 4 6 5
split_gain=1568.28 348.026 141.841 120.507 45.4043 42.1879 34.6462 33.0143 27.9019 22.2339 20.925 20.6653 19.4333 16.2608 13.5879 11.1268 11.044 10.8267 9.73229 9.32656 9.21195 9.29526 8.67848 8.29838 8.02427 7.74573 6.06499 5.99014 7.5623 5.86194 5.50528 5.24675 6.51058 4.6583 5.27638 4.60345 4.20185 4.18328 4.13704 4.12125 4.03488 3.98435 5.55164 3.78835 3.74864 3.73711 3.88479 3.67323 3.65005 3.6218 3.5161 3.35109 3.30575 3.297 3.27003 3.60315 3.18981 3.17384 3.06183 2.93898 2.86541 2.85995 2.82886 3.32269 3.24825 2.82125 2.78054 3.11918 2.71824 2.71236 3.2407 2.68355 2.63123 2.6185 2.57392 2.54593 2.53815 2.45618 2.74363 2.4233 2.37999 2.37353 2.36266 2.35184 2.33033 2.29248 3.23814 3.64154 2.26642 2.73134 3.05866 2.24852 2.23313 2.17905
threshold=-1.0000000180025095e-35 0.41037609674151881 -0.45756701530840244 -0.58904338776167198 0.95491882395990169 0.18652260264741236 0.20844448215949157 0.69933554306849299 -1.0162991199300253 0.43346536179713829 0.74660187133757649 0.79924344599863806 0.080119427229637177 0.72599783120207484 0.20921111469174231 1.4482761213570121 -1.0904437826954538 -1.0000000180025095e-35 -0.89952640684440288 -1.5745233843305895 1.0000000180025095e-35 -1.1094358322900122 -0.94701732200825484 -1.1152260315097691 0.5760015467225249 1.1241222379631297 1.0000000180025095e-35 1.3642088471925333 0.18214949276224152 1.0000000180025095e-35 -0.75108847134507106 -0.12512999117723392 1.0000000180025095e-35 -1.0000000180025095e-35 -0.027188278752672743 -0.046518060277015112 1.302844014592248 1.0000000180025095e-35 1.0000000180025095e-35 1.0000000180025095e-35 -1.9425085752268634 -3.1805128858049394 -1.1936799541375385 1.0000000180025095e-35 -1.0904437826954538 0.6967536245012188 1.0000000180025095e-35 0.98775872511783647 -1.0000000180025095e-35 -0.92728238192385237 1.0693973722735843 -1.8533104448087105 0.24138863973992919 -1.0000000180025095e-35 0.35610280357291085 0.45050163170984275 0.5760015467225249 1.0000000180025095e-35 -1.2536285414518975 1.0000000180025095e-35 -1.2309469733451841 -0.64375031107290248 1.0000000180025095e-35 -0.64955183932028848 -0.029034777717897309 -0.36180344176969975 -2.2272370481588397 -0.69111579900955344 0.1095346755611321 -1.0000000180025095e-35 -0.9175025805860314 1.1940720653011043 -0.90013792590951347 0.27874134579203763 0.80045871296958515 1.0000000180025095e-35 -0.015385774723774056 -0.52013052357555545 0.17055289520941139 -0.40072562613812163 0.37098494525883979 -0.68837615223592208 1.4088955317352412 1.0636382770420061 -0.33765183236873403 1.0000000180025095e-35 0.90282989846072159 -0.093295534211019507 0.0069644240766756202 -1.1744554312552911 0.56598449752785251 -1.2309469733451841 -0.64375031107290248 -1.8533104448087105
decision_type=2 2 2 2 2 2 2 2 2 2 2 2 2 2 2 2 2 2 2 2 2 2 2 2 2 2 2 2 2 2 2 2 2 2 2 2 2 2 2 2 2 2 2 2 2 2 2 2 2 2 2 2 2 2 2 2 2 2 2 2 2 2 2 2 2 2 2 2 2 2 2 2 2 2 2 2 2 2 2 2 2 2 2 2 2 2 2 2 2 2 2 2 2 2
left_child=2 6 4 11 5 22 10 27 -6 13 20 16 25 17 23 30 -3 19 66 -4 21 68 51 -8 -14 47 59 28 37 39 -10 65 74 34 -25 45 41 -5 -30 61 -28 -19 84 53 -13 46 49 -9 -15 77 -50 -1 -22 -23 -44 -56 -46 -31 -54 -18 -16 -12 69 -64 82 -11 -7 -68 80 70 -20 -26 -62 -67 -33 -40 -45 -24 -79 -48 -2 -53 -65 -78 -43 86 -32 -88 -35 -90 -91 -21 -27 -70
right_child=1 3 9 7 8 18 14 12 15 31 29 44 24 48 60 -17 26 36 62 91 52 43 35 33 71 92 40 -29 38 57 85 32 -34 88 -36 -37 -38 -39 75 -41 -42 42 54 76 56 -47 79 -49 50 -51 -52 81 58 -55 55 -57 -58 -59 -60 -61 72 -63 63 64 -66 73 67 -69 93 -71 -72 -73 -74 -75 -76 -77 83 78 -80 -81 -82 -83 -84 -85 -86 -87 87 -89 89 90 -92 -93 -94 -95
leaf_value=0.00036923645128463878 0.015321906643187895 0.0013379859666411695 0.0075198397052621373 0.0060962532389177279 -0.072111009829478642 -0.044795016050338747 -0.055246395922519946 0.042189723275424473 -0.04826976339165006 -0.035375984188701429 -0.022141442834227174 0.037964707071130928 0.024189683036778487 -0.035946006579148884 0.0087295772111775655 -0.084464801289141189 0.01982155396603048 -0.025279689788640966 -0.064089509485555557 0.00038789551860342423 0.015033629216406852 -0.026894242464242359 -0.048002129442551555 -0.016417971105668054 0.034016860680471009 0.038672216236591339 0.068030525081687498 -0.018738629631698131 0.01536676136602182 0.015555115925291411 -0.027472735993390864 -0.036214743612398362 -0.0026437159341115221 -0.015810562088154258 -0.058536324203014384 -0.040520655066939075 -0.025841314216022905 0.018484656291257933 0.027638443660829706 -0.033300734985325681 0.04965897341766818 0.028031567825625343 -0.0033176030766833386 0.0041291589165437168 0.064188832500178344 -0.0024455258389934897 -0.0033908408842980861 0.025414333517025961 -0.022710434425873369 -0.025905796476921702 0.0077593511343002327 -0.023491998626294929 0.045870385625783133 -0.00011185206416429897 -0.038814804224031316 -0.0071330531537532813 0.07791053657901699 -0.0030920416819439694 0.022997472717848032 0.042203762328082872 -0.026745859761722387 -0.0033510101694659688 -0.04461533402752442 -0.028251741889943466 -0.049473037024339042 -0.017706975875854139 -0.091482400397459668 -0.061714459989558573 0.044249890744686132 -0.03659105615859682 -0.04533665951341391 0.049474140661103387 -1.5430789890474287e-05 -0.044230105280876161 -0.055357739600268276 0.043086441389976013 0.015502544195570667 -0.027017803510118812 -0.054331447827545079 -0.023772785724805935 0.00068284341338739705 -0.01077911048787572 -0.0025099396112967624 -0.0078192751233776402 0.0040116857737302778 -0.024449895802689227 -0.037644042513732406 -0.061274276349855508 -0.012700871130587852 0.003759669192232798 -0.016427564593808106 -0.01939678761516684 0.063428321790020434 0.020497105255298603
leaf_weight=29 175 12.999999999999998 38 84 117 14.999999999999998 10.999999999999998 231 161 35 27 10.999999999999998 381 53 117 15.999999999999998 20 21 28 14.999999999999998 146 12.999999999999998 34 29 142 10.999999999999998 36 9.9999999999999982 64 39 43 87 12.999999999999998 80 9.9999999999999982 64 23 361 191 19 176 18 388 214 157 15.999999999999998 25 38 178 261 9.9999999999999982 88 17 99 13.999999999999998 25 58 55 105 55 9.9999999999999982 81 60 47 14.999999999999998 134 11.999999999999998 33 10.999999999999998 66 130 35 116 9.9999999999999982 22 31 109 56 10.999999999999998 35 33 63 10.999999999999998 11.999999999999998 23 38 56 23 82 86 24 337 53 79
leaf_count=29 175 13 38 84 117 15 11 231 161 35 27 11 381 53 117 16 20 21 28 15 146 13 34 29 142 11 36 10 64 39 43 87 13 80 10 64 23 361 191 19 176 18 388 214 157 16 25 38 178 261 10 88 17 99 14 25 58 55 105 55 10 81 60 47 15 134 12 33 11 66 130 35 116 10 22 31 109 56 11 35 33 63 11 12 23 38 56 23 82 86 24 337 53 79
internal_value=0 0.0206645 -0.0272837 0.0342034 -0.0377725 -0.0322776 0.00442385 0.0274955 -0.0510741 -0.0160032 0.00911899 0.0550156 0.0339808 -0.0128193 -0.00583067 -0.0437705 0.0464137 -0.00973669 -0.0448058 -0.0160132 0.0121601 0.00930037 -0.0246174 -0.0125666 0.0282764 0.0435395 0.0484555 0.0196974 0.0202232 -0.00482071 -0.0417422 -0.0280934 -0.0360895 -0.011057 -0.0272175 -0.0279948 -0.00495576 0.0161462 0.0265668 -0.0118265 0.0527787 -0.00397342 -0.00301736 0.00474024 0.0664339 -0.0261646 -0.0270639 0.03982 -0.0243569 -0.0290169 -0.0210897 -0.0151982 0.0201099 -0.00322052 -0.00470483 -0.018506 0.0678905 0.00464454 0.0261847 0.0362352 0.00309511 -0.00804862 -0.0416743 -0.0358982 -0.0287334 -0.0226435 -0.0634382 -0.0696526 0.0161406 -0.0451039 -0.0486599 0.0370734 -0.00213689 -0.0195489 -0.0400785 0.0297956 0.00740175 -0.0370566 -0.0315021 -0.0152803 0.0129994 -0.0181879 -0.0233697 0.0131896 0.014557 -0.0351737 -0.038514 -0.0445237 -0.00873988 -0.00579376 -0.000644818 -0.0185537 0.0591734 0.0234002
internal_weight=0 3957 2997 2158 1553 1099 1799 1632 454 1444 1234 526 891 1143 565 337 300 902 417 390 1013 745 682 322 558 333 287 741 731 221 321 301 122 311 39 502 512 445 286 127 212 489 468 447 226 438 422 269 241 362 188 180 268 112 427 39 215 94 122 75 243 108 357 133 73 179 60 45 298 224 158 177 126 144 109 222 335 101 67 60 208 151 58 121 41 160 122 79 272 192 110 352 64 90
internal_count=6954 3957 2997 2158 1553 1099 1799 1632 454 1444 1234 526 891 1143 565 337 300 902 417 390 1013 745 682 322 558 333 287 741 731 221 321 301 122 311 39 502 512 445 286 127 212 489 468 447 226 438 422 269 241 362 188 180 268 112 427 39 215 94 122 75 243 108 357 133 73 179 60 45 298 224 158 177 126 144 109 222 335 101 67 60 208 151 58 121 41 160 122 79 272 192 110 352 64 90
is_linear=0
shrinkage=0.05


Tree=8
num_leaves=95
num_cat=0
split_feature=7 7 7 5 7 4 6 6 6 7 2 6 2 5 7 4 6 7 0 7 5 7 7 5 5 16 5 0 6 0 6 3 0 2 5 3 8 6 1 6 6 6 0 1 1 6 3 7 1 0 0 0 5 7 15 7 9 0 0 7 2 0 9 6 2 2 19 6 7 1 4 15 2 6 0 2 8 7 2 5 3 0 2 4 5 2 3 1 6 2 7 5 1 3
split_gain=1415.39 315.692 127.708 94.756 42.1134 41.0381 39.1308 33.6844 26.5957 24.8699 20.4512 20.0406 14.499 12.4673 10.7247 10.3486 9.47409 9.37072 9.09863 8.62954 8.46164 8.08778 8.07752 7.91009 7.68242 8.15156 6.75988 6.23115 5.4456 5.33171 4.93365 4.81389 4.74181 4.23089 7.03406 4.20856 4.0229 3.98063 3.84946 3.56149 3.83791 6.00001 3.54995 4.76558 3.52519 3.92984 3.41749 3.39931 3.38315 3.13667 3.07562 3.06842 3.02436 2.96198 3.18446 2.94516 2.93793 2.90633 2.8739 3.30528 2.74674 2.72425 2.7088 2.76409 2.72219 2.68578 2.66041 2.64849 2.87266 3.2478 2.60904 2.59772 2.59564 2.59478 2.66376 2.58815 2.54052 3.16974 2.93154 2.50537 2.82272 2.46347 2.91367 2.46247 2.42569 2.41113 2.35469 2.35005 2.31085 5.00717 2.80284 2.30511 2.27901 2.59109
threshold=-0.0054292663829023898 0.62650330512866759 -0.45756701530840244 -0.58904338776167198 0.31487239247288518 0.99896100846971592 0.18652260264741236 0.1985904682818162 0.34837980620913694 -1.0162991199300253 0.74660187133757649 0.48019883016041726 0.8405663414436545 1.06798076437235 0.92942592740239982 1.4694377355218522 0.48019883016041726 0.79924344599863806 -1.0000000180025095e-35 -0.89952640684440288 -1.508562797878124 0.072779113123791303 1.0575442935690054 -0.94701732200825484 -0.39679630209784772 1.0000000180025095e-35 -1.6391492845530271 1.0000000180025095e-35 -1.1307649921509115 -1.0000000180025095e-35 0.94633017005394293 1.3726302305734817 -1.0000000180025095e-35 0.3050957570249121 -0.40072562613812163 2.3327269006513141 1.0000000180025095e-35 -0.035513525625393942 0.019987117173903678 0.35610280357291085 -3.1805128858049394 -1.1936799541375385 1.0000000180025095e-35 -0.11623379794209888 -0.87701180606974349 -0.63278263921122624 0.063203608146462281 -0.75108847134507106 -1.0904437826954538 1.0000000180025095e-35 -1.0000000180025095e-35 -1.0000000180025095e-35 -1.8533104448087105 0.1095346755611321 1.0000000180025095e-35 -0.35341416272567416 1.0000000180025095e-35 1.0000000180025095e-35 -1.0000000180025095e-35 -0.74159625813286045 0.39720352333367243 -1.0000000180025095e-35 1.0000000180025095e-35 0.090009035862094994 0.15312442334833548 0.23006039671885689 1.0000000180025095e-35 -0.12019174733953583 -0.92728238192385237 0.30639933939423997 1.1169051115846382 1.0000000180025095e-35 -0.21906578638213278 0.43346536179713829 -1.0000000180025095e-35 0.2174089017550753 1.0000000180025095e-35 -0.64955183932028848 -0.029034777717897309 -0.15938199136941672 0.25339069719581958 -1.0000000180025095e-35 -0.9175025805860314 1.2123892782576233 0.52821681459983305 0.72599783120207484 1.1113278987957054 -0.33228227999269516 -0.21157002808924211 0.551781888425393 -1.0162991199300253 -1.4970594347972035 -0.24137480982231954 0.17716839622822644
decision_type=2 2 2 2 2 2 2 2 2 2 2 2 2 2 2 2 2 2 2 2 2 2 2 2 2 2 2 2 2 2 2 2 2 2 2 2 2 2 2 2 2 2 2 2 2 2 2 2 2 2 2 2 2 2 2 2 2 2 2 2 2 2 2 2 2 2 2 2 2 2 2 2 2 2 2 2 2 2 2 2 2 2 2 2 2 2 2 2 2 2 2 2 2 2
left_child=2 4 5 17 7 6 23 10 14 -7 24 12 18 21 28 32 26 37 20 66 -4 73 38 52 25 53 -6 51 -5 83 42 39 47 34 -25 -23 -18 -3 -10 40 -20 -42 43 50 -31 -46 -41 -11 -19 62 87 56 -1 54 60 -14 -26 -50 67 -60 -2 -56 63 64 -28 -33 -8 68 69 -36 -51 86 -53 -9 -75 -30 81 92 -79 -49 -81 82 -21 -12 -64 -43 -22 -13 90 -90 -54 -62 93 -78
right_child=1 3 11 8 16 9 19 13 22 15 29 30 55 -15 -16 -17 36 48 31 76 71 35 -24 33 27 -27 49 -29 75 44 -32 65 -34 -35 58 -37 -38 -39 -40 46 41 85 -44 -45 45 -47 -48 79 57 70 -52 72 88 -55 61 -57 -58 -59 59 -61 91 -63 84 -65 -66 -67 -68 -69 -70 -71 -72 -73 -74 74 -76 -77 77 78 -80 80 -82 -83 -84 -85 -86 -87 -88 -89 89 -91 -92 -93 -94 -95
leaf_value=0.00035077416948203386 0.011375287908927672 0.055932444942240811 0.0059496757164154025 0.047015243619680402 0.04361156376473832 -0.068752461535342299 -0.06580349020858077 -0.0066906226420964032 0.021404348108643112 -0.048435241089884562 -0.048997341971844417 -0.036782763664459074 -0.031240121805492571 -0.063038559481501583 0.049225416304674786 -0.091763842105865481 -0.0019254624306584798 0.036066471853039482 -0.024015705118931474 -0.060885033171091764 -0.018080884987205819 -0.0024336355901470891 0.037620819294825199 -0.0021129957971072967 -0.029083608525494738 0.048489231969180868 0.0082291332259774187 0.01531715167905478 0.032882462297316457 -0.032960829497314992 -0.061431233584880833 -0.010755398259921506 -0.02914590630059441 -0.040292205413182576 -0.017274578813036592 0.030585450176149609 0.013694404419504459 0.042245371703957695 -0.0027171745129367887 -0.039665610773059044 0.01476183220684687 -0.003353957455102688 -0.003544937600107754 -0.03559100833064055 -0.014696438134769382 0.0026171061582046383 -0.0086439539013164392 -0.028029263364349272 0.046343934386968613 0.02492912796695667 -0.017043342152610424 0.0014879794276797969 -0.044666912234746496 0.020904433533905833 -0.0025511143079615739 -0.019234087321092375 -0.00095513718111849423 0.066357724055265771 0.0090621468907391475 -0.022585927644236524 0.006205866495684647 0.017652030387063967 0.022970016724238658 0.016069941679015758 -0.02866386279463768 -0.045695497772910376 -0.040247125117681352 -0.039420606365994267 -0.023517011997394328 -0.038187049476929552 0.012358945237510667 -0.0015179963964644981 0.010200476427821237 -0.035008989168064934 -0.015501631943597681 0.021865945272564666 -0.025971575888494653 -0.022201192064275004 -0.046999384760856633 -0.052386135328561068 -0.023950389462212722 -0.034761503472867793 -0.043226896263394793 -0.013908413022290917 0.0049245019890367982 -0.023781185007343691 -0.040637159285446006 -0.0098728551715612425 -0.0180017224769108 0.01273882553419646 -0.019095862769621011 -0.02213955057959538 -0.060446606243827521 -0.049456573957982274
leaf_weight=29 35 98 42 60 33 116 47 69 611 142 10.000000000000002 43 85 9.9999999999999982 142 9.9999999999999982 62 10.999999999999998 21 28 323 276 80 31 11.999999999999998 19 10.000000000000002 170 261 9.9999999999999982 9.9999999999999982 11.000000000000002 75 51 24 9.9999999999999982 123 116 17 12.999999999999998 47 391 17 102 46 114 28 47 20 262 110 181 12.999999999999998 128 19 128 41 195 10.999999999999998 33 13.000000000000002 137 73 20 9.9999999999999982 10.999999999999998 12.999999999999998 46 232 82 49 23 162 21 105 67 24 58 14.999999999999998 32 11.999999999999998 66 141 9.9999999999999982 25 14.999999999999998 11.999999999999998 9.9999999999999982 60 17 61 15.999999999999998 13.999999999999998 23
leaf_count=29 35 98 42 60 33 116 47 69 611 142 10 43 85 10 142 10 62 11 21 28 323 276 80 31 12 19 10 170 261 10 10 11 75 51 24 10 123 116 17 13 47 391 17 102 46 114 28 47 20 262 110 181 13 128 19 128 41 195 11 33 13 137 73 20 10 11 13 46 232 82 49 23 162 21 105 67 24 58 15 32 12 66 141 10 25 15 12 10 60 17 61 16 14 23
internal_value=0 0.0196199 -0.025935 0.0360816 0.00750994 -0.0358839 -0.0308221 0.00314249 0.0289982 -0.048935 0.0079187 -0.0152202 -0.01225 -0.00778152 0.0374684 -0.041706 0.0180783 0.0560118 -0.00957319 -0.04268 -0.015282 -0.00663273 0.0226575 -0.0234495 0.0109636 0.0165981 0.0217701 0.00731016 0.0331656 -0.00703343 -0.0269179 -0.00532082 -0.0400808 -0.02663 -0.0251119 -0.00127912 0.00845964 0.0485133 0.0207514 -0.00434237 -0.00311949 -0.00215079 -0.025694 -0.0271149 -0.00416055 -0.00236054 -0.0184801 -0.0436006 0.0631122 0.0201648 -0.0218108 0.00387282 -0.0144383 0.0148569 0.0113383 -0.0240252 -0.00732385 0.064496 -0.0267777 -0.0146739 0.00194654 0.0151914 0.0138911 0.00292629 -0.0102174 -0.0282254 -0.0602663 -0.0281646 -0.0266328 -0.0334522 0.0229486 -0.0177729 0.00560292 -0.0144847 -0.0187529 0.0306321 -0.0398205 -0.0343264 -0.0272967 -0.0360564 -0.0446309 -0.0429533 -0.0461525 -0.0314529 0.0183666 -0.00410866 -0.0188889 -0.0317054 -0.0172785 -0.0112148 -0.0235881 -0.00943298 -0.0427389 -0.0374642
internal_weight=0 3959 2995 1678 2281 1553 1119 1614 1238 434 1123 1442 1150 491 530 318 667 440 937 429 400 481 708 690 933 367 482 566 388 190 292 537 308 510 459 286 185 214 628 515 474 453 282 265 170 160 41 233 226 449 163 396 180 348 220 213 53 215 428 44 64 156 138 40 20 22 60 384 338 106 311 358 343 195 126 328 369 134 73 91 44 235 169 20 98 406 335 53 151 77 74 29 61 47
internal_count=6954 3959 2995 1678 2281 1553 1119 1614 1238 434 1123 1442 1150 491 530 318 667 440 937 429 400 481 708 690 933 367 482 566 388 190 292 537 308 510 459 286 185 214 628 515 474 453 282 265 170 160 41 233 226 449 163 396 180 348 220 213 53 215 428 44 64 156 138 40 20 22 60 384 338 106 311 358 343 195 126 328 369 134 73 91 44 235 169 20 98 406 335 53 151 77 74 29 61 47
is_linear=0
shrinkage=0.05


Tree=9
num_leaves=95
num_cat=0
split_feature=7 7 7 7 5 4 6 6 7 2 6 6 5 2 5 7 3 0 7 5 7 5 5 16 6 0 1 0 0 0 2 2 7 6 3 7 2 5 3 2 7 3 2 16 0 3 7 6 8 0 0 5 0 7 5 0 7 9 2 2 0 4 2 1 19 4 2 1 7 0 7 4 2 6 0 8 2 5 15 7 8 7 2 0 2 4 7 5 5 5 4 4 5 0
split_gain=1277.39 285.111 115.257 65.8583 62.6604 37.0369 35.3155 30.4002 22.4451 18.4572 18.3714 18.0867 14.1695 13.0854 11.2517 10.909 9.53257 8.21151 7.78816 7.66604 7.29922 7.13886 6.93338 7.35678 5.643 5.62362 5.49188 5.1847 5.10478 4.81187 4.77572 4.7721 4.69954 4.45262 4.35927 4.2153 3.81838 6.34824 3.79822 3.265 5.36247 5.04752 6.22014 3.57001 3.24889 3.81906 3.23114 3.54748 3.10837 2.88428 2.76925 2.72949 2.72348 2.70048 2.68762 3.51709 2.658 2.65148 2.62432 3.32469 2.59369 3.17943 2.59102 3.34382 2.52155 2.49137 2.75269 2.46022 3.30317 2.45213 2.39172 2.38206 2.34257 2.34179 2.40404 2.33053 2.5266 3.05211 2.2935 2.80397 2.29282 2.8607 2.67544 2.22328 2.62959 2.22238 2.2209 2.17109 2.15204 2.11857 2.10184 2.74276 2.1006 2.02584
threshold=-0.0054292663829023898 0.69933554306849299 -0.45756701530840244 0.31487239247288518 -1.1094358322900122 0.99896100846971592 0.18652260264741236 0.1985904682818162 -1.0162991199300253 0.74660187133757649 0.33538183520336978 0.48019883016041726 -0.55976193132100061 0.8405663414436545 1.06798076437235 1.1241222379631297 1.9051033776771131 -1.0000000180025095e-35 -0.89952640684440288 -1.5745233843305895 0.072779113123791303 -0.94701732200825484 -0.39679630209784772 1.0000000180025095e-35 -0.024306490029266225 1.0000000180025095e-35 -1.0904437826954538 1.0000000180025095e-35 0.5760015467225249 -1.0000000180025095e-35 0.091376631132026695 0.90282989846072159 -0.75108847134507106 0.94633017005394293 1.3350942235120329 1.1940720653011043 0.3050957570249121 -0.40072562613812163 2.3327269006513141 -0.27160194301403845 -0.24840885757484252 0.93980461912626101 0.38836844278959104 1.0000000180025095e-35 -1.0000000180025095e-35 -0.27210293475951541 0.057897624621057901 -0.58061622166160365 1.0000000180025095e-35 -1.0000000180025095e-35 -1.0000000180025095e-35 -1.8533104448087105 1.0000000180025095e-35 0.48436488920577964 -1.8533104448087105 -1.0000000180025095e-35 -0.35341416272567416 1.0000000180025095e-35 0.98775872511783647 -0.13622078460267642 -1.0000000180025095e-35 0.55842012026557764 0.1302371724423613 -0.67523255710640695 1.0000000180025095e-35 -2.2272370481588397 -0.67394361574648276 0.31339714665541862 -0.89952640684440288 1.0000000180025095e-35 -1.0162991199300253 -1.2309469733451841 -0.21906578638213278 0.43346536179713829 -1.0000000180025095e-35 1.0000000180025095e-35 0.90282989846072159 -0.093295534211019507 1.0000000180025095e-35 0.1095346755611321 1.0000000180025095e-35 -0.64955183932028848 -0.062879404215040471 -1.0000000180025095e-35 -0.9175025805860314 1.2123892782576233 -0.55733843009276884 0.73752736001055885 -1.9425085752268634 -1.4407918841533836 0.92578369831517693 0.0057256337451527511 -0.90335646421500215 -1.0000000180025095e-35
decision_type=2 2 2 2 2 2 2 2 2 2 2 2 2 2 2 2 2 2 2 2 2 2 2 2 2 2 2 2 2 2 2 2 2 2 2 2 2 2 2 2 2 2 2 2 2 2 2 2 2 2 2 2 2 2 2 2 2 2 2 2 2 2 2 2 2 2 2 2 2 2 2 2 2 2 2 2 2 2 2 2 2 2 2 2 2 2 2 2 2 2 2 2 2 2
left_child=2 3 5 7 27 6 21 9 -7 22 15 13 26 17 20 58 32 19 65 -4 73 51 23 54 31 50 -5 -3 62 85 52 69 49 44 39 88 37 -23 -22 40 -19 42 43 -41 48 -46 -31 -48 -13 -10 57 -1 87 -28 -2 -56 -15 -24 59 -6 67 -62 63 -12 -36 -8 -67 -39 70 -14 -69 -21 -52 -9 -75 76 -34 -78 79 89 83 92 -83 84 -20 -11 -53 -26 -29 -57 91 -74 -82 -38
right_child=1 4 11 12 10 8 18 14 16 29 28 33 24 56 -16 -17 -18 34 80 71 38 36 25 -25 30 -27 53 35 -30 46 -32 -33 75 -35 64 -37 93 60 -40 41 -42 -43 -44 -45 45 -47 47 -49 -50 -51 72 86 -54 -55 55 78 -58 -59 -60 -61 61 -63 -64 -65 -66 66 -68 68 -70 -71 -72 -73 90 74 -76 -77 77 -79 -80 -81 81 82 -84 -85 -86 -87 -88 -89 -90 -91 -92 -93 -94 -95
leaf_value=0.00033323550275687517 0.032928214429153335 0.040217095294169024 0.00684636400669421 0.0066521161856750652 0.03242211963864975 -0.065314839491299514 -0.039605841363469757 -0.0063560915570976088 -0.046110243462554532 -0.046547475457191456 0.043658276778810165 -0.04158870951169067 0.016879776205867527 -0.029678116199724814 -0.059886631816625596 0.053933755746418302 -0.085354226827621463 -0.021953369535762688 -0.057840780208685577 0.00047249637519646633 -0.0023119538281550205 -0.002007346178945755 -0.027629427642871934 0.046064770535418867 0.010874432879721835 0.014551293938146796 0.025979254801717141 0.063874562084674832 0.032124852288099054 -0.016586112710408486 0.0017108536080235757 0.012884235725752972 -0.02482995353639126 -0.05835967004299164 -0.010974418672804648 0.070122137936678805 -0.045015323539929736 -0.020597262507337229 0.029056178815662859 -0.00032875186199801763 -0.0037132226982617856 0.033947681579738855 -0.016763014258260413 0.023391712311764852 -0.032299589975897609 -0.017259231549537471 -0.013557479570671502 0.0048736635129898792 -0.019306986639276148 -0.018321577012538909 0.0014135803896110526 -0.019050645721181644 0.017326559720824596 0.040688626541151213 -0.0038644882372214592 0.0073730412999995889 -0.018272383193834684 -0.00090738004982108026 0.022896094025400954 0.042607731747603607 -0.021229401306824432 0.010843023022171111 0.0043434716189618815 0.020826790846601235 -0.043501254374330695 -0.082537310756742963 -0.055253286386141555 -0.034248052912709472 -0.025768364908075648 0.029623950113143241 -0.058459723430375254 -0.017715156063031538 -0.0027778048927967368 -0.033258540061346833 -0.014726550516982873 -0.021310655057478031 -0.034221731477217486 -0.055855161988216898 0.018371492669917645 0.016687177166794288 -0.023601431346365387 -0.019645040821178197 -0.040505901995030319 -0.033023426876488057 -0.041065550510976337 -0.013212992385961115 -0.0024656562600284815 -0.012473394281484864 0.052825646452515966 -0.013810068741440773 -0.0050670106806570579 0.015204203877112141 -0.045665913404143874 -0.023538813367486002
leaf_weight=29 18 42 38 18 220 116 14.999999999999998 69 141 10.000000000000002 17 45 50 85 9.9999999999999982 91 10.999999999999998 58 28 19 276 31 11.999999999999998 19 105 170 46 60 148 39 72 94 38 9.9999999999999982 13 66 35 114 9.9999999999999982 237 132 9.9999999999999982 59 17 58 155 36 95 24 9.9999999999999982 181 127 415 97 28 45 128 41 42 126 34 9.9999999999999982 22 283 11 12.999999999999998 32 68 190 154 11.999999999999998 343 26 21 105 39 56 23 175 66 13.999999999999998 51 22 66 141 9.9999999999999982 24 10.999999999999998 166 15.999999999999998 21 115 47 15.999999999999998
leaf_count=29 18 42 38 18 220 116 15 69 141 10 17 45 50 85 10 91 11 58 28 19 276 31 12 19 105 170 46 60 148 39 72 94 38 10 13 66 35 114 10 237 132 10 59 17 58 155 36 95 24 10 181 127 415 97 28 45 128 41 42 126 34 10 22 283 11 13 32 68 190 154 12 343 26 21 105 39 56 23 175 66 14 51 22 66 141 10 24 11 166 16 21 115 47 16
internal_value=0 0.0186389 -0.0246382 0.00934808 0.0380171 -0.0340897 -0.029281 0.00298536 -0.0464883 0.00752276 0.0314618 -0.0144592 0.019018 -0.0116375 -0.00739245 0.0383529 -0.0396207 -0.00909453 -0.040546 -0.0145179 -0.00630109 -0.022277 0.0104154 0.0157682 0.0165766 0.00694466 0.0326806 0.0566428 0.0244387 -0.00668176 0.0137949 0.0222054 -0.0379821 -0.025572 -0.00505478 0.0590055 -0.0252985 -0.0238563 -0.00121517 -0.00408038 -0.00928127 -0.00102104 -0.00213825 0.00125884 -0.0244093 -0.0213547 -0.00395253 -0.000191383 -0.0338385 -0.0442699 0.00367918 -0.0137164 0.0154334 0.0359569 0.0141141 0.0130878 -0.022824 -0.00695765 0.0346987 0.0361313 -0.0254389 -0.0139402 0.020906 0.0221206 -0.0258826 -0.057253 -0.0631353 -0.0267564 -0.0293569 0.0265004 -0.0378798 -0.0167606 0.00532277 -0.0137604 -0.0178152 -0.0318958 -0.0354241 -0.0405201 0.0146596 0.00954472 -0.0378295 -0.03261 -0.0259319 -0.0408057 -0.0438449 -0.0298802 -0.0164146 0.00866041 0.055759 0.00181682 0.00969045 0.0118884 -0.0406019 -0.0382776
internal_weight=0 3959 2995 2676 1283 1553 1119 1614 434 1123 949 1442 1062 1150 491 479 318 937 429 400 481 690 933 367 901 566 161 334 470 190 603 298 307 292 537 292 510 459 286 513 190 323 313 254 282 213 170 131 69 151 396 180 531 143 348 330 213 53 388 346 428 44 322 300 24 60 45 384 270 204 80 362 343 195 126 156 117 79 302 127 369 134 73 235 169 20 151 116 226 61 162 141 61 51
internal_count=6954 3959 2995 2676 1283 1553 1119 1614 434 1123 949 1442 1062 1150 491 479 318 937 429 400 481 690 933 367 901 566 161 334 470 190 603 298 307 292 537 292 510 459 286 513 190 323 313 254 282 213 170 131 69 151 396 180 531 143 348 330 213 53 388 346 428 44 322 300 24 60 45 384 270 204 80 362 343 195 126 156 117 79 302 127 369 134 73 235 169 20 151 116 226 61 162 141 61 51
is_linear=0
shrinkage=0.05


Tree=10
num_leaves=95
num_cat=0
split_feature=7 7 7 5 4 7 6 6 6 7 6 6 2 2 5 0 7 4 7 0 5 2 7 7 0 5 3 5 6 6 1 6 5 0 1 6 5 5 9 6 6 6 5 4 0 1 0 1 1 3 8 3 1 6 3 6 5 7 0 1 6 7 0 5 1 2 19 0 1 4 2 3 3 7 4 5 8 8 7 2 3 5 6 6 2 7 7 7 4 4 4 1 1 3
split_gain=1152.85 257.719 104.262 78.8478 33.4258 33.3564 31.8723 26.173 22.2267 20.2567 16.364 14.2368 11.8594 9.93502 9.26313 10.9111 9.13021 8.90107 8.25352 7.30542 7.75739 7.03709 7.02881 6.96971 6.89722 6.44282 5.18801 4.97618 4.71172 4.23207 4.20631 4.03905 3.9792 3.97737 3.84032 4.25009 4.82071 3.72761 3.62184 3.59926 3.27398 3.78369 3.22942 3.22186 3.19825 3.16458 3.10544 4.04942 2.98826 2.98048 2.86362 2.83384 2.79743 2.71851 2.68972 2.94436 4.91468 2.8547 2.67795 2.57875 2.56647 2.48267 2.47267 2.46336 2.35142 2.34927 2.31576 2.28079 2.33349 2.12212 2.11136 2.52119 2.51842 3.03572 2.59318 2.09796 2.08405 2.06927 2.58178 2.44373 2.10529 2.06808 2.06356 2.05631 4.54871 2.50697 2.10509 2.04883 2.04863 2.03978 2.00621 2.00351 1.99535 2.30215
threshold=-1.0000000180025095e-35 0.58411417467756332 -0.45756701530840244 -0.58904338776167198 0.99896100846971592 0.20921111469174231 0.18652260264741236 0.4239845671902992 0.34837980620913694 -1.0162991199300253 0.48019883016041726 0.2974114470227836 0.72599783120207484 0.74660187133757649 -0.42482200160136518 1.0000000180025095e-35 0.92942592740239982 1.4694377355218522 0.79924344599863806 -1.0000000180025095e-35 -0.40072562613812163 -0.38602965886478074 -0.89952640684440288 1.0575442935690054 -1.0000000180025095e-35 -0.94701732200825484 2.3327269006513141 0.87123539760809454 -1.1307649921509115 0.24738227845948843 -0.92410713194870553 0.88835550965684151 -1.5276773474592602 -1.0000000180025095e-35 0.26145422538033219 -0.38357041416795784 -0.1050208712206164 -1.1636211002044969 1.0000000180025095e-35 -0.046518060277015112 -3.1805128858049394 -1.1936799541375385 0.51890202682706177 -1.4119813036029658 -1.0000000180025095e-35 0.64030065276323389 1.0000000180025095e-35 -0.11623379794209888 -0.90511457555785857 1.0693973722735843 1.0000000180025095e-35 1.1384420903404131 -1.0904437826954538 -0.5314980062042266 -0.61420530183095357 -1.9101603618713561 -0.40072562613812163 -0.64955183932028848 0.5760015467225249 0.32811486973338611 -0.59319651213754498 -0.20081988058101274 -1.0000000180025095e-35 -1.8533104448087105 0.019987117173903678 0.2174089017550753 1.0000000180025095e-35 1.0000000180025095e-35 0.20833840993145911 1.1169051115846382 0.044511291206101443 0.25339069719581958 -0.34597322097214217 1.0000000180025095e-35 0.44643445750570671 0.2767492581923342 1.0000000180025095e-35 1.0000000180025095e-35 -0.64955183932028848 -0.029034777717897309 1.4088955317352412 0.42194404486819231 0.38459833446127462 -0.21157002808924211 0.551781888425393 -1.0162991199300253 -0.55733843009276884 -0.64955183932028848 -0.29443831367577811 0.12112660633741561 0.37621077826860699 -0.33228227999269516 -0.24137480982231954 0.17716839622822644
decision_type=2 2 2 2 2 2 2 2 2 2 2 2 2 2 2 2 2 2 2 2 2 2 2 2 2 2 2 2 2 2 2 2 2 2 2 2 2 2 2 2 2 2 2 2 2 2 2 2 2 2 2 2 2 2 2 2 2 2 2 2 2 2 2 2 2 2 2 2 2 2 2 2 2 2 2 2 2 2 2 2 2 2 2 2 2 2 2 2 2 2 2 2 2 2
left_child=2 5 4 18 6 7 25 13 16 -6 12 14 19 21 30 34 28 33 37 20 61 64 66 27 -9 63 43 -10 -5 40 -7 46 -23 50 35 36 -16 88 81 54 -21 -42 -40 -13 -14 -17 47 62 -15 -46 69 -43 -20 -34 57 -56 -57 59 90 -27 -50 -4 91 -1 -2 89 76 -45 -69 -11 71 -55 -72 74 -74 -66 -8 82 92 80 -80 -36 -24 85 86 -65 -85 -52 -3 -30 -54 -12 93 -79
right_child=1 3 10 8 9 11 22 24 23 17 31 26 44 48 15 45 -18 -19 52 29 -22 32 77 -25 -26 39 -28 -29 65 -31 -32 -33 53 -35 38 -37 -38 -39 42 -41 41 51 -44 67 49 -47 -48 -49 60 -51 87 -53 58 70 55 56 -58 -59 -60 -61 -62 -63 -64 83 75 -67 -68 68 -70 -71 72 -73 73 -75 -76 -77 -78 78 79 -81 -82 -83 -84 84 -86 -87 -88 -89 -90 -91 -92 -93 -94 -95
leaf_value=0.00031657328122648704 -0.018907702873860087 0.064467294886708257 -0.0054796866425391982 0.042674353034235536 -0.062049096347442989 0.017488991301758468 -0.069018760681725466 -0.036987835293515556 0.019174366036549515 -0.036891214114583126 -0.033149188644317699 0.0083638932723929995 -0.031752987235854818 -0.034283475335687395 -0.047603192027996871 0.014829921870922941 0.04456146828056326 -0.084064811319112781 0.03251992189748721 -0.021976769830299808 -0.017163649779290725 0.015481610845175282 -0.028573512635761647 0.034214009727584198 -0.011432043653245745 -0.027270055347018776 0.035821855412079738 -0.013324462187786899 0.02616028048572426 -0.015850943489603597 0.032851146482945688 -0.054015173153443778 0.011634199984426446 -0.026117653618256256 -0.022604778148233889 0.0056622222245026098 -0.00079260901124639954 0.032880387774979078 0.022501992528290993 -0.035121947743755301 0.012684740804749109 -0.0023699185174833881 0.0033259076274637332 -0.0093769848017535851 -0.019338679584685003 0.024748897353786825 -0.0024162565960603602 -0.032330499189251134 -0.015036036014172003 0.0087144815921783442 -0.037613446535221466 -0.023252867364927252 0.058674449378793896 0.0018656929556623493 -0.034789672692616784 -0.0001818755606302258 -0.020716435882266626 -0.020139132447982745 0.067552551113325976 -0.046195154674351216 -0.00063723316360708509 0.013594083441421391 -0.015314540403302421 -0.041481036177048319 0.010023205095168318 0.019457084291045451 -0.035712834153897491 -0.0006388780754059553 0.018343160834629089 -0.047689368043627056 0.010601572292701651 0.012577901974777287 -0.0057462353559032562 0.005689096873365565 -0.029051171662285925 -0.0045341069259765476 -0.047841158376208379 -0.022803411617254219 -0.02459149662643037 -0.04262412011623383 -0.00029213122854178603 0.0026958399507704947 -0.040919331199076682 -0.021509313658284752 0.012956858442767578 -0.017297291242685475 0.00063376374808805328 -0.017378684038042345 0.045608194798438084 0.035224663109361835 0.046333092799846161 -0.0083024545758962637 -0.055140978683318409 -0.044940280136854756
leaf_weight=29 21 15.999999999999998 59 60 116 74 26 31 639 91 43 174 53 9.9999999999999982 11.000000000000002 179 142 9.9999999999999982 10.999999999999998 21 312 157 41 80 178 45 12.999999999999998 11.999999999999998 161 71 112 10.999999999999998 170 75 9.9999999999999982 26 10.999999999999998 60 52 64 41 366 38 58 178 146 17 101 49 9.9999999999999982 29 17 110 114 30 33 249 59 58 30 84 24 110 12.999999999999998 33 72 12.999999999999998 85 20 91 36 106 47 42 15.999999999999998 99 21 24 47 14.999999999999998 10.999999999999998 42 194 46 17 61 13.999999999999998 22 144 101 47 9.9999999999999982 13.999999999999998 23
leaf_count=29 21 16 59 60 116 74 26 31 639 91 43 174 53 10 11 179 142 10 11 21 312 157 41 80 178 45 13 12 161 71 112 11 170 75 10 26 11 60 52 64 41 366 38 58 178 146 17 101 49 10 29 17 110 114 30 33 249 59 58 30 84 24 110 13 33 72 13 85 20 91 36 106 47 42 16 99 21 24 47 15 11 42 194 46 17 61 14 22 144 101 47 10 14 23
internal_value=0 0.0177174 -0.0233926 0.0323221 -0.0323852 0.00656858 -0.0278169 0.000846817 0.0259576 -0.0441639 -0.0137212 0.0130634 -0.0110414 0.00425994 0.0171754 0.0137212 0.0336914 -0.0376397 0.0504024 -0.0084321 -0.0135496 0.00633164 -0.0385187 0.0202868 -0.0152226 -0.0211632 0.0048277 0.0185753 0.0297738 -0.00451462 0.0267393 -0.0242934 0.00848849 -0.0361324 0.00420279 -0.00802367 -0.0241979 0.0435085 0.00833567 -0.0240335 -0.0027059 -0.00175145 0.0144054 0.00363208 -0.0209048 0.0192858 -0.0231299 -0.0244637 -0.00792397 -0.0178465 -0.039356 -0.00329684 0.0571133 0.00642084 -0.0224424 -0.0198977 -0.0183135 -0.0283673 0.0583716 -0.0348401 -0.00594206 3.56204e-05 -0.0195892 -0.0130305 -0.00336714 0.0274563 -0.0543903 -0.00141906 0.00297675 -0.0422903 0.0039658 0.00702703 -0.00081059 -0.00472333 -0.0116649 -0.000894779 -0.0595564 -0.035938 -0.0309795 -0.0246353 -0.019983 -0.00216966 -0.0387654 -0.0155939 -0.00987388 -0.0215458 -0.0163426 -0.0288847 0.0474941 0.0296546 0.0549799 -0.0284611 -0.0385718 -0.0336363
internal_weight=0 3957 2997 1713 1553 2244 1119 1193 1267 434 1444 1051 1152 984 701 515 536 318 446 911 395 841 429 731 209 690 350 651 394 516 186 292 688 308 190 48 22 220 142 510 445 424 90 337 241 325 281 264 143 188 233 383 226 531 446 312 282 134 215 75 133 83 163 180 153 334 60 163 105 182 361 220 141 105 63 132 47 369 134 73 58 52 235 151 77 74 60 51 160 262 157 53 61 47
internal_count=6954 3957 2997 1713 1553 2244 1119 1193 1267 434 1444 1051 1152 984 701 515 536 318 446 911 395 841 429 731 209 690 350 651 394 516 186 292 688 308 190 48 22 220 142 510 445 424 90 337 241 325 281 264 143 188 233 383 226 531 446 312 282 134 215 75 133 83 163 180 153 334 60 163 105 182 361 220 141 105 63 132 47 369 134 73 58 52 235 151 77 74 60 51 160 262 157 53 61 47
is_linear=0
shrinkage=0.05


Tree=11
num_leaves=95
num_cat=0
split_feature=7 7 7 5 4 7 6 6 6 2 7 6 2 0 2 7 0 6 3 2 7 0 15 7 7 6 8 7 6 0 0 5 6 1 0 7 7 5 19 6 6 0 6 3 0 0 5 6 3 1 6 1 3 0 9 1 3 7 9 0 4 4 4 1 2 5 7 3 6 2 3 2 0 5 1 1 6 2 2 5 5 9 4 2 2 4 1 5 7 4 3 0 5 2
split_gain=1040.47 233.197 93.9111 80.4846 30.4872 26.7965 23.996 23.0715 15.8319 14.0252 13.0262 12.7814 11.5165 9.74668 9.2342 8.98853 8.69974 8.08602 7.42161 6.9847 6.78649 6.57755 7.16909 6.29682 5.90519 4.92039 4.88784 4.63498 4.57813 5.22458 4.57717 4.4686 3.84006 3.68716 4.73915 3.62665 3.5752 3.29302 3.06131 2.96406 4.88301 2.94511 3.05862 2.9296 2.86718 2.83102 2.72111 2.78146 2.72072 2.66611 2.6611 2.65506 2.56191 2.53502 2.51007 2.48786 2.48644 2.45493 2.44178 2.43586 2.37307 2.66216 2.35427 2.34334 2.70616 2.26418 2.25427 2.23021 2.22324 2.16969 2.16398 2.11633 2.08946 2.07583 2.07203 3.48911 2.0572 2.0337 2.82078 2.01262 2.00983 1.96853 1.95585 2.6606 1.95142 1.96074 2.45599 2.76502 2.02171 1.9486 1.93977 1.93586 1.92952 1.84915
