tree
version=v3
num_class=1
num_tree_per_iteration=1
label_index=0
max_feature_idx=21
objective=regression
feature_names=Column_0 Column_1 Column_2 Column_3 Column_4 Column_5 Column_6 Column_7 Column_8 Column_9 Column_10 Column_11 Column_12 Column_13 Column_14 Column_15 Column_16 Column_17 Column_18 Column_19 Column_20 Column_21
feature_infos=[-0.58496250072115641:1.5849625007211563] [-25.248912418052441:2.8814043831167151] [-1.6958580529454614:25.275676834914062] [-1.4627090229224107:10.195982237753583] [-3.9074842479063827:8.228870322266177] [-3.3286451817986502:5.8961276565798384] [-3.3030650159285595:5.8365755413379112] [-2.326347865140169:1.8827184988991261] [0:1] [0:1] [0:1] none [0:1] [0:1] [0:1] [0:1] [0:1] [0:1] none [0:1] [0:1] [0:1]
tree_sizes=1469 1456 1463 1457 1459 1466 1464 1461 1469 1478 1476 1462 1471 1462 1469 1467 1467 1472 1460 1468 1469 1474 1476 1471 1471 1472 1470 1475 1477 1483 1484 1470 1486 1472 1473 1478 1473 1476 1479 1466 1476 1479 1483 1481 1469 1465 1481 1470 1470 1467 1472 1474 1460 1472 1472 1473 1459 1468 1478 1461 1462 1472 1474 1474 1466 1456 1464 1464 1471 1470 1483 1477 1465 1469 1481 1475 1459 1480 1453 1477 1465 1479 1479 1478 1478 1473 1472 1454 1481 1465 1450 1465 1455 1491 1470 1479 1466 1464 1463 1458 1454 1479 1471 1460 1477 1462 1457 1479 1472 1475 1447 1466 1465 1455 1461 1475 1470 1482 1466 1468 1475 1463 1469 1467 1463 1474 1471 1462 1452 1469 1475 1459 1466 1456 1459 1480 1465 1443 1455 1484 1472 1468 1462 1456 1478 1461 1474 1460 1458 1475 1464 1463 1461 1472 1453 1456 1471 1474 1472 1475 1468 1483 1461 1476 1469 1475 1467 1447 1474 1457 1478 1472 1464 1463 1465 1461 1467 1457 1466 1475 1474 1470 1479 1473 1465 1475 1483 1485 1478 1460 1457 1449 1483 1466 1470 1483 1486 1470 1472 1485 1476 1456 1500 1482 1466 1478 1486 1464 1475 1467 1475 1475 1478 1470 1462 1458 1488 1465 1458 1489 1478 1470 1481 1479 1484 1467 1487 1484 1471 1453 1475 1458 1469 1472 1451 1479 1477 1479 1471 1466 1483 1478 1457 1458 1476 1465 1477 1479 1475 1476 1478 1480 1474 1490 1465 1474 1465 1474 1480 1488 1448 1460 1488 1456 1474 1490 1456 1474 1457 1467 1469 1465 1482 1460 1482 1475 1460 1476 1494 1468 1470 1475 1486 1465 1474 1468 1483 1459 1473 1468 1474 1459 1474 1475 1475 1461 1459 1472 1474 1478 1471 1471 1481 1466 1466 1475 1465 1480 1474 1450 1475 1475 1468 1476 1463 1482 1498 1470 1473 1464 1482 1464 1471 1489 1472 1466 1508 1470 1470 1483 1463 1454 1494 1470 1459 1492 1476 1488 1461 1493 1481 1463 1490 1456 1483 1472 1485 1474 1469 1465 1473 1465 1459 1473 1483 1472 1490 1486 1473 1474 1468 1489 1468 1469 1486 1480 1487 1464 1474 1475 1471 1471 1476 1469 1483 1479 1478 1463 1483 1473 1476 1474 1468 1461 1479 1461 1466 1482 1480 1470 1455 1467 1476 1474 1466 1458 1465 1482 1459 1477 1474 1467 1485 1482 1461 1470 1464 1497 1478 1472 1469 1466 1475 1464 1485 1475 1479 1465 1474 1470 1479 1475 1485 1478 1480 1480 1460 1480 1479 1487 1483 1467 1459 1477 1473 1483 1461 1474 1473 1463 1476 1470 1473 1475 1477 1483 1483 1457 1496 1488 1473 1485 1483 1478 1494 1479 1470 1488 1480 1487 1471 1483 1482 1472 1467 1474 1458 1479 1465 1461 1472 1477 1465 1482 1484 1473 1473 1471 1493 1484 1459 1456 1488 1472 1478 1490 1469 1480 1482 1481 1485 1479 1477 1466 1456 1476 1471 1470 1480 1485 1486 1470 1474 1473 1474 1464 1472 1492 1487 1472 1489 1468 1475 1480 1475 1484 1471 1490 1473 1462 1476 1486 1461 1471 1475 1481 1481 1469 1473 1483 1489 1493 1477 1488 1482 1487 1481 1483 1486 1480 1479 1482 1467 1485 1477 1483 1476 1470 1488 1479 1494 1488 1481 1487 1477 1481 1470 1479 1494 1488 1476 1480 1464 1469 1490 1482 1465 1482 1489 1474 1462 1472 1480 1468 1482 1481 1465 1483 1470 1472 1477 1469 1472 1465 1485 1491 1474 1482 1468 1493 1483 1474 1482 1475 1481 1488 1477 1475 1491 1471 1496 1469 1464 1473 1484 1477 1468 1454 1476 1477 1473 1473 1468 1487 1480 1479 1480 1479 1474 1476 1498 1492 1481 1467 1486 1468 1463 1485 1467 1485 1467 1488 1479 1472 1488 1467 1465 1481 1480 1472 1483 1473 1479 1466 1494 1476 1464 1480 1471 1484 1487 1487 1470 1482 1468 1471 1471 1476 1486 1490 1482 1477 1476 1481 1476 1479 1466 1487 1466 1483 1481 1479 1505 1483 1483 1482 1482 1474 1479 1471 1478 1481 1484 1482 1475 1468 1468 1486 1474 1483 1470 1482 1482 1482 1480 1483 1486 1477 1483 1466 1467 1475

Tree=0
num_leaves=15
num_cat=0
split_feature=7 7 7 5 4 6 7 6 7 6 2 6 2 7
split_gain=3215.69 710.88 290.206 244.112 92.2788 88.3658 77.0837 70.4761 56.2121 45.2694 41.3498 34.1534 32.778 28.6987
threshold=-0.0054292663829023898 0.41037609674151881 -0.45756701530840244 -0.96679074834010492 0.99896100846971592 0.18652260264741236 0.95650605790247567 0.20893796902231643 -1.0162991199300253 0.48019883016041726 0.74660187133757649 0.48019883016041726 0.74660187133757649 0.79924344599863806
decision_type=2 2 2 2 2 2 2 2 2 2 2 2 2 2
left_child=2 7 4 13 5 -1 11 10 -6 12 -2 -5 -4 -3
right_child=1 3 9 6 8 -7 -8 -9 -10 -11 -12 -13 -14 -15
leaf_value=-0.035419830207684383 0.017174248329663265 0.070335668535950552 -0.014151843908613133 0.04293122626346875 -0.10345361208745253 -0.064318245754719505 0.062974421197173697 -0.0084973768923631877 -0.062791764525218063 -0.040520743320824656 -0.0066651607933742342 0.027307639032989578 -0.034956079381920288 0.095711559151325454
leaf_weight=690 1028 250 911 717 116 429 307 552 318 292 221 683 239 201
leaf_count=690 1028 250 911 717 116 429 307 552 318 292 221 683 239 201
internal_value=-4.26876e-09 0.029573 -0.0390917 0.0489286 -0.0540893 -0.0464988 0.0402847 0.00638066 -0.0736599 -0.0229396 0.0129561 0.0353091 -0.0184755 0.0816451
internal_weight=0 3959 2995 2158 1553 1119 1707 1801 434 1442 1249 1400 1150 451
internal_count=6954 3959 2995 2158 1553 1119 1707 1801 434 1442 1249 1400 1150 451
is_linear=0
shrinkage=1


Tree=1
num_leaves=15
num_cat=0
split_feature=7 7 7 5 7 4 6 6 6 6 7 2 4 6
split_gain=2902.19 648.023 262.516 190.575 83.6258 83.5484 66.0551 65.6737 56.315 41.0425 37.0015 30.0414 29.2435 29.1796
threshold=-1.0000000180025095e-35 0.62650330512866759 -0.45756701530840244 -0.58904338776167198 0.24138863973992919 1.0636049601784756 0.18652260264741236 0.16436832807303114 0.34837980620913694 0.43346536179713829 -1.0162991199300253 0.74660187133757649 0.89013993632118227 0.2974114470227836
decision_type=2 2 2 2 2 2 2 2 2 2 2 2 2 2
left_child=2 4 5 -3 7 6 -1 12 -5 11 -7 -4 -2 -6
right_child=1 3 9 8 13 10 -8 -9 -10 -11 -12 -13 -14 -15
leaf_value=-0.036157190119367848 0.014450237492926411 0.079956249536983465 -0.013275379138000401 0.053971610762319482 0.028518726723457306 -0.099056139071376961 -0.060346453625294894 -0.014044025803199404 0.032419604666420597 -0.038195520355381644 -0.062766833238363753 -0.033208270632431973 -0.0079680010830746831 0.010135099531364549
leaf_weight=757 741 440 904 530 617 98 450 408 708 301 248 239 181 332
leaf_count=757 741 440 904 530 617 98 450 408 708 301 248 239 181 332
internal_value=0 0.028111 -0.0371155 0.0516918 0.0107487 -0.0513848 -0.0451756 0.00265824 0.0416462 -0.0217691 -0.0730453 -0.0174433 0.0100493 0.0220874
internal_weight=0 3957 2997 1678 2279 1553 1207 1330 1238 1444 346 1143 922 949
internal_count=6954 3957 2997 1678 2279 1553 1207 1330 1238 1444 346 1143 922 949
is_linear=0
shrinkage=0.05


Tree=2
num_leaves=15
num_cat=0
split_feature=7 7 7 7 5 4 6 6 7 2 6 7 5 2
split_gain=2619.24 588.711 236.365 131.537 127.872 76.6529 71.0652 61.8089 47.5607 37.6236 36.9456 35.6672 27.4272 27.0462
threshold=-0.0054292663829023898 0.69933554306849299 -0.45756701530840244 0.31487239247288518 -0.84275417914438078 0.95491882395990169 0.18652260264741236 0.20893796902231643 -1.0162991199300253 0.74660187133757649 0.43346536179713829 1.1241222379631297 -0.55976193132100061 0.74660187133757649
decision_type=2 2 2 2 2 2 2 2 2 2 2 2 2 2
left_child=2 3 5 7 -3 6 -1 9 -7 -2 13 -6 -5 -4
right_child=1 4 10 12 11 8 -8 -9 -10 -11 -12 -13 -14 -15
leaf_value=-0.031733841454484595 0.014758781935787814 0.079331394868770722 -0.012630367500629036 0.046013792323365069 0.040514356111953601 -0.093564116419889987 -0.057936011449985517 -0.010759322086263222 -0.056563045302245665 -0.0096209187688011885 -0.036285743863628157 0.069072289655249072 0.023608641974050677 -0.031547857680704804
leaf_weight=682 947 370 902 161 786 117 417 477 337 190 301 127 901 239
leaf_count=682 947 370 902 161 786 117 417 477 337 190 301 127 901 239
internal_value=0 0.0266898 -0.0352805 0.0133393 0.0545355 -0.0488155 -0.0416759 0.00434721 -0.0660986 0.0106848 -0.0207036 0.0444868 0.0270053 -0.0165929
internal_weight=0 3959 2995 2676 1283 1553 1099 1614 454 1137 1442 913 1062 1141
internal_count=6954 3959 2995 2676 1283 1553 1099 1614 454 1137 1442 913 1062 1141
is_linear=0
shrinkage=0.05


Tree=3
num_leaves=15
num_cat=0
split_feature=7 7 7 7 5 4 6 6 7 6 2 6 5 2
split_gain=2363.94 530.826 213.8 118.53 115.405 69.1793 64.1364 56.0028 42.9235 35.095 34.614 33.4825 24.7531 24.1716
threshold=-1.0000000180025095e-35 0.69933554306849299 -0.45756701530840244 0.31487239247288518 -0.84275417914438078 0.95491882395990169 0.18652260264741236 0.1985904682818162 -1.0162991199300253 0.4239845671902992 0.74660187133757649 0.48019883016041726 -0.55976193132100061 0.74660187133757649
decision_type=2 2 2 2 2 2 2 2 2 2 2 2 2 2
left_child=2 3 5 7 -3 6 -1 10 -7 -6 -2 13 -5 -4
right_child=1 4 11 12 9 8 -8 -9 -10 -11 -12 -13 -14 -15
leaf_value=-0.030147150070119727 0.014277967411642604 0.075364824961367496 -0.012109117447587317 0.043713103491604705 0.051905683933703053 -0.088885907332102457 -0.05503920936327187 -0.0099406427769236985 -0.053734893558231855 0.032297113769244871 -0.0091398727839910668 -0.034770637953896434 0.022428210059978838 -0.029970464849197714
leaf_weight=682 931 370 913 161 464 117 417 491 337 449 190 292 901 239
leaf_count=682 931 370 913 161 464 117 417 491 337 449 190 292 901 239
internal_value=0 0.0253706 -0.0334974 0.0126855 0.0518088 -0.0463748 -0.0395921 0.00414104 -0.0627936 0.0422625 0.0103088 -0.0196479 0.025655 -0.0158147
internal_weight=0 3957 2997 2674 1283 1553 1099 1612 454 913 1121 1444 1062 1152
internal_count=6954 3957 2997 2674 1283 1553 1099 1612 454 913 1121 1444 1062 1152
is_linear=0
shrinkage=0.05


Tree=4
num_leaves=15
num_cat=0
split_feature=7 7 7 5 7 4 6 6 6 6 7 6 5 2
split_gain=2133.46 481.853 193.071 140.754 65.6304 64.1158 52.7426 49.7544 45.1316 32.2573 25.3732 24.4252 23.9202 22.9095
threshold=-1.0000000180025095e-35 0.62650330512866759 -0.49208070654641539 -0.58904338776167198 0.20921111469174231 1.0636049601784756 0.4239845671902992 0.18652260264741236 0.34837980620913694 0.48019883016041726 -1.0162991199300253 0.20844448215949157 -0.94701732200825484 0.74660187133757649
decision_type=2 2 2 2 2 2 2 2 2 2 2 2 2 2
left_child=2 4 5 -3 6 7 -2 12 -5 13 -7 -6 -1 -4
right_child=1 3 9 8 11 10 -8 -9 -10 -11 -12 -13 -14 -15
leaf_value=-0.015131970293716424 0.005880123725228629 0.068726575422068975 -0.01159689621412132 0.046836716747174989 0.02398995479596849 -0.084980831888257238 -0.021776578426984938 -0.052284814921346894 0.027542989937217623 -0.033533298905124728 -0.054788445616189466 0.0085994824281541947 -0.036057548530156275 -0.028679036426855382
leaf_weight=180 984 440 927 530 665 98 209 435 708 302 240 421 566 249
leaf_count=180 984 440 927 530 665 98 209 435 708 302 240 421 566 249
internal_value=0 0.0241021 -0.0318225 0.044436 0.00913051 -0.0443407 0.00103498 -0.0388452 0.0358028 -0.018957 -0.0635425 0.0180237 -0.0310085 -0.0152138
internal_weight=0 3957 2997 1678 2279 1519 1193 1181 1238 1478 338 1086 746 1176
internal_count=6954 3957 2997 1678 2279 1519 1193 1181 1238 1478 338 1086 746 1176
is_linear=0
shrinkage=0.05


Tree=5
num_leaves=15
num_cat=0
split_feature=7 7 7 7 5 4 6 6 7 7 2 6 0 5
split_gain=1925.45 436.831 174.413 98.1214 94.7585 57.094 54.3855 44.4908 35.3876 35.1222 29.2423 27.3139 21.8568 21.5316
threshold=-1.0000000180025095e-35 0.69933554306849299 -0.45756701530840244 0.41037609674151881 -1.1094358322900122 0.99896100846971592 0.18652260264741236 0.20893796902231643 1.1241222379631297 -1.0162991199300253 0.74660187133757649 0.43346536179713829 -1.0000000180025095e-35 -0.58904338776167198
decision_type=2 2 2 2 2 2 2 2 2 2 2 2 2 2
left_child=2 3 5 7 -3 6 -1 10 -6 -7 -2 -4 -9 -5
right_child=1 4 11 13 8 9 -8 12 -10 -11 -12 -13 -14 -15
leaf_value=-0.027200181073664377 0.013494942367467648 0.069785174892512625 -0.014193621514428632 0.043567410423489876 0.034819411573598136 -0.080806740900052021 -0.049871315067473339 -0.038292091842010323 0.062126726616951206 -0.048665447855432691 -0.0065562010538338673 -0.031122935342330151 -0.0039339848948334033 0.021787772331628433
leaf_weight=690 1026 334 1143 134 810 116 429 51 139 318 221 301 501 741
leaf_count=690 1026 334 1143 134 810 116 429 51 139 318 221 301 501 741
internal_value=0 0.022897 -0.0302314 0.0113896 0.0468804 -0.0418623 -0.0358918 0.00470988 0.0388191 -0.0572562 0.00994137 -0.0177225 -0.00710838 0.0251232
internal_weight=0 3957 2997 2674 1283 1553 1119 1799 949 434 1247 1444 552 875
internal_count=6954 3957 2997 2674 1283 1553 1119 1799 949 434 1247 1444 552 875
is_linear=0
shrinkage=0.05


Tree=6
num_leaves=15
num_cat=0
split_feature=7 7 7 5 7 6 4 0 6 7 5 0 5 6
split_gain=1744.16 407.553 184.977 79.1314 59.1336 57.9769 44.8739 40.5884 40.4339 30.1485 29.3386 25.6221 30.8705 24.1076
threshold=0.20921111469174231 -0.28310901449595488 0.74257097781548786 -1.1094358322900122 -0.64955183932028848 0.43346536179713829 0.99896100846971592 -1.0000000180025095e-35 0.16982413946337696 1.1241222379631297 -0.9942831986053926 1.0000000180025095e-35 -0.90335646421500215 0.10451445592043417
decision_type=2 2 2 2 2 2 2 2 2 2 2 2 2 2
left_child=1 4 11 -4 6 7 8 -3 -1 -5 -6 12 -2 -13
right_child=2 5 3 9 10 -7 -8 -9 -10 -11 -12 13 -14 -15
leaf_value=-0.028387362698566704 0.034338976308773056 -0.016621183334722272 0.066454838478538211 0.033594262985999532 -0.0030646249669818923 -0.022445903398057958 -0.06111217457801104 0.0027342211332108159 -0.054543524304529835 0.059020389927376952 -0.030941010951666487 0.032943048027487654 0.0041732880402433814 0.017619122461156454
leaf_weight=410 107 336 331 723 104 386 305 1397 231 139 1021 441 409 614
leaf_count=410 107 336 331 723 104 386 305 1397 231 139 1021 441 409 614
internal_value=0 -0.020338 0.0308308 0.045674 -0.0361116 -0.00492172 -0.0453251 -0.00101847 -0.0378134 0.0376943 -0.028364 0.019559 0.0104286 0.0240247
internal_weight=0 4190 2764 1193 2071 2119 946 1733 641 862 1125 1571 516 1055
internal_count=6954 4190 2764 1193 2071 2119 946 1733 641 862 1125 1571 516 1055
is_linear=0
shrinkage=0.05


Tree=7
num_leaves=15
num_cat=0
split_feature=7 7 7 6 4 7 6 5 6 6 2 5 0 7
split_gain=1576.95 356.84 143.165 110.483 49.9011 48.7726 41.5283 38.9426 32.7911 30.9818 22.582 19.8176 22.766 19.7684
threshold=-0.0054292663829023898 0.62650330512866759 -0.54433467347667941 0.33538183520336978 1.0636049601784756 0.20921111469174231 0.16436832807303114 -0.40757236268739555 0.16982413946337696 0.48019883016041726 0.74660187133757649 -1.0377817267602831 1.0000000180025095e-35 0.95650605790247567
decision_type=2 2 2 2 2 2 2 2 2 2 2 2 2 2
left_child=2 5 4 7 8 6 -2 -3 -1 10 -4 -7 -13 -9
right_child=1 3 9 -5 -6 11 -8 13 -10 -11 -12 12 -14 -15
leaf_value=-0.027299339271894141 0.0069482283868720247 0.06034422056195704 -0.010451314268037972 0.023748943240106731 -0.057019628887661759 0.031933895733717618 -0.013416091112696491 0.033768144555587597 -0.045724176932029778 -0.030725163733320578 -0.026296712988890886 0.0034024158317455056 0.019297296647665971 0.056101625270964788
leaf_weight=645 838 444 1013 739 312 157 357 358 386 350 289 384 545 137
leaf_count=645 838 444 1013 739 312 157 357 358 386 350 289 384 545 137
internal_value=0 0.0207094 -0.0273751 0.0382111 -0.0394994 0.00783439 0.000864494 0.0495929 -0.0341975 -0.0175186 -0.0139685 0.0155038 0.0127272 0.0399493
internal_weight=0 3959 2995 1678 1343 2281 1195 939 1031 1652 1302 1086 929 495
internal_count=6954 3959 2995 1678 1343 2281 1195 939 1031 1652 1302 1086 929 495
is_linear=0
shrinkage=0.05


Tree=8
num_leaves=15
num_cat=0
split_feature=7 7 7 5 7 4 6 0 6 6 7 6 2 2
split_gain=1423.2 324.008 129.206 114.165 46.2552 45.3071 37.1585 36.9648 27.9611 27.8131 24.6685 20.9272 20.3803 20.1764
threshold=-0.0054292663829023898 0.41037609674151881 -0.54433467347667941 -1.0377817267602831 0.95650605790247567 0.95491882395990169 0.16982413946337696 -1.0000000180025095e-35 0.48019883016041726 0.20844448215949157 -1.0162991199300253 0.48019883016041726 0.74660187133757649 0.74660187133757649
decision_type=2 2 2 2 2 2 2 2 2 2 2 2 2 2
left_child=2 7 5 -3 11 6 -1 -2 12 13 -7 -5 -4 -9
right_child=1 3 8 4 -6 10 -8 9 -10 -11 -12 -13 -14 -15
leaf_value=-0.023753532625125622 -0.018464471037353738 0.055695387276290656 -0.0099287484977350678 0.029019248647861842 0.044437638478401535 -0.070906289456746527 -0.044229923992832543 0.013831215647378546 -0.029188906394477406 -0.0033455501225314942 -0.043639165701246575 0.016846704981487524 -0.024981877024809768 -0.0036877226169453937
leaf_weight=584 166 433 1013 731 311 117 357 922 350 513 285 683 289 200
leaf_count=584 166 433 1013 731 311 117 357 922 350 513 285 683 289 200
internal_value=0 0.0196739 -0.0260064 0.0327412 0.0269794 -0.0375245 -0.0315219 0.00401636 -0.0166427 0.00629882 -0.0515751 0.0231396 -0.01327 0.0107084
internal_weight=0 3959 2995 2158 1725 1343 941 1801 1652 1635 402 1414 1302 1122
internal_count=6954 3959 2995 2158 1725 1343 941 1801 1652 1635 402 1414 1302 1122
is_linear=0
shrinkage=0.05


Tree=9
num_leaves=15
num_cat=0
split_feature=7 7 7 5 7 5 0 5 6 5 1 1 5 0
split_gain=1289.75 305.856 139.55 59.3261 48.8076 45.9788 43.5694 37.2601 28.7808 28.6613 27.8903 21.8172 32.3658 25.7798
threshold=0.20921111469174231 -0.28310901449595488 0.74257097781548786 -0.58904338776167198 -0.89952640684440288 -1.2188346297869803 -1.0000000180025095e-35 -1.0377817267602831 -0.80909124550389611 -0.30977552235813427 0.24696013897218105 -1.0904437826954538 -0.42482200160136518 1.0000000180025095e-35
decision_type=2 2 2 2 2 2 2 2 2 2 2 2 2 2
left_child=1 4 11 -4 9 -3 -7 -6 -9 -1 -8 -2 -13 -14
right_child=2 5 3 -5 7 6 10 8 -10 -11 -12 12 13 -15
leaf_value=-0.024171686375214319 -0.0034064119689226633 0.013657825194302331 0.055526357527745054 0.031693142703809352 -0.0062666229124153433 -0.023312164445810062 -0.011151352238657373 -0.019011035005074381 -0.034437114784936509 -0.05449783113312489 0.002713208690293672 0.034312974156487819 0.0037154443275870227 0.019779468489699203
leaf_weight=105 124 310 386 807 186 340 653 424 1054 302 816 263 358 826
leaf_count=105 124 310 386 807 186 340 653 424 1054 302 816 263 358 826
internal_value=0 -0.0174891 0.0265121 0.0394045 -0.0311537 -0.00413406 -0.00718297 -0.0273576 -0.0300118 -0.0466741 -0.00344987 0.0167218 0.0184466 0.0149223
internal_weight=0 4190 2764 1193 2071 2119 1809 1664 1478 407 1469 1571 1447 1184
internal_count=6954 4190 2764 1193 2071 2119 1809 1664 1478 407 1469 1571 1447 1184
is_linear=0
shrinkage=0.05


Tree=10
num_leaves=15
num_cat=0
split_feature=7 7 7 6 7 6 5 5 0 6 5 7 1 5
split_gain=1164.26 273.004 128.303 55.8724 44.0489 42.0014 33.6272 29.7659 32.2321 25.9747 25.8668 24.5294 19.6741 28.6686
threshold=0.17358377901369684 -0.28310901449595488 0.74257097781548786 0.33538183520336978 -0.89952640684440288 0.43346536179713829 -1.0377817267602831 -1.508562797878124 -1.0000000180025095e-35 -0.80909124550389611 -0.30977552235813427 1.1241222379631297 -1.0904437826954538 -0.42482200160136518
decision_type=2 2 2 2 2 2 2 2 2 2 2 2 2 2
left_child=1 4 12 11 10 7 -6 -3 -9 -8 -1 -4 -2 -14
right_child=2 5 3 -5 6 -7 9 8 -10 -11 -12 -13 13 -15
leaf_value=-0.022963101985376506 -0.0032973890699446204 0.017211117173613209 0.040780263014183554 0.022727669824913883 -0.005953291750898565 -0.018979772263238156 -0.018060483295857063 -0.017981959485890719 0.0004889809446025499 -0.032715259092487479 -0.051772939485331251 0.062562247517904859 0.032252620959100933 0.014082988640285725
leaf_weight=105 125 205 610 419 186 383 424 293 1218 1054 302 164 265 1201
leaf_count=105 125 205 610 419 186 383 424 293 1218 1054 302 164 265 1201
internal_value=0 -0.0167164 0.0250386 0.0374343 -0.029596 -0.00400863 -0.0259897 -0.000667166 -0.00309274 -0.0285112 -0.0443404 0.0453956 0.0157438 0.0173674
internal_weight=0 4170 2784 1193 2071 2099 1664 1716 1511 1478 407 774 1591 1466
internal_count=6954 4170 2784 1193 2071 2099 1664 1716 1511 1478 407 774 1591 1466
is_linear=0
shrinkage=0.05


Tree=11
num_leaves=15
num_cat=0
split_feature=7 7 7 6 4 6 6 5 0 5 4 2 7 0
split_gain=1055.08 243.557 98.0277 80.9547 36.7248 33.995 31.8383 28.3703 24.1521 28.839 23.943 21.5322 18.558 17.8646
threshold=-0.015247016463753453 0.58411417467756332 -0.63757762310625421 0.4239845671902992 0.99896100846971592 0.4239845671902992 0.14228140081213492 -1.1408321483041581 1.0000000180025095e-35 -1.1094358322900122 -1.3556541541878693 -0.69111579900955344 0.92942592740239982 -1.0000000180025095e-35
decision_type=2 2 2 2 2 2 2 2 2 2 2 2 2 2
left_child=2 5 4 7 6 8 -1 -3 9 -2 -7 -4 -9 -13
right_child=1 3 11 -5 -6 10 -8 12 -10 -11 -12 13 -14 -15
leaf_value=-0.019735991659081267 0.016767150875842334 0.051953955961965698 -0.03014947870385596 0.018452685004250086 -0.04673803332741671 0.0070393496588803828 -0.039188949971365891 0.029064622679765006 0.016934159091982353 -0.0007223888320857109 -0.014934411422926669 -0.018999694289462077 0.048347640319124745 -0.0081849945018273237
leaf_weight=512 345 347 204 727 359 220 357 469 661 744 284 674 170 881
leaf_count=512 345 347 204 727 359 220 357 469 661 744 284 674 170 881
internal_value=0 0.0168998 -0.0224444 0.0311112 -0.0332852 0.00609937 -0.0277276 0.0404447 0.00939468 0.00481837 -0.00534269 -0.0148762 0.0341947 -0.0128725
internal_weight=0 3967 2987 1713 1228 2254 869 986 1750 1089 504 1759 639 1555
internal_count=6954 3967 2987 1713 1228 2254 869 986 1750 1089 504 1759 639 1555
is_linear=0
shrinkage=0.05


Tree=12
num_leaves=15
num_cat=0
split_feature=7 7 7 5 7 6 5 0 5 6 7 2 0 5
split_gain=955.036 225.469 102.088 46.0996 37.9161 35.4468 29.6282 25.5449 22.365 21.8179 20.6811 19.5839 16.6388 18.254
threshold=0.20921111469174231 -0.28310901449595488 0.74257097781548786 -1.1094358322900122 -0.89952640684440288 0.38459833446127462 -1.0377817267602831 -1.0000000180025095e-35 -0.30977552235813427 -0.80909124550389611 1.1241222379631297 0.74660187133757649 1.0000000180025095e-35 -0.9942831986053926
decision_type=2 2 2 2 2 2 2 2 2 2 2 2 2 2
left_child=1 4 12 -4 8 7 -6 -3 -1 -8 -5 -9 13 -2
right_child=2 5 3 10 6 -7 9 11 -10 -11 -12 -13 -14 -15
leaf_value=-0.02058370628238966 0.026028775476722745 -0.012667597510382038 0.049702186112677585 0.024354546357903961 -0.0046286352224127261 -0.016054850758259749 -0.0162247277781442 0.0054452422291166105 -0.047372511152597455 -0.029655808147526327 0.045413373427452164 -0.011215632655279062 0.018038861141319418 0.0024145239072313066
leaf_weight=105 102 331 331 723 186 449 424 1130 302 1054 139 209 1055 414
leaf_count=105 102 331 331 723 186 449 424 1130 302 1054 139 209 1055 414
internal_value=0 -0.0150496 0.022814 0.0338409 -0.0267819 -0.00358308 -0.023436 -0.000229891 -0.0404614 -0.0258028 0.0277503 0.0028447 0.0144402 0.00708246
internal_weight=0 4190 2764 1193 2071 2119 1664 1670 407 1478 862 1339 1571 516
internal_count=6954 4190 2764 1193 2071 2119 1664 1670 407 1478 862 1339 1571 516
is_linear=0
shrinkage=0.05


Tree=13
num_leaves=15
num_cat=0
split_feature=7 7 7 5 7 0 4 5 6 6 6 0 2 6
split_gain=863.939 200.55 82.4075 72.1 31.082 27.1023 25.6425 25.1788 23.1414 18.7263 17.1923 16.8166 15.514 14.4833
threshold=-0.015247016463753453 0.41037609674151881 -0.64955183932028848 -1.1408321483041581 0.95650605790247567 -1.0000000180025095e-35 1.2123892782576233 -0.30977552235813427 0.43346536179713829 0.1985904682818162 -1.1307649921509115 -1.0000000180025095e-35 0.74660187133757649 0.16982413946337696
decision_type=2 2 2 2 2 2 2 2 2 2 2 2 2 2
left_child=2 5 7 -3 10 -2 8 13 -4 12 -5 -9 -7 -1
right_child=1 3 6 4 -6 9 -8 11 -10 -11 -12 -13 -14 -15
leaf_value=-0.011478112103643915 -0.016240161770803251 0.044628657546645897 -0.010279179204164719 0.041892446393871477 0.035398021880412016 0.011374032665579809 -0.038137210888618774 -0.040085312519991069 -0.023176712298364086 -0.002819716054961677 0.016824134032590223 -0.012146181640041581 -0.0039954169627744703 -0.036206712927245963
leaf_weight=181 166 404 1476 72 316 917 110 618 455 526 1366 59 200 88
leaf_count=181 166 404 1476 72 316 917 110 618 455 526 1366 59 200 88
internal_value=0 0.0152926 -0.0203099 0.0255856 0.0211994 0.00301375 -0.0146558 -0.0325085 -0.0133182 0.00495906 0.0180793 -0.0376504 0.00862212 -0.0195678
internal_weight=0 3967 2987 2158 1754 1809 2041 946 1931 1643 1438 677 1117 269
internal_count=6954 3967 2987 2158 1754 1809 2041 946 1931 1643 1438 677 1117 269
is_linear=0
shrinkage=0.05


Tree=14
num_leaves=15
num_cat=0
split_feature=7 7 7 6 4 5 0 6 0 6 7 7 1 5
split_gain=782.346 186.516 83.7297 40.5994 33.7398 31.8343 31.8639 28.2934 21.7458 19.7174 19.1741 15.4847 15.454 22.6962
threshold=0.20921111469174231 -0.27452386851427152 0.74257097781548786 0.33538183520336978 1.0636049601784756 -1.508562797878124 -1.0000000180025095e-35 0.23343436989128677 -1.0000000180025095e-35 0.28370432587556155 1.1241222379631297 -0.89952640684440288 -1.0904437826954538 -0.42482200160136518
decision_type=2 2 2 2 2 2 2 2 2 2 2 2 2 2
left_child=1 4 12 10 7 -3 -7 -1 -6 -8 -4 -9 -2 -14
right_child=2 5 3 -5 8 6 9 11 -10 -11 -12 -13 13 -15
leaf_value=-0.016115511912280413 -0.0038754535262517996 0.015547487594346265 0.033340965366471929 0.018098557594727584 -0.043631167630931944 -0.018773346146653325 0.0015143546817681373 -0.05574100444901664 -0.019994376052554091 -0.010822800541647117 0.052598945146835434 -0.027326713931361664 0.027803202375358844 0.011565417106586776
leaf_weight=1063 124 205 610 419 314 352 1100 53 141 459 164 503 263 1184
leaf_count=1063 124 205 610 419 314 352 1100 53 141 459 164 503 263 1184
internal_value=0 -0.0136212 0.0206486 0.030635 -0.0242767 -0.00317715 -0.00518582 -0.0208959 -0.0363064 -0.00211794 0.0374215 -0.0300353 0.013065 0.0145167
internal_weight=0 4190 2764 1193 2074 2116 1911 1619 455 1559 774 556 1571 1447
internal_count=6954 4190 2764 1193 2074 2116 1911 1619 455 1559 774 556 1571 1447
is_linear=0
shrinkage=0.05


Tree=15
num_leaves=15
num_cat=0
split_feature=7 7 5 7 0 7 5 4 6 7 5 1 6 0
split_gain=706.425 181.35 60.7474 59.1365 26.4976 21.6938 21.6913 20.8067 18.8531 17.9941 17.2031 15.8834 15.4044 14.7523
threshold=-0.090251632744107371 0.41037609674151881 -0.58904338776167198 -0.64955183932028848 -1.0000000180025095e-35 1.1241222379631297 -0.30977552235813427 1.2123892782576233 0.43346536179713829 0.79924344599863806 -0.94701732200825484 0.14304564618250162 0.20844448215949157 -1.0000000180025095e-35
decision_type=2 2 2 2 2 2 2 2 2 2 2 2 2 2
left_child=3 4 9 6 10 11 -1 8 -5 -3 -2 -4 -6 -8
right_child=1 2 5 7 12 -7 13 -9 -10 -11 -12 -13 -14 -15
leaf_value=-0.017503897984751042 0.016065809595165775 0.02991743743636956 0.012360751799242238 -0.0099205364984891829 0.0074683757173119487 0.038867621514946223 -0.036568130976234146 -0.035686119352818804 -0.021924368712239597 0.048598997298869163 -0.020011203412554766 0.022722381196362003 -0.0026541525360322415 -0.010399894125885883
leaf_weight=269 40 300 867 1328 1206 120 618 106 434 226 190 645 546 59
leaf_count=269 40 300 867 1328 1206 120 618 106 434 226 190 645 546 59
internal_value=0 0.0131386 0.0231675 -0.0193296 0.00221907 0.0184049 -0.0295151 -0.0141715 -0.0128772 0.0379441 -0.0137369 0.0167809 0.00431375 -0.0342876
internal_weight=0 4140 2158 2814 1982 1632 946 1868 1762 526 230 1512 1752 677
internal_count=6954 4140 2158 2814 1982 1632 946 1868 1762 526 230 1512 1752 677
is_linear=0
shrinkage=0.05


Tree=16
num_leaves=15
num_cat=0
split_feature=7 0 7 5 6 2 6 2 6 1 7 6 2 0
split_gain=640.781 153.902 70.5456 46.5031 38.7069 31.8289 30.7014 34.6485 27.1012 30.8104 15.8322 13.1514 15.2939 12.6855
threshold=0.17358377901369684 -1.0000000180025095e-35 0.72003588154761167 -0.96679074834010492 0.33538183520336978 0.31427302770548166 0.26440475111028422 0.74660187133757649 0.55607764252710379 0.055220659701150331 1.1241222379631297 -3.1805128858049394 1.0000000180025095e-35 1.0000000180025095e-35
decision_type=2 2 2 2 2 2 2 2 2 2 2 2 2 2
left_child=1 3 13 -1 10 8 7 11 -5 -10 -4 -3 -13 -2
right_child=2 6 4 5 -6 -7 -8 -9 9 -11 -12 12 -14 -15
leaf_value=-0.004080102655653681 0.004971476446125736 -0.026007700202000494 0.030354965181222882 -0.017339922712372592 0.015770072508380039 -0.036710868721583197 -0.012784993061346176 -0.012562046303614386 -0.02879943256769768 -0.078963403914655964 0.04776453132536717 0.00053662473073485379 0.012143943990398301 0.014603499998323881
leaf_weight=292 521 34 641 937 464 472 611 388 244 35 164 658 499 994
leaf_count=292 521 34 641 937 464 472 611 388 244 35 164 658 499 994
internal_value=0 -0.0124015 0.0185755 -0.0225036 0.027272 -0.0256907 -0.00326805 0.000414561 -0.0214131 -0.0350924 0.0339018 0.00464204 0.00554272 0.0112911
internal_weight=0 4170 2784 1980 1269 1688 2190 1579 1216 279 805 1191 1157 1515
internal_count=6954 4170 2784 1980 1269 1688 2190 1579 1216 279 805 1191 1157 1515
is_linear=0
shrinkage=0.05


Tree=17
num_leaves=15
num_cat=0
split_feature=7 7 7 6 4 5 5 1 5 0 5 0 1 15
split_gain=580.827 113.074 85.2296 34.669 27.7938 22.0285 19.9008 22.1538 17.9695 24.547 17.7587 16.0677 15.2771 15.0521
threshold=0.1095346755611321 -0.30764847216768471 0.69933554306849299 0.33538183520336978 1.1200694116487995 -1.508562797878124 -1.0377817267602831 0.23716758119833431 -0.58904338776167198 1.0000000180025095e-35 0.48044308518325146 -1.0000000180025095e-35 0.20833840993145911 1.0000000180025095e-35
decision_type=2 2 2 2 2 2 2 2 2 2 2 2 2 2
left_child=1 4 8 13 6 -3 -1 -8 -2 -10 -6 -7 -13 -4
right_child=2 5 3 -5 10 11 7 -9 9 -11 -12 12 -14 -15
leaf_value=-0.0050633697169141512 0.020189996439799681 0.012408074613761259 0.026614909933202646 0.015008649503876596 -0.031305940664940697 -0.015477742240860355 -0.02652780811183067 -0.01438992644355392 -0.00088140176250242879 0.011962077689316973 -0.071926046051084991 -0.0093922855910906246 0.0017166959428539326 0.040556048470074844
leaf_weight=229 304 185 495 470 261 339 808 703 614 944 30 556 698 318
leaf_count=229 304 185 495 470 261 339 808 703 614 944 30 556 698 318
internal_value=0 -0.0131305 0.0159027 0.0258186 -0.0211909 -0.00392313 -0.0187989 -0.0208806 0.00907024 0.00690053 -0.0354936 -0.00581972 -0.00320882 0.0320679
internal_weight=0 3809 3145 1283 2031 1778 1740 1511 1862 1558 291 1593 1254 813
internal_count=6954 3809 3145 1283 2031 1778 1740 1511 1862 1558 291 1593 1254 813
is_linear=0
shrinkage=0.05


Tree=18
num_leaves=15
num_cat=0
split_feature=7 7 5 7 7 0 5 0 4 6 6 5 6 0
split_gain=526.28 133.66 47.887 47.3949 21.5224 19.8933 16.9872 16.871 18.5615 16.5913 14.5748 13.9655 13.4731 12.2766
threshold=-0.090251632744107371 0.41037609674151881 -1.1408321483041581 -0.64955183932028848 0.95650605790247567 -1.0000000180025095e-35 -0.30977552235813427 1.0000000180025095e-35 1.2123892782576233 0.35610280357291085 -1.2536285414518975 -0.84275417914438078 -1.1307649921509115 -1.0000000180025095e-35
decision_type=2 2 2 2 2 2 2 2 2 2 2 2 2 2
left_child=3 5 -3 6 12 11 -1 8 9 -5 -7 -2 -4 -8
right_child=1 2 4 7 -6 10 13 -9 -10 -11 -12 -13 -14 -15
leaf_value=-0.01517303761018641 0.014207434062596544 0.035469600575224566 0.03485975609574881 -0.0085580754624162286 0.02819059366372096 0.025497040916485966 -0.032106159305995675 0.014963227107987873 -0.033514935422905727 -0.019485541594565184 0.0028231155979230871 -0.01768290216742242 0.012668017410865179 -0.0082344521136986006
leaf_weight=269 42 404 72 1224 316 74 618 56 103 485 1678 188 1366 59
leaf_count=269 42 404 72 1224 316 74 618 56 103 485 1678 188 1366 59
internal_value=0 0.0113403 0.0199501 -0.016684 0.0163755 0.00196584 -0.0258023 -0.0120662 -0.0129016 -0.0116592 0.0037808 -0.0118594 0.0137791 -0.0300258
internal_weight=0 4140 2158 2814 1754 1982 946 1868 1812 1709 1752 230 1438 677
internal_count=6954 4140 2158 2814 1754 1982 946 1868 1812 1709 1752 230 1438 677
is_linear=0
shrinkage=0.05


Tree=19
num_leaves=15
num_cat=0
split_feature=0 7 5 5 7 0 7 6 5 4 6 1 7 1
split_gain=475.416 153.575 53.3775 39.5849 25.7666 25.4344 24.856 20.9987 18.6624 15.4943 15.32 14.6219 11.3265 11.1492
threshold=1.0000000180025095e-35 -0.27452386851427152 -1.0377817267602831 -1.0377817267602831 -0.89952640684440288 -1.0000000180025095e-35 0.95650605790247567 -1.1307649921509115 -1.1754813112471458 1.2123892782576233 -1.2536285414518975 0.20833840993145911 0.79924344599863806 0.33623349618100179
decision_type=2 2 2 2 2 2 2 2 2 2 2 2 2 2
left_child=1 4 12 -3 10 -5 7 -4 -6 11 -1 -10 -2 -9
right_child=2 3 6 5 8 -7 -8 13 9 -11 -12 -13 -14 -15
leaf_value=-0.006138270404541268 0.026708050350940163 0.011863501374819929 0.030968865901505684 -0.016023736293872309 -0.0016497926082728164 -0.0015413449982128024 0.027603248820950589 0.0074857097936813213 -0.022089447447250415 -0.038234529490870688 -0.034983889028563031 -0.011703419947162653 0.043840225187795505 0.015956140287586382
leaf_weight=53 215 466 136 377 175 1548 300 1076 777 97 350 601 175 608
leaf_count=53 215 466 136 377 175 1548 300 1076 777 97 350 601 175 608
internal_value=0 -0.00982515 0.0173956 -0.00121228 -0.019856 -0.00437764 0.0142683 0.0120702 -0.0170877 -0.0189193 -0.0311903 -0.0175597 0.0343956 0.0105439
internal_weight=0 4444 2510 2391 2053 1925 2120 1820 1650 1475 403 1378 390 1684
internal_count=6954 4444 2510 2391 2053 1925 2120 1820 1650 1475 403 1378 390 1684
is_linear=0
shrinkage=0.05


Tree=20
num_leaves=15
num_cat=0
split_feature=7 0 7 4 6 6 2 6 6 2 5 8 7 7
split_gain=433.393 107.207 47.8349 33.3834 27.4611 24.7486 25.6588 20.8033 20.5465 19.4809 17.2671 16.3937 12.3635 11.3336
threshold=0.20921111469174231 -1.0000000180025095e-35 0.79924344599863806 0.99896100846971592 0.18652260264741236 0.26440475111028422 0.74660187133757649 0.4239845671902992 -0.015370337079390164 0.82603732228348692 -1.8533104448087105 1.0000000180025095e-35 -1.0162991199300253 -0.64955183932028848
decision_type=2 2 2 2 2 2 2 2 2 2 2 2 2 2
left_child=1 3 8 4 10 6 -3 -4 9 -2 -1 -6 -5 -13
right_child=2 5 7 12 11 -7 -8 -9 -10 -11 -12 13 -14 -15
leaf_value=0.021536059279460461 0.022672289092453165 0.0043502644285909392 0.033379224765994545 -0.045000178092319904 -0.032348156350136631 -0.011079261434863472 -0.010368269030330585 0.015531226067172214 0.0078027256050909946 0.0036417747298731814 -0.011950504087820946 -0.027921309261526691 -0.025804805289800267 -0.0037214908916713947
leaf_weight=40 570 1201 436 116 298 616 393 261 1321 176 1024 83 303 116
leaf_count=40 570 1201 436 116 298 616 393 261 1321 176 1024 83 303 116
internal_value=0 -0.0101381 0.0153685 -0.0185877 -0.0152241 -0.00256782 0.000721416 0.0266958 0.0115489 0.0181825 -0.0106916 -0.0249274 -0.031119 -0.0138149
internal_weight=0 4190 2764 1980 1561 2210 1594 697 2067 746 1064 497 419 199
internal_count=6954 4190 2764 1980 1561 2210 1594 697 2067 746 1064 497 419 199
is_linear=0
shrinkage=0.05


Tree=21
num_leaves=15
num_cat=0
split_feature=0 7 5 5 7 6 0 5 4 6 7 7 1 2
split_gain=394.877 126.384 45.2889 30.7976 23.6857 21.8229 19.5861 18.0796 14.4546 13.6452 13.4789 13.2993 13.0852 10.7001
threshold=1.0000000180025095e-35 -0.26985505726053788 -1.0377817267602831 -1.0377817267602831 -0.92728238192385237 0.067327680376659302 -1.0000000180025095e-35 -1.1754813112471458 1.2123892782576233 -1.2536285414518975 0.92942592740239982 0.56750754493220934 0.20833840993145911 0.87764640361456314
decision_type=2 2 2 2 2 2 2 2 2 2 2 2 2 2
left_child=1 4 -2 -3 9 10 -5 -6 12 -1 13 -7 -9 -4
right_child=2 3 5 6 7 11 -8 8 -10 -11 -12 -13 -14 -15
leaf_value=-0.0052338315261844202 0.031512843724161098 0.011115745815577066 0.02014228844714358 -0.014272075305443411 -0.00053003956228543409 0.0013993144024156603 -0.00098493167860176775 -0.019635158963253546 -0.034642911384339045 -0.032571146548456741 0.03516168049334184 0.01234086135876989 -0.010296189573155486 0.0058475520610024208
leaf_weight=53 390 449 548 343 191 406 1449 857 106 329 115 879 667 172
leaf_count=53 390 449 548 343 191 406 1449 857 106 329 115 879 667 172
internal_value=0 -0.00895434 0.0158538 -0.000594162 -0.0174587 0.0129732 -0.00352817 -0.0150842 -0.0167896 -0.0287783 0.0192663 0.00888384 -0.0155478 0.0167274
internal_weight=0 4444 2510 2241 2203 2120 1792 1821 1630 382 835 1285 1524 720
internal_count=6954 4444 2510 2241 2203 2120 1792 1821 1630 382 835 1285 1524 720
is_linear=0
shrinkage=0.05


Tree=22
num_leaves=15
num_cat=0
split_feature=7 7 7 6 6 15 5 5 2 5 0 6 7 0
split_gain=357.834 69.881 53.425 23.7943 21.8243 18.0715 17.0749 14.985 14.9212 12.6073 14.0348 12.479 12.8401 12.0309
threshold=0.1095346755611321 -0.49208070654641539 0.69933554306849299 0.051846496287237399 0.43346536179713829 1.0000000180025095e-35 -0.96679074834010492 0.87123539760809454 0.37190697723844102 -1.625992078763133 -1.0000000180025095e-35 -0.36278205067759206 -1.0162991199300253 -1.0000000180025095e-35
decision_type=2 2 2 2 2 2 2 2 2 2 2 2 2 2
left_child=1 6 7 -4 5 8 -1 9 13 -2 -11 -8 -13 -3
right_child=2 4 3 -5 -6 -7 11 -9 -10 10 -12 12 -14 -15
leaf_value=-0.0053496949497775208 0.02921506468009091 -0.0089804894585825117 0.027984520253559866 0.014273447583184979 -0.014743262730429675 0.0093773869580727094 -0.015684488014081188 -0.022100963144628116 -0.012632853424560773 -0.014507685601711274 0.0078871876737840862 -0.039713745352491975 -0.022131175635035933 0.0019458756344185276
leaf_weight=209 66 371 567 716 444 277 632 43 413 73 1680 128 550 785
leaf_count=209 66 371 567 716 444 277 632 43 413 73 1680 128 550 785
internal_value=0 -0.0103062 0.0124821 0.0203328 -0.00479043 -0.00239658 -0.0186216 0.00707265 -0.00447522 0.00776229 0.0069546 -0.020739 -0.0254506 -0.00156077
internal_weight=0 3809 3145 1283 2290 1846 1519 1862 1569 1819 1753 1310 678 1156
internal_count=6954 3809 3145 1283 2290 1846 1519 1862 1569 1819 1753 1310 678 1156
is_linear=0
shrinkage=0.05


Tree=23
num_leaves=15
num_cat=0
split_feature=0 7 5 5 4 6 7 0 5 2 6 7 7 6
split_gain=327.671 102.625 38.551 28.4517 21.1247 18.6567 18.026 16.946 12.2546 11.4647 11.4054 10.9275 8.81624 8.44098
threshold=1.0000000180025095e-35 -0.27452386851427152 -1.0377817267602831 -1.0377817267602831 1.3832621756138153 0.067327680376659302 -0.92728238192385237 -1.0000000180025095e-35 -1.1754813112471458 0.87764640361456314 -1.4686737391509337 0.56750754493220934 0.80714478711456794 -0.80909124550389611
decision_type=2 2 2 2 2 2 2 2 2 2 2 2 2 2
left_child=1 4 12 -3 6 9 10 -5 -8 -4 -1 -7 -2 -10
right_child=2 3 5 7 -6 11 8 -9 13 -11 -12 -13 -14 -15
leaf_value=-0.0028122463962063195 0.022280775361895478 0.0099693688263252523 0.020760951990395182 -0.013305845617474766 -0.058005989193916321 0.001218647844837107 -0.00096886980683276696 -0.0014846101635484204 -0.0090342022186722347 0.006733979970561044 -0.028897406726116032 0.011136658333900965 0.037441093600629007 -0.017385809999107889
leaf_weight=48 220 466 647 377 30 406 175 1548 426 188 330 879 170 1044
leaf_count=48 220 466 647 377 30 406 175 1548 426 188 330 879 170 1044
internal_value=0 -0.00815683 0.0144418 -0.00111617 -0.0163567 0.0117841 -0.015739 -0.00379973 -0.0134765 0.0176028 -0.025585 0.00800303 0.0288891 -0.0149655
internal_weight=0 4444 2510 2391 2053 2120 2023 1925 1645 835 378 1285 390 1470
internal_count=6954 4444 2510 2391 2053 2120 2023 1925 1645 835 378 1285 390 1470
is_linear=0
shrinkage=0.05


Tree=24
num_leaves=15
num_cat=0
split_feature=0 7 5 5 4 7 7 6 0 5 6 1 7 7
split_gain=295.723 93.0247 34.7923 23.3903 19.524 17.7122 17.158 16.0328 14.4776 12.5487 9.9383 8.67998 10.9138 8.29526
threshold=1.0000000180025095e-35 -0.26985505726053788 -1.0377817267602831 -1.0377817267602831 1.3832621756138153 -0.89952640684440288 0.92942592740239982 -1.1307649921509115 -1.0000000180025095e-35 -1.5276773474592602 -1.4686737391509337 0.77525613651893344 0.48436488920577964 0.48436488920577964
decision_type=2 2 2 2 2 2 2 2 2 2 2 2 2 2
left_child=1 4 13 -3 5 10 7 -4 -5 -7 -1 12 -9 -2
right_child=2 3 6 8 -6 9 -8 11 -10 -11 -12 -13 -14 -15
leaf_value=-0.0026716340963806335 0.009056865304866631 0.0096284639743806997 0.025847066397032267 -0.012370580224980093 -0.055105689068635305 0.0045867483935051016 0.022084558894104267 -0.00035429999076711611 -0.00094691152864597296 -0.013395314757548083 -0.026928709571560225 0.01520840765845273 0.0093042552059165781 0.03033651278821832
leaf_weight=48 53 449 136 343 30 103 309 431 1449 1671 351 334 910 337
leaf_count=48 53 449 136 343 30 103 309 431 1449 1671 351 334 910 337
internal_value=0 -0.00774899 0.0137197 -0.00057653 -0.0150452 -0.0144921 0.0111949 0.00933682 -0.00313347 -0.0123513 -0.0240106 0.00799628 0.00619998 0.0274447
internal_weight=0 4444 2510 2241 2203 2173 2120 1811 1792 1774 399 1675 1341 390
internal_count=6954 4444 2510 2241 2203 2173 2120 1811 1792 1774 399 1675 1341 390
is_linear=0
shrinkage=0.05


Tree=25
num_leaves=15
num_cat=0
split_feature=7 0 7 4 5 6 2 6 5 6 8 5 7 1
split_gain=268.015 65.9511 31.8297 24.6817 18.3877 18.2667 16.9017 14.7687 14.646 14.3372 14.8894 13.8387 11.3624 10.2921
threshold=0.20921111469174231 -1.0000000180025095e-35 0.79924344599863806 1.1200694116487995 -1.8533104448087105 0.26440475111028422 0.74660187133757649 -0.015370337079390164 -0.55976193132100061 0.43346536179713829 1.0000000180025095e-35 -0.42482200160136518 -0.75108847134507106 0.31675042990690844
decision_type=2 2 2 2 2 2 2 2 2 2 2 2 2 2
left_child=1 3 7 4 -1 6 -3 11 -4 12 -11 -2 -6 -5
right_child=2 5 8 13 9 -7 -8 -9 -10 10 -12 -13 -14 -15
leaf_value=0.020977161845075899 0.025296281631602798 0.0037361612803580705 0.031788938101869134 -0.025735698793524581 -0.016768516109575731 -0.0093472539751137326 -0.0082095309506341075 0.0057938327909429453 0.016305023772509041 -0.030175042817335542 -0.0088675931880537132 0.010260678153449701 -0.0073402552856739042 -0.057053146143443881
leaf_weight=40 215 1201 226 209 520 616 393 1321 471 222 130 531 829 30
leaf_count=40 215 1201 226 209 520 616 393 1321 471 222 130 531 829 30
internal_value=0 -0.00797249 0.0120857 -0.0145998 -0.0125315 -0.0020349 0.000790956 0.0089699 0.0213256 -0.0133194 -0.0223058 0.014594 -0.0109746 -0.0296668
internal_weight=0 4190 2764 1980 1741 2210 1594 2067 697 1701 352 746 1349 239
internal_count=6954 4190 2764 1980 1741 2210 1594 2067 697 1701 352 746 1349 239
is_linear=0
shrinkage=0.05


Tree=26
num_leaves=15
num_cat=0
split_feature=0 7 6 5 5 5 5 4 7 0 6 7 2 6
split_gain=245.821 76.8676 31.1393 24.8807 21.91 15.3716 14.4643 13.3474 12.4833 11.5754 10.7916 9.81326 8.52779 9.26917
threshold=1.0000000180025095e-35 -0.36525227401770904 0.31671318911683366 -1.0377817267602831 -0.40757236268739555 0.87123539760809454 -1.8533104448087105 -1.3556541541878693 -0.92728238192385237 -1.0000000180025095e-35 -1.2536285414518975 1.1241222379631297 0.24869601823250884 -0.5314980062042266
decision_type=2 2 2 2 2 2 2 2 2 2 2 2 2 2
left_child=1 6 4 -3 -2 9 -1 -4 10 -5 -8 -6 13 -11
right_child=2 3 7 5 11 -7 8 -9 -10 12 -12 -13 -14 -15
leaf_value=0.018823487641695405 0.025630584930975045 0.0086462825472590574 0.0093104597273454808 -0.010216353732831855 0.011418577545061809 -0.03132748407963664 -0.0028378326902693176 -0.0034827300096599463 -0.013453366580560275 0.0097917870559926408 -0.0271912141228704 0.030711158818867008 -0.0076870899662722647 -0.0013219475739393435
leaf_weight=31 501 481 736 468 920 50 53 282 1395 230 321 71 397 1018
leaf_count=31 501 481 736 468 920 50 53 282 1395 230 321 71 397 1018
internal_value=0 -0.007065 0.0125087 -0.00163925 0.0171089 -0.00392651 -0.0150348 0.00576657 -0.0156282 -0.00327812 -0.0237401 0.0128008 -0.0013042 0.000726257
internal_weight=0 4444 2510 2644 1492 2163 1800 1018 1769 2113 374 991 1645 1248
internal_count=6954 4444 2510 2644 1492 2163 1800 1018 1769 2113 374 991 1645 1248
is_linear=0
shrinkage=0.05


Tree=27
num_leaves=15
num_cat=0
split_feature=0 7 6 5 7 5 6 5 4 2 7 6 1 0
split_gain=221.854 69.373 28.1032 22.5569 20.7123 14.0813 13.7568 13.054 12.046 12.021 11.2662 9.77702 9.62504 9.01856
threshold=1.0000000180025095e-35 -0.36525227401770904 0.31671318911683366 -0.96679074834010492 0.79041258577035844 0.79483070036349746 0.60774276640549463 -1.8533104448087105 -1.3556541541878693 0.31427302770548166 -0.92728238192385237 -1.1722065895590947 -0.91627188192131259 -1.0000000180025095e-35
decision_type=2 2 2 2 2 2 2 2 2 2 2 2 2 2
left_child=1 7 4 -3 -2 9 -7 -1 -4 13 11 -9 -11 -5
right_child=2 3 8 5 -6 6 -8 10 -10 12 -12 -13 -14 -15
leaf_value=0.017882313027286961 0.012736683187454632 0.0079590675075508887 0.0088449367746840802 -0.0077028410312968325 0.026122014861517086 -0.0078225678145718673 -0.045174460571545824 -0.0044180099581999166 -0.003308593415438878 -0.032720697552643042 -0.012780698300172378 -0.02615682381167575 -0.0079245125690578424 0.0010722136241082137
leaf_weight=31 1100 504 736 382 392 67 39 62 282 44 1395 312 354 1254
leaf_count=31 1100 504 736 382 392 67 39 62 282 44 1395 312 354 1254
internal_value=0 -0.00671175 0.0118833 -0.00155729 0.0162535 -0.00379852 -0.0215652 -0.0142831 0.00547824 -0.00287262 -0.0148468 -0.0225531 -0.0106658 -0.000976729
internal_weight=0 4444 2510 2644 1492 2140 106 1800 1018 2034 1769 374 398 1636
internal_count=6954 4444 2510 2644 1492 2140 106 1800 1018 2034 1769 374 398 1636
is_linear=0
shrinkage=0.05


Tree=28
num_leaves=15
num_cat=0
split_feature=7 0 6 5 2 5 6 6 4 0 0 5 8 7
split_gain=201.984 51.8553 24.5563 21.8597 18.6355 18.1747 15.6107 14.6823 13.7026 11.7379 11.1602 10.7776 9.56571 9.47726
threshold=0.24138863973992919 -1.0000000180025095e-35 -0.0079436327859410353 0.83860044691957381 0.74660187133757649 -0.42482200160136518 0.48019883016041726 0.16982413946337696 0.95491882395990169 0.5760015467225249 1.0000000180025095e-35 -1.8533104448087105 1.0000000180025095e-35 -1.2251909744398815
decision_type=2 2 2 2 2 2 2 2 2 2 2 2 2 2
left_child=1 3 5 4 6 -2 11 8 -3 -4 -7 -1 -8 -6
right_child=2 7 9 -5 13 10 12 -9 -10 -11 -12 -13 -14 -15
leaf_value=0.018728431784718232 0.026183477503198133 0.0039678512918183305 0.0055108690493273745 -0.043093600597951504 -0.039390289752433701 -0.0012486236344095292 -0.025412703493116973 -0.0073034599406558917 -0.00655757360846153 0.01766522299816824 0.01542206075157841 -0.0073590943966236307 -0.0073295248933790032 -0.017926367770382461
leaf_weight=41 358 1157 1418 57 60 126 204 760 422 231 494 1152 114 360
leaf_count=41 358 1157 1418 57 60 126 204 760 422 231 494 1152 114 360
internal_value=0 -0.00663969 0.0109364 -0.0125769 -0.0116761 0.0172136 -0.00908641 -0.00159347 0.00115485 0.00721351 0.0120341 -0.00646254 -0.0189301 -0.0209926
internal_weight=0 4327 2627 1988 1931 978 1511 2339 1579 1649 620 1193 318 420
internal_count=6954 4327 2627 1988 1931 978 1511 2339 1579 1649 620 1193 318 420
is_linear=0
shrinkage=0.05


Tree=29
num_leaves=15
num_cat=0
split_feature=7 7 5 0 6 15 6 2 5 7 5 5 6 2
split_gain=183.727 34.2297 29.6442 18.1096 13.9542 12.7839 12.3473 11.4044 11.2001 10.5389 9.49996 9.16685 9.03131 9.08761
threshold=0.1095346755611321 -0.49208070654641539 -0.58904338776167198 1.0000000180025095e-35 0.48019883016041726 1.0000000180025095e-35 0.0099956222952889678 0.37190697723844102 -0.96679074834010492 0.79924344599863806 -0.40072562613812163 -0.53742979134695201 -0.36278205067759206 0.3050957570249121
decision_type=2 2 2 2 2 2 2 2 2 2 2 2 2 2
left_child=1 8 9 -4 5 7 -5 10 -1 -2 11 -3 13 -10
right_child=2 4 3 6 -6 -7 -8 -9 12 -11 -12 -13 -14 -15
leaf_value=-0.0024557168925243419 0.013783409540687609 0.00042767388087402032 -0.00078933861776514015 0.014503332496946388 -0.011712518253021562 0.0081036121677012917 0.0058555669274434306 -0.010478741712230701 -0.0054415515624469113 0.026922619428209532 -0.0020527766202302023 0.035541588265229677 -0.018927788948005782 -0.017561961694327357
leaf_weight=209 470 41 651 642 424 284 1156 420 362 226 1087 34 678 270
leaf_count=209 470 41 651 642 424 284 1156 420 362 226 1087 34 678 270
internal_value=0 -0.00738489 0.00894405 0.00635619 -0.00352453 -0.00166402 0.00894337 -0.0034175 -0.0132046 0.0180499 -0.000865249 0.016346 -0.0149196 -0.0106196
internal_weight=0 3809 3145 2449 2290 1866 1798 1582 1519 696 1162 75 1310 632
internal_count=6954 3809 3145 2449 2290 1866 1798 1582 1519 696 1162 75 1310 632
is_linear=0
shrinkage=0.05


Tree=30
num_leaves=15
num_cat=0
split_feature=0 7 7 6 4 5 5 7 0 2 1 2 6 2
split_gain=167.229 52.1973 23.0855 16.0882 15.3874 14.2277 13.7433 10.9401 9.97196 9.42248 8.12817 7.40203 11.5841 7.33583
threshold=1.0000000180025095e-35 -0.24840885757484252 1.1940720653011043 0.090009035862094994 1.3832621756138153 -1.5276773474592602 -0.40757236268739555 -0.92728238192385237 -1.0000000180025095e-35 -0.45878749018489456 0.24696013897218105 0.76875429575381349 0.18652260264741236 0.38836844278959104
decision_type=2 2 2 2 2 2 2 2 2 2 2 2 2 2
left_child=1 4 3 6 7 -3 -2 11 -7 -9 -8 12 -1 -11
right_child=2 5 -4 -5 -6 8 10 9 -10 13 -12 -13 -14 -15
leaf_value=-0.0075194079024809863 0.022597001840791775 0.010432868421358883 0.027941321195345481 0.0053392623310272395 -0.046847452519771959 -0.0093922256300778759 -0.00046505230383622471 -0.016427744466189671 -0.00021772618546282886 -0.0042728584239644539 0.012643799294750017 -0.028420131426629802 -0.032547021363136648 -0.011481152943207003
leaf_weight=191 305 265 173 1310 30 363 149 358 1609 823 573 126 61 618
leaf_count=191 305 265 173 1310 30 363 149 358 1609 823 573 126 61 618
internal_value=0 -0.00582718 0.0103171 0.00901246 -0.0112827 -0.000444787 0.0136978 -0.0107926 -0.00190654 -0.0091679 0.00993851 -0.0185252 -0.0135777 -0.00736427
internal_weight=0 4444 2510 2337 2207 2237 1027 2177 1972 1799 722 378 252 1441
internal_count=6954 4444 2510 2337 2207 2237 1027 2177 1972 1799 722 378 252 1441
is_linear=0
shrinkage=0.05


Tree=31
num_leaves=15
num_cat=0
split_feature=7 0 4 7 6 5 6 8 4 5 3 2 2 16
split_gain=152.266 46.9475 18.092 18.0222 14.0446 13.4143 12.845 12.2172 10.8558 10.0914 9.45876 9.23933 8.21178 13.4165
threshold=0.31487239247288518 -1.0000000180025095e-35 0.99896100846971592 1.1940720653011043 0.10208144349591425 -1.7139752760465827 0.23343436989128677 1.0000000180025095e-35 0.95491882395990169 -1.8533104448087105 0.93980461912626101 -0.90013792590951347 -0.22443403727389807 1.0000000180025095e-35
decision_type=2 2 2 2 2 2 2 2 2 2 2 2 2 2
left_child=1 2 4 5 9 -2 8 11 12 -1 -4 -6 -3 -14
right_child=3 6 10 -5 7 -7 -8 -9 -10 -11 -12 -13 13 -15
leaf_value=0.018526323781010101 0.023364810651058662 -0.0016319423847855462 -0.018108366301572514 0.025394334208027908 -0.039571042227800252 0.0080061282744510204 -0.0061733576437242449 -0.0060425198171759099 -0.0052713703105902307 -0.0059723966075533041 -0.04722785012796521 -0.017104596711850415 0.0051774737162529217 0.034461248193572207
leaf_weight=44 153 472 396 184 54 2008 786 247 448 941 30 300 850 41
leaf_count=44 153 472 396 184 54 2008 786 247 448 941 30 300 850 41
internal_value=0 -0.00527743 -0.0110106 0.0103726 -0.00855333 0.00909353 -0.000835713 -0.0145769 0.0014809 -0.00487804 -0.020159 -0.0205317 0.00370028 0.00652499
internal_weight=0 4609 2012 2345 1586 2161 2597 601 1811 985 426 354 1363 891
internal_count=6954 4609 2012 2345 1586 2161 2597 601 1811 985 426 354 1363 891
is_linear=0
shrinkage=0.05


Tree=32
num_leaves=15
num_cat=0
split_feature=0 7 6 5 7 5 5 4 5 6 7 1 0 19
split_gain=138.513 43.4547 19.6556 14.62 14.2792 12.4467 9.77064 9.54686 9.00817 8.64897 10.3241 7.89604 7.33911 7.09615
threshold=1.0000000180025095e-35 -0.36525227401770904 0.31671318911683366 -1.5276773474592602 0.92942592740239982 0.87123539760809454 -0.96679074834010492 -1.3556541541878693 -0.40757236268739555 -0.80909124550389611 -1.0162991199300253 -0.68939956261511648 -1.0000000180025095e-35 1.0000000180025095e-35
decision_type=2 2 2 2 2 2 2 2 2 2 2 2 2 2
left_child=1 6 4 -3 8 12 -1 11 -2 13 -11 -4 -5 -8
right_child=2 3 7 5 -6 -7 9 -9 -10 10 -12 -13 -14 -15
leaf_value=-0.001524410311711628 0.017285863664620656 0.0093897154860868789 0.03132131681777537 -0.0073998446185137082 0.023741984264311462 -0.027206719640642408 -0.0037426496449415193 -0.0037893748833097728 0.0079906203082984652 -0.026230491520570859 -0.012998252754590853 0.0059260734899329367 -0.00051927317346126402 -0.018771779889240864
leaf_weight=224 374 289 32 493 258 50 366 282 860 175 935 704 1812 100
leaf_count=224 374 289 32 493 258 50 366 282 860 175 935 704 1812 100
internal_value=0 -0.00530331 0.00938961 -0.00122381 0.0130444 -0.00252628 -0.0112956 0.00403304 0.0108078 -0.0126844 -0.0150844 0.00703021 -0.00199091 -0.00696778
internal_weight=0 4444 2510 2644 1492 2355 1800 1018 1234 1576 1110 736 2305 466
internal_count=6954 4444 2510 2644 1492 2355 1800 1018 1234 1576 1110 736 2305 466
is_linear=0
shrinkage=0.05


Tree=33
num_leaves=15
num_cat=0
split_feature=7 0 5 5 0 5 6 7 7 1 0 6 2 6
split_gain=125.694 23.0274 21.4302 14.6423 12.4798 11.3019 10.0174 9.83041 9.64981 8.58574 7.98493 7.40719 7.02372 7.01369
threshold=0.1095346755611321 -1.0000000180025095e-35 -0.58904338776167198 0.83860044691957381 -1.0000000180025095e-35 -1.5573412819658701 0.26440475111028422 -0.75108847134507106 0.64492414111357721 0.23716758119833431 0.5760015467225249 -1.0650409405214047 0.66046328993166659 0.090009035862094994
decision_type=2 2 2 2 2 2 2 2 2 2 2 2 2 2
left_child=1 3 10 5 -4 -1 12 9 11 -7 -2 -6 -3 -10
right_child=2 6 4 -5 8 7 -8 -9 13 -11 -12 -13 -14 -15
leaf_value=0.0041456008109827941 0.013421157636552779 0.002280085724659492 -0.01592300746466636 -0.035339688922871246 0.016055190080434694 -0.018861947483595244 -0.0079671595314852513 -0.0071584379739974072 0.014863420837623972 -0.0074424212826670558 0.031826279658394366 0.0017499913807521739 -0.006077804050610645 0.006405528842855699
leaf_weight=147 631 998 68 55 98 461 527 1029 368 256 65 1181 336 734
leaf_count=147 631 998 68 55 98 461 527 1029 368 256 65 1181 336 734
internal_value=0 -0.00610823 0.00739785 -0.00990807 0.00519754 -0.00916917 -0.00213074 -0.0102902 0.00580073 -0.0147847 0.01514 0.00284609 0.00017495 0.00922994
internal_weight=0 3809 3145 1948 2449 1893 1861 1746 2381 717 696 1279 1334 1102
internal_count=6954 3809 3145 1948 2449 1893 1861 1746 2381 717 696 1279 1334 1102
is_linear=0
shrinkage=0.05


Tree=34
num_leaves=15
num_cat=0
split_feature=0 7 6 4 5 5 5 7 5 0 1 2 6 7
split_gain=114.655 35.631 16.8424 12.6363 12.4356 10.3327 8.87592 8.95249 8.08939 7.36328 7.01858 6.92876 6.51485 5.59355
threshold=1.0000000180025095e-35 -0.24840885757484252 0.090009035862094994 1.3832621756138153 -0.40757236268739555 -1.625992078763133 -1.8533104448087105 -0.92728238192385237 0.91740776638324195 0.5760015467225249 0.77525613651893344 -0.45878749018489456 -1.4686737391509337 0.64492414111357721
decision_type=2 2 2 2 2 2 2 2 2 2 2 2 2 2
left_child=1 3 4 6 -2 -3 -1 12 -7 -4 13 -9 -8 -6
right_child=2 5 9 -5 10 8 7 11 -10 -11 -12 -13 -14 -15
leaf_value=0.016087703719469056 0.020587392491988869 0.012388790353685869 0.0032161761006953868 -0.041561553056041402 0.0013856490863089139 -0.00089446459682510039 0.0008137842941020305 -0.014033036826076976 -0.026228536004782657 0.013198112557345832 0.015873648608120513 -0.0062461557507296284 -0.018932008468227821 0.012153288281572182
leaf_weight=35 369 148 1153 30 289 2057 48 358 32 220 272 1414 322 207
leaf_count=35 369 148 1153 30 289 2057 48 358 32 220 272 1414 322 207
internal_value=0 -0.00482502 0.00854279 -0.00933245 0.0130436 -0.000378045 -0.00888832 -0.00929642 -0.00128254 0.00481561 0.00941903 -0.00781935 -0.0163704 0.0058794
internal_weight=0 4444 2510 2207 1137 2237 2177 2142 2089 1373 768 1772 370 496
internal_count=6954 4444 2510 2207 1137 2237 2177 2142 2089 1373 768 1772 370 496
is_linear=0
shrinkage=0.05


Tree=35
num_leaves=15
num_cat=0
split_feature=7 0 4 7 5 6 2 4 6 8 5 2 1 6
split_gain=104.398 31.8418 14.5179 13.5935 10.3946 10.0841 9.72747 8.08943 7.30446 12.2163 7.47046 7.2619 8.66572 7.20256
threshold=0.31487239247288518 -1.0000000180025095e-35 1.1200694116487995 1.1940720653011043 -1.8533104448087105 0.48019883016041726 -0.52118457521202244 -0.31080975434383268 0.43346536179713829 1.0000000180025095e-35 0.72460687432947768 0.74660187133757649 -1.0581897794921298 -3.1805128858049394
decision_type=2 2 2 2 2 2 2 2 2 2 2 2 2 2
left_child=1 2 4 5 -1 -2 -3 -7 -6 10 -10 12 -8 -14
right_child=3 6 -4 -5 8 7 11 -9 9 -11 -12 -13 13 -15
leaf_value=0.016484463492881993 0.010233490705234693 -0.0063006464443255044 -0.020524280022383198 0.0216349298255923 -0.0064628688064397024 0.0049290795206568365 -0.0055789182982321286 -0.010844703498734598 -0.017874753804940229 -0.0026338751110489725 -0.043657690467256489 -0.0047085715432265054 -0.017776990909543305 0.0049069212754063625
leaf_weight=44 1309 599 244 184 1367 761 270 91 189 135 33 440 36 1252
leaf_count=44 1309 599 244 184 1367 761 270 91 189 135 33 440 36 1252
internal_value=0 -0.00436985 -0.00909143 0.00858875 -0.00751359 0.00747793 -0.000711849 0.00324432 -0.00812607 -0.0144947 -0.0217074 0.000963671 0.00256559 0.0042729
internal_weight=0 4609 2012 2345 1768 2161 2597 852 1724 357 222 1998 1558 1288
internal_count=6954 4609 2012 2345 1768 2161 2597 852 1724 357 222 1998 1558 1288
is_linear=0
shrinkage=0.05


Tree=36
num_leaves=15
num_cat=0
split_feature=0 7 6 5 5 6 5 5 6 7 0 4 5 4
split_gain=95.067 29.6621 14.3048 11.438 10.9149 10.8606 9.37816 7.53461 6.66853 7.80596 6.30322 6.26916 9.27311 6.21868
threshold=1.0000000180025095e-35 -0.36525227401770904 0.090009035862094994 0.79483070036349746 -0.40757236268739555 0.60774276640549463 -1.625992078763133 -0.96679074834010492 -0.80909124550389611 -1.0162991199300253 0.5760015467225249 0.36069406367365314 -0.40072562613812163 -1.2309469733451841
decision_type=2 2 2 2 2 2 2 2 2 2 2 2 2 2
left_child=1 7 4 6 -2 -5 -3 -1 11 -10 -4 12 -9 -8
right_child=2 3 10 5 -6 -7 13 8 9 -11 -12 -13 -14 -15
leaf_value=-0.00076379053189157275 0.018994318586799411 0.011445195822463713 0.0028641153262150276 -0.0049043686751192861 0.008531082792213358 -0.038092254953255932 0.0058091812870386516 0.022145930676358856 -0.022363232235956404 -0.01085734913761016 0.01209961874907921 -0.014531401851737914 -0.0047443642948496664 -0.0020749287682665734
leaf_weight=224 369 158 1153 67 768 39 284 36 175 935 220 137 293 2096
leaf_count=224 369 158 1153 67 768 39 284 36 175 935 220 137 293 2096
internal_value=0 -0.00439357 0.00777889 -0.00102311 0.0119268 -0.017115 -0.000351025 -0.0093444 -0.010564 -0.0126713 0.00434395 -0.00554431 -0.00180196 -0.00113414
internal_weight=0 4444 2510 2644 1137 106 2538 1800 1576 1110 1373 466 329 2380
internal_count=6954 4444 2510 2644 1137 106 2538 1800 1576 1110 1373 466 329 2380
is_linear=0
shrinkage=0.05


Tree=37
num_leaves=15
num_cat=0
split_feature=7 0 5 7 5 2 5 6 5 5 6 5 6 1
split_gain=86.2498 26.5405 13.4454 11.7761 10.2618 12.2885 8.83578 8.61108 8.65747 12.7643 9.05823 7.4688 7.15818 5.43231
threshold=0.31487239247288518 -1.0000000180025095e-35 0.83860044691957381 1.1940720653011043 -0.90335646421500215 0.16695555721459324 -1.7139752760465827 0.0099956222952889678 -0.39679630209784772 -0.51175512401655332 -1.4686737391509337 0.11885353785695174 -1.1936799541375385 -1.0904437826954538
decision_type=2 2 2 2 2 2 2 2 2 2 2 2 2 2
left_child=1 2 4 6 -1 12 -2 8 9 10 -3 -7 -6 -8
right_child=3 7 -4 -5 5 11 13 -9 -10 -11 -12 -13 -14 -15
leaf_value=0.00073406474365560247 0.018355198031263977 -0.01679802772563857 -0.032006717892363666 0.01994942264813606 0.0057862185735417446 -0.017077557622618134 -0.0044713148432431599 -0.0035594911314763577 0.00024711417521669222 0.036474417559802533 0.010472887986729485 0.001303008014726783 -0.0074172505746592917 0.0065429328035832186
leaf_weight=312 153 37 58 184 115 509 119 1277 1071 40 172 62 956 1889
leaf_count=312 153 37 58 184 115 509 119 1277 1071 40 172 62 956 1889
internal_value=0 -0.00397191 -0.00828257 0.00780663 -0.00757837 -0.00915784 0.00677273 -0.000632277 0.00219958 0.0105975 0.00564502 -0.0150818 -0.00599951 0.0058902
internal_weight=0 4609 2012 2345 1954 1642 2161 2597 1320 249 209 571 1071 2008
internal_count=6954 4609 2012 2345 1954 1642 2161 2597 1320 249 209 571 1071 2008
is_linear=0
shrinkage=0.05


Tree=38
num_leaves=15
num_cat=0
split_feature=0 7 6 5 7 5 4 2 5 4 2 3 4 5
split_gain=78.7268 24.6241 12.6421 9.98504 9.63192 8.35854 7.07041 6.90241 10.1158 6.45921 8.25993 6.50538 6.33976 6.03793
threshold=1.0000000180025095e-35 -0.36525227401770904 0.31671318911683366 0.87123539760809454 0.95650605790247567 -1.5276773474592602 1.3399844998978407 0.11659129602759226 -0.43161326087449686 -1.2309469733451841 -0.84658691658524499 1.1770740569436762 0.92578369831517693 -1.8533104448087105
decision_type=2 2 2 2 2 2 2 2 2 2 2 2 2 2
left_child=1 6 4 5 12 -3 13 8 -4 -7 -11 -12 -2 -1
right_child=2 3 7 -5 -6 9 -8 -9 -10 10 11 -13 -14 -15
leaf_value=0.013797727092019013 0.0098893149276317784 0.0075149327634179575 0.029887615627533684 -0.023058942154981197 0.01883735158116906 0.0055550332685553767 -0.031093598954269993 -0.008479757680130812 0.0031879274872792553 -0.017847587676563612 -0.00099575113671739588 -0.011869875135863862 0.00067244817128640864 -0.0084650158264187956
leaf_weight=31 1007 289 37 50 256 284 34 120 861 84 1788 149 229 1735
leaf_count=31 1007 289 37 50 256 284 34 120 861 84 1788 149 229 1735
internal_value=0 -0.00399819 0.00707887 -0.000927275 0.01001 -0.000500681 -0.00850903 0.00278298 0.00428803 -0.00150568 -0.00249788 -0.00183222 0.00818166 -0.00807422
internal_weight=0 4444 2510 2644 1492 2594 1800 1018 898 2305 2021 1937 1236 1766
internal_count=6954 4444 2510 2644 1492 2594 1800 1018 898 2305 2021 1937 1236 1766
is_linear=0
shrinkage=0.05


Tree=39
num_leaves=15
num_cat=0
split_feature=7 5 7 5 4 2 3 6 15 0 4 6 1 6
split_gain=71.3043 14.1941 13.5822 10.731 8.27686 10.7538 8.03914 7.67089 8.32827 7.50752 6.89447 9.02588 6.76629 8.1845
threshold=0.1095346755611321 -0.58904338776167198 -0.67711492649758787 0.87123539760809454 1.2123892782576233 1.0187911410793287 1.0439377945049582 0.43346536179713829 1.0000000180025095e-35 -1.0000000180025095e-35 -0.30102599454023932 0.33538183520336978 0.77525613651893344 -1.0650409405214047
decision_type=2 2 2 2 2 2 2 2 2 2 2 2 2 2
left_child=2 10 6 9 7 -6 -1 8 -4 -3 -2 -12 13 -11
right_child=1 3 4 -5 5 -7 -8 -9 -10 12 11 -13 -14 -15
leaf_value=-0.0085772335908349331 0.023484464270856095 -0.012501835563005163 -0.0022573949518342384 -0.019144641509279609 -0.032847504799988554 -0.0034169441524457625 -0.026809222309921801 -0.0073416029878600186 0.0063640719368914748 0.014280413434465939 0.011226258762499063 -0.016081821493571624 0.011071574411667581 0.0026166478222964563
leaf_weight=866 108 65 1822 50 52 77 65 596 331 164 556 32 356 1814
leaf_count=866 108 65 1822 50 52 77 65 596 331 164 556 32 356 1814
internal_value=0 0.00557193 -0.00460061 0.00378122 -0.00290244 -0.0152804 -0.00985014 -0.00232159 -0.00093194 0.00425904 0.0118729 0.0097401 0.00472582 0.00358371
internal_weight=0 3145 3809 2449 2878 129 931 2749 2153 2399 696 588 2334 1978
internal_count=6954 3145 3809 2449 2878 129 931 2749 2153 2399 696 588 2334 1978
is_linear=0
shrinkage=0.05


Tree=40
num_leaves=15
num_cat=0
split_feature=0 7 7 7 4 5 6 6 4 5 7 5 2 1
split_gain=65.924 20.1857 12.9444 12.8466 9.55821 6.21456 6.47238 6.18625 6.6925 6.00134 6.47231 5.56741 5.55573 5.44025
threshold=1.0000000180025095e-35 -0.24840885757484252 -0.18929504422841986 0.84248294842452076 1.3832621756138153 0.79483070036349746 0.51002458633869108 0.080119427229637177 0.92578369831517693 -1.8533104448087105 -0.92728238192385237 -1.625992078763133 -0.45878749018489456 0.24273251540710286
decision_type=2 2 2 2 2 2 2 2 2 2 2 2 2 2
left_child=1 4 -2 7 9 11 -7 8 -4 -1 13 -3 -12 -11
right_child=2 5 3 -5 -6 6 -8 -9 -10 10 12 -13 -14 -15
leaf_value=0.01387212061988456 0.03912441278807819 0.0095293573976960033 0.0098843168300529957 0.012559709539437969 -0.035081479536990326 -0.0020929192215026842 -0.032500584341275195 0.0015748776634230289 -0.00062406932841986421 -0.018454724447347408 -0.011308768923705257 -0.00051776979679133729 -0.0043359865548824855 -0.0062574898699919376
leaf_weight=35 30 148 625 585 30 42 30 1070 200 205 358 2017 1414 165
leaf_count=35 30 148 625 585 30 42 30 1070 200 205 358 2017 1414 165
internal_value=0 -0.00365868 0.00647776 0.00608284 -0.00705131 -0.000311541 -0.0147628 0.00408338 0.00733683 -0.00666505 -0.00700062 0.000169055 -0.00574471 -0.0130154
internal_weight=0 4444 2510 2480 2207 2237 72 1895 825 2177 2142 2165 1772 370
internal_count=6954 4444 2510 2480 2207 2237 72 1895 825 2177 2142 2165 1772 370
is_linear=0
shrinkage=0.05


Tree=41
num_leaves=15
num_cat=0
split_feature=7 0 5 6 5 2 5 2 6 4 2 6 6 16
split_gain=60.1583 19.6737 10.7458 8.75654 8.04451 10.0807 7.45265 7.23498 6.69155 7.44708 8.31628 10.2943 6.41361 5.97727
threshold=0.39864167751198448 -1.0000000180025095e-35 0.83860044691957381 -0.0079436327859410353 -0.90335646421500215 0.16695555721459324 0.11885353785695174 0.93662314484349507 0.0099956222952889678 0.89013993632118227 1.0000000180025095e-35 -3.1805128858049394 -1.1936799541375385 1.0000000180025095e-35
decision_type=2 2 2 2 2 2 2 2 2 2 2 2 2 2
left_child=1 2 4 7 -1 12 -7 -2 9 10 -3 -12 -6 -13
right_child=3 8 -4 -5 5 6 -8 -9 -10 -11 11 13 -14 -15
leaf_value=0.0010537355652978967 0.012678764783114936 0.00034953006551089003 -0.027964893633783874 0.004289395513444972 0.006311742050279661 -0.015072005935752497 0.003158305705772595 -8.917725065150761e-05 -0.002904087453794074 -0.0031179185860425529 -0.014377702433520404 0.010467082937288104 -0.0061847926868893316 0.031417958820728883
leaf_weight=312 725 490 59 1382 115 509 63 131 1349 457 39 327 958 38
leaf_count=312 725 490 59 1382 115 509 63 131 1349 457 39 327 958 38
internal_value=0 -0.00320364 -0.00694098 0.00675083 -0.00630715 -0.00770326 -0.0130641 0.0107248 -0.000413091 0.00207422 0.00472836 0.0100393 -0.00484546 0.0126483
internal_weight=0 4716 2016 2238 1957 1645 572 856 2700 1351 894 404 1073 365
internal_count=6954 4716 2016 2238 1957 1645 572 856 2700 1351 894 404 1073 365
is_linear=0
shrinkage=0.05


Tree=42
num_leaves=15
num_cat=0
split_feature=0 7 7 7 2 4 4 5 4 3 4 5 8 4
split_gain=54.6389 16.8048 11.9087 11.174 8.38764 6.78782 6.58428 5.87417 6.51646 5.56557 5.54005 5.50081 5.41026 5.4798
threshold=1.0000000180025095e-35 -0.36525227401770904 -0.18929504422841986 0.84248294842452076 -1.0845878906308475 0.99896100846971592 0.68733957781908706 -1.5276773474592602 -1.2309469733451841 1.1770740569436762 1.3399844998978407 0.60285247026722177 1.0000000180025095e-35 -0.87962446495143787
decision_type=2 2 2 2 2 2 2 2 2 2 2 2 2 2
left_child=1 10 -2 -4 -3 6 7 -6 9 -9 -1 -7 13 -10
right_child=2 4 3 -5 5 11 -8 8 12 -11 -12 -13 -14 -15
leaf_value=-0.0066723859305588456 0.03721072033047676 -0.024115325243359336 0.0036537668181895518 0.011559039877248038 0.0062826988901370966 -0.0048150229502904327 0.0089693465193046162 0.0029442564465484247 -0.013963624355443694 0.024281427016747851 -0.027048833079478599 -0.025233484432101251 -0.0082657961268166828 -0.00015525170835493796
leaf_weight=1766 30 38 1895 585 289 304 210 241 77 35 34 37 339 1074
leaf_count=1766 30 38 1895 585 289 304 210 241 77 35 34 37 339 1074
internal_value=0 -0.00333084 0.00589731 0.00551852 -0.000793931 -0.000453865 0.000536262 -0.000325513 -0.00140692 0.00565006 -0.00705727 -0.00703052 -0.00271412 -0.00107901
internal_weight=0 4444 2510 2480 2644 2606 2265 2055 1766 276 1800 341 1490 1151
internal_count=6954 4444 2510 2480 2644 2606 2265 2055 1766 276 1800 341 1490 1151
is_linear=0
shrinkage=0.05


Tree=43
num_leaves=15
num_cat=0
split_feature=7 0 5 5 5 6 4 2 6 7 4 16 6 1
split_gain=49.7935 16.4006 9.46416 8.13669 7.24223 5.98101 6.33854 7.37395 9.10395 5.62991 6.13771 5.44326 5.40334 5.37199
threshold=0.39864167751198448 -1.0000000180025095e-35 0.83860044691957381 -0.58904338776167198 -1.8533104448087105 0.0099956222952889678 0.89013993632118227 1.0000000180025095e-35 -3.1805128858049394 -0.75108847134507106 -1.2005526844129799 1.0000000180025095e-35 0.40117178685534571 0.23716758119833431
decision_type=2 2 2 2 2 2 2 2 2 2 2 2 2 2
left_child=1 2 4 -2 -1 6 7 -3 -9 13 -11 -10 -12 -6
right_child=3 5 -4 -5 9 -7 -8 8 11 10 12 -13 -14 -15
leaf_value=0.014323791657377363 0.011533955252103816 0.00031014608303904631 -0.026057302396176225 0.0044561595448982068 -0.012556187126415125 -0.0027217901536436382 -0.0028053437982847877 -0.013527469320270498 0.0098064521651450524 0.0084653254905408554 -0.0035003660232780873 0.029799559055582476 -0.013178370652319646 -0.003652971780729786
leaf_weight=44 533 490 59 1705 501 1349 457 39 327 91 893 38 172 256
leaf_count=44 533 490 59 1705 501 1349 457 39 327 91 893 38 172 256
internal_value=0 -0.00291462 -0.00632694 0.0061418 -0.0057321 -0.000366757 0.00198479 0.00443344 0.00943446 -0.0061934 -0.00399841 0.0118879 -0.00506339 -0.00954532
internal_weight=0 4716 2016 2238 1957 2700 1351 894 404 1913 1156 365 1065 757
internal_count=6954 4716 2016 2238 1957 2700 1351 894 404 1913 1156 365 1065 757
is_linear=0
shrinkage=0.05


Tree=44
num_leaves=15
num_cat=0
split_feature=0 7 7 7 2 5 1 7 1 6 4 4 2 2
split_gain=45.3273 13.6012 10.9436 10.1573 7.37858 6.65895 6.02273 5.33512 6.87066 5.98219 5.23253 4.96935 7.61652 4.6939
threshold=1.0000000180025095e-35 -0.36525227401770904 -0.18929504422841986 1.1940720653011043 -1.0845878906308475 -1.9425085752268634 1.2769183517306051 0.48436488920577964 0.15497685853554413 0.48019883016041726 -0.31080975434383268 1.2123892782576233 1.0649963564793046 0.74660187133757649
decision_type=2 2 2 2 2 2 2 2 2 2 2 2 2 2
left_child=1 11 -2 5 -3 -4 13 8 -7 -9 -11 -1 -13 -6
right_child=2 4 3 -5 6 7 -8 9 -10 10 -12 12 -14 -15
leaf_value=-0.0056967375035018326 0.035389095083810392 -0.022625077146987776 0.019664263085865264 0.016693374806358293 0.00065574598438498206 -0.0054546167938427136 -0.021990506164729598 0.0083703595152142454 0.0043358406812426002 0.0033415050473388666 -0.012201915982068849 -0.029430965327641424 -0.0038030129210171052 -0.0057226660137662307
leaf_weight=1684 30 38 67 173 2243 312 32 790 421 658 59 57 59 331
leaf_count=1684 30 38 67 173 2243 312 32 790 421 658 59 57 59 331
internal_value=0 -0.00303377 0.00537134 0.00500822 -0.000751442 0.00413196 -0.000432487 0.00366738 0.000168552 0.0053692 0.00206248 -0.00638625 -0.0163961 -0.000164477
internal_weight=0 4444 2510 2480 2644 2307 2606 2240 733 1507 717 1800 116 2574
internal_count=6954 4444 2510 2480 2644 2307 2606 2240 733 1507 717 1800 116 2574
is_linear=0
shrinkage=0.05


Tree=45
num_leaves=15
num_cat=0
split_feature=7 5 4 5 7 4 6 1 0 6 7 5 5 3
split_gain=41.3184 9.96238 8.80003 8.6718 7.40537 5.95865 7.37648 5.69207 5.56624 6.20328 7.11627 5.06082 6.6068 10.4295
threshold=0.1095346755611321 -0.58904338776167198 1.4694377355218522 0.87123539760809454 -0.67711492649758787 -0.30102599454023932 0.33538183520336978 0.77525613651893344 -1.0000000180025095e-35 -1.0650409405214047 1.2733823816338503 -0.96679074834010492 -0.59065474781056337 2.3327269006513141
decision_type=2 2 2 2 2 2 2 2 2 2 2 2 2 2
left_child=2 5 4 7 -1 -2 -7 8 -3 -10 -11 -6 -13 -14
right_child=1 3 -4 -5 11 6 -8 -9 9 10 -12 12 13 -15
leaf_value=-0.0071703737609564141 0.020315091072363969 -0.013702403990275884 -0.029209952445870099 -0.017867870871908966 0.0031371237639070712 0.0088810443761130377 -0.015806103248905856 0.0089016762779859388 0.011880622409914462 0.0012869877445898853 0.024053304960419027 -0.014028660168996938 -0.0026626969107014162 0.026534597167084298
leaf_weight=923 108 54 33 50 408 556 32 367 164 1779 35 126 2288 31
leaf_count=923 108 54 33 50 408 556 32 367 164 1779 35 126 2288 31
internal_value=0 0.0042415 -0.00350211 0.00274129 -0.00327744 0.00952025 0.00753753 0.00317083 0.00213578 0.00256817 0.00172625 -0.002018 -0.00287824 -0.00227239
internal_weight=0 3145 3809 2449 3776 696 588 2399 2032 1978 1814 2853 2445 2319
internal_count=6954 3145 3809 2449 3776 696 588 2399 2032 1978 1814 2853 2445 2319
is_linear=0
shrinkage=0.05


Tree=46
num_leaves=15
num_cat=0
split_feature=0 5 7 7 7 6 1 19 2 9 1 2 1 3
split_gain=37.9161 11.7354 11.665 10.069 8.72089 7.64564 5.54096 4.92394 5.75922 6.57804 5.35013 8.14853 7.33636 5.07456
threshold=1.0000000180025095e-35 1.06798076437235 -0.36525227401770904 -0.18929504422841986 0.58411417467756332 0.0099956222952889678 0.15497685853554413 1.0000000180025095e-35 0.15312442334833548 1.0000000180025095e-35 -0.15727282165737647 -0.80872495547206225 -1.0581897794921298 1.2365529661572709
decision_type=2 2 2 2 2 2 2 2 2 2 2 2 2 2
left_child=1 2 -1 -2 6 -6 -5 10 -9 -10 12 -12 -4 -14
right_child=3 -3 7 4 5 -7 -8 8 9 -11 11 -13 13 -15
leaf_value=-0.0056523329274500321 0.033705998077057306 -0.029401217882589599 -0.0040388215339837849 -0.003636813889813126 0.011410766823102889 0.0041787839922816598 0.004245142062283754 0.0012057687648537956 -0.025288227729809782 -0.0055832220358246962 -0.015196604395543437 -0.00042889630208575833 0.0050965204176068582 0.024652772270409126
leaf_weight=1779 30 41 242 412 573 1009 486 164 60 144 101 1243 635 35
leaf_count=1779 30 41 242 412 573 1009 486 164 60 144 101 1243 635 35
internal_value=0 -0.00277469 -0.00252675 0.00491264 0.00456433 0.00679821 0.000628922 -0.000407684 -0.00577047 -0.0113788 0.000467096 -0.00153867 0.00342296 0.00611812
internal_weight=0 4444 4403 2510 2480 1582 898 2624 368 204 2256 1344 912 670
internal_count=6954 4444 4403 2510 2480 1582 898 2624 368 204 2256 1344 912 670
is_linear=0
shrinkage=0.05


Tree=47
num_leaves=15
num_cat=0
split_feature=0 0 7 7 5 5 5 6 7 6 4 2 6 2
split_gain=34.2193 11.0305 9.08731 8.35653 7.89224 6.95327 5.69315 5.17038 4.53449 4.47376 4.17015 7.93486 4.24673 3.97472
threshold=1.0000000180025095e-35 -1.0000000180025095e-35 -0.18929504422841986 0.95650605790247567 0.79483070036349746 -1.8533104448087105 -1.9425085752268634 0.60774276640549463 -0.92728238192385237 -1.1722065895590947 1.2123892782576233 1.0260999676913951 0.0099956222952889678 -0.23576018395381371
decision_type=2 2 2 2 2 2 2 2 2 2 2 2 2 2
left_child=1 4 -2 6 5 -1 -4 -6 9 -7 12 -12 13 -3
right_child=2 10 3 -5 7 8 -8 -9 -10 -11 11 -13 -14 -15
leaf_value=0.013873261058874124 0.032020698643755167 -0.0043750652142629763 0.018227319050347433 0.010886389560889081 -0.010407502720456409 0.0019255734168954434 0.0025976938894582391 -0.036826528807080559 -0.0040354540940895382 -0.012849627012146196 -0.026326610627901655 5.0410320143805346e-05 -0.0019418993152787016 0.003711877397140597
leaf_weight=49 30 182 60 407 46 62 2013 31 1556 295 44 81 1178 920
leaf_count=49 30 182 60 407 46 62 2013 31 1556 295 44 81 1178 920
internal_value=0 -0.00263595 0.004667 0.00433611 -0.00534134 -0.00472509 0.00305007 -0.0210437 -0.00520147 -0.0102836 -0.000342278 -0.0092343 0.000145223 0.00237628
internal_weight=0 4444 2510 2480 2039 1962 2073 77 1913 357 2405 125 2280 1102
internal_count=6954 4444 2510 2480 2039 1962 2073 77 1913 357 2405 125 2280 1102
is_linear=0
shrinkage=0.05


Tree=48
num_leaves=15
num_cat=0
split_feature=7 5 0 5 2 3 5 7 6 3 1 6 4 6
split_gain=31.4299 13.5221 9.48809 6.74536 8.90421 7.94743 7.0679 6.16847 5.82154 4.97207 4.72424 4.66038 5.24578 4.34897
threshold=0.31487239247288518 1.0901378425753125 -1.0000000180025095e-35 -0.90335646421500215 0.16695555721459324 1.3350942235120329 0.11885353785695174 1.1940720653011043 -1.1936799541375385 1.5881680892894596 -0.59207035186259571 0.48019883016041726 -0.31080975434383268 -1.1254699814923388
decision_type=2 2 2 2 2 2 2 2 2 2 2 2 2 2
left_child=1 2 3 10 8 6 -6 11 -5 -10 -1 -2 -13 -4
right_child=7 -3 13 4 5 -7 -8 -9 9 -11 -12 12 -14 -15
leaf_value=-8.9106936858560741e-06 0.005837548261162135 -0.035309021287567674 0.0060299550045979852 0.0072561396392183787 -0.011564581429570871 -0.034505950440378755 0.0069079379828100836 0.013500872969313566 -0.0052428211123543341 0.015424881611640254 0.020861366397002715 0.0024428809230226862 -0.010259396921597668 -0.00084909818397415618
leaf_weight=282 1309 31 255 115 483 34 58 184 970 30 30 761 91 2321
leaf_count=282 1309 31 255 115 483 34 58 184 970 30 30 761 91 2321
internal_value=0 -0.00239769 -0.00217483 -0.00475686 -0.00600389 -0.0110578 -0.00958416 0.00471255 -0.00339761 -0.00462279 0.00199785 0.00396427 0.00108618 -0.000168136
internal_weight=0 4609 4578 2002 1690 575 541 2345 1115 1000 312 2161 852 2576
internal_count=6954 4609 4578 2002 1690 575 541 2345 1115 1000 312 2161 852 2576
is_linear=0
shrinkage=0.05


Tree=49
num_leaves=15
num_cat=0
split_feature=7 5 5 3 4 0 2 1 2 7 1 1 4 6
split_gain=28.6373 8.29941 7.58076 7.78364 7.04968 6.75891 5.80991 9.09459 6.96995 7.02561 7.02359 14.5251 9.44815 6.4096
threshold=0.1095346755611321 0.87123539760809454 -1.8533104448087105 2.3327269006513141 1.4694377355218522 0.5760015467225249 -0.84658691658524499 -0.12512999117723392 0.74660187133757649 -1.2251909744398815 -1.0581897794921298 -0.97641540428401841 -0.0076710117831590196 -3.1805128858049394
decision_type=2 2 2 2 2 2 2 2 2 2 2 2 2 2
left_child=4 2 -2 5 6 -4 7 -1 10 -10 12 -12 -8 -13
right_child=1 -3 3 -5 -6 -7 8 -9 9 -11 11 13 -14 -15
leaf_value=0.0052005687097113062 0.015059690818371666 -0.016677116265520455 0.0021432417521193531 0.02468192811079678 -0.025925130134617742 0.0097631440489239166 -0.0041799069756724662 -0.014107608652043649 -0.022895623469958083 -0.0050173924661456835 0.028909400330726493 -0.019106964382032555 -0.027497727273754321 -4.6607438732599285e-05
leaf_weight=82 144 50 2581 42 33 328 383 238 60 653 43 45 49 2223
leaf_count=82 144 50 2581 42 33 328 383 238 60 653 43 45 49 2223
internal_value=0 0.00353113 0.00385759 0.00331097 -0.00291557 0.00300241 -0.00271448 -0.00915989 -0.00211768 -0.00652187 -0.00097288 0.000121022 -0.00682475 -0.000424789
internal_weight=0 3145 3095 2951 3809 2909 3776 320 3456 713 2743 2311 432 2268
internal_count=6954 3145 3095 2951 3809 2909 3776 320 3456 713 2743 2311 432 2268
is_linear=0
shrinkage=0.05


Tree=50
num_leaves=15
num_cat=0
split_feature=0 4 7 5 2 5 3 6 5 7 7 7 6 4
split_gain=26.3429 9.56935 8.52956 8.32469 9.66397 10.4945 7.90431 7.72045 13.3126 6.63912 6.59544 6.57648 4.85722 4.5394
threshold=1.0000000180025095e-35 1.5125458517964132 -0.18929504422841986 -0.96679074834010492 0.31427302770548166 -0.39679630209784772 2.3327269006513141 -0.12019174733953583 -0.40072562613812163 1.1940720653011043 -0.24840885757484252 -1.2251909744398815 -0.46267347077251336 0.66287749335937574
decision_type=2 2 2 2 2 2 2 2 2 2 2 2 2 2
left_child=1 3 -2 12 6 -6 7 8 -5 -4 -9 -7 -1 -10
right_child=2 -3 9 4 5 11 -8 10 13 -11 -12 -13 -14 -15
leaf_value=0.01239648905209358 0.030595789796983203 -0.029995596255626412 0.0030658095940640424 0.024234809454972462 -0.019421028372130129 -0.020607378572135029 0.018729125256551075 -0.0080605151681859988 -0.0015087389557609438 0.0132213822513485 -0.0014350055255659107 -0.0037503132396292244 0.0010352564505653776 0.0072162187854249013
leaf_weight=111 30 31 2307 59 154 63 47 661 945 173 870 709 617 177
leaf_count=111 30 31 2307 59 154 63 47 661 945 173 870 709 617 177
internal_value=0 -0.00231278 0.00409482 -0.00211832 -0.00308355 -0.00750332 -0.00160015 -0.00195247 0.00108498 0.00377424 -0.00429553 -0.00512595 0.00276753 -0.000132342
internal_weight=0 4444 2510 4413 3685 926 2759 2712 1181 2480 1531 772 728 1122
internal_count=6954 4444 2510 4413 3685 926 2759 2712 1181 2480 1531 772 728 1122
is_linear=0
shrinkage=0.05


Tree=51
num_leaves=15
num_cat=0
split_feature=0 7 5 5 6 6 4 2 6 16 5 4 7 6
split_gain=24.0128 11.1757 6.74515 5.68869 5.0439 4.71352 5.67523 6.64178 7.16101 4.35232 3.91753 3.8779 3.74699 4.53904
threshold=-1.0000000180025095e-35 0.58411417467756332 0.83860044691957381 -1.8533104448087105 0.4239845671902992 -0.0079436327859410353 0.92578369831517693 1.0000000180025095e-35 -1.9101603618713561 1.0000000180025095e-35 0.49763711661693599 -0.31080975434383268 -0.92728238192385237 0.16982413946337696
decision_type=2 2 2 2 2 2 2 2 2 2 2 2 2 2
left_child=2 5 3 -1 -3 6 7 10 -9 -10 -2 -6 13 -5
right_child=1 4 -4 12 11 -7 -8 8 9 -11 -12 -13 -14 -15
leaf_value=0.01275900353301003 -0.0026230845740006607 0.0074862560515379442 -0.021221268149803126 -0.0068406214603629603 0.0029758170871518707 -0.0017058997842506062 -0.0021154501548989665 -0.0087328817256583056 0.0092679402669500512 0.026631902691442524 0.0059082187024332147 -0.011591040022310099 -0.0034414593430768994 -0.023082385312765838
leaf_weight=49 349 985 59 308 676 1654 522 52 369 40 219 49 1573 50
leaf_count=49 349 985 59 308 676 1654 522 52 369 40 219 49 1573 50
internal_value=0 0.00189243 -0.0045617 -0.00406528 0.00515652 0.000150907 0.00213102 0.00428521 0.00874411 0.0109661 0.000666274 0.0019913 -0.0044922 -0.00910902
internal_weight=0 4915 2039 1980 1710 3205 1551 1029 461 409 568 725 1931 358
internal_count=6954 4915 2039 1980 1710 3205 1551 1029 461 409 568 725 1931 358
is_linear=0
shrinkage=0.05


Tree=52
num_leaves=15
num_cat=0
split_feature=7 5 3 5 4 0 2 1 2 3 3 2 3 4
split_gain=21.8773 7.25144 6.46398 6.69479 5.72793 5.56235 4.88423 8.3114 5.50607 6.23754 6.18123 7.61461 5.99067 5.96204
threshold=0.1095346755611321 0.87123539760809454 2.3327269006513141 -1.8533104448087105 1.4694377355218522 0.5760015467225249 -0.84658691658524499 -0.12512999117723392 0.74660187133757649 0.77024926824121764 1.1113278987957054 0.23006039671885689 1.7877261932582429 0.65124826504279076
decision_type=2 2 2 2 2 2 2 2 2 2 2 2 2 2
left_child=4 2 3 -2 6 -5 7 -1 10 -10 13 12 -12 -8
right_child=1 -3 -4 5 -6 -7 8 -9 9 -11 11 -13 -14 -15
leaf_value=0.0054514628012306858 0.013647130598029536 -0.015803006384754553 0.022873280260578863 0.0018231413661124235 -0.023288977908801332 0.0087357175897589661 -0.00090587615816052354 -0.013006621607806253 -0.0067645612422497572 0.015494658494593971 -0.0072886149115303812 -0.022227498718901822 0.013552881218492985 0.0066496554783095456
leaf_weight=82 144 50 42 2581 33 328 2160 238 680 33 174 69 43 297
leaf_count=82 144 50 42 2581 33 328 2160 238 680 33 174 69 43 297
internal_value=0 0.00308635 0.0033915 0.00312349 -0.00254832 0.00260256 -0.00236706 -0.00827674 -0.00181987 -0.00573433 -0.000802365 -0.00775924 -0.00315873 7.42986e-06
internal_weight=0 3145 3095 3053 3809 2909 3776 320 3456 713 2743 286 217 2457
internal_count=6954 3145 3095 3053 3809 2909 3776 320 3456 713 2743 286 217 2457
is_linear=0
shrinkage=0.05


Tree=53
num_leaves=15
num_cat=0
split_feature=0 7 5 5 6 7 4 2 1 5 6 2 2 5
split_gain=20.564 9.11491 6.093 4.99646 4.5009 4.26659 4.26819 8.37522 4.80947 4.87404 4.42349 6.75416 5.21533 4.3554
threshold=-1.0000000180025095e-35 0.58411417467756332 0.83860044691957381 -1.8533104448087105 0.0099956222952889678 -0.74159625813286045 1.2123892782576233 1.0260999676913951 0.77525613651893344 0.79483070036349746 -1.1254699814923388 0.16112547835856403 0.044511291206101443 -0.96679074834010492
decision_type=2 2 2 2 2 2 2 2 2 2 2 2 2 2
left_child=2 5 3 -1 -3 -2 8 -8 9 10 11 12 -7 -12
right_child=1 4 -4 -5 -6 6 7 -9 -10 -11 13 -13 -14 -15
leaf_value=0.012017847085371614 0.015132352755345564 0.0080159181645558433 -0.020055164787444776 -0.0041497208381348167 0.0027151854509633541 0.0065992904435884072 -0.023379159424650044 0.00038768675042105455 0.0045999014542178265 -0.01745355661648015 0.003400458825473593 -0.0035928866105550379 0.026544541947077963 -0.0021947450428760965
leaf_weight=49 47 640 59 1931 1070 114 57 106 552 42 438 114 46 1689
leaf_count=49 47 640 59 1931 1070 114 57 106 552 42 438 114 46 1689
internal_value=0 0.00175127 -0.00422143 -0.00374961 0.00469909 0.000178488 -4.40676e-05 -0.00792342 0.000384759 -0.00056766 -0.00027228 0.00570722 0.0123336 -0.00104256
internal_weight=0 4915 2039 1980 1710 3205 3158 163 2995 2443 2401 274 160 2127
internal_count=6954 4915 2039 1980 1710 3205 3158 163 2995 2443 2401 274 160 2127
is_linear=0
shrinkage=0.05


Tree=54
num_leaves=15
num_cat=0
split_feature=0 7 5 5 6 6 1 4 2 6 16 4 7 7
split_gain=18.559 8.2262 5.49893 4.50931 4.115 3.90959 4.7955 3.55056 4.10401 5.46839 4.21483 3.39573 3.34671 3.78242
threshold=-1.0000000180025095e-35 0.58411417467756332 0.83860044691957381 -1.8533104448087105 0.4239845671902992 -0.0079436327859410353 -0.67523255710640695 0.92578369831517693 1.0000000180025095e-35 -3.1805128858049394 1.0000000180025095e-35 -0.31080975434383268 0.27730779695008045 -0.92728238192385237
decision_type=2 2 2 2 2 2 2 2 2 2 2 2 2 2
left_child=2 5 3 -1 -3 6 -2 8 -8 -10 -11 -6 13 -5
right_child=1 4 -4 12 11 -7 7 -9 9 10 -12 -13 -14 -15
leaf_value=0.011416954845570182 0.020829375401477924 0.0065684319334222852 -0.01905240653145869 -0.0082795681047442577 0.0025264664519050908 -0.0015214989022416556 0.00052754110260087752 -0.0017772310464519167 -0.010122515694681734 0.0070988109143520842 0.024241761330049488 -0.011104746105396475 -0.018835062427899323 -0.0025725734006111153
leaf_weight=49 33 985 59 358 676 1654 568 522 42 346 40 49 37 1536
leaf_count=49 33 985 59 358 676 1654 568 522 42 346 40 49 37 1536
internal_value=0 0.00166371 -0.00401036 -0.00356213 0.00446413 0.000169564 0.00197293 0.00156301 0.00331361 0.00701101 0.00887528 0.00160518 -0.00394223 -0.0036513
internal_weight=0 4915 2039 1980 1710 3205 1551 1518 996 428 386 725 1931 1894
internal_count=6954 4915 2039 1980 1710 3205 1551 1518 996 428 386 725 1931 1894
is_linear=0
shrinkage=0.05


Tree=55
num_leaves=15
num_cat=0
split_feature=0 7 5 2 6 6 1 1 1 2 4 7 2 1
split_gain=16.9848 8.00601 7.8712 5.92733 5.1917 5.57402 5.78033 8.91624 8.79561 7.19648 7.10427 5.1311 5.09568 4.54108
threshold=1.0000000180025095e-35 -0.18929504422841986 1.06798076437235 0.74660187133757649 -3.1805128858049394 -0.12019174733953583 -0.15727282165737647 -1.0581897794921298 -0.97641540428401841 -0.84658691658524499 0.035796517511958718 1.1940720653011043 0.87764640361456314 0.30138535674478423
decision_type=2 2 2 2 2 2 2 2 2 2 2 2 2 2
left_child=2 -2 3 4 -1 13 7 10 -9 -8 -7 -3 -5 -6
right_child=1 11 -4 12 5 6 9 8 -10 -11 -12 -13 -14 -15
leaf_value=-0.017465082531713923 0.028962759682981416 0.0023546229405360928 -0.023663585022001006 -0.015196971349058883 0.0054683365805204597 -0.0032179951499752843 -0.012903507606974111 0.021991191158208568 0.0020131799372837644 -0.0026080012967125109 -0.024751742698606992 0.011282621503934115 -0.0038881045144467438 -0.00023336054963171175
leaf_weight=46 30 2307 41 116 522 435 234 61 569 618 42 173 705 1055
leaf_count=46 30 2307 41 116 522 435 234 61 569 618 42 173 705 1055
internal_value=0 0.003288 -0.00185709 -0.00165403 -0.000775746 -0.000558634 -0.00233977 4.29638e-05 0.00394756 -0.00543564 -0.00511405 0.00297742 -0.00548595 0.00165395
internal_weight=0 2510 4444 4403 3582 3536 1959 1107 630 852 477 2480 821 1577
internal_count=6954 2510 4444 4403 3582 3536 1959 1107 630 852 477 2480 821 1577
is_linear=0
shrinkage=0.05


Tree=56
num_leaves=15
num_cat=0
split_feature=0 0 4 2 6 7 5 3 4 3 6 4 5 5
split_gain=16.081 7.43039 5.74738 8.17681 5.90261 4.79647 4.74134 4.27101 5.09658 5.00735 4.15106 3.96687 4.58785 3.85167
threshold=-1.0000000180025095e-35 0.5760015467225249 1.2123892782576233 1.0260999676913951 0.0099956222952889678 0.1095346755611321 0.79483070036349746 -0.83905315897732879 -0.12113679939376444 -0.86362115379567606 0.60774276640549463 0.36069406367365314 -0.30977552235813427 -1.8533104448087105
decision_type=2 2 2 2 2 2 2 2 2 2 2 2 2 2
left_child=6 2 4 -4 5 7 13 9 -9 -2 -8 12 -10 -1
right_child=1 -3 3 -5 -6 -7 10 8 11 -11 -12 -13 -14 -15
leaf_value=0.010586792604085439 -0.0019930007695590475 0.008526843440545313 -0.020578842199318215 6.1943802122966328e-05 -0.00023603935656477771 0.0059098282093877864 -0.0063734612994543888 -0.0095951757904133832 0.025475101700469266 -0.023231904905782464 -0.030045476177286718 0.0014455914206524148 0.006215647925308581 -0.0036099469982348851
leaf_weight=49 151 354 73 140 2431 984 46 77 38 34 31 467 166 1913
leaf_count=49 151 354 73 140 2431 984 46 77 38 34 31 467 166 1913
internal_value=0 0.00154866 0.00100705 -0.00701213 0.0013999 0.00347447 -0.00373304 0.000905987 0.00258839 -0.00589637 -0.0159038 0.0039865 0.00980319 -0.00325539
internal_weight=0 4915 4561 213 4348 1917 2039 933 748 185 77 671 204 1962
internal_count=6954 4915 4561 213 4348 1917 2039 933 748 185 77 671 204 1962
is_linear=0
shrinkage=0.05


Tree=57
num_leaves=15
num_cat=0
split_feature=0 0 4 2 6 4 4 2 6 4 16 3 4 5
split_gain=14.5131 6.70592 5.18701 7.49258 5.32711 4.56891 4.38799 6.02943 5.5328 4.55027 3.57133 3.53962 3.93337 3.36766
threshold=-1.0000000180025095e-35 0.5760015467225249 1.2123892782576233 0.90282989846072159 0.0099956222952889678 1.1200694116487995 0.92578369831517693 0.010143258242322551 -3.1805128858049394 0.12112660633741561 1.0000000180025095e-35 2.1521786328672623 0.083184198004884288 0.24940702727345559
decision_type=2 2 2 2 2 2 2 2 2 2 2 2 2 2
left_child=5 2 4 -4 6 -1 7 9 -9 -2 -10 -6 -13 -7
right_child=1 -3 3 -5 11 13 -8 8 10 -11 -12 12 -14 -15
leaf_value=-0.0026676729476264429 -0.0014266317117072344 0.0081005013267322849 -0.029822703724106156 -0.0028646070324115092 -0.00056464488148430698 -0.0077507195396623518 -0.0012155069374074673 -0.0067856554085477102 0.0083227401860802453 0.0062475645390079534 0.023090101058848882 0.01981832828372717 -0.0035547509479025999 -0.025623512176486354
leaf_weight=1792 485 354 30 183 2356 217 420 58 589 321 44 45 30 30
leaf_count=1792 485 354 30 183 2356 217 420 58 589 321 44 45 30 30
internal_value=0 0.00147123 0.000956699 -0.00666152 0.0013299 -0.00354639 0.00330075 0.00456783 0.00799492 0.00162972 0.00934922 -0.000224237 0.0104691 -0.0099215
internal_weight=0 4915 4561 213 4348 2039 1917 1497 691 806 633 2431 75 247
internal_count=6954 4915 4561 213 4348 2039 1917 1497 691 806 633 2431 75 247
is_linear=0
shrinkage=0.05


Tree=58
num_leaves=15
num_cat=0
split_feature=0 7 4 7 19 3 5 2 3 7 5 1 6 5
split_gain=13.1024 7.32976 6.70965 4.81879 5.0912 5.93645 4.5748 4.43618 8.11217 4.35913 5.16307 4.37138 3.78456 5.43695
threshold=1.0000000180025095e-35 -0.18929504422841986 1.5125458517964132 -0.92728238192385237 1.0000000180025095e-35 2.3327269006513141 -0.90335646421500215 0.15312442334833548 1.4482761213570121 0.48436488920577964 -0.58904338776167198 0.15497685853554413 0.16982413946337696 -0.37425249692766255
decision_type=2 2 2 2 2 2 2 2 2 2 2 2 2 2
left_child=2 -2 3 12 5 6 -5 -6 -9 11 -11 -3 13 -1
right_child=1 9 -4 4 7 -7 -8 8 -10 10 -12 -13 -14 -15
leaf_value=0.0069341361129583862 0.027454376046856244 -0.0050909294216849267 -0.024811388113565983 0.0036160093576121468 -7.8602346421089464e-05 0.019195911173637101 -0.0012646849935806876 -0.0063782812602170644 -0.03310628622289627 0.0088754185119386455 0.0024490745127316799 0.0026969983522014832 -0.018043844832388301 -0.0083354233389885245
leaf_weight=77 30 315 31 580 258 39 2788 337 31 408 1336 421 63 240
leaf_count=77 30 315 31 580 258 39 2788 337 31 408 1336 421 63 240
internal_value=0 0.00288787 -0.00163109 -0.00146825 -0.000961089 -0.000199594 -0.000424185 -0.00510552 -0.00862983 0.0025907 0.00395249 -0.00063615 -0.00685088 -0.00462641
internal_weight=0 2510 4444 4413 4033 3407 3368 626 368 2480 1744 736 380 317
internal_count=6954 2510 4444 4413 4033 3407 3368 626 368 2480 1744 736 380 317
is_linear=0
shrinkage=0.05


Tree=59
num_leaves=15
num_cat=0
split_feature=0 0 4 2 6 5 7 3 3 4 4 5 5 3
split_gain=12.2786 5.79319 4.43506 7.00035 4.78648 4.11405 3.8807 3.73517 4.50569 4.42174 3.48791 3.76639 3.33809 3.19686
threshold=-1.0000000180025095e-35 0.5760015467225249 1.2123892782576233 1.0536001694289678 0.0099956222952889678 0.83860044691957381 0.1095346755611321 -0.83905315897732879 -0.86362115379567606 -0.12113679939376444 0.36069406367365314 -0.30977552235813427 -1.8533104448087105 0.18608248590841883
decision_type=2 2 2 2 2 2 2 2 2 2 2 2 2 2
left_child=5 2 4 -4 6 12 7 8 -2 -9 11 -11 -1 -12
right_child=1 -3 3 -5 -6 -7 -8 9 -10 10 13 -13 -14 -15
leaf_value=0.010013544400298627 -0.0018807227621533422 0.0075148672639592275 -0.016766127854223468 0.0015842922968880798 -0.00025306902619241263 -0.016272744646747755 0.0052788324697817229 -0.008997040601785888 -0.022027648625867993 0.02330751123495008 -0.0017155508075443367 0.0058572582922330101 -0.003201315134240964 0.0070013319754070845
leaf_weight=49 151 354 90 123 2431 59 984 77 34 38 307 166 1931 160
leaf_count=49 151 354 90 123 2431 59 984 77 34 38 307 166 1931 160
internal_value=0 0.00135324 0.000875007 -0.00616941 0.0012201 -0.00326198 0.00308826 0.000777951 -0.0055834 0.00235128 0.00365355 0.0091078 -0.00287428 0.00127096
internal_weight=0 4915 4561 213 4348 2039 1917 933 185 748 671 204 1980 467
internal_count=6954 4915 4561 213 4348 2039 1917 933 185 748 671 204 1980 467
is_linear=0
shrinkage=0.05


Tree=60
num_leaves=15
num_cat=0
split_feature=5 7 5 3 2 1 2 4 2 4 5 6 5 3
split_gain=11.1247 11.2867 4.18089 4.14501 4.00212 7.66587 3.77225 5.82026 4.7331 9.35721 7.83256 7.28251 6.76614 5.92239
threshold=1.0901378425753125 0.1095346755611321 -1.9425085752268634 2.3327269006513141 -0.84658691658524499 -0.12512999117723392 0.63025005429723335 0.65124826504279076 0.53758717814163337 0.24684697868154246 -1.605115538319567 -1.1936799541375385 -0.40072562613812163 -0.39202893412574052
decision_type=2 2 2 2 2 2 2 2 2 2 2 2 2 2
left_child=1 4 -3 -4 5 -1 7 8 9 11 -10 12 -6 -11
right_child=-2 2 3 -5 6 -7 -8 -9 10 13 -12 -13 -14 -15
leaf_value=0.0060188603570057288 -0.025967932642414805 0.011528461883814695 0.0017774433410433074 0.016743373074271577 0.022015914932126179 -0.011786759685542759 -0.0041173388051359639 0.0056603878608943153 0.0013914656173943988 0.0038519595678995497 0.029359152817050926 -0.001584256371884673 0.0019137087285764948 -0.014457449835555797
leaf_weight=82 41 120 2961 47 64 230 838 358 115 56 32 1680 121 209
leaf_count=82 41 120 2961 47 64 230 838 358 115 56 32 1680 121 209
internal_value=0 0.000154012 0.0023764 0.00201129 -0.00168261 -0.00710708 -0.0011953 -0.000266012 -0.00119779 -0.00179665 0.00747967 -0.000547439 0.00886799 -0.0105883
internal_weight=0 6913 3128 3008 3785 312 3473 2635 2277 2130 147 1865 185 265
internal_count=6954 6913 3128 3008 3785 312 3473 2635 2277 2130 147 1865 185 265
is_linear=0
shrinkage=0.05


Tree=61
num_leaves=15
num_cat=0
split_feature=0 0 6 2 3 4 5 1 4 4 15 9 5 5
split_gain=10.5948 5.08765 4.03872 6.36959 3.77848 3.71935 3.65864 4.75907 9.19561 3.81618 5.38528 3.08073 3.01382 2.97321
threshold=-1.0000000180025095e-35 0.5760015467225249 -1.1307649921509115 0.16112547835856403 -1.0505805632381489 1.1200694116487995 -1.0377817267602831 0.77525613651893344 1.2123892782576233 -1.2887952164245002 1.0000000180025095e-35 1.0000000180025095e-35 -0.46999307897989778 -1.3365802030485099
decision_type=2 2 2 2 2 2 2 2 2 2 2 2 2 2
left_child=5 2 3 4 -2 -1 11 9 -9 10 -8 13 -3 -4
right_child=1 12 6 -5 -6 -7 7 8 -10 -11 -12 -13 -14 -15
leaf_value=-0.0022372469065723116 -0.00027720912855685407 0.016407435813891716 0.00072581211272149517 -0.0018251345351247208 0.016211406733762004 -0.0087820186810417169 0.00073419004436182456 0.0047408220421155823 -0.02155763418413699 -0.0024292055062007361 0.020234677158421963 0.0052177591357459056 0.0047612598580063182 -0.016917824285725754
leaf_weight=1792 46 69 117 143 142 247 821 661 35 1941 37 588 285 30
leaf_count=1792 46 69 117 143 142 247 821 661 35 1941 37 588 285 30
internal_value=0 0.00125703 0.000808865 0.00612772 0.012177 -0.00303007 0.000392662 -0.000281679 0.00341834 -0.00120173 0.00157512 0.00359922 0.00703128 -0.00287493
internal_weight=0 4915 4561 331 188 2039 4230 3495 696 2799 858 735 354 147
internal_count=6954 4915 4561 331 188 2039 4230 3495 696 2799 858 735 354 147
is_linear=0
shrinkage=0.05


Tree=62
num_leaves=15
num_cat=0
split_feature=5 7 1 15 4 0 9 2 1 3 2 4 7 3
split_gain=9.69473 9.38515 3.85052 7.35359 5.52519 3.62423 5.17754 3.56593 6.87923 3.42858 3.09575 5.0499 4.59103 4.50082
threshold=1.0901378425753125 0.1095346755611321 -1.0904437826954538 1.0000000180025095e-35 -0.30102599454023932 -1.0000000180025095e-35 1.0000000180025095e-35 -0.84658691658524499 -0.12512999117723392 0.19303553547880056 0.63025005429723335 0.65124826504279076 -1.2251909744398815 1.1113278987957054
decision_type=2 2 2 2 2 2 2 2 2 2 2 2 2 2
left_child=1 7 4 5 -3 6 -4 8 9 -1 11 13 -12 -9
right_child=-2 2 3 -5 -6 -7 -8 10 -10 -11 12 -13 -14 -15
leaf_value=0.016259376401430929 -0.024241631859686318 0.014962899121455847 -0.024978564847861567 0.0081534293314404534 -0.0084200791668263258 0.0018175208832877533 0.0023972813517619401 -0.00037744197755144198 -0.011084425821292983 -0.0041946857430351283 -0.016926458584083644 0.0052911065700307867 -0.0026811559248728824 -0.0079637714024337822
leaf_weight=40 41 30 31 498 160 2370 39 2061 230 42 61 358 777 216
leaf_count=40 41 30 31 498 160 2370 39 2061 230 42 61 358 777 216
internal_value=0 0.000143774 0.00217032 0.00261644 -0.00472803 0.00148635 -0.00972631 -0.00153101 -0.00665135 0.00578291 -0.00107102 -0.000229171 -0.00371811 -0.00109709
internal_weight=0 6913 3128 2938 190 2440 70 3785 312 82 3473 2635 838 2277
internal_count=6954 6913 3128 2938 190 2440 70 3785 312 82 3473 2635 838 2277
is_linear=0
shrinkage=0.05


Tree=63
num_leaves=15
num_cat=0
split_feature=0 0 6 2 5 2 5 1 4 1 1 3 4 19
split_gain=8.90834 4.44316 3.66487 5.74266 3.6339 3.45871 3.02356 3.28662 7.92797 3.27758 3.05315 4.6716 4.50917 3.66556
threshold=-1.0000000180025095e-35 0.5760015467225249 -1.1307649921509115 0.16112547835856403 0.83860044691957381 0.010143258242322551 -1.6831458150968774 0.77525613651893344 1.2123892782576233 -0.15727282165737647 -1.0904437826954538 2.3327269006513141 -0.29443831367577811 1.0000000180025095e-35
decision_type=2 2 2 2 2 2 2 2 2 2 2 2 2 2
left_child=4 2 3 5 -1 -2 -4 9 -9 10 12 13 -8 -12
right_child=1 -3 6 -5 -6 -7 7 8 -10 -11 11 -13 -14 -15
leaf_value=-0.002414091141260055 0.0022151775692159743 0.0065487836724614839 0.0063067234748003936 -0.0017507885121968347 -0.015006425081736455 0.016474427103170958 0.007857444951285238 0.0043909358495222749 -0.020027674371376633 -0.0024411455739722253 0.0023543854381882106 0.019032096110382365 -0.0059811109567961375 -0.0043978459251314888
leaf_weight=1980 65 354 202 143 59 123 73 661 35 1414 1264 38 304 239
leaf_count=1980 65 354 202 143 59 123 73 661 35 1414 1264 38 304 239
internal_value=0 0.00115265 0.000733833 0.00580054 -0.00277846 0.0115444 0.00033736 3.80024e-05 0.00316299 -0.000614756 0.000731707 0.00171842 -0.0033015 0.00128068
internal_weight=0 4915 4561 331 2039 188 4230 4028 696 3332 1918 1541 377 1503
internal_count=6954 4915 4561 331 2039 188 4230 4028 696 3332 1918 1541 377 1503
is_linear=0
shrinkage=0.05


Tree=64
num_leaves=15
num_cat=0
split_feature=5 7 1 15 4 2 2 1 0 9 3 6 6 5
split_gain=8.37484 7.74649 3.28317 5.72794 4.40873 3.30251 3.14809 6.15489 3.13957 4.65086 3.12185 3.01017 4.18149 9.93501
threshold=1.0901378425753125 0.1095346755611321 -1.1534559672605105 1.0000000180025095e-35 -0.29805815307699429 0.27874134579203763 -0.84658691658524499 -0.12512999117723392 -1.0000000180025095e-35 1.0000000180025095e-35 0.19303553547880056 -3.1805128858049394 -1.1936799541375385 -0.40072562613812163
decision_type=2 2 2 2 2 2 2 2 2 2 2 2 2 2
left_child=1 6 4 8 -3 -5 7 10 9 -4 -1 -8 13 -13
right_child=-2 2 3 5 -6 -7 11 -9 -10 -11 -12 12 -14 -15
leaf_value=0.015559348408714868 -0.022531094661027921 0.012447990725437801 -0.023548001471546391 0.015394387753414257 -0.0087425093107837398 0.0052032727863533966 -0.013803483802411294 -0.010392140094595759 0.0016516988298502665 0.0023981218106853656 -0.0039583257593524953 0.022063860678507342 -0.0012883928075994656 -0.00037936266965399952
leaf_weight=40 41 30 31 98 135 421 45 230 2374 39 42 66 3167 195
leaf_count=40 41 30 31 98 135 421 45 230 2374 39 42 66 3167 195
internal_value=0 0.000133629 0.00197478 0.00235704 -0.00488969 0.00712761 -0.00138793 -0.00619894 0.00134397 -0.0090923 0.00556249 -0.000955732 -0.000787077 0.00529594
internal_weight=0 6913 3128 2963 165 519 3785 312 2444 70 82 3473 3428 261
internal_count=6954 6913 3128 2963 165 519 3785 312 2444 70 82 3473 3428 261
is_linear=0
shrinkage=0.05


Tree=65
num_leaves=15
num_cat=0
split_feature=0 0 6 2 5 1 2 3 5 2 1 6 1 4
