tree
version=v3
num_class=1
num_tree_per_iteration=1
label_index=0
max_feature_idx=21
objective=regression
feature_names=Column_0 Column_1 Column_2 Column_3 Column_4 Column_5 Column_6 Column_7 Column_8 Column_9 Column_10 Column_11 Column_12 Column_13 Column_14 Column_15 Column_16 Column_17 Column_18 Column_19 Column_20 Column_21
feature_infos=[-0.58496250072115641:1.5849625007211563] [-25.248912418052441:2.6722375017717686] [-3.4696679248015214:25.275676834914062] [-1.4627090229224107:10.195982237753583] [-3.9074842479063827:8.228870322266177] [-3.3270617833190528:5.8961276565798384] [-3.3030650159285595:5.8365755413379112] [-2.326347865140169:2.5902984580730344] [0:1] [0:1] [0:1] none [0:1] [0:1] [0:1] [0:1] [0:1] [0:1] none [0:1] [0:1] [0:1]
tree_sizes=5713 5710 5747 5681 5763 5748 5769 5753 5819 5747 5764 5842 5832 5824 5779 5767 5776 5816 5780 5814 5877 5785 5903 5872 5860 5877 5859 5919 5938 5898 5917 5854 5935 5914 5856 5807 5912 5891 5887 6005 5846 6043 5933 6070 5938 5989 5980 5972 6087 6049 6009 5948 6092 6045 5995 6080 6047 6140 6058 6031 5955 6088 6042 6078 6149 6126 6101 6053 6061 6193 6073 5996 6084 6020 6083 6121 6060 6143 6112 6105 6060 6132 6190 6062 6167 6130 6210 6103 6284 6176 6270 6207 6060 6099 6249 6105 6162 6128 6169 6120 6460 6196 6103 6153 6161 6230 6138 6168 6175 6233 6157 6193 6018 6149 6208 6234 6163 6188 6322 6157 6266 6212 6187 6311 6174 6128 6242 6321 6262 6211 6141 6217 6299 6436 6330 6394 6098 6314 6313 6185 6200 6169 6373 6248 6385 6245 6140 6215 6240 6292 6242 6341 6188 6266 6324 6397 6200 6291 6344 6353 6388 6203 6333 6265 6312 6292 6227 6237 6325 6279 6272 6367 6242 6338 6411 6384 6137 6217 6395 6399 6266 6266 6362 6281 6345 6426 6310 6438 6230 6495 6344 6431 6387 6154 6459 6374 6343 6310 6318 6462 6358 6315 6252 6282 6348 6317 6151 6361 6283 6328 6239 6368 6319 6420 6303 6340 6344 6275 6347 6299 6344 6277 6423 6149 6158 6422 6388 6354 6345 6436 6330 6330 6307 6345 6345 6368 6511 6307 6311 6395 6330 6388 6357 6225 6139 6303 6333 6417 6374 6335 6393 6448 6401 6398 6285 6360 6247 6345 6444 6463 6237 6307 6214 6377 6436 6407 6346 6265 6249 6199 6303 6505 6350 6240 6293 6320 6361 6396 6444 6419 6418 6326 6421 6377 6254 6479 6340 6435 6301 6487 6403 6392 6448 6316 6472 6345 6254 6429 6357 6483 6460 6369 6436 6335 6455 6322 6236

Tree=0
num_leaves=63
num_cat=0
split_feature=0 0 5 5 4 0 6 1 4 6 8 5 5 4 2 6 6 1 3 5 5 6 2 1 0 4 2 1 4 1 4 2 2 1 8 2 4 1 5 1 4 6 6 0 3 4 2 5 19 8 5 19 3 9 6 3 2 6 4 5 1 2
split_gain=2742.98 639.545 353.732 212.447 149.954 100.523 97.9921 74.7358 65.3297 45.4446 55.0902 44.6143 40.9163 31.6947 25.8064 24.5538 21.6276 20.9523 16.5553 15.9831 15.3962 15.1068 14.9853 14.544 13.4779 13.4077 13.6134 12.3303 11.8874 12.0472 11.7935 12.9766 11.6685 11.6467 11.4924 10.5883 9.3543 9.12145 9.05373 9.69434 8.37659 8.21979 8.81934 7.27647 7.20305 7.18295 13.5877 6.72748 6.66708 8.13073 7.79967 6.60686 8.56416 6.56965 6.59354 6.25639 6.17351 6.17137 6.0671 5.817 5.81508 5.79931
threshold=1.0000000180025095e-35 -1.0000000180025095e-35 -1.0273677207634868 -1.1062330145899639 0.99885878345062362 0.5760015467225249 0.14228140081213492 0.22898181075311336 -1.2339582555872639 0.29048440371297607 1.0000000180025095e-35 -1.8774169886170027 0.87123539760809454 0.95040304671139897 -0.85456956231412085 -0.0081535142315089879 0.11856101537229909 -0.91347978295143262 1.4482761213570121 -0.40072562613812163 -0.84732774968556523 -3.1805128858049394 0.010143258242322551 -0.58748630535743329 0.5760015467225249 -1.2017172525195174 -0.82186307113960744 -0.58748630535743329 -0.7107132556112884 -0.69180043788723744 1.0184653024565662 0.12549218712192875 0.093423614502226707 -0.71097562567841799 1.0000000180025095e-35 -0.20026183452966842 1.2630630485062129 -1.1149152231995276 -0.06793455618101947 -0.65746521313363504 -0.041781422419836678 -0.90626018346030579 0.045692803738740906 0.5760015467225249 -0.72082177147670601 -0.16799116150298199 0.55048022088036352 -1.794405392446105 1.0000000180025095e-35 1.0000000180025095e-35 -0.39679630209784772 1.0000000180025095e-35 0.13433439450910878 1.0000000180025095e-35 0.090009035862094994 -0.35815144128715454 0.38836844278959104 0.39835459828406955 -0.95792965989646695 -1.7297348065402474 -0.60701231540022837 -0.52065681198768166
decision_type=2 2 2 2 2 2 2 2 2 2 2 2 2 2 2 2 2 2 2 2 2 2 2 2 2 2 2 2 2 2 2 2 2 2 2 2 2 2 2 2 2 2 2 2 2 2 2 2 2 2 2 2 2 2 2 2 2 2 2 2 2 2
left_child=1 4 15 17 6 9 11 8 34 13 55 27 30 22 -10 43 -7 -3 38 21 37 -13 41 -23 45 35 58 -1 29 -12 31 53 -22 -19 -5 60 61 -16 39 -6 -24 44 -43 59 -4 -17 56 -35 49 50 -34 -42 -53 -9 -55 -11 -47 -28 -27 -2 -8 -14
right_child=2 3 5 7 18 16 25 12 14 10 28 19 36 -15 20 24 -18 33 -20 -21 32 23 40 -25 -26 26 57 -29 -30 -31 -32 -33 48 47 -36 -37 -38 -39 -40 -41 51 42 -44 -45 -46 46 -48 -49 -50 -51 -52 52 -54 54 -56 -57 -58 -59 -60 -61 -62 -63
leaf_value=0.0036532403099807558 0.097782906645700413 0.015534833777414908 -0.0084118708160664142 -0.01509944970174319 -0.037404513761633791 0.077435413751480955 -0.07634610977839465 -0.0070481444553192841 -0.049128327840611767 -0.020810244804687791 0.061870459917428955 -0.065341146630778071 -0.04707781791793058 0.019350082436283934 -0.017647526300020509 0.089308456620895676 0.049833187080480172 0.062870331944812993 -0.11582151297651271 -0.034670606739898593 -0.0066392996962623676 -0.024876616715967172 0.084328551167182644 0.0010962188784792272 0.10358094146244975 -0.068788966289229675 -0.047765038861349862 0.061791263345810282 0.0045677123446124356 0.028803695096926589 -0.01740817925559917 0.021776966697611002 -0.022006618071052992 0.05276817781344819 0.0079199807355762441 -0.0015186042577194274 -0.082765640809386282 0.027051828768640412 -0.056901085176161235 -0.07528871356537209 0.055608102080540643 0.044952012155258292 0.031756714956891523 0.11702557946138831 0.031258965073245985 0.052811378752678759 0.078211502526721113 0.028030947731845737 -0.040314872571603898 -0.014359915418378767 -0.038325565271656453 0.047134288808177882 -0.0054953184147443195 0.0059882039564014139 -0.0079530166144062553 0.0035504718423182762 0.017932365937376293 -0.06134632601799158 -0.10101723373150273 0.080197323324726053 -0.042132538450027616 -0.014470955853498998
leaf_weight=38 129 167 17 81 18 110 13.999999999999998 231 136 30 29 18 29.999999999999996 213 25 23 200 42 19 742 61 206 20 73 25 40 152 11.999999999999998 48 549 87 75 135 35 164 14.999999999999998 10.999999999999998 21 126 273 122 288 226 32 35 50 51 128 116 100 160 26 10.999999999999998 409 107 217 17 186 23 74 110 25.000000000000004
leaf_count=38 129 167 17 81 18 110 14 231 136 30 29 18 30 213 25 23 200 42 19 742 61 206 20 73 25 40 152 12 48 549 87 75 135 35 164 15 11 21 126 273 122 288 226 32 35 50 51 128 116 100 160 26 11 409 107 217 17 186 23 74 110 25
internal_value=-1.16832e-09 -0.0238405 0.0413691 -0.00597835 -0.0441332 0.0332971 -0.0371626 -0.0125101 -0.0221214 0.0288392 0.0205875 -0.0285271 -0.00266224 0.0363587 -0.0294099 0.0844669 0.0596275 0.028682 -0.0701772 -0.0307472 -0.0250705 -0.0209451 0.0412216 -0.0180809 0.0697459 -0.0545775 -0.0592161 0.0176064 0.0284772 0.0304628 9.77362e-05 0.00195055 -0.0273086 0.0393922 0.000309475 -0.0411957 -0.0406747 0.0027587 -0.0680975 -0.0729454 0.0538313 0.0372337 0.0391502 0.0948656 0.0182897 0.0637468 0.0587645 0.0333426 -0.0297759 -0.026681 -0.0308576 0.0499952 0.0314876 -4.00518e-05 0.00309729 0.00059168 0.0439615 -0.0552388 -0.0805548 0.0913724 -0.0459954 -0.0322565
internal_weight=0 4411 2542 2346 2065 2141 1629 1974 999 1831 873 1089 975 958 754 401 310 372 436 1039 618 297 745 279 166 540 401 50 626 578 909 822 572 205 245 139 66 46 417 291 179 566 514 235 52 141 118 163 511 395 295 159 37 747 516 247 67 338 63 203 124 55
internal_count=6953 4411 2542 2346 2065 2141 1629 1974 999 1831 873 1089 975 958 754 401 310 372 436 1039 618 297 745 279 166 540 401 50 626 578 909 822 572 205 245 139 66 46 417 291 179 566 514 235 52 141 118 163 511 395 295 159 37 747 516 247 67 338 63 203 124 55
is_linear=0
shrinkage=1


Tree=1
num_leaves=63
num_cat=0
split_feature=7 7 7 5 7 7 6 4 7 6 7 6 6 4 7 4 6 6 2 5 6 7 0 2 0 1 5 0 5 5 7 2 0 4 1 19 7 6 4 1 4 6 6 7 19 1 2 3 5 0 7 0 0 6 5 0 3 0 7 6 9 0
split_gain=2953.84 643.236 308.263 155.141 87.4616 77.7247 64.2814 60.1281 52.5577 41.2673 39.9318 32.4924 30.4233 27.2601 25.3256 24.8822 24.8271 22.2701 18.3455 17.7549 14.7036 13.9883 13.7714 13.565 12.7203 14.9861 11.7747 13.2375 11.6971 11.5482 11.1462 9.90771 9.18509 7.69463 7.54131 7.45276 6.98459 8.69989 6.72969 6.45652 6.31115 6.14186 5.86223 5.76299 7.11206 5.43394 5.42752 7.43893 5.35176 5.34583 5.18853 4.88674 4.85091 4.7236 4.70754 5.01068 4.69216 4.37736 4.10806 4.08095 4.03724 3.94742
threshold=0.22170759012249208 -0.27452386851427152 0.75273368542341679 -0.84732774968556523 -0.0054292663829023898 -0.65493007911374879 0.15351297627125546 0.83969155807608375 0.4124709550338303 0.14228140081213492 1.1241222379631297 0.45019464834374928 0.43606943047536956 0.88446200587627144 -1.0162991199300253 1.0638462309308241 0.38446134288474315 0.48630517057235606 0.74557943161316909 -0.40727867696775782 0.20844448215949157 0.78952007160745985 1.0000000180025095e-35 -0.15353359132163075 -1.0000000180025095e-35 0.26196110307233494 -0.41792342449373243 -1.0000000180025095e-35 -2.5682760655556645 -0.32786347185477488 0.64492414111357721 -0.46136396666535268 -1.0000000180025095e-35 -0.47924627549248822 -1.0581897794921298 1.0000000180025095e-35 0.91626567165800843 -1.1324231933593787 -1.2017172525195174 -0.7780811994925495 0.42071857850816663 0.4239845671902992 0.50521340300266482 -0.89952640684440288 1.0000000180025095e-35 0.25528569133037865 0.31445902627010064 0.49417011703176233 -0.2504876580493367 1.0000000180025095e-35 0.091316724400822544 -1.0000000180025095e-35 -1.0000000180025095e-35 -0.65613278549317555 -1.1714793693950036 0.5760015467225249 1.1856183634339785 1.0000000180025095e-35 -0.54433467347667941 0.8350465157833028 1.0000000180025095e-35 0.5760015467225249
decision_type=2 2 2 2 2 2 2 2 2 2 2 2 2 2 2 2 2 2 2 2 2 2 2 2 2 2 2 2 2 2 2 2 2 2 2 2 2 2 2 2 2 2 2 2 2 2 2 2 2 2 2 2 2 2 2 2 2 2 2 2 2 2
left_child=1 5 8 21 16 7 13 9 20 29 17 19 15 23 -9 22 18 36 24 34 26 -4 28 49 25 -3 39 -28 -7 40 45 -30 41 -13 -10 48 37 -5 -14 -2 -1 -8 -12 44 -11 -21 47 -18 58 -6 -34 -17 56 -15 -23 -56 -16 60 -33 -22 -47 -19
right_child=2 4 3 10 6 12 32 14 11 43 42 33 38 53 52 51 46 61 -20 30 59 54 -24 -25 -26 -27 27 -29 31 -31 -32 35 50 -35 -36 -37 -38 -39 -40 -41 -42 -43 -44 -45 -46 57 -48 -49 -50 -51 -52 -53 -54 -55 55 -57 -58 -59 -60 -61 -62 -63
leaf_value=-0.021469579536545401 0.025332027000888269 0.0037539062735352981 0.07617569535039366 0.069390765698843226 -0.00026090245166337714 0.018118384337195984 -0.012374720035586506 -0.091785593758352477 0.017609276937750672 -0.092113183355993708 0.081838335699978337 0.025155257851708097 -0.035192796222865579 -0.022083580691367389 -0.063468383837491274 -0.058025019539472394 -0.045231935245101343 0.030574999659721932 -0.033254076222775979 0.019168229407320422 0.0037208501937695676 0.099844530060247405 0.030260472744703296 0.018327631890170802 -0.0055134398777839507 -0.028077329259065 -0.026168999085692986 0.017623773354422698 -0.045926962546016803 -0.044874160135148375 0.053239058353938162 -0.024768945015966895 -0.018004113219457826 0.0041715388357335213 0.057208316014148303 -0.037538422308292699 0.066338686163847652 0.044836646161171043 -0.055540163691417413 0.055097970745429915 -0.043252129787984102 -0.051747671192368644 0.058581937775015837 -0.059883662835241526 -0.056028803793544128 -0.00084352798460583616 -0.06055894503917765 -0.024608008348234539 -0.027840728882107549 0.017219219350239689 -0.0063942125635460395 -0.041754185172226448 -0.03818199704918597 -0.0036507924516244157 0.068323340027460031 0.10063265065352123 -0.09868303537368775 0.038416162439518509 -0.006990317838040716 -0.027650606801564045 0.030160456082029715 0.042088998182936835
leaf_weight=120 49 48 160 43 188 12.999999999999998 15.999999999999998 122 12.999999999999998 36 84 403 50 50 175 78 64 226 107 75 180 163 9.9999999999999982 468 395 161 19 188 83 226 68 64 190 49 160 139 72 224 217 29 46 26 40 151 22 13.999999999999998 17 138 308 57 195 113 18 114 28 21 9.9999999999999982 180 66 10.999999999999998 42 111
leaf_count=120 49 48 160 43 188 13 16 122 13 36 84 403 50 50 175 78 64 226 107 75 180 163 10 468 395 161 19 188 83 226 68 64 190 49 160 139 72 224 217 29 46 26 40 151 22 14 17 138 308 57 195 113 18 114 28 21 10 180 66 11 42 111
internal_value=0 -0.0255905 0.0415026 0.0606589 -0.00699113 -0.0456927 0.00136374 -0.0564553 0.0263329 -0.0470859 0.0482539 0.0328207 -0.0369581 0.00910993 -0.0737813 -0.0324455 -0.0187059 0.0434696 -0.014172 0.0409601 0.0126487 0.0873363 -0.0279841 0.0133377 -0.0107915 -0.0207668 0.0198427 0.0136041 -0.0288496 -0.0375192 0.0349016 -0.0297747 -0.0145459 0.0228805 0.0542327 -0.0274512 0.052518 0.0487911 -0.0517298 0.0363989 -0.0275057 -0.0367485 0.0743363 -0.0650294 -0.078426 0.0308921 -0.0334258 -0.0311423 -0.02425 0.0038059 -0.0121238 -0.0483988 -0.062961 -0.00927054 0.0957594 0.0821702 -0.0653719 0.034618 -0.0157429 0.00191412 0.0224095 0.0343674
internal_weight=0 4301 2652 1172 2234 2067 1304 926 1480 601 800 1004 1141 877 325 874 930 676 711 552 476 372 683 713 604 209 285 207 673 392 379 660 427 452 173 577 339 267 267 78 166 42 124 209 58 311 219 202 438 245 385 191 203 164 212 49 185 236 130 191 56 337
internal_count=6953 4301 2652 1172 2234 2067 1304 926 1480 601 800 1004 1141 877 325 874 930 676 711 552 476 372 683 713 604 209 285 207 673 392 379 660 427 452 173 577 339 267 267 78 166 42 124 209 58 311 219 202 438 245 385 191 203 164 212 49 185 236 130 191 56 337
is_linear=0
shrinkage=0.05


Tree=2
num_leaves=63
num_cat=0
split_feature=7 7 7 5 7 4 6 6 7 7 7 6 4 6 6 7 2 5 7 7 6 7 2 5 0 0 1 5 7 2 7 4 0 1 4 4 1 7 6 8 6 2 6 1 5 1 6 0 2 0 2 2 0 5 6 7 0 5 1 6 1 2
split_gain=2665.84 580.521 278.208 140.015 78.9341 70.5551 68.6163 58.0392 53.2332 47.4333 36.0385 29.3244 24.2688 22.4065 20.0988 17.0007 16.5568 16.0238 14.7704 14.644 13.3331 12.6244 11.8905 11.8095 13.2075 11.4801 13.5249 10.6728 10.0594 9.4982 8.4053 8.204 8.13729 7.30494 6.9444 6.84907 6.80603 6.30359 7.85165 6.26888 5.99055 5.67794 5.54303 5.49919 5.47313 5.45524 5.29066 4.97674 4.89834 4.58248 4.50303 4.4958 4.4922 4.46859 4.56044 4.44442 4.39337 6.28524 4.3599 4.26305 4.23025 3.912
threshold=0.22170759012249208 -0.27452386851427152 0.75273368542341679 -0.84732774968556523 -0.0054292663829023898 0.95040304671139897 0.18588966443027416 0.16601031791950155 -1.0162991199300253 0.4124709550338303 1.1241222379631297 0.45019464834374928 0.88446200587627144 0.38446134288474315 0.48630517057235606 -0.89952640684440288 0.74557943161316909 -0.40727867696775782 -0.54433467347667941 -0.63757762310625421 0.29048440371297607 0.78952007160745985 -0.15353359132163075 -0.41792342449373243 -1.0000000180025095e-35 -1.0000000180025095e-35 0.26196110307233494 -0.9171051478705986 0.64492414111357721 0.0077238301329067864 -0.53444405557844576 0.42071857850816663 -1.0000000180025095e-35 0.20833840993145911 -0.47924627549248822 -1.2947899208117544 -1.0581897794921298 0.91626567165800843 -1.1324231933593787 1.0000000180025095e-35 -0.2755585994415381 0.15327949531927712 0.4239845671902992 -0.18020764487008464 0.14101431601484585 1.2647044018841431 0.50521340300266482 1.0000000180025095e-35 0.31445902627010064 -1.0000000180025095e-35 -0.69111579900955344 -0.83534302685556827 1.0000000180025095e-35 -0.40072562613812163 0.096073157984093202 0.091316724400822544 0.5760015467225249 -1.1714793693950036 -0.45464007692781855 -0.65613278549317555 0.39547363987279999 0.35042277842565944
decision_type=2 2 2 2 2 2 2 2 2 2 2 2 2 2 2 2 2 2 2 2 2 2 2 2 2 2 2 2 2 2 2 2 2 2 2 2 2 2 2 2 2 2 2 2 2 2 2 2 2 2 2 2 2 2 2 2 2 2 2 2 2 2
left_child=1 5 9 21 13 6 18 12 61 20 14 17 22 16 37 43 25 36 29 49 23 -4 52 40 44 26 -3 -20 47 -1 -17 53 42 -29 -13 58 -11 38 -5 51 -2 -35 -9 -8 -25 -21 -12 -19 50 -10 -15 -22 -6 54 -31 -34 57 -23 -32 -14 -49 -7
right_child=2 4 3 10 7 8 15 32 19 11 46 34 59 48 -16 30 -18 28 27 45 39 56 -24 24 -26 -27 -28 33 -30 31 35 -33 55 41 -36 -37 -38 -39 -40 -41 -42 -43 -44 -45 -46 -47 -48 60 -50 -51 -52 -53 -54 -55 -56 -57 -58 -59 -60 -61 -62 -63
leaf_value=-0.041104091197525811 0.061712656728923322 0.0035662110802756313 0.072366909417323766 0.065921227148799014 4.9262212642463693e-05 -0.11855258584022521 -0.063914516926161014 -0.011755983997136355 -0.061434506127381161 0.016728813143876885 0.077746418047518973 0.023897495321356335 -0.020979401800781491 -0.039616392299325932 0.032649072713995191 -0.053694401723406615 -0.031591372427551799 0.017823759459942166 -0.0011438538561816568 -0.038956531756353802 -0.041541366348974408 0.091215434198578194 0.017194994320879949 -0.052290284074842909 0.016193785844843475 -0.005237767644207394 -0.026673462087221978 -0.042530615656983621 0.050577106934917328 -0.013181951149282133 0.00073958186432719229 -0.040946751438120071 -0.017210565423292499 -0.02367308916291222 0.0039629617330561185 -0.045010158199331039 0.054347900329157706 0.063021751808830434 0.042594814171648718 0.0088825119494953583 0.027755745059635115 0.0080681762223442401 -0.049160288482044755 -0.094872427445191601 -0.0011808301914821972 -0.071241817144410954 0.055652840669499715 0.02344118565088138 -0.057530997622319884 -0.040895112778150271 -0.024029471719494235 -0.0053722664858901602 0.015918054410802393 -0.0324663801192814 -0.033903728627732825 -0.0063519299216812279 0.10191710372455419 0.064907175063022557 -0.035759606253769664 -0.0034682527017011718 0.037537596693391323 -0.085824260030473998
leaf_weight=286 15.999999999999998 48 160 43 193 9.9999999999999982 32 15.999999999999998 219 12.999999999999998 84 403 50 72 337 315 107 72 54 200 9.9999999999999982 120 470 10.000000000000002 197 395 161 51 68 110 14.999999999999998 96 186 232 49 115 160 72 224 102 69 14.999999999999998 26 26 10.999999999999998 13.999999999999998 40 80 17 31 130 61 58 88 35 191 64 28 18 114 159 105
leaf_count=286 16 48 160 43 193 10 32 16 219 13 84 403 50 72 337 315 107 72 54 200 10 120 470 10 197 395 161 51 68 110 15 96 186 232 49 115 160 72 224 102 69 15 26 26 11 14 40 80 17 31 130 61 58 88 35 191 64 28 18 114 159 105
internal_value=0 -0.024311 0.0394275 0.057626 -0.00664158 -0.043408 -0.0376457 0.00129556 -0.058217 0.0250163 0.0458412 0.0311796 0.00855373 -0.0177706 0.0412961 -0.0522734 -0.0134634 0.0389121 -0.0297645 -0.0506694 0.0120162 0.0829695 0.0125026 0.0183394 0.0121756 -0.0102519 -0.0197285 -0.0215965 0.0331565 -0.0344396 -0.0490766 -0.0286461 -0.014035 -0.0253027 0.0217365 -0.0392483 0.051521 0.0498921 0.0463515 0.000941586 0.0341476 -0.0217455 -0.034911 -0.0777922 -0.0255187 -0.0410687 0.0706195 0.0293475 -0.0317545 -0.0588876 -0.0295852 -0.0104665 0.00371615 -0.0235781 -0.0181838 -0.0117092 0.0909715 0.0862382 -0.0191691 -0.00880702 0.0328191 -0.0886702
internal_weight=0 4301 2652 1172 2234 2067 1488 1304 579 1480 800 1004 885 930 676 521 711 552 967 464 476 372 721 303 218 604 209 352 379 615 463 329 419 298 452 148 173 339 267 173 85 247 42 58 21 214 124 311 219 250 202 71 251 233 145 377 212 148 33 164 239 115
internal_count=6953 4301 2652 1172 2234 2067 1488 1304 579 1480 800 1004 885 930 676 521 711 552 967 464 476 372 721 303 218 604 209 352 379 615 463 329 419 298 452 148 173 339 267 173 85 247 42 58 21 214 124 311 219 250 202 71 251 233 145 377 212 148 33 164 239 115
is_linear=0
shrinkage=0.05


Tree=3
num_leaves=63
num_cat=0
split_feature=7 7 7 5 7 7 6 4 7 6 7 6 6 4 7 4 6 6 2 5 0 6 7 2 0 1 2 7 5 5 2 6 7 19 4 4 7 6 4 5 0 1 1 0 19 6 5 1 1 2 3 0 0 8 2 0 3 0 5 6 0 0
split_gain=2405.92 523.92 251.083 126.364 71.2381 64.4498 52.4178 48.5078 42.8086 34.1621 32.5247 26.4653 25.0555 22.2143 21.2627 20.9242 20.2218 18.1391 14.9425 14.8019 12.1487 12.0756 11.3935 11.0776 10.3608 12.2062 10.2046 9.97637 9.97142 9.30322 8.53431 7.54232 6.88785 6.29274 6.26732 5.80903 5.68899 7.08612 5.54057 5.15887 6.691 5.21519 4.9811 6.89526 4.85367 4.77482 4.59343 4.62897 4.5303 4.42075 6.26704 4.37459 4.1682 4.12514 4.90231 4.078 4.20001 3.96501 5.67243 3.8474 3.77768 3.73773
threshold=0.22170759012249208 -0.27452386851427152 0.75273368542341679 -0.84732774968556523 -0.0054292663829023898 -0.65493007911374879 0.15351297627125546 0.88446200587627144 0.4124709550338303 0.14228140081213492 1.1241222379631297 0.45019464834374928 0.43606943047536956 0.88446200587627144 -1.0162991199300253 1.0638462309308241 0.38446134288474315 0.48630517057235606 0.74557943161316909 -1.4649737009040285 1.0000000180025095e-35 0.20844448215949157 0.78952007160745985 -0.15353359132163075 -1.0000000180025095e-35 0.26196110307233494 0.76395206869994847 0.64492414111357721 -2.5682760655556645 -0.32786347185477488 -0.46136396666535268 0.80054879195841844 0.091316724400822544 1.0000000180025095e-35 -0.47924627549248822 -1.2017172525195174 0.91626567165800843 -1.1324231933593787 0.31688630448655669 -0.41792342449373243 1.0000000180025095e-35 -0.7780811994925495 -0.18020764487008464 -1.0000000180025095e-35 1.0000000180025095e-35 0.50521340300266482 -0.40727867696775782 0.22109779859210418 -0.65746521313363504 0.31445902627010064 0.49417011703176233 1.0000000180025095e-35 -1.0000000180025095e-35 1.0000000180025095e-35 -0.83534302685556827 -1.0000000180025095e-35 1.1856183634339785 0.5760015467225249 -1.1714793693950036 -0.65613278549317555 1.0000000180025095e-35 -1.0000000180025095e-35
decision_type=2 2 2 2 2 2 2 2 2 2 2 2 2 2 2 2 2 2 2 2 2 2 2 2 2 2 2 2 2 2 2 2 2 2 2 2 2 2 2 2 2 2 2 2 2 2 2 2 2 2 2 2 2 2 2 2 2 2 2 2 2 2
left_child=1 5 8 22 16 7 13 9 21 29 17 19 15 23 -9 20 18 36 24 -10 28 26 -4 51 25 -3 39 46 -7 38 -30 32 -8 48 -13 -14 37 -5 -1 41 -41 -2 -11 -44 -28 -12 -21 -48 -32 50 -18 -6 -17 54 -23 56 -16 58 -24 -15 -49 -25
right_child=2 4 3 10 6 12 31 14 11 42 45 34 35 59 55 52 49 -19 -20 27 -22 53 57 61 -26 -27 44 -29 30 -31 33 -33 -34 -35 -36 -37 -38 -39 -40 40 -42 -43 43 -45 -46 -47 47 60 -50 -51 -52 -53 -54 -55 -56 -57 -58 -59 -60 -61 -62 -63
leaf_value=-0.017450803045981698 0.023163195601955525 0.0033879005646061467 0.068748565139248971 0.062625167085680861 -0.00025032033309082879 0.017454859872276969 -0.017514152420432926 -0.083693994101831481 0.060634214601526827 -0.052912137700089568 0.073859098376262755 0.022702620835817668 -0.031324995458126073 -0.019930431786924604 -0.057344749774567265 -0.052708570028726878 -0.041038227484386881 0.031016618581986174 -0.030011803757782299 0.040545232630064411 0.029608143866062166 -0.039464297071099282 0.086654661819338799 0.0036317512730602176 -0.0049758792991301971 -0.02533978971693179 0.0074167871723572407 0.049288062022978002 -0.041755520615232994 -0.040625838547324142 -0.0085197183989772687 -0.036886530515227105 -0.0043052868055986531 -0.033877054620668187 0.0037648137304836849 -0.050229385464747534 0.059870664418364562 0.040465073450468486 -0.035946377094133175 0.0044339566196625428 0.026038154754055184 0.050018542337006533 -0.076460325339483839 -0.041370494167009997 -0.026293377594889273 0.052870198073796927 0.016239174975276882 0.020060057914421215 -0.023633410553405124 -0.05465444836984662 -0.022108365373645467 0.015562355647010633 -0.037681500376325797 0.008197966763732311 -0.0021655579327253273 -0.034228141026364435 -0.090677161514759075 0.096821249462664127 0.0616618162114589 -0.003294840193222882 0.03459006056592271 0.018096925235664221
leaf_weight=98 48 48 160 43 188 12.999999999999998 209 118 59 132 84 403 50 50 172 78 64 337 107 93 9.9999999999999982 9.9999999999999982 120 50 395 161 45 89 83 228 57 31 187 139 49 217 72 224 69 60 89 29 63 18 13.999999999999998 40 67 59 381 17 138 57 113 107 74 18 9.9999999999999982 64 28 114 185 418
leaf_count=98 48 48 160 43 188 13 209 118 59 132 84 403 50 50 172 78 64 337 107 93 10 10 120 50 395 161 45 89 83 228 57 31 187 139 49 217 72 224 69 60 89 29 63 18 14 40 67 59 381 17 138 57 113 107 74 18 10 64 28 114 185 418
internal_value=0 -0.0230955 0.0374561 0.0547447 -0.0063095 -0.0412376 0.00123078 -0.0510381 0.0237654 -0.0427619 0.0435491 0.0296206 -0.0332839 0.00822573 -0.0668618 -0.0291886 -0.0168821 0.0392313 -0.0127902 0.0369665 -0.0250975 0.0114154 0.078821 0.0120422 -0.00973934 -0.018742 0.0179349 0.034134 -0.0259103 -0.0340587 -0.0267645 -0.0131359 -0.0112766 -0.0246081 0.0206496 -0.0466892 0.0473975 0.0440339 -0.0250927 0.022769 0.0173385 0.0332775 -0.0589017 -0.0686626 -0.000582235 0.0670885 0.0307956 0.0278802 -0.0216666 -0.0301668 -0.0281059 0.00342855 -0.0438182 0.00168737 -0.00660588 -0.0569309 -0.0591762 0.0864229 0.0819263 -0.00836667 0.0310767 0.0165515
internal_weight=0 4301 2652 1172 2234 2067 1304 926 1480 608 800 1004 1141 877 318 874 930 676 711 552 683 476 372 713 604 209 285 493 673 395 660 427 396 577 452 267 339 267 167 226 149 77 213 81 59 124 404 311 438 219 202 245 191 191 84 200 182 212 148 164 244 468
internal_count=6953 4301 2652 1172 2234 2067 1304 926 1480 608 800 1004 1141 877 318 874 930 676 711 552 683 476 372 713 604 209 285 493 673 395 660 427 396 577 452 267 339 267 167 226 149 77 213 81 59 124 404 311 438 219 202 245 191 191 84 200 182 212 148 164 244 468
is_linear=0
shrinkage=0.05


Tree=4
num_leaves=63
num_cat=0
split_feature=7 7 7 5 6 7 7 7 4 6 7 6 5 6 7 2 6 6 2 5 2 2 7 5 7 0 4 5 0 0 1 1 1 3 1 5 2 7 0 4 0 3 7 7 6 4 6 6 7 19 6 1 6 0 4 4 4 5 3 0 3 5
split_gain=2172.9 434.399 259.344 114.043 66.0213 57.8588 53.0259 51.4544 43.7783 30.8313 29.3535 23.8849 23.008 19.6025 19.1896 17.3689 16.3706 15.1528 14.5263 13.3587 12.558 10.4843 10.2827 9.36529 9.00367 8.54815 9.11922 8.39616 8.34614 7.63856 11.3606 7.59433 7.57521 6.51536 6.34348 6.23165 5.96991 5.75295 5.71015 5.65626 5.3062 5.30611 5.26893 5.14155 6.44705 5.0245 4.91998 4.76577 4.62355 6.04278 4.33547 4.31956 4.59856 4.18057 4.12327 4.03016 5.05216 4.02227 3.83322 3.6804 3.79051 3.61903
threshold=0.19458300093007561 -0.28858566171625405 0.75273368542341679 -0.84732774968556523 0.43606943047536956 -0.65493007911374879 -0.026346921046254919 0.4124709550338303 0.88446200587627144 0.14228140081213492 1.1241222379631297 0.45019464834374928 -0.98864010936586666 -0.85116820481651501 -1.0162991199300253 0.74557943161316909 0.48630517057235606 0.20844448215949157 -0.40741536500666514 -1.4649737009040285 0.74557943161316909 0.76395206869994847 0.78952007160745985 1.0869999922619804 0.64492414111357721 1.0000000180025095e-35 1.4758959346990086 -0.32786347185477488 -1.0000000180025095e-35 -1.0000000180025095e-35 0.20419665001281931 0.38674186653782966 -1.0581897794921298 1.3377395393006881 0.24696013897218105 -0.15887115035063351 -0.46608236624613647 -0.63757762310625421 -1.0000000180025095e-35 -0.47924627549248822 1.0000000180025095e-35 2.2323555091405098 -0.090251632744107371 0.9021821613237172 -1.1324231933593787 0.42071857850816663 -0.47843539983609634 -1.1776210243112246 -0.89952640684440288 1.0000000180025095e-35 0.57938492385291129 -0.91347978295143262 -0.57848147508665038 1.0000000180025095e-35 1.0184653024565662 1.1169051115846382 0.12076096560522227 -2.5682760655556645 -0.074203034163206602 -1.0000000180025095e-35 1.1856183634339785 -1.1714793693950036
decision_type=2 2 2 2 2 2 2 2 2 2 2 2 2 2 2 2 2 2 2 2 2 2 2 2 2 2 2 2 2 2 2 2 2 2 2 2 2 2 2 2 2 2 2 2 2 2 2 2 2 2 2 2 2 2 2 2 2 2 2 2 2 2
left_child=1 5 7 22 6 8 20 17 9 27 16 19 57 34 -10 18 43 21 -8 -9 29 35 -4 42 53 26 31 45 -23 30 -3 37 -20 -31 -14 -2 -33 -15 -36 -13 -37 -39 -6 44 -5 58 -34 -40 49 -11 -12 -17 -53 -21 -19 56 -55 -7 -1 60 -16 -24
right_child=2 4 3 10 23 12 15 11 14 48 50 39 13 25 59 51 -18 54 32 24 -22 28 61 -25 -26 -27 -28 -29 -30 33 -32 36 46 -35 38 40 -38 41 47 -41 -42 -43 -44 -45 -46 -47 -48 -49 -50 -51 -52 52 -54 55 -56 -57 -58 -59 -60 -61 -62 -63
leaf_value=-0.0088569598854519437 0.030016773172379049 0.0046075609554019235 0.065311137493517898 0.059493908528671716 -0.031176841634235553 0.016582116799858902 -0.0056399719082561835 0.057602503917858761 -0.079509293881513315 -0.079793665165963923 0.069597011319037241 0.021567489903434076 -0.035945270984019673 -0.049999131933115164 -0.054477511141631962 -0.04320784971117974 0.029465788158170816 0.0015683313565289098 -0.010381874794928501 0.02078194846823446 -0.028495165333151818 -0.042473669182509187 0.085683541392987506 -0.068979918708403906 0.046823658995079197 0.0076164959371089946 -0.08634620755910874 -0.038594547318592833 0.0063157996182448013 -0.0047240222670348721 -0.023662574303242759 -0.043349774017677471 0.018095349029601897 -0.034695898584629362 -0.022786122720248794 0.005414830444576104 -0.024407450024679252 -0.039336844535557448 0.021451498621276446 0.0035765729245862792 0.022631880310364068 -0.0068214038673501745 -0.019152446965396204 0.05668024477498556 0.038341365114739588 -0.037696030577446554 0.0089469144436420799 -0.014071344518391739 -0.051343506169231501 -0.046866012601689863 0.048825419513242589 -0.021624827806068503 -0.0017390056749027741 0.026078818177858606 -0.031205566423741407 0.017754784335450427 0.040402818763068594 -0.013110280950223248 -0.026769556529507101 -0.032516734384828147 -0.086143301427364358 0.070186743277068045
leaf_weight=56 110 45 160 43 155 12.999999999999998 163 59 118 38 89 403 72 143 172 9.9999999999999982 337 238 39 107 108 9.9999999999999982 163 11.999999999999998 89 9.9999999999999982 9.9999999999999982 228 71 397 169 59 233 19 180 81 141 360 13.999999999999998 49 100 12.999999999999998 221 74 222 47 398 29 153 22 35 46 79 103 9.9999999999999982 41 153 93 64 18 9.9999999999999982 49
leaf_count=56 110 45 160 43 155 13 163 59 118 38 89 403 72 143 172 10 337 238 39 107 108 10 163 12 89 10 10 228 71 397 169 59 233 19 180 81 141 360 14 49 100 13 221 74 222 47 398 29 153 22 35 46 79 103 10 41 153 93 64 18 10 49
internal_value=0 -0.0229236 0.034082 0.0520074 -0.00688059 -0.0392077 -0.0026466 0.0211457 -0.0484862 -0.0406238 0.0413717 0.0281396 -0.031651 -0.0339316 -0.0635188 0.00505029 0.0372697 0.0098202 0.00774655 0.0351181 -0.0127422 0.0162025 0.07488 -0.0254971 0.0324273 -0.0382965 -0.0389289 -0.0323557 0.000292408 -0.0100417 -0.0177179 -0.0382666 0.0110033 -0.00609293 -0.0230417 0.020631 -0.0299954 -0.0414725 -0.0188756 0.0196171 0.014927 -0.0382036 -0.0241093 0.0450276 0.0417737 -0.0238381 0.012325 -0.00250577 -0.0559567 -0.0677202 0.0637341 -0.0115867 -0.00905699 0.0292559 0.000246803 0.0323087 0.0346396 -0.00946876 -0.0184103 -0.0540843 -0.0562174 0.0821017
internal_weight=0 4157 2796 1172 2094 2063 1706 1624 926 608 800 1004 1137 1031 318 968 676 620 833 552 738 372 372 388 493 736 726 395 81 630 214 716 670 416 295 291 200 516 223 452 181 373 376 339 265 167 631 43 213 60 124 135 125 404 248 297 256 106 120 200 182 212
internal_count=6953 4157 2796 1172 2094 2063 1706 1624 926 608 800 1004 1137 1031 318 968 676 620 833 552 738 372 372 388 493 736 726 395 81 630 214 716 670 416 295 291 200 516 223 452 181 373 376 339 265 167 631 43 213 60 124 135 125 404 248 297 256 106 120 200 182 212
is_linear=0
shrinkage=0.05


Tree=5
num_leaves=63
num_cat=0
split_feature=7 7 7 5 6 7 7 7 4 6 7 5 5 6 7 2 1 6 2 6 2 2 7 7 5 8 0 5 2 6 0 1 7 1 7 3 1 5 4 0 4 0 6 0 0 15 1 7 6 6 19 1 6 6 0 5 1 6 5 1 7 4
split_gain=1961.05 392.045 234.058 102.924 59.5842 52.2176 47.8559 46.4376 39.5099 27.8737 26.5134 21.9058 20.7647 17.6912 17.3186 15.6754 14.749 13.6754 13.1099 11.4168 11.3336 9.46207 9.38263 9.32623 8.45218 7.84235 7.53239 7.22158 7.18188 7.06733 6.8938 10.2529 6.88317 6.83663 6.16657 5.88012 5.72499 5.62406 5.50917 5.15341 5.10477 5.01047 4.85613 4.85069 4.78885 4.75606 4.51235 4.36128 4.30111 3.99762 3.99749 3.8984 4.16883 3.8682 3.74133 4.06886 3.72099 3.71624 3.64959 5.06672 3.6489 3.63078
threshold=0.19458300093007561 -0.28858566171625405 0.75273368542341679 -0.84732774968556523 0.43606943047536956 -0.65493007911374879 -0.026346921046254919 0.4124709550338303 0.88446200587627144 0.16982413946337696 1.0351891488301455 -0.98864010936586666 -0.98864010936586666 -0.85116820481651501 -1.0162991199300253 0.74557943161316909 0.099265511410809235 0.20844448215949157 -0.40741536500666514 0.45019464834374928 0.74557943161316909 0.76395206869994847 1.0575442935690054 0.64492414111357721 1.0869999922619804 1.0000000180025095e-35 -1.0000000180025095e-35 -1.6401623384821098 0.0077238301329067864 0.096451722184830127 -1.0000000180025095e-35 0.20419665001281931 -0.53444405557844576 -1.0581897794921298 -0.89952640684440288 1.3377395393006881 0.24696013897218105 -0.15887115035063351 0.35954176462335724 -1.0000000180025095e-35 -0.47924627549248822 -1.0000000180025095e-35 -1.1324231933593787 1.0000000180025095e-35 1.0000000180025095e-35 1.0000000180025095e-35 -0.18020764487008464 -0.090251632744107371 -1.1776210243112246 0.85397611261667317 1.0000000180025095e-35 -0.91347978295143262 -0.65613278549317555 -0.53249297520859906 -1.0000000180025095e-35 -1.8774169886170027 0.98718097819190509 1.0000000180025095e-35 0.87123539760809454 0.32952728593612962 1.2511876535466919 -1.2017172525195174
decision_type=2 2 2 2 2 2 2 2 2 2 2 2 2 2 2 2 2 2 2 2 2 2 2 2 2 2 2 2 2 2 2 2 2 2 2 2 2 2 2 2 2 2 2 2 2 2 2 2 2 2 2 2 2 2 2 2 2 2 2 2 2 2
left_child=1 5 7 22 6 8 20 17 9 28 16 57 54 36 -10 18 -5 21 -8 23 30 37 27 43 41 32 -23 -4 -1 -12 31 -3 -15 -20 46 -32 -14 -2 -30 -38 -21 -6 -18 -13 -39 53 -11 -43 -41 -19 -44 -17 -53 -35 55 -7 61 -9 59 -34 -31 -27
right_child=2 4 3 10 24 12 15 11 14 34 29 19 13 25 -16 51 42 49 33 40 -22 26 -24 -25 -26 56 -28 -29 38 60 35 -33 58 45 -36 -37 39 44 -40 48 -42 47 50 -45 -46 -47 -48 -49 -50 -51 -52 52 -54 -55 -56 -57 -58 -59 -60 -61 -62 -63
leaf_value=-0.038494712324532054 0.028515934356572955 0.0043771829600963326 0.074725367836072115 0.027080599051733198 -0.038363276284350004 0.015207438683137299 -0.0053579732562051771 0.057871928895419505 -0.075533830627041346 -0.055663922206131804 0.066581135225437946 0.01629634528964137 -0.034148007687569287 -0.046255681772884555 -0.051380115705542267 -0.041047457903623581 0.058102713300045156 0.0016020889877084298 -0.0098627811094793762 0.020489114868713465 -0.027070406938178672 -0.040349986213259401 0.08379854434517689 0.044589891764281811 -0.06553092375397683 -0.019718176282264972 0.006000009391286319 0.058265382410596603 -0.019308919920538209 0.041179350683012525 -0.0044878210597061631 -0.022479445502691014 -0.037205358990109884 0.01489883229987962 -0.048269038310606194 -0.032961103633830424 -0.021646817005756831 0.0051440889352104731 -0.035633649235824121 0.020378924028149673 0.0033977443551910778 -0.027788785188176641 0.041399257804580258 0.02968147236533163 0.02150028648786247 0.01879998969840059 -0.084157440966616079 -0.016055635198118222 -0.013367777285647803 -0.029231660813093186 0.012896806474488515 -0.021914858628297226 -0.0023402707443079527 0.0054483797957851805 0.020109547674655916 -0.015917725347459229 -0.0089278190058063381 0.03876961004464146 -0.053753231724967133 -0.021762696205804205 0.062370576257152227 -0.034864501296773764
leaf_weight=179 110 45 128 329 46 11.999999999999998 163 53 118 33 84 90 72 227 200 9.9999999999999982 43 237 39 403 108 9.9999999999999982 105 87 11.999999999999998 55 71 139 146 74 397 169 195 175 146 19 180 81 80 13.999999999999998 49 132 229 273 100 172 24 198 29 10.999999999999998 12.999999999999998 40 85 284 9.9999999999999982 84 22 49 23 73 28 141
leaf_count=179 110 45 128 329 46 12 163 53 118 33 84 90 72 227 200 10 43 237 39 403 108 10 105 87 12 55 71 139 146 74 397 169 195 175 146 19 180 81 80 14 49 132 229 273 100 172 24 198 29 11 13 40 85 284 10 84 22 49 23 73 28 141
internal_value=0 -0.0217774 0.0323779 0.0494071 -0.00653656 -0.0372473 -0.00251427 0.0200885 -0.0460619 -0.0385926 0.0393031 0.0267326 -0.0300685 -0.032235 -0.0603428 0.00479777 0.0342932 0.00932919 0.00735923 0.024249 -0.0121051 0.0153923 0.071136 0.0298867 -0.0242222 -0.0363816 0.000277788 0.0661563 -0.0310132 0.0558412 -0.00953965 -0.016832 -0.0397299 0.0104531 -0.0537141 -0.00578828 -0.0218896 0.0195995 -0.0250876 -0.0179318 0.0186363 -0.0229038 0.0426193 0.0263628 0.0141807 0.0117088 -0.0676612 -0.0207489 -0.00238048 0.000234463 0.0398681 -0.0110073 -0.00860414 0.00905149 -0.00899532 -0.0120271 -0.0284257 0.0486953 -0.0346393 -0.032999 0.0469965 -0.0306143
internal_weight=0 4157 2796 1172 2094 2063 1706 1624 926 608 800 1004 1137 1031 318 968 614 620 833 902 738 372 372 450 388 736 81 267 405 186 630 214 518 670 203 416 295 291 226 223 452 376 285 363 181 631 57 330 43 248 242 135 125 459 106 96 218 102 291 268 102 196
internal_count=6953 4157 2796 1172 2094 2063 1706 1624 926 608 800 1004 1137 1031 318 968 614 620 833 902 738 372 372 450 388 736 81 267 405 186 630 214 518 670 203 416 295 291 226 223 452 376 285 363 181 631 57 330 43 248 242 135 125 459 106 96 218 102 291 268 102 196
is_linear=0
shrinkage=0.05


Tree=6
num_leaves=63
num_cat=0
split_feature=7 7 7 5 6 7 7 7 4 6 6 5 6 4 7 7 2 6 2 6 0 7 0 7 5 6 5 0 1 5 2 0 6 7 5 7 7 6 4 2 4 4 4 8 4 4 1 6 7 2 1 3 0 1 5 0 5 9 0 3 2 6
split_gain=1769.84 353.821 211.39 98.6901 53.8065 47.1263 43.0353 37.2025 35.7051 27.1647 25.8867 20.5276 19.2443 15.873 15.7052 15.6522 14.9568 12.3421 10.5624 10.3411 10.0054 8.93639 8.81546 8.10058 8.04504 7.37748 7.3014 7.17455 8.7942 6.71389 6.43427 6.27631 6.2679 5.92103 5.70889 5.34777 5.33605 5.05572 5.02963 4.69459 4.69098 4.38657 4.22295 4.01373 3.69922 3.66172 3.51831 3.78469 3.49452 3.47542 3.47073 3.46393 3.4477 3.43137 3.43132 3.41506 4.64866 3.40958 3.40292 3.9793 3.3567 3.30773
threshold=0.19458300093007561 -0.28858566171625405 0.72003588154761167 -0.84732774968556523 0.39835459828406955 -0.65493007911374879 -0.026346921046254919 0.4124709550338303 0.99885878345062362 0.48630517057235606 0.16982413946337696 -0.98864010936586666 0.43606943047536956 1.0638462309308241 -1.0162991199300253 0.92942592740239982 0.74557943161316909 0.20844448215949157 0.74557943161316909 -0.47843539983609634 1.0000000180025095e-35 0.78952007160745985 -1.0000000180025095e-35 1.0575442935690054 1.0869999922619804 0.45019464834374928 -2.5682760655556645 -1.0000000180025095e-35 0.20419665001281931 -0.32786347185477488 -0.46136396666535268 1.0000000180025095e-35 -1.3111116764193727 -0.090251632744107371 -1.5306647717915911 -0.48637962622087971 -0.89952640684440288 -1.1324231933593787 0.42071857850816663 0.46391206476676111 -1.1576118245510283 -0.47924627549248822 1.1169051115846382 1.0000000180025095e-35 0.55471368073553973 1.0184653024565662 -0.91347978295143262 -0.57848147508665038 0.58411417467756332 0.35042277842565944 -0.9228517048099405 -0.074203034163206602 -1.0000000180025095e-35 -0.18020764487008464 -0.40072562613812163 0.5760015467225249 -1.1714793693950036 1.0000000180025095e-35 -1.0000000180025095e-35 1.0793225442066079 0.76395206869994847 -0.14453649425127071
decision_type=2 2 2 2 2 2 2 2 2 2 2 2 2 2 2 2 2 2 2 2 2 2 2 2 2 2 2 2 2 2 2 2 2 2 2 2 2 2 2 2 2 2 2 2 2 2 2 2 2 2 2 2 2 2 2 2 2 2 2 2 2 2
left_child=1 5 7 21 6 8 18 17 10 15 29 50 13 20 49 37 19 22 27 -8 26 -4 39 -11 33 31 -7 28 -3 38 -28 57 -24 -6 -21 -32 53 -5 51 -2 -14 -27 48 -35 -36 -19 -18 -48 -33 -10 -9 54 -15 -12 -1 56 -23 -13 59 -16 -34 -62
right_child=2 4 3 9 24 12 16 11 14 23 36 25 40 52 58 -17 46 45 -20 34 -22 55 32 -25 -26 41 30 -29 -30 -31 35 42 60 43 44 -37 -38 -39 -40 -41 -42 -43 -44 -45 -46 -47 47 -49 -50 -51 -52 -53 -54 -55 -56 -57 -58 -59 -60 -61 61 -63
leaf_value=0.00012497210125552444 0.0059310796944534068 0.0037395866735923018 0.058647563173635613 0.054049819578295168 -0.027947681361316319 0.014973784864056284 0.016405680245128281 0.026867247691476033 -0.10068810015916825 0.024636100670112307 -0.052880725659655806 -0.0013815226139622216 -0.029703207871566217 -0.045808954546466857 -0.049165939799026601 0.058384736868748933 -0.038995084688067443 0.0014681093899548804 -0.025716886279621612 0.015097397222722832 0.028252997249364854 0.074325504352649049 0.045620373967621065 0.043250983171164992 -0.062254377951224654 0.019169325139217888 -0.03587895137179329 -0.0048115319960634227 -0.021355472906415499 -0.035105591647275648 -0.025392147885024037 0.028651517462911526 0.018002954356335487 -0.019322615521737932 -0.0015974846334084383 -0.015700007109524561 -0.046119137419283383 0.036072219034364285 -0.034702104817737237 -0.033983647235884117 -0.044449279405913943 0.0027696982927053523 0.017060031731111501 -0.0043316592879850289 0.0076137096982741362 -0.029417055081576111 -0.019575503773217942 -0.0015350419132015374 0.040798242199657997 -0.069827149263941332 0.050611630192509409 -0.024389110508491286 -0.032117321643662371 -0.076915522388837962 -0.027823448466757935 0.083868470462039116 0.051700168608554781 0.020847776253198183 -0.028321890776149102 -0.080268185518004687 0.010567114148604667 -0.018229923557858761
leaf_weight=41 17.000000000000004 44 163 46 170 12.999999999999998 233 19 9.9999999999999982 354 33 23 75 78 158 152 9.9999999999999982 238 108 95 9.9999999999999982 120 18 70 11.999999999999998 359 83 400 169 236 313 181 253 194 307 261 154 261 55 12.999999999999998 192 46 52 58 169 9.9999999999999982 46 79 88 104 81 64 112 27 14.999999999999998 64 28 69 18 10.999999999999998 59 11.999999999999998
leaf_count=41 17 44 163 46 170 13 233 19 10 354 33 23 75 78 158 152 10 238 108 95 10 120 18 70 12 359 83 400 169 236 313 181 253 194 307 261 154 261 55 13 192 46 52 58 169 10 46 79 88 104 81 64 112 27 15 64 28 69 18 11 59 12
internal_value=0 -0.0206885 0.030759 0.0459604 -0.00620973 -0.0353849 -0.00211156 0.0183252 -0.0437588 0.0368339 -0.0369453 0.0247159 -0.028565 -0.0249614 -0.0579065 0.0452628 0.00494289 0.00886273 -0.011299 0.00752869 -0.0213915 0.0674501 0.0146227 0.0277093 -0.0218848 0.0221017 -0.0221324 -0.0087588 -0.0161715 -0.0296026 -0.0228667 0.0268039 0.0169024 -0.0207368 0.00390638 -0.0209851 -0.0510473 0.0387659 -0.0221814 -0.0113653 -0.0403071 0.0173067 0.0301037 -0.0158723 0.00167288 0.00022274 -0.010457 -0.00817393 0.0326252 -0.0725343 0.0461002 -0.0164428 -0.0377381 -0.0636964 -0.00736121 0.0742181 0.070045 0.0152905 -0.0489891 -0.0511903 0.0153069 0.00570001
internal_weight=0 4157 2796 1258 2094 2063 1660 1538 926 883 625 918 1137 870 301 459 939 620 721 804 680 375 372 424 434 818 670 613 213 411 657 413 342 422 571 574 214 307 175 30 267 405 321 252 476 248 135 125 269 114 100 120 190 60 56 212 148 92 187 169 324 71
internal_count=6953 4157 2796 1258 2094 2063 1660 1538 926 883 625 918 1137 870 301 459 939 620 721 804 680 375 372 424 434 818 670 613 213 411 657 413 342 422 571 574 214 307 175 30 267 405 321 252 476 248 135 125 269 114 100 120 190 60 56 212 148 92 187 169 324 71
is_linear=0
shrinkage=0.05


Tree=7
num_leaves=63
num_cat=0
split_feature=7 7 7 5 6 4 7 6 7 7 7 5 1 4 4 7 6 7 4 6 7 5 5 7 7 4 1 6 5 7 3 5 4 5 7 4 5 7 6 6 5 19 3 6 19 4 1 3 1 6 8 6 5 1 3 6 3 5 4 6 5 14
split_gain=1598.08 347.034 165.993 83.9081 47.9838 42.8211 42.7619 42.1733 31.7868 28.0319 22.1994 17.8221 12.073 11.9985 10.7698 10.5512 10.5277 10.3415 9.62874 9.39645 9.32307 8.40154 8.26155 7.92391 7.83552 7.77938 6.49447 6.63634 6.48658 5.81984 6.51793 5.38341 4.77814 4.51894 4.41125 4.17349 4.15472 4.20879 4.12838 6.11965 5.56213 4.11725 4.07842 3.9342 3.8213 6.38943 3.7636 3.74887 3.71949 3.4141 3.26031 3.26015 3.25305 3.25182 3.20737 3.18613 3.15867 3.14945 3.14638 3.48026 3.11237 3.06923
threshold=0.22170759012249208 -0.28858566171625405 0.75273368542341679 -0.84732774968556523 0.39835459828406955 0.95040304671139897 -0.026346921046254919 0.18588966443027416 -1.0162991199300253 0.4124709550338303 1.1241222379631297 -0.98864010936586666 0.099265511410809235 1.5101404016552624 0.88446200587627144 -0.89952640684440288 0.15351297627125546 -0.47328986767208575 1.1347304482223923 0.45019464834374928 -0.63757762310625421 -1.0273677207634868 -1.8774169886170027 0.64492414111357721 0.78952007160745985 -1.3556541541878693 0.66609836608000084 -1.2477123009375297 1.0000000180025095e-35 -0.53444405557844576 1.7654072129308898 1.0869999922619804 0.68733957781908706 -0.9171051478705986 0.91626567165800843 -0.47924627549248822 -0.072228736576036096 0.95650605790247567 -1.8771971179857245 -1.1893587687027545 -0.9171051478705986 1.0000000180025095e-35 0.31366446183608326 -0.051897145881364383 1.0000000180025095e-35 1.0184653024565662 0.22109779859210418 -0.72082177147670601 -0.18020764487008464 0.57938492385291129 1.0000000180025095e-35 -0.65613278549317555 0.87123539760809454 -1.074300210306349 0.72651746464998646 1.0000000180025095e-35 -0.41729211473932865 0.26450719317552834 0.50307559235858368 -0.38311487346319212 -1.1714793693950036 1.0000000180025095e-35
decision_type=2 2 2 2 2 2 2 2 2 2 2 2 2 2 2 2 2 2 2 2 2 2 2 2 2 2 2 2 2 2 2 2 2 2 2 2 2 2 2 2 2 2 2 2 2 2 2 2 2 2 2 2 2 2 2 2 2 2 2 2 2 2
left_child=1 5 9 24 6 7 18 17 -7 21 12 55 34 20 16 48 28 22 47 23 61 -2 -1 -13 60 57 27 -23 41 50 52 42 56 -19 -5 -21 -14 -38 -24 -40 -41 -8 -27 -42 -29 -46 -35 -3 -9 -12 -17 -16 -31 -26 -52 -11 -30 -6 59 -43 -4 -10
right_child=2 4 3 10 25 8 14 15 13 11 49 19 36 -15 51 29 -18 33 -20 35 -22 26 38 -25 53 31 -28 44 32 30 -32 -33 -34 46 -36 -37 37 -39 39 40 43 58 -44 -45 45 -47 -48 -49 -50 -51 54 -53 -54 -55 -56 -57 -58 -59 -60 -61 -62 -63
leaf_value=-0.00037351000239141288 0.024761195858009163 -0.016569075584411622 0.058410058070159136 0.021735583972244798 0.018775109404867346 -0.0686893939388835 0.016136892991817569 -0.049273663014173512 -0.045669487137939578 0.052440169650428706 0.060111010773630624 0.023759425059409901 0.053110442019027218 -0.083306612968444826 -0.016684059955179693 -0.046115689809349457 -0.005260826053338807 0.0042529380366463088 -0.029572006036347201 0.018476349465715382 -0.030027818000418795 0.039644671728213628 -0.04443564457028653 0.040560342818926808 0.044036454436453903 -0.029324836004525425 0.018617105099704417 0.0038960304996529917 0.0080435862679801452 -0.030718289829442292 0.0039269444174491446 -0.054042140738322191 0.014223271466561417 -0.030843842220612063 0.033085979685298549 0.0030224342355314568 0.033494383357377526 0.049079220931638377 -0.014935128080658614 -0.020310732708890847 -0.029011894570318442 0.023231493132188918 -0.017869557542133083 -0.041444473350420598 0.0022694233832880857 -0.039919602751199691 -0.013783968243472004 -0.0070922438555488651 -0.074733990703064662 0.041678260649953572 -0.030422665637557991 -0.0017676554460938423 -0.057991666346788408 0.071955889871167897 -0.047498351866379379 0.034752698014110177 -0.0042607178537313033 -0.0096967541938086585 -0.023647786676883699 -0.0036953430281331141 0.036853000426076747 -0.01737846465781331
leaf_weight=30 75 130 141 237 10.999999999999998 115 348 32 232 53 89 363 46 14.999999999999998 50 187 136 29 62 403 206 11.999999999999998 33 87 10.999999999999998 111 87 263 85 123 12.999999999999998 12.999999999999998 89 39 134 49 204 55 100 153 311 20 259 80 25 13.999999999999998 189 529 26 35 88 137 11.999999999999998 201 40 49 135 83 9.9999999999999982 30 19 9.9999999999999982
leaf_count=30 75 130 141 237 11 115 348 32 232 53 89 363 46 15 50 187 136 29 62 403 206 12 33 87 11 111 87 263 85 123 13 13 89 39 134 49 204 55 100 153 311 20 259 80 25 14 189 529 26 35 88 137 12 201 40 49 135 83 10 30 19 10
internal_value=0 -0.0188228 0.0305268 0.0445839 -0.00518673 -0.0336157 -0.00137636 -0.0291215 -0.0451621 0.0193951 0.035461 0.0241332 0.0318937 -0.0393184 0.00511102 -0.0405831 0.00749336 -0.022927 -0.010734 0.021893 -0.0378456 0.00940133 -0.0260494 0.0270076 0.0642031 -0.0192539 0.00652853 0.00317915 0.00991257 -0.0380647 -0.0298865 -0.0224173 0.00444783 -0.0143375 0.0258352 0.016801 0.0392633 0.0368039 -0.0271871 -0.0263033 -0.028393 0.0140513 -0.0213061 -0.0315556 0.00173019 -0.0128754 -0.0167021 -0.00896173 -0.0606869 0.0549082 -0.0419072 -0.005756 -0.0331426 0.0705072 -0.0357588 0.0439432 0.000493218 -0.00636494 0.00195486 0.00707539 0.0558502 -0.0445004
internal_weight=0 4301 2652 1172 2238 2063 1761 1485 578 1480 800 1004 676 463 1040 521 853 964 721 902 448 476 707 450 372 477 401 314 717 463 148 383 309 257 371 452 305 259 677 644 544 408 370 391 302 39 228 659 58 124 315 187 135 212 128 102 220 94 60 50 160 242
internal_count=6953 4301 2652 1172 2238 2063 1761 1485 578 1480 800 1004 676 463 1040 521 853 964 721 902 448 476 707 450 372 477 401 314 717 463 148 383 309 257 371 452 305 259 677 644 544 408 370 391 302 39 228 659 58 124 315 187 135 212 128 102 220 94 60 50 160 242
is_linear=0
shrinkage=0.05


Tree=8
num_leaves=63
num_cat=0
split_feature=7 7 7 5 6 7 7 7 4 6 6 5 0 6 2 7 7 2 6 2 2 0 0 7 7 1 2 1 5 1 5 6 5 6 6 5 5 1 5 5 2 0 1 6 2 0 5 0 4 6 7 7 3 5 5 1 2 8 0 19 0 3
split_gain=1443.5 287.64 171.971 80.3161 44.2046 39.1717 35.0988 29.8828 28.7245 22.2792 20.9835 16.9662 16.4248 16.5189 12.8834 12.8377 12.8163 11.848 10.37 9.93781 8.7663 8.18016 7.9002 7.53419 7.1212 7.01366 6.91761 6.32282 6.26938 6.26773 6.09737 6.09101 6.04912 6.03237 5.2485 5.1721 5.17155 5.11024 4.87262 4.6576 4.60841 4.48 4.33268 4.14101 4.07283 3.80796 3.64736 3.55399 3.51406 3.54284 3.4749 3.3633 3.35437 3.25159 3.22883 3.1813 3.13656 3.11919 4.17065 3.08762 3.05463 3.43043
threshold=0.19458300093007561 -0.28858566171625405 0.72003588154761167 -0.84732774968556523 0.43606943047536956 -0.65493007911374879 -0.026346921046254919 0.4124709550338303 0.99885878345062362 0.48630517057235606 0.14228140081213492 -0.58904338776167198 1.0000000180025095e-35 0.43606943047536956 0.68007789535000962 0.92942592740239982 -1.0162991199300253 0.76395206869994847 0.20844448215949157 -0.53704873269378528 0.36108747841111988 -1.0000000180025095e-35 -1.0000000180025095e-35 1.0575442935690054 1.2511876535466919 0.17916155578675697 -0.46136396666535268 -1.1149152231995276 1.0869999922619804 0.20419665001281931 -1.6401623384821098 -1.3111116764193727 -0.40072562613812163 -0.47843539983609634 -1.3111116764193727 0.042654268380842443 -2.5682760655556645 1.2017894410881849 1.0869999922619804 -0.84732774968556523 0.32304712623032689 -1.0000000180025095e-35 -1.0581897794921298 -1.1324231933593787 0.46391206476676111 0.5760015467225249 -0.81379590148407088 1.0000000180025095e-35 -1.3556541541878693 0.55619417696091455 -0.090251632744107371 -0.48637962622087971 1.9197236835406313 -1.5306647717915911 -0.52001942872491558 0.28719489753574906 0.35042277842565944 1.0000000180025095e-35 -1.0000000180025095e-35 1.0000000180025095e-35 -1.0000000180025095e-35 1.0793225442066079
decision_type=2 2 2 2 2 2 2 2 2 2 2 2 2 2 2 2 2 2 2 2 2 2 2 2 2 2 2 2 2 2 2 2 2 2 2 2 2 2 2 2 2 2 2 2 2 2 2 2 2 2 2 2 2 2 2 2 2 2 2 2 2 2
left_child=1 5 7 23 6 8 20 18 10 15 32 27 13 14 26 43 56 19 22 -8 21 29 44 30 45 -13 -7 -9 41 -3 -4 55 40 -21 -24 -16 -28 47 57 -22 -1 -6 -38 54 -2 -11 -12 -27 -20 -50 -43 -44 -48 -35 -5 -23 -10 58 -15 -49 61 -18
right_child=2 4 3 9 28 12 17 11 16 24 46 25 -14 38 35 -17 60 -19 48 33 39 31 34 -25 -26 37 36 -29 -30 -31 -32 -33 -34 53 -36 -37 42 -39 -40 -41 -42 50 51 -45 -46 -47 52 59 49 -51 -52 -53 -54 -55 -56 -57 -58 -59 -60 -61 -62 -63
leaf_value=-0.0041827136921347118 0.0048716070897438938 0.0070255225398935944 0.064311996489301207 0.023704284317791466 -0.034345259744188061 -0.03251226172299989 -0.0088509437783310819 0.0012522089887749067 -0.09221922382712365 0.020312716984005795 -0.032626034007516021 0.015470158338495014 0.023060930607949989 -0.047255522186557458 -0.029126502843019333 0.052773778151573719 -0.044409300323835089 -0.0098852363180454463 0.0067759188504570777 0.01490788333412248 -0.0057376881910022352 0.036349719390273087 0.041800438933488393 0.072240871254886901 0.054909914104562058 0.016158117453899022 0.014172594793714011 0.040641911105974919 -0.05643955208361149 -0.019355072443224909 0.049269540370805255 -0.0049164073648310068 -0.03140884992782491 0.013531948859729854 0.01406135661132951 -0.047475463356030118 -0.046258218586444855 -0.0098904463648796098 -0.070042677088217306 -0.025359184649442475 -0.023953690822236241 -0.023973311624969497 -0.02081429576030357 0.032568275306433601 -0.03230611071563684 0.030762791909336108 -0.047179815941898712 0.026923076606889536 0.00099821205624530838 -0.015634836455551433 -0.013500129904673256 -0.012525977706948742 -0.076972969174385078 0.0032727610345996954 0.05582020096480847 0.0012661075723978382 -0.062901322054676717 -0.027899188238661738 -0.031565262394724417 0.043077285119465424 -0.024622322474088937 -0.073286991092291739
leaf_weight=40 17.000000000000004 26 129 9.9999999999999982 46 83 96 10.999999999999998 9.9999999999999982 278 43 468 17 90 210 152 158 131 111 233 40 14.000000000000002 18 105 19 65 12.999999999999998 138 11.999999999999998 168 141 354 249 95 324 47 12.999999999999998 9.9999999999999982 10.999999999999998 124 112 132 267 261 12.999999999999998 127 171 191 86 51 198 226 9.9999999999999982 413 36 11.999999999999998 104 80 80 35 18 10.999999999999998
leaf_count=40 17 26 129 10 46 83 96 11 10 278 43 468 17 90 210 152 158 131 111 233 40 14 18 105 19 65 13 138 12 168 141 354 249 95 324 47 13 10 11 124 112 132 267 261 13 127 171 191 86 51 198 226 10 413 36 12 104 80 80 35 18 11
internal_value=0 -0.0186841 0.0277788 0.0414898 -0.00562939 -0.0319349 -0.00216488 0.016564 -0.0395694 0.0332566 -0.0334581 0.0222917 -0.0257172 -0.0264575 -0.0231104 0.04089 -0.052259 0.00409718 0.00808342 0.00628558 -0.0103785 -0.00746569 0.0133632 0.0608761 0.0249932 0.0192996 -0.0191095 0.0377339 -0.0208625 -0.0158195 0.0564565 -0.00320084 -0.0266108 0.00824659 0.0155213 -0.0324821 -0.0169661 0.0252538 -0.0374736 -0.0205735 -0.0187508 -0.0197271 -0.0177661 0.0350062 -0.0112387 0.0235897 -0.0457161 0.0264615 0.000163696 -0.00519365 -0.0176894 -0.0170148 -0.0488258 0.00519131 0.0488385 0.0201573 -0.0654731 -0.0360406 -0.0398719 0.0294248 -0.0442034 -0.0462889
internal_weight=0 4157 2796 1258 2094 2063 1706 1538 926 883 625 918 1137 1120 859 459 301 968 620 837 738 574 372 375 424 769 602 149 388 194 270 380 401 741 342 257 519 301 261 164 152 376 506 307 30 405 224 291 248 137 330 493 181 508 46 26 114 250 170 226 187 169
internal_count=6953 4157 2796 1258 2094 2063 1706 1538 926 883 625 918 1137 1120 859 459 301 968 620 837 738 574 372 375 424 769 602 149 388 194 270 380 401 741 342 257 519 301 261 164 152 376 506 307 30 405 224 291 248 137 330 493 181 508 46 26 114 250 170 226 187 169
is_linear=0
shrinkage=0.05


Tree=9
num_leaves=63
num_cat=0
split_feature=7 7 7 6 6 7 15 7 7 4 6 0 6 4 6 7 2 7 6 2 15 2 7 0 0 15 7 3 6 0 0 9 2 6 6 4 2 7 8 2 4 4 4 4 6 4 15 0 6 0 3 7 3 7 0 2 3 6 7 2 2 0
split_gain=1302.76 259.595 155.204 65.891 39.8947 35.3525 33.1434 31.6766 26.9692 25.9238 18.9475 14.8234 14.9083 11.683 11.5677 11.5667 10.6928 9.59974 9.35897 9.0025 8.80672 7.91159 7.43889 7.3826 7.12993 6.17988 6.05679 5.54729 5.49714 5.42214 5.23991 7.19516 4.87302 4.73678 4.5328 4.48924 4.35794 4.3125 3.81758 3.67573 3.57463 4.31866 3.53033 3.45547 3.32707 3.22937 3.12308 3.12285 3.09499 3.07518 3.05637 3.0709 3.15945 2.94168 2.93212 6.46032 2.99909 2.97768 2.85273 2.87621 2.83075 2.7568
threshold=0.19458300093007561 -0.28858566171625405 0.72003588154761167 0.27834457448617972 0.43606943047536956 -0.65493007911374879 1.0000000180025095e-35 -0.026346921046254919 0.4124709550338303 0.99885878345062362 0.16982413946337696 1.0000000180025095e-35 0.43606943047536956 1.0638462309308241 0.45019464834374928 -1.0162991199300253 0.76395206869994847 1.0256889941597087 0.20844448215949157 -0.40741536500666514 1.0000000180025095e-35 0.36108747841111988 1.0575442935690054 -1.0000000180025095e-35 -1.0000000180025095e-35 1.0000000180025095e-35 0.78952007160745985 1.4933537220288422 -1.3111116764193727 -1.0000000180025095e-35 1.0000000180025095e-35 1.0000000180025095e-35 0.0077238301329067864 -1.3111116764193727 -0.47843539983609634 0.35954176462335724 -0.46136396666535268 -0.89952640684440288 1.0000000180025095e-35 0.46391206476676111 1.1169051115846382 0.12076096560522227 -0.1279254138587741 -0.47924627549248822 0.85397611261667317 0.52902059590070494 1.0000000180025095e-35 1.0000000180025095e-35 -1.0915446623135796 1.0000000180025095e-35 1.9197236835406313 0.1095346755611321 0.66363564505542871 -0.36180344176969975 1.0000000180025095e-35 1.0580905097982363 0.46808811630635255 -0.49524076513472054 -0.47328986767208575 0.43778128214389656 0.35042277842565944 -1.0000000180025095e-35
decision_type=2 2 2 2 2 2 2 2 2 2 2 2 2 2 2 2 2 2 2 2 2 2 2 2 2 2 2 2 2 2 2 2 2 2 2 2 2 2 2 2 2 2 2 2 2 2 2 2 2 2 2 2 2 2 2 2 2 2 2 2 2 2
left_child=1 5 8 6 7 9 17 21 18 10 32 12 13 25 20 60 19 47 24 -9 30 23 -5 42 39 27 -8 36 -25 -6 31 -10 -1 -26 -21 -34 -7 -12 -14 -2 41 -32 -3 -16 -20 -43 -23 -4 -37 -28 51 52 -31 -15 56 -56 57 -18 -38 -60 -11 -17
right_child=2 4 3 22 29 11 26 16 14 15 37 -13 38 53 43 61 54 -19 44 34 -22 46 -24 28 33 -27 49 -29 -30 50 40 -33 35 -35 -36 48 58 -39 -40 -41 -42 45 -44 -45 -46 -47 -48 -49 -50 -51 -52 -53 -54 -55 55 -57 -58 -59 59 -61 -62 -63
leaf_value=-0.031701501497124744 0.0046280267484047821 -0.0011346014449372889 0.021469488025040312 0.021706627849228416 -0.03555046457331628 -0.030640213587889223 0.052633152922629316 -0.0045731745738956794 -0.013467804729450673 -0.087608265429735196 -0.055221354340513555 0.021907884364618976 -0.039620182935684894 -0.036471670709381052 0.016513437472807872 -0.043974468714320626 -0.021931659069025156 0.052822494852023387 0.0014031732792782849 0.014162488951314792 0.038631356057820025 -0.022042436549311567 0.038281495505432805 0.019149419301762605 0.039710417255345326 -0.0055317009871753003 0.044911173780759178 -0.057512969374656678 -0.004670586903305924 -0.025453775601748094 0.020176553361505124 0.019847627286471325 -0.015382990292241567 0.013358288565506636 0.0055409241113452724 -0.044192566328610371 -0.021681818574825065 -0.039419599593157412 -0.026504228593839798 -0.030690805871899315 0.013871985614801255 0.044400962236079769 -0.018302922489441886 0.0019580193106894911 -0.026725940869867126 0.028743068631315094 -0.00048372641352838587 0.037391059768502953 -0.02353941958087186 0.068533633561176671 -0.036560938283801081 -0.0057784402152589922 -0.014259375699912197 -0.021935446649465874 -0.0090277276756997038 0.036266726776957518 -0.037065585817282018 -0.0014016226571249334 -0.011201307191886523 -0.024856786996278229 -0.059756254143184584 -0.023391206334862445
leaf_weight=179 17.000000000000004 37 34 388 48 82 134 163 21 9.9999999999999982 60 17 181 143 359 169 33 109 237 233 111 145 82 26 18 77 14.999999999999998 9.9999999999999982 354 104 101 71 146 324 441 26 271 154 80 12.999999999999998 52 47 157 46 10.999999999999998 110 19 327 60 169 20 56 160 46 37 9.9999999999999982 12.999999999999998 38 181 49 104 18
leaf_count=179 17 37 34 388 48 82 134 163 21 10 60 17 181 143 359 169 33 109 237 233 111 145 82 26 18 77 15 10 354 104 101 71 146 324 441 26 271 154 80 13 52 47 157 46 11 110 19 327 60 169 20 56 160 46 37 10 13 38 181 49 104 18
internal_value=0 -0.0177499 0.0263899 0.0394153 -0.00534792 -0.0303382 0.0482528 -0.00205664 0.0157358 -0.0375909 -0.0317852 -0.0244313 -0.0251347 -0.0219549 0.0211771 -0.049646 0.00389232 0.0398181 0.00767925 0.0059713 0.0261641 -0.0098596 0.0245984 -0.00709241 0.0126951 -0.0188579 0.0607192 -0.0205882 -0.0030408 -0.0198194 0.0227217 0.012243 -0.0255033 0.0147452 0.00852138 -0.0207211 -0.0199549 -0.04385 -0.0356 -0.0106768 0.0258315 0.0282419 -0.0150286 0.0148602 0.000155511 0.0334305 -0.0195448 0.0358915 -0.0297834 0.0666079 -0.0175985 -0.0164134 -0.0186693 -0.0329338 -0.00939097 0.00060939 -0.0149864 -0.0109438 -0.018206 -0.0141105 -0.0621994 -0.0419932
internal_weight=0 4157 2796 1258 2094 2063 788 1706 1538 926 625 1137 1120 859 918 301 968 470 620 837 513 738 470 574 372 670 318 593 380 388 402 92 411 342 674 232 583 214 261 30 310 258 194 405 248 157 164 361 86 184 340 320 264 189 131 47 84 71 501 230 114 187
internal_count=6953 4157 2796 1258 2094 2063 788 1706 1538 926 625 1137 1120 859 918 301 968 470 620 837 513 738 470 574 372 670 318 593 380 388 402 92 411 342 674 232 583 214 261 30 310 258 194 405 248 157 164 361 86 184 340 320 264 189 131 47 84 71 501 230 114 187
is_linear=0
shrinkage=0.05


Tree=10
num_leaves=63
num_cat=0
split_feature=7 7 7 5 7 6 4 7 6 7 7 5 5 7 2 1 4 6 6 5 0 4 1 6 6 7 0 2 3 0 0 2 0 6 1 5 1 8 7 2 7 5 6 5 4 3 2 0 2 7 1 15 6 1 2 2 6 5 4 2 6 2
split_gain=1176.14 255.183 121.478 62.4149 39.8943 32.4734 28.2705 24.6436 22.352 20.3648 18.8522 13.6719 13.4747 11.1628 9.84923 8.86483 8.96421 8.80975 7.60518 7.22239 7.68478 7.04002 6.94555 6.67244 6.17739 6.12706 5.98747 5.7199 5.64655 5.52688 5.47307 5.41712 5.41105 8.39811 5.18382 5.17132 5.02663 10.6266 4.50376 4.46755 4.18211 4.14774 4.09501 4.05317 4.03675 3.85026 3.66224 3.5571 3.54206 3.37443 4.33107 3.65479 3.11415 3.74088 3.02404 3.00952 2.9156 3.27194 2.89884 2.81703 2.77682 2.76974
threshold=0.22170759012249208 -0.26985505726053788 0.75273368542341679 -1.0273677207634868 -0.63757762310625421 0.39835459828406955 0.83969155807608375 -0.026346921046254919 0.14228140081213492 0.4124709550338303 1.0351891488301455 -1.0273677207634868 -0.98864010936586666 -1.0162991199300253 0.74557943161316909 0.22898181075311336 1.1667337529198309 0.33658622240805547 -0.42234403928465458 -1.0273677207634868 -1.0000000180025095e-35 -1.3556541541878693 0.17916155578675697 0.096451722184830127 -1.3111116764193727 1.0714004806061059 -1.0000000180025095e-35 0.0077238301329067864 1.7654072129308898 -1.0000000180025095e-35 -1.0000000180025095e-35 -0.46608236624613647 -1.0000000180025095e-35 -1.2188559026202774 1.2017894410881849 -0.94805548596527101 0.27841716517379483 1.0000000180025095e-35 0.64492414111357721 0.38836844278959104 0.56750754493220934 -1.6907723121240468 -1.8771971179857245 0.14101431601484585 -0.041781422419836678 2.2323555091405098 -0.5395323816590355 1.0000000180025095e-35 -0.025374365346715038 -0.89952640684440288 -0.18020764487008464 1.0000000180025095e-35 -0.65613278549317555 -0.91347978295143262 0.31845857142701522 0.37246500328085175 -0.90626018346030579 -0.52001942872491558 -0.049452479049941218 0.27095887219336401 1.0000000180025095e-35 0.18543804595294622
decision_type=2 2 2 2 2 2 2 2 2 2 2 2 2 2 2 2 2 2 2 2 2 2 2 2 2 2 2 2 2 2 2 2 2 2 2 2 2 2 2 2 2 2 2 2 2 2 2 2 2 2 2 2 2 2 2 2 2 2 2 2 2 2
left_child=1 4 9 25 6 7 8 26 27 19 17 -6 60 -8 18 45 31 56 48 -2 43 -7 28 -12 -22 41 35 -1 40 -23 42 -17 -33 -34 38 -3 37 -26 -24 44 -14 -4 -29 -21 58 -13 -20 -38 -9 50 51 -10 -16 -54 -31 59 57 -5 -28 -51 -11 -37
right_child=2 5 3 10 11 21 13 14 49 12 23 15 22 -15 52 16 -18 -19 46 20 24 29 34 -25 36 -27 39 30 -30 54 -32 32 33 -35 -36 61 47 -39 -40 -41 -42 -43 -44 -45 -46 -47 -48 -49 -50 55 -52 -53 53 -55 -56 -57 -58 -59 -60 -61 -62 -63
leaf_value=-0.028190915878596054 0.022388916858782373 0.0085824749944731597 0.058716208242901392 0.017572668734937909 -0.00070489617442945026 -0.0029451215058971924 -0.057775471031238312 -0.0048070858601325511 -0.02736376222253413 0.045861859633675166 0.053729129564017056 -0.027833806828241617 0.0079046247401450727 -0.039397305202214739 -0.018608989943425323 -0.0288505297699885 -0.045154902683915921 0.020618032372884138 -0.0058777246877530611 -0.044628587067127218 0.041343468771531035 -0.037116958780491073 0.022670803586388431 0.035440930410155232 -0.0126856710590669 0.067379410899757006 -0.0067425346408039339 -0.039378447905587761 0.039135345350950958 -0.01524112455292859 0.014014883282092903 -0.017604130951242018 0.031738454316343583 -0.0092960694996770798 -0.0092607685788111248 -0.015134977507503361 0.0025569470556176927 0.01070539070906229 0.037402830255719333 -0.015951276413240546 0.017328888838910986 0.045981232713287079 -0.017320410868655874 -0.0059528610026020378 0.0023880508961156011 -0.0036056456101291323 0.0049858454213178444 0.018400494408911294 0.015335096873312077 -0.037020459907576984 -0.06644256835182509 -0.062405074455521327 -0.030565681647170675 9.5793481831116465e-05 -0.033719183256228767 -0.052343205681868968 0.030302720262649255 0.049396319900240217 -0.033515742031688042 -0.02011757030683969 0.029349530554775682 -0.030838536343404228
leaf_weight=238 75 20 124 9.9999999999999982 80 87 122 24 23 53 95 463 172 256 43 64 27 316 91 10.000000000000002 12.999999999999998 37 257 105 83 89 125 23 24 286 12.999999999999998 233 13.999999999999998 114 10.999999999999998 142 54 117 65 74 373 132 247 21 189 17 526 103 241 206 24 10.999999999999998 10.999999999999998 104 24 28 259 42 10.999999999999998 28 49 35
leaf_count=238 75 20 124 10 80 87 122 24 23 53 95 463 172 256 43 64 27 316 91 10 13 37 257 105 83 89 125 23 24 286 13 233 14 114 11 142 54 117 65 74 373 132 247 21 189 17 526 103 241 206 24 11 11 104 24 28 259 42 11 28 49 35
internal_value=0 -0.0161479 0.0261886 0.0382139 -0.0278792 -0.00350414 -0.0339713 -0.000278597 -0.0288664 0.0166658 0.0307614 -0.020541 0.0207042 -0.0453289 0.00436695 -0.0222437 -0.0172186 0.0264977 0.00642638 0.00814766 0.00548408 -0.0156631 0.0187564 0.0441278 0.0074876 0.0560786 -0.00838491 -0.0224781 0.0153999 -0.0188517 -0.0176737 -0.0154438 -0.013067 -0.00480792 0.0244916 -0.0155171 0.00625475 0.0009981 0.0256447 -0.00486352 0.0143546 0.0521497 -0.0191994 -0.0184289 -0.00233892 -0.0269757 0.0033836 0.0129511 0.0135109 -0.0392674 -0.0501801 -0.0387007 -0.00712941 -0.00283704 -0.0166717 -0.0368516 0.032472 0.0432764 -0.00890801 -0.0349979 0.0379295 -0.0182402
internal_weight=0 4301 2652 1172 2231 2070 1219 1636 841 1480 827 1012 1004 378 1040 932 452 627 882 476 401 434 902 200 370 345 596 521 569 347 283 425 361 128 333 197 357 200 322 399 545 256 270 31 325 480 617 157 265 320 58 34 158 115 310 262 311 52 136 234 102 177
internal_count=6953 4301 2652 1172 2231 2070 1219 1636 841 1480 827 1012 1004 378 1040 932 452 627 882 476 401 434 902 200 370 345 596 521 569 347 283 425 361 128 333 197 357 200 322 399 545 256 270 31 325 480 617 157 265 320 58 34 158 115 310 262 311 52 136 234 102 177
is_linear=0
shrinkage=0.05


Tree=11
num_leaves=63
num_cat=0
split_feature=7 7 7 5 6 7 7 7 4 6 6 0 5 6 7 2 7 5 5 0 5 6 4 6 0 7 0 5 2 7 5 9 5 6 0 1 5 2 5 1 6 5 19 6 7 0 1 5 5 6 6 3 1 0 4 9 6 5 4 7 4 6
split_gain=1062.36 211.265 126.258 59.5855 32.7655 29.0714 25.6553 21.7052 21.1316 19.7199 15.5957 13.0747 12.6798 12.473 9.69729 9.59979 9.46346 9.17054 7.97715 7.79477 7.6827 6.80133 6.68289 6.44138 7.25491 6.02414 5.88494 5.47318 5.16655 4.79075 4.39168 4.37912 4.33401 4.29534 4.68278 4.28132 4.27684 4.27636 4.24477 4.20416 4.95076 4.09507 4.52373 3.84083 3.52245 3.50089 5.38601 6.19069 5.29323 3.43944 4.32889 3.43518 3.41493 3.21099 3.09175 3.00663 3.18894 3.00458 2.97585 2.87595 2.87227 2.84093
threshold=0.19458300093007561 -0.28858566171625405 0.72003588154761167 -1.0273677207634868 0.43606943047536956 -0.65493007911374879 -0.026346921046254919 0.4124709550338303 0.99885878345062362 0.11856101537229909 0.16982413946337696 1.0000000180025095e-35 -0.98864010936586666 0.43606943047536956 0.92942592740239982 0.68007789535000962 -1.0162991199300253 -1.5306647717915911 -1.0273677207634868 -1.0000000180025095e-35 -0.06793455618101947 -1.0619384452286789 1.1347304482223923 -1.0619384452286789 -1.0000000180025095e-35 0.96712914059027544 1.0000000180025095e-35 1.0869999922619804 -0.46136396666535268 0.96712914059027544 -0.40072562613812163 1.0000000180025095e-35 -2.5682760655556645 0.45019464834374928 1.0000000180025095e-35 0.39423393598380191 0.042654268380842443 0.32304712623032689 1.0869999922619804 -1.2636988209700328 0.83918325575368258 -1.4407918841533836 1.0000000180025095e-35 -0.026106135269878247 -0.89952640684440288 -1.0000000180025095e-35 0.21281448613512818 -0.33748023164564483 -1.5745233843305895 -0.075208819839080288 0.16601031791950155 1.0003190761769938 -1.0581897794921298 -1.0000000180025095e-35 1.1169051115846382 1.0000000180025095e-35 -0.75681482770694319 -1.8774169886170027 -0.47924627549248822 -0.090251632744107371 0.52902059590070494 -3.1805128858049394
decision_type=2 2 2 2 2 2 2 2 2 2 2 2 2 2 2 2 2 2 2 2 2 2 2 2 2 2 2 2 2 2 2 2 2 2 2 2 2 2 2 2 2 2 2 2 2 2 2 2 2 2 2 2 2 2 2 2 2 2 2 2 2 2
left_child=1 5 7 26 6 8 22 18 10 14 30 13 -9 15 55 28 -10 -8 -2 20 -20 -21 45 -19 31 -11 -4 53 -7 43 37 -25 -30 34 -14 41 -17 -1 -15 -23 -41 -26 -43 -28 -12 48 -47 -48 -3 -44 -51 -50 -34 -6 -36 -5 -57 -39 -35 -55 -22 -54
right_child=2 4 3 9 27 11 17 12 16 25 44 -13 33 38 -16 36 -18 23 19 21 60 39 -24 24 35 -27 29 -29 32 -31 -32 -33 52 58 54 -37 -38 57 -40 40 -42 42 49 -45 -46 46 47 -49 51 50 -52 -53 61 59 -56 56 -58 -59 -60 -61 -62 -63
leaf_value=-0.0023891737521626057 0.020847163737615509 0.011346529482952542 0.035897509946466184 0.019311727313324811 -0.029270436946788561 -0.027909750710045134 0.014598990784575924 0.035909734020009638 -0.056200670682939526 0.019271692139277267 -0.049943041402536137 0.021491757780313495 0.010691390845560186 -0.030923918799310925 0.048817960182204849 -0.024818803600279528 -0.037923667560964026 0.011516329178316449 -0.055035887360572813 0.026346519427039684 -0.016604752890998494 -0.0094053211350304394 -0.024591114316436073 -0.040172017924487595 0.010559806839695998 0.030560193149469839 0.056385922466599674 -0.051196775585412982 0.014031418255315379 0.06449272953996471 -0.027147453890944574 -0.0093692700406536461 -0.040502026104010075 0.01492385839282024 0.025644166134540198 0.0055781766185291903 -0.041504306365993428 -0.001095733407419175 -0.062659819017757065 0.0071114866425224469 -0.028508547749370339 -0.0023772982943083059 -0.0037931744732256781 0.042034269649254746 -0.035661891375535298 -0.014036478523650215 0.029746121043960256 -0.003124095426334959 -0.01650319696419723 -0.057497562095522863 -0.015027539526733261 0.01355163585394621 -0.030961985271424054 -0.020886265023816096 0.012325919569075968 0.04510448829775366 0.030555129368116874 -0.024370007713038763 0.0014163045334103317 -0.011358342433378873 0.017554571852087975 -0.013662602729251128
leaf_weight=40 89 21 43 40 46 83 156 100 114 373 60 17 92 250 130 210 187 131 9.9999999999999982 39 16.000000000000004 48 62 14.999999999999998 49 173 129 11.999999999999998 12.999999999999998 102 251 50 12.999999999999998 359 269 285 47 15.999999999999998 10.999999999999998 398 9.9999999999999982 238 19 73 154 119 14.999999999999998 318 193 10.000000000000002 14.999999999999998 9.9999999999999982 25 132 52 51 144 104 46 198 9.9999999999999982 468
leaf_count=40 89 21 43 40 46 83 156 100 114 373 60 17 92 250 130 210 187 131 10 39 16 48 62 15 49 173 129 12 13 102 251 50 13 359 269 285 47 16 11 398 10 238 19 73 154 119 15 318 193 10 15 10 25 132 52 51 144 104 46 198 10 468
internal_value=0 -0.0160287 0.023831 0.0355791 -0.00484065 -0.0273849 -0.00185791 0.0142216 -0.0339619 0.0288631 -0.0287202 -0.0220284 0.0191031 -0.022689 0.0378605 -0.0197805 -0.0448459 0.00349586 0.00699396 0.00467204 -0.0177914 0.00630575 -0.0088802 0.00136275 -0.000590439 0.0228485 0.0532108 -0.0179555 -0.0163269 0.0556597 -0.0230209 -0.0164776 -0.0144745 0.0170485 0.0206364 0.00108597 -0.0278702 -0.0165474 -0.0322614 0.00459173 0.00623845 -0.00278195 -0.0051002 0.0511994 -0.039666 -0.00743925 -0.00490622 -0.00164346 -0.0125506 -0.0198286 -0.0320155 -0.0150227 -0.0152069 -0.0168946 0.0234867 0.0317989 0.0343603 -0.0212668 0.0133897 -0.0151695 -0.00346655 -0.0145399
internal_weight=0 4157 2796 1258 2094 2063 1706 1538 926 911 625 1137 918 1120 365 859 301 968 620 531 36 495 738 812 681 546 347 388 602 304 411 65 519 818 413 616 257 160 261 456 408 331 282 202 214 676 452 333 224 44 25 203 506 376 321 235 195 120 405 330 26 493
internal_count=6953 4157 2796 1258 2094 2063 1706 1538 926 911 625 1137 918 1120 365 859 301 968 620 531 36 495 738 812 681 546 347 388 602 304 411 65 519 818 413 616 257 160 261 456 408 331 282 202 214 676 452 333 224 44 25 203 506 376 321 235 195 120 405 330 26 493
is_linear=0
shrinkage=0.05


Tree=12
num_leaves=63
num_cat=0
split_feature=7 7 7 5 7 4 6 6 7 7 6 5 15 6 7 0 4 6 4 7 5 0 7 0 6 5 0 5 5 1 6 1 0 1 1 9 5 4 6 0 6 0 1 1 3 4 16 6 6 0 7 19 4 1 8 0 6 7 6 7 0 19
split_gain=958.781 190.817 113.991 54.4554 35.6566 26.2187 23.6981 19.7725 19.2306 15.4813 15.0564 11.4349 11.247 10.7916 9.21463 8.81606 8.31311 7.2044 6.19872 5.94037 5.88042 6.11231 5.66812 5.49842 5.74956 5.44687 6.71667 6.92185 5.40404 4.97351 4.93064 4.82834 4.61599 7.35104 4.57277 4.41641 4.33207 4.29608 4.22745 4.01803 3.90087 4.12885 3.66291 3.59324 3.43433 3.44078 3.33945 3.33896 3.30164 3.11493 2.99151 2.95059 2.93993 2.93418 2.88582 5.18613 3.4626 2.89195 2.84725 2.82047 2.80351 2.79483
threshold=0.19458300093007561 -0.36943681332326889 0.69933554306849299 -0.84732774968556523 -0.090251632744107371 0.95040304671139897 0.18588966443027416 0.20893796902231643 0.4124709550338303 -1.0162991199300253 0.48630517057235606 -0.58904338776167198 1.0000000180025095e-35 0.38446134288474315 0.91626567165800843 -1.0000000180025095e-35 1.5101404016552624 0.20844448215949157 0.90615536146995623 -0.89952640684440288 -1.8774169886170027 -1.0000000180025095e-35 1.2511876535466919 0.5760015467225249 0.26324836610114244 -0.41792342449373243 -1.0000000180025095e-35 0.11065600665889457 -1.5121408954308808 -1.1149152231995276 0.93988899277429472 0.17916155578675697 -1.0000000180025095e-35 0.21281448613512818 -0.56586412071771675 1.0000000180025095e-35 -0.37331630168969782 0.43840054015470076 0.78982301809408673 -1.0000000180025095e-35 0.073462441664710124 1.0000000180025095e-35 1.2017894410881849 0.21281448613512818 0.49417011703176233 -0.25697285409824105 1.0000000180025095e-35 -3.1805128858049394 -1.1324231933593787 1.0000000180025095e-35 -0.54433467347667941 1.0000000180025095e-35 1.0184653024565662 -0.18020764487008464 1.0000000180025095e-35 -1.0000000180025095e-35 0.68379366196657121 -0.54433467347667941 -0.2755585994415381 -0.75108847134507106 0.5760015467225249 1.0000000180025095e-35
decision_type=2 2 2 2 2 2 2 2 2 2 2 2 2 2 2 2 2 2 2 2 2 2 2 2 2 2 2 2 2 2 2 2 2 2 2 2 2 2 2 2 2 2 2 2 2 2 2 2 2 2 2 2 2 2 2 2 2 2 2 2 2 2
left_child=1 5 8 23 13 6 20 12 17 -7 14 29 15 28 48 35 39 25 40 53 -1 47 60 24 37 58 27 -27 -3 -10 44 -13 -30 -34 -23 -6 -35 -4 -9 59 41 -17 -33 -37 -15 -46 -36 -22 -5 -28 -49 -42 -19 -8 55 56 -21 -56 -2 -11 -12 -51
right_child=2 4 3 10 7 9 19 38 11 16 22 31 -14 30 -16 18 -18 52 -20 54 21 34 -24 -25 -26 26 49 -29 32 -31 -32 42 33 36 46 43 -38 -39 -40 -41 51 -43 -44 -45 45 -47 -48 50 -50 61 -52 -53 -54 -55 57 -57 -58 -59 -60 -61 -62 -63
leaf_value=0.0020983247396846611 0.038138610101304954 0.0066595173627138141 0.050819677652584189 0.04073835108843115 -0.024241711484624985 -0.053207764479777091 -0.037448640359798446 -0.0092079103835843914 -0.0015620561824603515 -0.038938292762374177 0.016255264521353473 0.012387475551192149 0.014581679589507818 -0.028522613426942508 0.043138581194962639 0.004465306674390792 -0.077339675724506382 0.0011590182713718162 -0.0069396543908742782 -0.036319426292981453 -0.0436284636030905 0.022777486220002176 0.046950287803223259 0.062896431773327863 0.011403014104474675 -0.049728266447782499 0.0027358522429851069 0.006596831139177084 -0.016507100950768423 0.033382193880142089 -0.056841794848442075 0.021598721072986361 -0.016689063928609978 0.028894023671746257 -0.015375981521665132 0.023557548001408579 -0.0045895778468906757 0.034498718318839869 -0.029807791520013577 -0.023249592770517399 0.0024214430372618764 0.015774086835460926 -0.0091849662922322741 -0.0092212611161099339 -0.006561307877040747 -0.022906158672570176 0.014176198907873847 -0.022259328411381389 0.026081987345253008 0.016722238588191052 -0.01425344089135288 -0.012591622739823328 -0.026515212962403896 -0.060062043311504221 -0.029744521844780672 -0.024241311825130896 -0.058485064171254632 -0.015055938144879683 0.016906223950597148 -0.028574863668510937 0.025192049418495396 -0.0028664831249486833
leaf_weight=33 20 45 252 45 47 115 32 321 10.999999999999998 153 284 461 174 89 156 311 9.9999999999999982 238 138 148 15.999999999999998 10.999999999999998 19 65 10.999999999999998 10.000000000000002 97 11.999999999999998 261 137 9.9999999999999982 287 163 9.9999999999999982 73 9.9999999999999982 284 48 27 113 120 109 9.9999999999999982 51 57 74 10.999999999999998 538 263 137 149 45 9.9999999999999982 26 106 93 20 49 75 115 127 21
leaf_count=33 20 45 252 45 47 115 32 321 11 153 284 461 174 89 156 311 10 238 138 148 16 11 19 65 11 10 97 12 261 137 10 287 163 10 73 10 284 48 27 113 120 109 10 51 57 74 11 538 263 137 149 45 10 26 106 93 20 49 75 115 127 21
internal_value=0 -0.0152273 0.0226394 0.0337059 -0.00581522 -0.0274198 -0.0236736 -0.0005344 0.0134294 -0.0370813 0.0269914 0.0180726 0.00302239 -0.0130105 0.0332379 0.000602039 -0.0323383 0.00664426 0.00259248 -0.032595 -0.0185849 -0.0194402 0.020251 0.0496707 0.0469065 0.011045 0.00750183 -0.0190055 -0.0101487 0.030785 -0.0225043 0.0155905 -0.0112022 -0.00817247 -0.00753638 -0.0127229 -0.00345068 0.0482083 -0.0108062 -0.0311571 0.00484109 0.0074002 0.0205622 -0.00384769 -0.0209435 -0.0157943 -0.0115061 -0.0210488 0.0282233 0.00978874 -0.020523 -0.00167303 4.31219e-05 -0.0475857 -0.030505 -0.0337142 -0.0389582 -0.025101 0.0213762 -0.0344913 0.0190168 0.0141187
internal_weight=0 4157 2796 1270 2346 1811 1305 1353 1526 506 894 906 1005 993 464 831 391 620 723 474 831 798 430 376 311 372 277 22 763 148 230 758 718 457 95 108 294 300 348 381 585 420 297 61 220 131 84 703 308 255 687 165 248 58 416 261 168 155 95 268 411 158
internal_count=6953 4157 2796 1270 2346 1811 1305 1353 1526 506 894 906 1005 993 464 831 391 620 723 474 831 798 430 376 311 372 277 22 763 148 230 758 718 457 95 108 294 300 348 381 585 420 297 61 220 131 84 703 308 255 687 165 248 58 416 261 168 155 95 268 411 158
is_linear=0
shrinkage=0.05


Tree=13
num_leaves=63
num_cat=0
split_feature=7 7 7 5 7 6 4 7 6 7 7 5 5 6 7 6 5 5 0 5 6 6 0 6 0 6 7 4 5 5 5 5 3 2 3 5 7 7 4 6 2 17 2 2 5 7 3 5 5 4 4 16 19 5 4 2 3 2 4 4 4 19
split_gain=865.3 172.338 102.877 49.146 29.6425 24.8445 20.1542 17.3556 17.2852 16.2444 13.7593 10.6421 10.32 10.1162 9.43211 7.89707 7.56187 6.61377 6.55063 6.34311 5.77356 5.41076 6.26845 5.32387 5.15649 4.63326 4.63295 4.58785 4.34687 4.44147 4.32053 4.3112 4.10378 4.03621 4.02408 3.9858 3.96336 3.88231 3.87017 3.70626 3.99482 3.35859 3.49352 3.3398 3.20738 3.05464 3.0425 2.93614 2.8926 3.62214 2.82469 2.78363 2.7131 2.68457 2.60901 2.55437 2.61823 2.49142 2.73848 2.44464 2.41152 2.7307
threshold=0.19458300093007561 -0.26985505726053788 0.69933554306849299 -0.84732774968556523 -0.54433467347667941 0.43606943047536956 0.83969155807608375 0.4124709550338303 0.16982413946337696 -0.026346921046254919 1.1940720653011043 -1.0273677207634868 -0.58904338776167198 0.080021686535606984 -1.0301555466403574 -1.0429919831211489 -1.5306647717915911 -1.0273677207634868 -1.0000000180025095e-35 -0.06793455618101947 -1.0619384452286789 -1.0619384452286789 -1.0000000180025095e-35 0.87934554257885045 1.0000000180025095e-35 0.26324836610114244 0.80275044305073029 1.2218341536761967 -0.50773018742064047 -0.39679630209784772 -0.40072562613812163 1.0869999922619804 1.4482761213570121 0.32304712623032689 0.35007264079748912 0.57581623487459788 -0.89952640684440288 0.48436488920577964 1.3446550695038411 -0.026106135269878247 0.83155157348431408 1.0000000180025095e-35 0.76395206869994847 0.30354552798037077 -1.5121408954308808 -0.89952640684440288 2.2323555091405098 -0.32786347185477488 -0.31449196478182367 -0.28559102062144165 1.2630630485062129 1.0000000180025095e-35 1.0000000180025095e-35 -0.84732774968556523 0.52902059590070494 0.24655654605495972 1.0000000180025095e-35 0.46391206476676111 -0.18820806084509265 1.2410012101094787 0.54452362179585323 1.0000000180025095e-35
decision_type=2 2 2 2 2 2 2 2 2 2 2 2 2 2 2 2 2 2 2 2 2 2 2 2 2 2 2 2 2 2 2 2 2 2 2 2 2 2 2 2 2 2 2 2 2 2 2 2 2 2 2 2 2 2 2 2 2 2 2 2 2 2
left_child=1 4 7 24 6 9 8 17 30 27 13 -6 37 43 -8 28 -11 -2 19 -19 -20 -18 -23 46 -4 26 -26 35 -13 -30 33 55 34 -1 -16 44 52 -9 48 40 -14 42 60 47 -3 -32 -17 -5 49 -22 -41 -46 -10 -35 -21 56 -7 58 -38 -34 61 -24
right_child=2 5 3 10 11 31 14 12 36 16 -12 15 39 -15 32 23 21 18 20 54 38 22 41 -25 25 -27 -28 -29 29 -31 45 -33 59 53 -36 -37 57 -39 -40 50 -42 -43 -44 -45 51 -47 -48 -49 -50 -51 -52 -53 -54 -55 -56 -57 -58 -59 -60 -61 -62 -63
leaf_value=-0.00061263052824263775 0.018925995046398445 0.0070601935061858972 0.031103129799223764 0.057143911031576303 0.0016623744191798632 -0.020221928680136142 -0.051517839638554323 0.015939162840368226 -0.054135879677616884 0.01326210348843 0.043022895169140096 -0.028435352879265949 0.024202694624528558 0.019290462201244613 -0.034374851839174138 -0.020952719243141245 0.010548640806796669 -0.050237013250589373 0.024160074251584521 -0.015900439058896151 0.020277485934396586 -0.015315006233823415 0.0026496823364999568 -0.057155436277389532 0.043740985331171794 0.020059249979945331 0.055874166641844795 -0.024543991985006466 0.025087866119363089 -0.0079906246239205697 -0.029223420943373875 -0.046444570205428387 -0.036210994422435749 -0.014862264994829006 -0.016679442753209858 0.0022278090446585948 -0.032495276341572975 0.034174097287554848 -0.025181577231904326 0.012987407657554765 0.010044114965237154 -0.024133739047325575 -0.006203583498688367 0.02101712828383796 -0.011634467080931736 -0.019674354585161966 0.00048058782430256114 0.032625322434958533 0.0065525686106488942 -0.0099932077124581815 -0.012622145766561683 -0.0022702051617116445 -0.030782136242640645 -0.032576791841536765 0.016655816696584225 -0.029684318960286105 -0.010276394115625379 -0.048358542397618297 -0.019131955670866563 -0.069684283714741474 0.0080946286275072714 -0.01092713712173146
leaf_weight=45 89 32 44 12.999999999999998 71 96 98 40 36 156 101 24 167 516 244 636 131 9.9999999999999982 39 16.000000000000004 11.999999999999998 65 267 9.9999999999999982 141 12.999999999999998 178 36 10.999999999999998 131 124 10.999999999999998 10.000000000000002 148 37 114 208 108 10.999999999999998 509 71 12.999999999999998 117 63 325 258 17 201 377 56 10.999999999999998 105 19 25 9.9999999999999982 26 213 20 47 11.999999999999998 176 43
leaf_count=45 89 32 44 13 71 96 98 40 36 156 101 24 167 516 244 636 131 10 39 16 12 65 267 10 141 13 178 36 11 131 124 11 10 148 37 114 208 108 11 509 71 13 117 63 325 258 17 201 377 56 11 105 19 25 10 26 213 20 47 12 176 43
internal_value=0 -0.0144659 0.0215074 0.0320206 -0.023925 -0.0035089 -0.0286642 0.0127579 -0.0246241 -0.000851444 0.0256419 -0.0169162 0.017169 0.0234281 -0.0380341 -0.0185073 0.00317973 0.00631205 0.00419784 -0.016395 0.0056955 0.00124272 -0.000547401 -0.0209492 0.0471872 0.0493188 0.0505112 -0.00722755 -0.00875454 -0.00542821 -0.0195688 -0.0156441 -0.033673 -0.0139523 -0.0320449 -0.00614527 -0.0338156 0.0292457 0.0041163 0.014811 0.0199789 0.00101087 0.00155296 0.0311359 -0.00821136 -0.0227741 -0.0203947 0.0341148 0.00484051 -0.00465132 0.0124457 -0.00934784 -0.0460682 -0.0174222 -0.0033788 -0.0146327 -0.0133663 -0.0313651 -0.0300322 -0.0544692 0.00342027 0.000766446
internal_weight=0 4157 2796 1270 2231 1926 1331 1526 930 1580 894 900 906 793 401 829 968 620 531 36 495 812 681 663 376 332 319 612 166 142 600 346 303 218 281 576 330 148 456 758 238 616 603 277 462 382 653 214 445 68 520 430 55 173 26 335 309 275 255 22 486 310
internal_count=6953 4157 2796 1270 2231 1926 1331 1526 930 1580 894 900 906 793 401 829 968 620 531 36 495 812 681 663 376 332 319 612 166 142 600 346 303 218 281 576 330 148 456 758 238 616 603 277 462 382 653 214 445 68 520 430 55 173 26 335 309 275 255 22 486 310
is_linear=0
shrinkage=0.05


Tree=14
num_leaves=63
num_cat=0
split_feature=7 7 5 7 7 6 7 6 0 2 6 0 5 5 7 1 2 5 1 5 5 2 2 8 0 7 0 7 1 6 2 6 7 1 6 7 5 5 0 7 7 5 1 6 7 2 6 3 5 1 2 19 0 6 6 3 1 6 6 3 7 1
split_gain=781.404 169.7 80.3839 38.8369 26.787 21.9805 21.2444 18.8795 16.5774 14.5745 16.8753 11.3636 9.7944 8.9993 8.90306 7.93339 6.618 6.22381 7.321 5.94869 5.89664 5.84412 5.77399 5.39575 5.35281 5.33863 5.17894 5.07218 4.93155 4.7289 4.4389 4.34358 4.31782 4.78051 4.1852 4.15218 4.10759 4.09495 4.0614 4.02737 3.99195 4.39477 4.49792 3.9651 3.91771 3.84786 3.62903 3.61682 3.54625 3.53168 3.24278 3.10344 3.09241 3.08535 3.05487 2.98516 3.05272 2.92561 2.85225 2.84679 2.82857 2.82305
threshold=0.22170759012249208 -0.26985505726053788 -1.0273677207634868 0.65937707858467165 -0.63757762310625421 0.39835459828406955 0.59726357084770287 0.48630517057235606 -1.0000000180025095e-35 0.70613674547566341 0.18241799054935715 1.0000000180025095e-35 -0.96542257325955338 -1.4649737009040285 0.91626567165800843 0.15430800854490381 -0.46608236624613647 -0.41109257869957277 -0.58748630535743329 -0.20299170294727542 0.80125590050837403 0.19591944055488197 0.33210011487932806 1.0000000180025095e-35 -1.0000000180025095e-35 -1.2343560522807748 0.5760015467225249 1.1940720653011043 -0.9228517048099405 -0.12768794826668864 0.28174889718005042 -0.026106135269878247 -1.4023255887779735 0.62618914505990964 -0.67330877106476505 -1.0301555466403574 -0.19003714061505741 -0.23868052655922375 1.0000000180025095e-35 1.0000000180025095e-35 0.31487239247288518 -0.06793455618101947 -0.1297617771462963 -1.8771971179857245 0.3876110244827547 -1.0756391296035579 -1.1893587687027545 1.1657402427435197 -0.37331630168969782 0.32866472133420022 0.31445902627010064 1.0000000180025095e-35 -1.0000000180025095e-35 0.25613315259348246 0.090045491730500249 1.3821666960917913 1.0326098482336776 -0.12768794826668864 -0.50451851137031178 1.8476112633732431 0.1095346755611321 -1.3175120406085197
decision_type=2 2 2 2 2 2 2 2 2 2 2 2 2 2 2 2 2 2 2 2 2 2 2 2 2 2 2 2 2 2 2 2 2 2 2 2 2 2 2 2 2 2 2 2 2 2 2 2 2 2 2 2 2 2 2 2 2 2 2 2 2 2
left_child=1 4 6 11 9 8 28 14 17 10 19 20 -6 -10 38 23 -14 18 -3 43 40 24 29 44 61 -11 -9 31 54 48 45 -8 33 -21 -24 47 49 -17 -5 58 41 42 -4 -1 -13 -7 -26 51 -15 -34 -19 -12 -27 -46 -2 56 -31 -38 -36 -25 -47 -18
right_child=2 5 3 7 12 30 27 26 13 25 35 15 16 22 -16 37 21 50 -20 32 -22 -23 34 59 46 52 -28 -29 -30 55 -32 -33 36 -35 39 -37 57 -39 -40 -41 -42 -43 -44 -45 53 60 -48 -49 -50 -51 -52 -53 -54 -55 -56 -57 -58 -59 -60 -61 -62 -63
leaf_value=-0.034740813311544209 -0.01293251625262201 -0.0084469404583532286 -0.0054805299732834092 0.0081298682761068147 -0.00015025123508033775 -0.027191802869950023 0.046742671401424206 0.014624161900801146 0.011959158865018254 -0.050191096499048432 -0.049728387659010685 -0.018608944076113406 -0.025938534545291062 0.023095237995897022 0.039599994482910815 0.042925424720434584 -0.027910003150325449 -0.012049726541902471 0.028037188965827228 -0.021186977895823387 -0.03577684291638434 -0.021348700051506363 -0.01670964430360233 0.011040793838219543 0.017771153836784997 -0.03525897208671791 0.025331486767157914 0.056148264538726692 0.031430342566536769 -0.0031570802734161075 -0.029927971873964582 0.034360301144943949 -0.026943652899492354 -0.066820491307104629 0.0083532870582797951 -0.030985290382761307 -0.016626880704540253 0.017723920080178923 0.027328286761209339 0.0042907600458008503 0.0077318521465426062 0.0015075773994451286 -0.046063377166336239 -0.012160493463290258 0.022291377885267138 -0.012622154903723502 -0.0069790587756964999 -0.072265609082850554 0.0047437171564194032 -0.061916416070678021 -0.028009142187473021 -0.017438164759765975 -0.017783501398350512 -0.0012664244059839699 0.016990601484952818 -0.022699807886965573 0.0071856660202413089 -0.031297994716915974 -0.01438716681999448 0.036037882665793101 -0.0028655046156088179 -0.013912344066492419
leaf_weight=21 9.9999999999999982 44 18.000000000000004 30 82 35 187 457 200 58 23 25 212 28 170 17 42 196 20 11.000000000000002 9.9999999999999982 291 68 224 17 264 150 81 71 296 35 114 21 11.999999999999998 17 281 162 311 337 106 190 90 10.999999999999998 262 18 260 115 10.999999999999998 440 10.999999999999998 38 10.999999999999998 28 61 58 15.999999999999998 94 43 73 11.999999999999998 104 253
leaf_count=21 10 44 18 30 82 35 187 457 200 58 23 25 212 28 170 17 42 196 20 11 10 291 68 224 17 264 150 81 71 296 35 114 21 12 17 281 162 311 337 106 190 90 11 262 18 260 115 11 440 11 38 11 28 61 58 16 94 43 73 12 104 253
internal_value=0 -0.0131621 0.0213462 0.0170419 -0.0227287 -0.00285129 0.0389513 0.0233116 -0.000197564 -0.0277207 -0.024251 0.00977493 -0.0167157 0.00217773 0.0301406 0.0134824 -0.0181763 -0.0108625 0.00295435 -0.0188523 0.00201134 -0.0158844 0.000458673 0.00813048 -0.0121605 -0.0363354 0.0172701 0.0450418 0.0222136 0.00241609 -0.0128548 0.042053 -0.0243122 -0.0449958 -0.00602156 -0.0332434 -0.0223049 0.0190301 0.0257589 -0.00231345 0.00323426 -0.00394676 -0.020874 -0.0138361 -0.00135799 -0.0113571 -0.00379153 -0.0473443 0.00584167 -0.0389655 -0.0146414 -0.0392816 -0.0335832 0.00410118 0.0125901 -0.00153261 -0.000664213 -0.0197042 -0.0100917 0.0123118 -0.00983454 -0.0159052
internal_weight=0 4301 2652 2131 2231 2070 521 1144 1636 1219 869 987 1012 1338 537 668 930 298 64 543 319 718 1138 340 427 350 607 382 139 874 434 301 260 23 264 326 237 328 367 196 309 119 29 283 104 399 132 45 468 32 234 34 292 79 68 406 390 205 90 236 364 295
internal_count=6953 4301 2652 2131 2231 2070 521 1144 1636 1219 869 987 1012 1338 537 668 930 298 64 543 319 718 1138 340 427 350 607 382 139 874 434 301 260 23 264 326 237 328 367 196 309 119 29 283 104 399 132 45 468 32 234 34 292 79 68 406 390 205 90 236 364 295
is_linear=0
shrinkage=0.05


Tree=15
num_leaves=63
num_cat=0
split_feature=7 7 7 5 7 4 6 6 7 7 6 7 2 6 5 2 4 6 15 5 3 2 3 7 6 6 3 2 3 6 7 4 5 4 2 5 2 8 8 6 19 6 6 6 6 4 4 3 5 2 3 3 4 4 2 5 1 2 8 7 6 7
split_gain=705.411 141.429 83.6327 40.3042 35.2098 16.7304 15.1571 14.5637 14.2378 13.3285 10.1347 10.0024 9.53201 8.69159 8.55628 7.89529 6.80797 5.66797 5.6225 4.77744 4.56735 4.48738 4.32833 4.13176 3.92478 3.65283 3.61171 3.78401 3.56908 3.38838 3.35458 3.21877 3.19903 3.37617 3.16731 4.69654 3.11764 3.10279 3.07574 3.05123 3.27836 3.01092 3.03456 2.95965 3.68411 2.9319 3.45899 3.59675 2.84579 2.77156 2.73496 2.67421 3.88377 2.67015 2.80773 2.58242 2.53282 2.4597 2.86524 2.40682 2.51208 2.35314
threshold=0.19458300093007561 -0.45756701530840244 0.69933554306849299 -1.1062330145899639 -0.090251632744107371 0.95040304671139897 0.18588966443027416 0.20893796902231643 0.4124709550338303 1.1940720653011043 0.35624227303927652 -1.0162991199300253 0.76395206869994847 0.11856101537229909 -1.4649737009040285 0.74557943161316909 1.5101404016552624 0.20844448215949157 1.0000000180025095e-35 -1.8774169886170027 1.0793225442066079 0.76395206869994847 1.0003190761769938 1.1940720653011043 0.93988899277429472 0.45019464834374928 1.0000000180025095e-35 0.31445902627010064 2.2323555091405098 0.78982301809408673 -0.89952640684440288 1.0762339370799348 -1.5121408954308808 0.65308594244941343 0.16385442100241079 -0.37331630168969782 -0.30325600246698986 1.0000000180025095e-35 1.0000000180025095e-35 0.066520798872795897 1.0000000180025095e-35 -1.8771971179857245 -1.1893587687027545 -0.075208819839080288 -0.57848147508665038 0.90615536146995623 0.38555438877555703 1.1856183634339785 -0.15887115035063351 0.27095887219336401 -0.31878998131488073 -0.42567174984244432 1.0654456449661389 -1.3740286465777769 -0.90240557302253988 -1.6907723121240468 -0.18020764487008464 0.46391206476676111 1.0000000180025095e-35 0.95650605790247567 -1.1324231933593787 -0.85915756844828417
decision_type=2 2 2 2 2 2 2 2 2 2 2 2 2 2 2 2 2 2 2 2 2 2 2 2 2 2 2 2 2 2 2 2 2 2 2 2 2 2 2 2 2 2 2 2 2 2 2 2 2 2 2 2 2 2 2 2 2 2 2 2 2 2
left_child=1 5 8 23 10 6 19 12 17 13 15 51 18 38 -10 20 61 21 37 -1 22 48 32 55 26 45 -12 28 -28 -9 56 -23 -3 34 35 -34 -21 39 59 -6 -41 -38 -43 44 -14 46 47 49 -2 -16 -39 52 -7 -19 -55 -4 -8 58 -32 60 -5 -13
right_child=2 4 3 9 7 11 30 29 14 -11 24 16 43 -15 25 -17 -18 53 -20 36 -22 31 -24 -25 -26 -27 27 -29 -30 -31 57 -33 33 -35 -36 -37 41 50 -40 40 -42 42 -44 -45 -46 -47 -48 -49 -50 -51 -52 -53 -54 54 -56 -57 -58 -59 -60 -61 -62 -63
leaf_value=0.0021359792227546373 0.018835156371562994 0.0053814862925067267 0.045755945099517706 0.038495605475291975 0.0064894990905262255 -0.080638960500558229 -0.031346472486620772 -0.0077555690106395972 0.034455974007557545 0.039315122872208938 -0.025578169300595029 -0.034736824328345912 -0.016538798595658072 0.017264922805739321 0.013489346029902144 -0.017650331958031205 -0.06943895220756531 0.0057924486206578987 0.012780517597503753 -0.028578375287664434 -0.024969195523634413 -0.020152681008638706 0.026729570706374946 0.053866683807852977 -0.050430669784545905 0.010793408870441433 -0.014308578677146751 -0.037810279894620186 0.013905702903866769 -0.0261981374549645 -0.030651148668583979 0.0043234814373136034 0.01773815763493379 0.0015368771675922392 -0.017971879877604364 -0.0083310361666507418 -0.031832104763298327 -0.011994534129709272 0.014615413974235325 0.0015551069799553733 -0.022375451801589841 -0.0083817840855335817 -0.017956183586575209 -0.030949798173138074 0.00031597085061631252 0.0092872057893934358 0.024043115217512151 0.03177635365724564 0.0086379247910512904 -0.0098991003103687299 0.0010930965603463245 -0.041091773029780246 -0.044981271347829276 -0.025933607537964629 -0.0023401451484102199 0.035807104379330816 -0.052356416216263406 -0.046853561140596869 -0.020917185304671647 0.039034815046138004 0.0247151128620955 -0.024997422700739989
leaf_weight=30 110 53 128 41 414 11.999999999999998 32 321 56 117 117 84 56 509 133 219 9.9999999999999982 107 172 66 33 17 9.9999999999999982 77 9.9999999999999982 399 170 15.999999999999998 11.999999999999998 27 189 64 18 90 82 430 33 56 38 58 19 100 480 13.999999999999998 77 90 189 25 181 13.999999999999998 139 82 21 13.999999999999998 127 133 26 15.999999999999998 126 56 171 237
leaf_count=30 110 53 128 41 414 12 32 321 56 117 117 84 56 509 133 219 10 107 172 66 33 17 10 77 10 399 170 16 12 27 189 64 18 90 82 430 33 56 38 58 19 100 480 14 77 90 189 25 181 14 139 82 21 14 127 133 26 16 126 56 171 237
internal_value=0 -0.0130612 0.019419 0.028898 -0.00597193 -0.0250588 -0.0217417 -0.000370892 0.0115301 0.023534 -0.0119864 -0.0332253 0.00268166 0.0212684 0.0155254 -0.00934259 -0.0288117 0.00569187 0.00469722 -0.0173903 -0.00680154 0.00959527 -0.00592375 0.0436889 -0.0195923 0.0142782 -0.0186133 -0.0144977 -0.0124483 -0.00918646 -0.0296726 -0.000813491 -0.00640894 -0.00741683 -0.00893727 -0.00728361 -0.018253 0.0026705 0.0279279 0.00478964 -0.00434984 -0.0171413 -0.0163054 -0.00908259 -0.00678077 0.0173612 0.0193741 0.0142436 0.0124925 0.0112619 -0.0026654 -0.0459287 -0.0579477 -0.000163213 -0.00468276 0.0406862 -0.0407647 -0.027729 -0.0267576 0.0298155 0.0273802 -0.0275461
internal_weight=0 4157 2796 1270 2613 1544 1098 1353 1526 932 1260 446 1005 815 906 935 331 620 858 709 716 372 683 338 325 850 315 198 182 348 389 81 673 620 530 448 679 686 306 491 77 613 580 147 133 451 361 172 291 147 195 115 33 248 141 261 58 331 315 268 212 321
internal_count=6953 4157 2796 1270 2613 1544 1098 1353 1526 932 1260 446 1005 815 906 935 331 620 858 709 716 372 683 338 325 850 315 198 182 348 389 81 673 620 530 448 679 686 306 491 77 613 580 147 133 451 361 172 291 147 195 115 33 248 141 261 58 331 315 268 212 321
is_linear=0
shrinkage=0.05


Tree=16
num_leaves=63
num_cat=0
split_feature=7 7 5 7 7 6 7 6 4 0 6 0 5 5 7 7 1 6 1 5 1 5 4 8 0 0 0 6 19 0 4 7 1 1 0 0 3 5 7 3 5 7 5 4 7 4 3 6 7 6 4 4 6 4 6 7 1 3 7 3 3 1
split_gain=636.786 138.861 65.673 32.0394 22.0359 18.0161 17.3852 15.5634 14.7786 14.5275 12.6617 9.99775 8.29225 7.43734 7.31078 7.10816 6.78116 6.30231 5.37471 5.23506 6.52276 5.21948 4.94743 4.76511 4.56568 4.40879 4.38676 4.30919 4.26076 4.24697 5.64674 4.92963 4.16701 4.02537 4.21116 3.62018 3.60366 3.59574 3.58821 3.55205 3.54596 3.34447 3.88702 6.05285 3.31578 3.25838 6.02657 3.24661 3.02379 2.96504 2.85564 2.78921 2.7823 2.72845 2.72678 2.62137 2.61061 2.48973 2.41419 2.40721 2.40592 2.40061
threshold=0.22170759012249208 -0.26985505726053788 -1.0273677207634868 0.65937707858467165 -0.54433467347667941 0.39835459828406955 0.59726357084770287 0.48630517057235606 0.83969155807608375 -1.0000000180025095e-35 0.16982413946337696 1.0000000180025095e-35 -0.96542257325955338 -1.4407918841533836 0.9021821613237172 -1.0301555466403574 0.15430800854490381 -1.0429919831211489 0.23624009267732454 -0.41109257869957277 -0.58748630535743329 0.80125590050837403 -1.3556541541878693 1.0000000180025095e-35 1.0000000180025095e-35 0.5760015467225249 -1.0000000180025095e-35 0.87934554257885045 1.0000000180025095e-35 1.0000000180025095e-35 1.0654456449661389 -0.13528130431204144 -0.9228517048099405 0.22109779859210418 -1.0000000180025095e-35 1.0000000180025095e-35 1.4482761213570121 -0.23868052655922375 0.82107577394570019 0.35007264079748912 -0.40072562613812163 0.31487239247288518 -0.06793455618101947 -0.021770033448486253 0.35338817491582442 0.42071857850816663 -0.074203034163206602 -1.2188559026202774 -0.89952640684440288 0.25613315259348246 0.011095592550692051 -1.2947899208117544 0.090045491730500249 0.99885878345062362 -0.026106135269878247 -0.92728238192385237 -0.18020764487008464 2.2323555091405098 0.12585879549263559 -0.5451634744419096 1.8476112633732431 0.28719489753574906
decision_type=2 2 2 2 2 2 2 2 2 2 2 2 2 2 2 2 2 2 2 2 2 2 2 2 2 2 2 2 2 2 2 2 2 2 2 2 2 2 2 2 2 2 2 2 2 2 2 2 2 2 2 2 2 2 2 2 2 2 2 2 2 2
left_child=1 4 6 11 8 9 32 14 10 19 40 21 -6 -11 35 -10 23 33 28 20 -3 41 -7 44 -8 51 -24 57 58 30 50 -31 52 -14 -35 -5 39 -18 54 -17 45 42 43 -4 -13 46 -1 -36 56 53 -20 -9 -2 -21 -26 -42 -12 61 -15 -55 -25 -19
right_child=2 5 3 7 12 22 24 25 15 13 48 16 17 18 -16 36 37 27 29 49 -22 -23 26 60 38 -27 -28 -29 -30 31 -32 -33 -34 34 47 -37 -38 -39 -40 -41 55 -43 -44 -45 -46 -47 -48 -49 -50 -51 -52 -53 -54 59 -56 -57 -58 -59 -60 -61 -62 -63
leaf_value=0.0056632811914790766 -0.013162081418558956 -0.0082259956210195516 0.0022233894956298168 0.0066296590305864808 0.0016611767601068706 -0.00094984066083856017 0.027073134061933124 0.014145310869763903 -0.044350801788422531 0.010544004876417117 -0.030836844108434337 -0.019904948137700558 -0.024131790111804829 -0.0039118650938422053 0.035772956675730737 -0.029522898772323017 0.039776936167960658 -0.020393944876783695 -0.0020743250845380147 -0.012431498129486941 0.026211730074137452 -0.034055450949817899 -0.03055705702989488 0.010069336097087347 0.042857854327656958 0.023026543413599332 -0.012342241658165398 -0.050678943097591404 -0.014983914908378122 -0.020958691950027759 -0.018715734244324267 0.01086158236209547 0.028513700869196742 -0.010167773993188432 0.028470965581280844 0.024759693333406503 -0.048347320306030193 0.016161491165844984 0.048385140529045689 -0.012897705186057734 -0.025822462489797682 0.0067640991706560422 0.0012040598773294026 -0.043489572192941396 0.0027479953519927917 -0.020188069949741476 -0.015435171114619485 -1.8558718397149017e-05 -0.026888528462753376 0.010606362693943085 0.0050486606010672411 -0.0021424455468409829 0.015394921062096698 -0.01269429229432717 0.029935133981229173 -0.016919122384174218 -0.053072702105749742 0.0012776100679355511 0.0098527584437090952 -0.038437223860195713 0.033049461773286264 -0.013963768256569489
leaf_weight=55 9.9999999999999982 44 15.000000000000002 30 73 87 53 429 98 217 33 20 29 197 172 244 17 409 265 185 20 9.9999999999999982 37 224 107 150 310 9.9999999999999982 81 12.999999999999998 36 191 71 88 13.999999999999998 335 22 311 156 37 121 190 90 13.999999999999998 84 75 88 35 275 11.999999999999998 300 28 58 15.999999999999998 66 261 22 17 38 21 11.999999999999998 225
leaf_count=55 10 44 15 30 73 87 53 429 98 217 33 20 29 197 172 244 17 409 265 185 20 10 37 224 107 150 310 10 81 13 36 191 71 88 14 335 22 311 156 37 121 190 90 14 84 75 88 35 275 12 300 28 58 16 66 261 22 17 38 21 12 225
internal_value=0 -0.0118818 0.0192699 0.0153794 -0.0205357 -0.00255485 0.0351828 0.021074 -0.0246219 -0.00015232 -0.0211622 0.0087789 -0.0144927 0.00207127 0.0272744 -0.0326454 0.0122564 -0.0159186 0.000431137 -0.0101361 0.00253579 0.00149682 -0.0116114 0.0073084 0.0406923 0.0155887 -0.0142845 -0.018106 -0.00509471 0.00260029 0.000484419 0.00883382 0.0200414 -0.00720869 -0.00362642 0.0232696 -0.0288595 0.0173855 0.0428863 -0.0273338 -0.0168355 0.00264738 -0.00392553 -0.0198449 -0.00160834 -0.0117473 -0.00732038 0.00812131 -0.029029 -0.0136019 0.00170779 0.0131474 0.0111954 -0.0149104 0.0379278 -0.0197393 -0.0397312 -0.0176056 -0.0016861 -0.0273051 0.0112378 -0.0181119
